{
    "idx": 704278,
    "fights": [
        {
            "enemy": 5,
            "fitness": 90.56772932632856,
            "player_life": 60.40000000000033,
            "enemy_life": 0,
            "time": 238
        },
        {
            "enemy": 6,
            "fitness": 85.30254710353532,
            "player_life": 8.200000000000232,
            "enemy_life": 0,
            "time": 249
        },
        {
            "enemy": 7,
            "fitness": 66.63870783429057,
            "player_life": 0,
            "enemy_life": 20.0,
            "time": 213
        },
        {
            "enemy": 8,
            "fitness": 88.81968822339262,
            "player_life": 45.4000000000003,
            "enemy_life": 0,
            "time": 305
        }
    ],
    "weights": [
        0.4865111062261471,
        0.8080479538378592,
        1.2078131424274416,
        -1.017343421342202,
        -1.358304200419912,
        -0.07246619388083327,
        -1.3969720793913778,
        1.340478110973383,
        -0.4952190167928486,
        1.114119062744726,
        -0.3010106584696613,
        -0.4977965887657993,
        -1.4182649207032658,
        -0.9028294083780755,
        -0.797569849228596,
        1.8751798994929256,
        2.3443007596044922,
        0.5824136173254378,
        0.9456797539207613,
        2.33754230590141,
        -1.8671609401272817,
        0.005386270048004668,
        1.5069327980429905,
        1.3280825932039304,
        0.7221504541453493,
        1.798907202449488,
        -1.6626237143469156,
        -0.003464149293909327,
        1.1593014950343035,
        0.6280016990668671,
        -0.10021657832484238,
        -0.6735003834295499,
        -0.5196143673269954,
        -1.2704279449958054,
        0.8254389403620617,
        0.184343835825039,
        0.23619661437101253,
        -1.0716104666906012,
        -0.24866028607243895,
        0.2586147342605145,
        -0.35519226083699684,
        -0.7474290813835285,
        0.38312022922137545,
        1.2400450065314934,
        0.24051954584961022,
        -0.44208499817614244,
        1.6846698064895702,
        -0.5242867208328886,
        0.49030944510126456,
        1.0418681435015844,
        -1.0740414320198228,
        1.5465213779186748,
        -1.1295097221036985,
        -1.3149211656032846,
        -0.6192553525379402,
        2.14445045370426,
        0.6787943720619367,
        -0.22537277359912314,
        -1.9773427147154965,
        0.1746663647677989,
        1.248198603292813,
        -1.097464048210787,
        -0.5636240354475287,
        0.4640905538390319,
        0.7280296805440072,
        0.6987515050398221,
        -0.8223345256515293,
        1.5013664112987815,
        -0.6475573532496426,
        0.4514253797162555,
        0.41305074313859486,
        -1.0897462711466812,
        -0.1699140942229624,
        0.40045119266550167,
        -0.0336613387419365,
        -1.4611068375769178,
        -0.15847135346648544,
        -0.47489328852306334,
        1.3161863764846395,
        0.2852665395966833,
        0.9025013737705001,
        0.13530781758514474,
        0.8682914765677792,
        2.3527468637256392,
        -0.5814562924426202,
        0.1890019936220591,
        -0.38835055157749276,
        1.377363191235871,
        0.6122666176396976,
        -1.9890209296493853,
        -0.86198573161603,
        -0.7541258055594178,
        -0.29760485368757816,
        -1.7074521772710791,
        1.3350476034750767,
        0.06071649700605042,
        -1.323636098874272,
        0.09082032450851765,
        2.354911871977709,
        -0.8643876886476918,
        1.214705776754192,
        -1.9761559157010058,
        1.3440311578993551,
        -0.6157395113959256,
        0.002329094434102591,
        0.6050820016061349,
        -0.5096289948399066,
        -1.712108880046871,
        0.6141993723152771,
        -1.0280236319904024,
        -0.6140551734653368,
        -0.9694513145210693,
        1.015535131768819,
        0.13060925184573688,
        -1.012227643112074,
        -0.5237002088955117,
        0.6718654767066822,
        -0.6571474105473861,
        -0.23977900047908052,
        0.645572824123601,
        0.050082114675961145,
        -0.10235814520589086,
        0.7308722200516523,
        -1.0427818709398702,
        1.4765932057990925,
        2.8766725817470746,
        0.6027992964895441,
        -1.4464629168611574,
        -0.4198589931850543,
        0.5825547765691401,
        -0.8370492167025233,
        0.3377145415614211,
        -0.23010801147863322,
        0.49393716577858904,
        0.4693439824417684,
        0.8053222089508714,
        0.05061925053833945,
        2.2386242858590615,
        0.4951852193970355,
        -0.8053470613423451,
        1.4934547342847753,
        2.0768953292527157,
        -1.6212380729945117,
        0.21181299720412383,
        0.09389261111992277,
        -0.9912340635668989,
        1.5257147440649779,
        -2.1515764288153685,
        0.9828666057207741,
        0.8348925432738977,
        -0.09690865998861611,
        1.556244495534925,
        1.4696217906283153,
        0.33200770129123097,
        1.5677787684557383,
        1.056502761539895,
        -0.1831976370559459,
        1.6207637493431521,
        1.033927420377981,
        -0.32536664553921046,
        -0.46946285156723977,
        -0.2849668743923965,
        0.6921863985249014,
        -0.39259442284016094,
        0.17217207454486197,
        0.5557111897648386,
        0.11982415106741268,
        0.8218739673903993,
        0.3015502486463581,
        0.3421131873794785,
        -1.1337664137901766,
        0.2924083365886847,
        0.822286967894528,
        -0.07287454247426706,
        0.2950847521379556,
        -0.5955256624302815,
        0.35534802501645146,
        -0.8890310002312964,
        0.6899469237108065,
        -1.3856302080704488,
        -0.10074898551313707,
        0.7578968512921409,
        -0.6080854702524913,
        0.634664510466477,
        0.08458775612218355,
        0.8093717300972169,
        0.8367523313014646,
        -0.5682521106306515,
        -0.21084005615451473,
        0.8012312700577142,
        0.4475160378622387,
        -0.38459336582577597,
        -0.11173456827088873,
        -0.4613625790661347,
        -0.24289517617672407,
        1.3894787031801825,
        0.08674970951413633,
        -0.25210977806485485,
        -0.4330929138474514,
        -2.120138452949655,
        -0.6976873200467131,
        -0.01719452788762459,
        -0.15287279504568713,
        2.0934518914570517,
        -0.35515178974623807,
        -1.2408175145597962,
        -1.4475092754957102,
        0.39106173390257293,
        0.8920694489598944,
        -1.6593506362556043,
        0.12930947735359277,
        0.5778928532362613,
        0.9776159119582377,
        0.2473322785185464,
        1.3396483237458388,
        -0.9771742110460593,
        -1.30969512965379,
        0.7850925066397537,
        0.903532690987509,
        -0.868288075438446,
        1.3663958916765389,
        -0.8399803594801599,
        1.2917428125945365,
        0.22711424382088818,
        0.5511345949371752,
        -0.9900457592733517,
        0.6943877666874698,
        -0.941824513056662,
        0.24546787392022373,
        1.293152160615571,
        -0.8725338921804843,
        1.1665879587086398,
        1.6920437831465056,
        0.4395136757459977,
        0.5010317697018122,
        -0.2992530048836295,
        0.5322075490667427,
        1.2099887064234534,
        0.7510981954848779,
        -0.18349055277334478,
        0.9810160208612482,
        -0.4202791100331563,
        0.5954201519467495,
        0.5726862555443809,
        1.1503934134728815,
        0.2686159942061973,
        -1.097064929694259,
        0.24558376815424596,
        1.093247724684064,
        0.22054390177992791,
        0.5305843029702347,
        -0.7448315746694035,
        -0.21940309029222255,
        -0.10351850306951385,
        0.5224997758629488,
        -1.6122611210019981,
        -0.020434210112468237,
        0.5283454446093319,
        0.17316093528704693,
        -0.004119494859709111,
        -0.18878935625268764,
        -0.6096684385500857,
        0.7918802570857718,
        0.8303503745404452,
        0.560810530000792
    ]
}