{
    "idx": 703848,
    "fights": [
        {
            "enemy": 5,
            "fitness": 86.66628484395721,
            "player_life": 26.800000000000253,
            "enemy_life": 0,
            "time": 409
        },
        {
            "enemy": 6,
            "fitness": 21.458736454841574,
            "player_life": 0,
            "enemy_life": 70.0,
            "time": 255
        },
        {
            "enemy": 7,
            "fitness": 90.80669517527555,
            "player_life": 61.000000000000334,
            "enemy_life": 0,
            "time": 199
        },
        {
            "enemy": 8,
            "fitness": 88.98324619773175,
            "player_life": 46.6000000000003,
            "enemy_life": 0,
            "time": 292
        }
    ],
    "weights": [
        0.381091759759583,
        0.33717286015118686,
        1.1154148663442136,
        -0.04747779624158188,
        -0.5589442861097627,
        0.21948126628890172,
        -0.966887068691924,
        0.5686020254670124,
        -0.6100333553661295,
        0.8197199017654246,
        -0.5966676648450746,
        0.595925995058332,
        -0.8904882753048265,
        -0.7407004753264516,
        -1.156496617244209,
        1.4301052775111838,
        -0.34697528397428584,
        1.4195805677378042,
        0.36868043989461263,
        0.2572289970763259,
        -1.0431358388100205,
        -0.37635998528916825,
        1.5050763153256206,
        0.5234209520721085,
        0.18131401329567304,
        1.5847546369120358,
        -0.9979382263570052,
        0.02957069063875087,
        0.0359576218062724,
        0.682913695747481,
        -0.7395046154912354,
        -0.2734354870647907,
        -1.2085255560236565,
        0.8062587454417364,
        0.6920940638739526,
        -0.6596071916501189,
        0.2745062894100452,
        -0.7997417295311868,
        0.30422494225675567,
        0.08674189578807011,
        -0.20256395672601044,
        -1.0673604090026472,
        0.9424536781998518,
        0.44550900603895416,
        -0.4073052953255226,
        -0.5195845019292255,
        0.6169972863247111,
        1.2286113485531642,
        0.2519645664367425,
        0.2867578193384182,
        -0.05635658251083162,
        1.1481000729686237,
        -1.2952624497084773,
        -0.5285821994053042,
        -0.5358936267101309,
        2.2216166544364606,
        -0.0026097776400691984,
        0.19626722763582521,
        -1.226766011393548,
        0.46179159137392045,
        0.9196632713113291,
        -1.0242929309497186,
        -1.3036126504772976,
        0.3420476731704698,
        0.5988608049683796,
        0.8998822972788566,
        -0.5835037759021398,
        1.147355798489378,
        -0.030691052977854412,
        -0.04741980142425391,
        0.8750998360644834,
        -0.3042543648539096,
        -0.5183610431370775,
        0.17530554273120894,
        -0.5727778455778164,
        -2.219082866908788,
        0.03197756211805604,
        -0.5412523165396577,
        0.6329742636539429,
        0.7592152477109841,
        0.7710320362014527,
        -0.079102500037625,
        0.5846624945912722,
        0.4151645464593985,
        0.12655664852673765,
        -0.6260693618000895,
        -0.061327118442115934,
        1.269244701450014,
        -0.2734687316702207,
        -0.22349077683795546,
        -0.3703045733537219,
        -0.8799781892460843,
        -0.4253520417182897,
        -0.19676463169883296,
        0.03457982897431397,
        -0.13105552189836597,
        -0.18059712548879203,
        0.15702161778215704,
        1.6563105465272487,
        -0.8819675780012947,
        1.2329895922916334,
        -1.2083138209834239,
        -0.04464385375360247,
        -0.21841451763675226,
        0.7357372811353957,
        0.4841328653219452,
        0.4782402231008827,
        -1.5614181456556984,
        0.4019481280889441,
        -0.5620195971592552,
        -1.1811633821552943,
        -0.19544787802944744,
        0.7312776189096664,
        -0.5282828575319382,
        -1.0939395171854387,
        -0.2603350192610041,
        -0.6278455042178207,
        -0.8231231324063265,
        -0.015084270625733157,
        0.8960155383200545,
        -0.09925330458979659,
        1.4795827079041084,
        0.6052286931984605,
        -0.6861000333847082,
        1.3750525598481813,
        1.536701154524705,
        -0.028469659085602866,
        -0.7004185256602581,
        -0.32162868801901856,
        -1.0198447978191958,
        -0.059566464599362885,
        -0.30538679027003557,
        -0.22029441933168264,
        0.2289572459738515,
        -0.12726920583680984,
        0.7862372195498526,
        -0.2742989232776221,
        0.784599092658278,
        0.4052146526077095,
        0.28681344678434784,
        1.3747180640478613,
        0.8192815672438758,
        -0.4079896530179169,
        0.49428068829673366,
        0.38763992645236955,
        -0.926085348144193,
        1.2894385732509424,
        -0.7925257791708844,
        0.4648615349321878,
        -0.34790984966484995,
        -0.6208994371051807,
        1.026075362045666,
        1.476673858645564,
        0.1858198872565982,
        1.1692248620826233,
        0.2542570159651892,
        0.45784200309608275,
        0.8223216331331696,
        0.5025952896344332,
        -0.4768871207597297,
        -0.833248389328597,
        0.4982789922032437,
        -0.011587461373038108,
        -0.8608792035715335,
        0.2272584553115716,
        0.4064287341208049,
        0.32882156630760395,
        0.24219022708098847,
        0.6876128148142985,
        0.03969348639018534,
        0.08745009659621551,
        0.24721156958381943,
        0.47507826929922425,
        -0.16425314768844546,
        0.4921266178682766,
        0.30508039150235006,
        -0.085194924177522,
        -1.1164734363025501,
        0.44605698492347057,
        -0.3341098133936047,
        -0.7916723647687597,
        -0.7788813661037615,
        0.23405553798751477,
        0.8421184935068246,
        0.019846829649026246,
        0.7813225656742628,
        0.12727434967523038,
        -0.28497815326795184,
        0.2932570606181939,
        0.8900358569456603,
        0.28007338299603024,
        0.24134201715721665,
        0.1251969012119528,
        -0.20406487000628942,
        -0.12791694550363353,
        1.1342145807362598,
        0.026987330414951452,
        0.10226877631814293,
        -0.6345592554067421,
        -1.5926297196021681,
        -1.0236301275754778,
        -0.5927362049687703,
        -0.8064720114825238,
        0.44524642743827714,
        0.0658400594508105,
        -0.9578545663662812,
        -0.5845426018347688,
        0.890281951425008,
        1.120977519463664,
        -1.4375035486527952,
        0.06323202644342182,
        0.9428522798400452,
        0.9413626873405337,
        -0.25976987656058104,
        0.8001763792704145,
        -0.6214605284192529,
        -1.2801105093394118,
        0.4175614517400573,
        0.6188054208855149,
        0.14881392978849634,
        1.4817269398613675,
        -0.7324324440737713,
        1.1361997656960068,
        0.1204203316657573,
        -0.35302079459624963,
        -1.4183286907297248,
        0.8399176797727277,
        0.02446291930239801,
        -0.230328070070802,
        0.28567926012790257,
        -0.993222563338546,
        0.5708095995317186,
        1.5776644413410426,
        -0.4631319052589353,
        0.7905514789249262,
        -0.5545795228016821,
        0.988385750410376,
        0.448290995437306,
        0.606975529571186,
        0.0926312096893808,
        0.9310498659459517,
        -0.13257559112195524,
        0.2526897159542736,
        1.0596649945560574,
        0.7413736954575502,
        0.40900934404554806,
        -0.8731317171969789,
        0.06482072232042412,
        0.07553380555559194,
        0.913548054084975,
        0.6623456970717536,
        -0.5816138430064307,
        -0.18729587386011518,
        0.10578670074554256,
        -0.320300363458592,
        -1.449460973474959,
        -0.02703709651418461,
        -0.3709420753310678,
        -0.20339165049698388,
        -0.6477332289415191,
        -0.013920315808317974,
        -0.8813470837675379,
        0.4615957894326237,
        0.3029769107103933,
        -0.0469684511902099
    ]
}