{
    "idx": 703964,
    "fights": [
        {
            "enemy": 5,
            "fitness": 89.67650369121833,
            "player_life": 52.600000000000314,
            "enemy_life": 0,
            "time": 266
        },
        {
            "enemy": 6,
            "fitness": 48.87603602059674,
            "player_life": 0,
            "enemy_life": 40.0,
            "time": 168
        },
        {
            "enemy": 7,
            "fitness": 90.57679627126204,
            "player_life": 58.60000000000033,
            "enemy_life": 0,
            "time": 197
        },
        {
            "enemy": 8,
            "fitness": 89.22324619773175,
            "player_life": 49.000000000000306,
            "enemy_life": 0,
            "time": 292
        }
    ],
    "weights": [
        0.2721970043843675,
        0.36562405334112674,
        1.0181770608025595,
        -0.6147767132610988,
        -0.7028180550480513,
        0.5722560331382983,
        -1.2526736839174508,
        1.3364572285095433,
        -0.6619554667373645,
        0.87327318393005,
        -1.0432930502711684,
        1.1948654237122052,
        -1.0790490699858601,
        -0.8911942942247674,
        -1.3421571882888486,
        2.0316451875012618,
        -0.4997725061314733,
        1.1910624957126945,
        0.5011069296790578,
        0.695922201200979,
        -1.0577468993801669,
        -0.23543295862794109,
        1.4700184839191506,
        0.7819909896123626,
        0.06866594637307692,
        1.11940214129534,
        -0.7069792830343749,
        -0.1092626790090743,
        0.2630667862937472,
        0.5728421556448493,
        -0.492470971338732,
        -0.14668179161739106,
        -1.3014385685614345,
        0.13450048447071491,
        0.8474663051334528,
        -0.6348710315480779,
        0.37359916790483133,
        -0.5897459905074515,
        0.05683189105276237,
        0.2771839045895286,
        0.02082350310446679,
        -0.7625333387455824,
        0.9895601316923267,
        0.7373814964010065,
        0.2446536376340915,
        -0.6510938258799513,
        0.7013269650439,
        -0.13015256003948655,
        0.06737282219412678,
        0.834914460982582,
        0.23064477176239004,
        1.2417692811233725,
        -0.7272188600133596,
        -0.852897463538728,
        0.027797830089434317,
        1.2221116409098065,
        0.3770801188261969,
        0.13132279759805612,
        -1.5272484160813782,
        0.3383164488202616,
        1.0868143026618164,
        -1.0360148060098335,
        -0.9636005665480498,
        0.13349101292121582,
        0.25917988967330724,
        0.9262716553089352,
        -0.6341475881824958,
        0.9828374370020783,
        -0.49635820412484183,
        -0.37588053906641666,
        1.1789109108545635,
        -0.5689445731872482,
        -0.8745994519985363,
        0.24753408632062127,
        -0.6391229826533668,
        -1.0028583560259385,
        -0.2505238477775494,
        -0.8665772209391399,
        1.3447412608510256,
        0.6000022456965802,
        0.06200249380093811,
        0.030422446981226457,
        0.6260778307777604,
        0.5956379807960909,
        0.1998478745583975,
        -0.465127551419676,
        -0.1839659927469965,
        0.749863418247274,
        0.2752797601632452,
        0.04689852398640779,
        -0.24056896912644588,
        -0.446276174845899,
        -0.5895613594101131,
        0.07620935709285662,
        0.646102870514681,
        -0.36937233545021264,
        0.09708085052852392,
        0.2581116258982769,
        2.185636441347173,
        -0.7560325129270333,
        0.9255709576148681,
        -1.3835585398744659,
        -0.16135442427644608,
        -0.5607530343785464,
        -0.12919420074502383,
        0.5480878692627136,
        0.42246131853422036,
        -1.6320219980093382,
        0.15714058159446648,
        -0.8326398104271884,
        -0.8298124052257134,
        0.37352872218782596,
        0.5053226074304509,
        -0.7447807998289748,
        -1.2587984882795706,
        -0.21500674598700292,
        -0.0591230637004791,
        -0.8155334823869212,
        -0.23225593388431187,
        0.5131146501484063,
        0.3191427793564627,
        0.9729884827635371,
        0.8468615014209915,
        -1.2516430715705238,
        2.123325492579399,
        1.038164212528885,
        -0.05242426677452065,
        -0.8746812308679236,
        -0.6196772561972169,
        -0.6512900331506077,
        0.18662687304015835,
        -0.007506421204144846,
        -0.3573760649367369,
        0.2871305894688422,
        0.13404649641662747,
        0.5769137768740025,
        -0.6347254531820017,
        0.9374597161341046,
        -0.1442314596976954,
        0.43568612251884004,
        1.5138555771174795,
        1.0910112360283155,
        -0.6858863591597313,
        0.4068571546204751,
        0.44676103711119053,
        -0.6715136914391173,
        1.0631786866147832,
        -0.8975468599225952,
        1.0782127885293296,
        -0.39563705155552875,
        -0.13260109977879753,
        0.9311221785838787,
        1.3483273846399304,
        -0.2609451863609527,
        1.072789450569671,
        0.4941850677416003,
        -0.10947621601005295,
        0.762543255148809,
        0.8022878797817061,
        -0.6096924407398653,
        -1.3153698535051768,
        0.6055456666375654,
        -0.05677997638687279,
        -0.9008953899692501,
        0.11146424363443697,
        0.4267598208545745,
        0.2720973116115283,
        0.6853149168024376,
        0.3181803359860034,
        0.2204957497900167,
        0.3821367309440334,
        0.3224570823429278,
        0.025043386045521088,
        -0.012143338107661734,
        0.5855162970677674,
        0.11297299328645889,
        -0.3320333793943864,
        -0.9464939438050637,
        0.6146697686063085,
        -0.2263662148187332,
        -0.6750597201655815,
        -0.847622257645281,
        0.09770176761116323,
        0.553167480838386,
        -0.004021452307327216,
        0.5521975040403702,
        -0.1548544202707957,
        -0.513090588111679,
        0.7175576060648841,
        1.6089329465570668,
        0.40433542416818247,
        0.14224956956517193,
        0.2761185607306562,
        -0.4260456164874815,
        0.1889520212922826,
        1.1448688434574221,
        0.3569409679769026,
        -0.6961495201565182,
        -0.4347631845736849,
        -1.6995925648259063,
        -0.7336914933524061,
        -0.9403745181051025,
        -0.5562567866750207,
        0.4264247674807117,
        -0.207098870913424,
        -0.8001342585167536,
        -0.7954486357688365,
        -0.12976506785619263,
        1.0025428455801633,
        -1.2666433399253123,
        -0.3473139102064824,
        1.171708644504867,
        1.3288549764978763,
        -0.5762700126769968,
        1.1884313830287867,
        -0.6939890900668887,
        -1.7444775869780762,
        0.7164292889889338,
        0.46637721532797655,
        0.22475647273949828,
        1.7967905965015187,
        -1.1132604612587242,
        0.5351975499225499,
        0.40459622383167404,
        0.17737451238097585,
        -1.636964224120344,
        1.170626060953306,
        0.14402110326098866,
        0.18027401739769305,
        0.2518452465778261,
        -1.1771538848965342,
        1.2836949284159982,
        1.9564600081105292,
        -0.6079187878163276,
        0.07560188522966688,
        -0.884016108603263,
        1.168621597472929,
        1.2433949329110765,
        0.764818012617953,
        0.024100772488107127,
        0.9955856073854412,
        -0.19661411105847387,
        0.03198406265681442,
        0.7969955031980526,
        0.25379118167214515,
        0.25420053855613484,
        -1.1498486183666403,
        0.22527876517939618,
        -0.286480137059996,
        0.859110446006766,
        0.7079967770652059,
        -0.4477063473844939,
        0.08131128569190468,
        0.3674007256155781,
        -0.4831553240459234,
        -1.3497939433558066,
        -0.08592546871234356,
        -0.043415498751148335,
        -0.4368008255380947,
        -0.18483483122198685,
        -0.07379801049525805,
        -1.2821048982586531,
        0.1707164676071184,
        0.3848079136557286,
        -0.18989812533628594
    ]
}