{
    "idx": 703974,
    "fights": [
        {
            "enemy": 5,
            "fitness": 89.17419793370404,
            "player_life": 47.8000000000003,
            "enemy_life": 0,
            "time": 272
        },
        {
            "enemy": 6,
            "fitness": 48.45092391510478,
            "player_life": 0,
            "enemy_life": 40.0,
            "time": 257
        },
        {
            "enemy": 7,
            "fitness": 90.09289246928256,
            "player_life": 54.40000000000032,
            "enemy_life": 0,
            "time": 210
        },
        {
            "enemy": 8,
            "fitness": 88.81968822339262,
            "player_life": 45.4000000000003,
            "enemy_life": 0,
            "time": 305
        }
    ],
    "weights": [
        0.09506914566226751,
        0.4122554052987947,
        1.0139309764599302,
        -0.6773376729063791,
        -0.6545311563457238,
        0.20480700042689257,
        -0.2980029691173244,
        0.3664317925939791,
        -0.7733335616367856,
        0.6041081178677942,
        -1.1660944502199349,
        0.9483185655897493,
        -0.8250682545577434,
        -0.6083805086521794,
        -0.5968615055040176,
        1.8786676650994405,
        -0.4979368943465838,
        1.5474157392480317,
        0.33089280615772454,
        1.215080705671237,
        -1.2637084255425184,
        -0.039270682278704394,
        1.4457355561066174,
        0.24518219434805313,
        -0.07628319724094056,
        2.6177998365551,
        -1.0645312974908887,
        -0.16970249069112686,
        0.7390285413316124,
        0.5951484991161283,
        -0.6160803317077429,
        -0.42891363838760316,
        -1.233483847132372,
        -0.05785570752723694,
        0.9233554022223935,
        -0.20892377865742534,
        0.554900301048425,
        -0.9427775438022836,
        -0.07049100336498064,
        0.4998844073898912,
        -0.30250441124976957,
        -0.8963359186370632,
        0.9864755414600224,
        0.42129689996469716,
        -0.6051274987561073,
        -0.30456309626804795,
        0.7500119353168319,
        -0.048066112289022224,
        0.12416611494979468,
        0.34228729619116016,
        -0.3321160279052672,
        1.3434520041737494,
        -0.5674279521284202,
        -0.7611627151128912,
        0.09759236515059644,
        1.5787957775830614,
        0.9180769391638464,
        0.051484114912919446,
        -1.1655874583553882,
        1.2578961850190307,
        0.9416932865621758,
        -0.8813976483006869,
        -1.1684552034013396,
        0.16475304510626645,
        0.7115403077364133,
        1.1118363279215002,
        -0.3849953485518499,
        1.2152083499169475,
        -0.5085795258219816,
        0.651542573645588,
        0.9154281882616575,
        -0.30850848866037356,
        -1.3124712215041834,
        0.39239133142751054,
        -0.6376096907689622,
        -1.883799788473186,
        0.3178455076624122,
        -0.6909995917778545,
        1.3817160944265974,
        1.1771036187792532,
        0.25526616656890405,
        0.0021187539307577488,
        0.5916464328080592,
        0.7823784840769963,
        0.5452947796386743,
        -1.0398994468834521,
        0.19155409459238687,
        0.9107892089518618,
        -0.0719677870678471,
        -0.3266659301788369,
        -0.056676835842077306,
        -0.7104449896980329,
        -0.09836544639603087,
        -0.22314119662138499,
        0.7201050771147418,
        -0.30932568305156855,
        -0.14230902364857875,
        0.1458456615711654,
        1.3617629774285605,
        -0.7266099599179531,
        1.2058041914416824,
        -1.4576935680561687,
        -0.4461484700822135,
        -0.5074338210095418,
        -0.030788635356719947,
        -0.15094484488738616,
        0.30499543854606986,
        -1.462576756648747,
        0.1521505382889065,
        -0.46058372263074276,
        -1.3849061997387266,
        -0.3054313539517635,
        0.6010100965887881,
        -0.6565417734762573,
        -1.3094566559428193,
        0.5846582977627491,
        -0.19128815800497206,
        -0.8956661081446524,
        0.218136580112554,
        0.2425438621668604,
        -0.14408130457832782,
        1.408160693892243,
        0.38477375520690205,
        -1.0098292485459361,
        1.3473036035616421,
        1.0195500586612083,
        0.012421562245323092,
        -1.0087346970680897,
        -0.3686825080120492,
        -0.6497808420833522,
        -0.07927337910692348,
        0.26550551307152115,
        -0.4256086906930325,
        0.19862612943374525,
        -0.007481516350275191,
        0.47308169219105173,
        -0.4523955190304756,
        1.416342478849346,
        0.5500222307333524,
        0.04430377470511551,
        1.3655500842809343,
        0.7495409313571089,
        -0.4933287061688129,
        0.09505430731916159,
        0.48590370204301936,
        -1.193344658539468,
        1.1427437545265098,
        -0.9081234175545385,
        0.41558142386690444,
        -0.28265844362465364,
        0.03636923707047354,
        0.4129276539997365,
        1.38874835064696,
        -0.20657837142803911,
        1.3612282906893443,
        0.45438647040542907,
        0.6972476554343331,
        0.9845438188599176,
        0.4561813678507381,
        -0.5591832213250689,
        -1.598574626757604,
        0.486609562292455,
        0.08574381486979293,
        -0.6446377619492762,
        0.09350952216643431,
        0.5231704319516811,
        -0.19502905247772456,
        -0.1446098900487879,
        0.6579232860192703,
        0.1865421074012075,
        0.39099487167802216,
        0.45705092739603365,
        -0.019018629229920384,
        -0.14504958292385656,
        1.092643075196882,
        0.327026244523103,
        -0.0852441674388624,
        -1.0062101429474428,
        0.3625594607899733,
        0.284485698510173,
        -0.4483966174665038,
        -1.0679787386329762,
        0.42804276739254593,
        1.216492002786313,
        0.04558272680483643,
        0.6895230590322933,
        0.058914154598880344,
        -1.0244540773206614,
        0.3053932336488907,
        1.0173184107412285,
        0.5497045170591144,
        0.28457455087144523,
        0.4943296025947333,
        -0.27146752724494927,
        0.07665999798774162,
        1.0871729519069733,
        0.018691780371230968,
        -0.6428291355057063,
        -0.12476623131740022,
        -1.4793758846441922,
        -1.3855721175751676,
        -0.6302952358345031,
        -0.15192345182801772,
        1.6548622587248418,
        -0.025885945692837663,
        -0.9039217345133682,
        -0.7318839615406263,
        0.5740993293153117,
        0.8163104178628227,
        -1.5130196755039274,
        -0.39457858711820004,
        0.8673837224619156,
        1.3340384248158272,
        -0.7739805578470853,
        0.8871126348377121,
        0.2297639965058796,
        -1.1224616860915644,
        0.5838994385953745,
        1.010094357965271,
        0.8410557888784311,
        0.88356429235266,
        -1.2363650158240045,
        1.2881205684631778,
        0.2994321933637356,
        0.6002867576654243,
        -1.3177056374509246,
        1.071917073110926,
        0.0951424693080051,
        0.5274655702646299,
        0.14716553157614257,
        -0.8574976526846998,
        0.8076018428431692,
        2.2250823957610875,
        -0.4933680096591475,
        0.33985874903589447,
        -0.8713893359882333,
        1.2279055804111714,
        0.739847797106462,
        0.8833087214343254,
        0.32795256912185977,
        0.9954630641826638,
        -0.6799286603969791,
        0.5769791991506497,
        0.7394447488315348,
        0.35723979901761155,
        0.5717356099356397,
        -0.956359384674793,
        0.04949584822505869,
        -0.1596577625641032,
        1.1567719632809284,
        0.5480263843371275,
        -0.349562677098156,
        -0.41794705366053797,
        0.17761534848269958,
        -0.2521216268865496,
        -1.4810523302763046,
        0.11077533820670696,
        -0.023870450182328855,
        -0.49049797792118494,
        -0.18228138413976946,
        -0.05564869425427098,
        -1.029673781742627,
        0.10582861963804768,
        0.00624852229307149,
        -0.24104374111884316
    ]
}