{
    "idx": 703849,
    "fights": [
        {
            "enemy": 5,
            "fitness": 89.82693855665948,
            "player_life": 53.200000000000315,
            "enemy_life": 0,
            "time": 243
        },
        {
            "enemy": 6,
            "fitness": 57.601837298482245,
            "player_life": 0,
            "enemy_life": 30.0,
            "time": 221
        },
        {
            "enemy": 7,
            "fitness": 89.59504998251863,
            "player_life": 50.20000000000031,
            "enemy_life": 0,
            "time": 227
        },
        {
            "enemy": 8,
            "fitness": 86.33574420258549,
            "player_life": 22.600000000000243,
            "enemy_life": 0,
            "time": 374
        }
    ],
    "weights": [
        0.6267987677902578,
        0.42918964919683456,
        1.0060532532429545,
        -1.195478125940228,
        -0.9978819274250609,
        0.08589826900845499,
        -1.064279252725116,
        1.126312769563259,
        -0.7795732591984488,
        1.780734466843817,
        -0.13201635515300839,
        -1.7741031252925714,
        -1.1090773857977045,
        -0.17324754027803768,
        -0.7281720575963126,
        2.862056914877729,
        1.6619410408207804,
        1.3572059659380595,
        0.037185794003732134,
        2.430942293414308,
        -1.7795640097040253,
        0.0036579940142634076,
        1.543502236899772,
        1.842950237687548,
        0.30936451493802647,
        1.8532630233135152,
        -1.7309254847633109,
        0.1423506945142548,
        1.1044951042736768,
        1.7058999434209985,
        -0.6340007119002982,
        -0.32783699941388234,
        -1.6486002339973114,
        -0.8220118507748642,
        0.4795409009059862,
        0.16954156700404746,
        0.604018755357697,
        -1.0565862675234843,
        -0.11553136418790327,
        0.563248718315956,
        -0.14148264494291504,
        -0.7336010219442916,
        0.6464405842402939,
        1.168518877937868,
        -0.001665623291473406,
        -0.7705032580059645,
        1.4452240920405848,
        -0.0143858206265168,
        1.6834189148433625,
        1.2110475371151868,
        -0.8362249558177319,
        1.839310812138169,
        -1.6501222989178999,
        -1.1472517246192597,
        -0.621520841085831,
        1.2524678085328647,
        0.4740250996603722,
        0.24246116644966434,
        -2.024198924142455,
        0.9097280648497135,
        1.0273726707831217,
        -0.9936301056335972,
        -0.5618903702220247,
        0.7142035238691227,
        1.027960377999837,
        0.3208163886293636,
        -0.9478211158831166,
        1.8984258815516608,
        -1.0221081480447902,
        0.17700598148916796,
        0.9570107938802902,
        -1.1487346070773297,
        -0.10284491586818698,
        -0.031263493864216015,
        -0.5424361568536138,
        -1.4545537656335195,
        0.024117975728881608,
        -0.5050486559580842,
        1.297412938165689,
        0.22217888379233833,
        0.9733500177346517,
        -0.0045971177104180035,
        0.6528047032798342,
        2.8837956374117355,
        -0.39603877696559275,
        -0.5841022118529987,
        -0.28115198804577707,
        1.2143935744142185,
        0.31714827621898695,
        -1.8372585709885954,
        -0.9845019374294322,
        -0.47543347976405337,
        -0.2127659186152541,
        -0.9197664800440185,
        0.6716608733199022,
        -0.6780092140959637,
        -1.0827751952455897,
        0.49858270004018423,
        2.1115648578807282,
        -0.9040570864689901,
        0.834212819731673,
        -1.4264692684198732,
        0.3812243533074921,
        -0.7678542943826293,
        0.11009555175681997,
        0.556039172848692,
        -0.0625308388386957,
        -0.9450035606378757,
        0.8646796133001896,
        -0.791248883959013,
        0.16312788704431963,
        -1.1268385912496077,
        0.8951136710892755,
        0.07854162507696215,
        -0.7990031865537159,
        -0.29859852224653993,
        0.23701381973017416,
        -0.8207486542585516,
        -0.17138614904026728,
        0.6263933562611637,
        0.5461315863890964,
        0.4433198799069871,
        0.36381931229181963,
        -0.9929150017638291,
        1.350391795361753,
        2.302399706152795,
        0.3945031146512314,
        -1.3979040671462915,
        0.215599387381186,
        0.04495419727689965,
        -0.9972583566416845,
        0.4744150113127179,
        0.14380889872396468,
        0.41100799714595493,
        0.38134089825511336,
        0.8350885240370834,
        0.32324015304812137,
        1.6526334041405655,
        0.2064790247982252,
        -0.8237916054064924,
        1.5291327077587773,
        1.3944974060222632,
        -1.0726127435306618,
        0.3292317222362252,
        -0.2178500018669998,
        -0.8073572412242369,
        1.4343975169638494,
        -1.2526295619239238,
        1.0756885748694027,
        0.28307851271698753,
        -0.4807871619189428,
        1.521701791863518,
        1.5869050018865718,
        0.36746833743676,
        1.3654051857483223,
        1.04844478158246,
        0.054329002149037166,
        1.9967526168158816,
        1.1076485434177148,
        -0.8718489169170244,
        -0.8701441318752758,
        0.7422669360700275,
        -0.18253372544073287,
        -0.5109362584864249,
        0.7477429674652805,
        0.16667939270094334,
        0.4623704046290204,
        1.1887703540663088,
        0.44224485479924686,
        0.7706590781974594,
        -1.6935695025712938,
        0.12903308040579345,
        0.7692511710795815,
        0.2761206535279034,
        0.6280571217636323,
        -0.9445849903858186,
        -0.5217931553702604,
        -0.577844258431878,
        0.6725413898168113,
        -1.2439849344438387,
        -0.28595260461300887,
        0.5653372785091388,
        -0.41225684624465225,
        0.4726049363242283,
        0.42724241297153703,
        1.0716248960505532,
        -0.07486346267688432,
        -0.24276705648017058,
        0.05753472359585089,
        1.0800456059733439,
        0.22943074291879584,
        0.24806148542472367,
        -0.3929943614569152,
        0.14299975774205226,
        -0.20903067077566032,
        1.2067518502358197,
        -0.029666347090483415,
        0.4761597803504615,
        -0.2732581852704022,
        -2.0289770998093295,
        -0.6029121331133175,
        -0.06403478399957126,
        0.10667097965741792,
        2.1355015380890854,
        -0.4957606194225684,
        -1.5761202645038037,
        -1.176718589545745,
        0.3951917124888338,
        0.8126816376259054,
        -1.7099337758729183,
        -0.3658166273397717,
        0.6390314137284068,
        1.0098489309785985,
        0.17472362093745278,
        1.398381538129614,
        -0.9239641762851293,
        -1.4922469808003318,
        -0.12791486105228625,
        0.8946371174120977,
        -0.5197765542950241,
        1.209677414459372,
        -0.7048112346896485,
        1.095341715299393,
        0.7577530189726622,
        0.6565997057818017,
        -1.655984052628625,
        0.921915656965753,
        -1.0180130705606312,
        -0.005249537358784709,
        1.6033427208349011,
        -0.7813953945441566,
        1.2113559243482175,
        1.3542051530885226,
        0.9609285909388727,
        0.6484123719288358,
        -0.4096638926801943,
        0.48352585128148573,
        0.9565513015091281,
        0.1131347891244976,
        -0.563588359749415,
        0.7286776761614048,
        -0.024223398634922812,
        0.05898141580801394,
        1.1762174278039894,
        0.8084971304170364,
        0.45829072699652623,
        -1.0466857084753496,
        1.5489745732725781,
        1.234271457560213,
        0.9614929694656584,
        0.7161553635415828,
        -0.9451712187644651,
        0.02401818956678972,
        -0.08940436456354325,
        0.47216937031956874,
        -1.3894655578117454,
        0.001507663148680895,
        0.23820801916853773,
        0.23113639172210687,
        -0.43429066322285886,
        -0.18491050483680446,
        -0.9903523670325108,
        0.6130599909588181,
        0.5266050862097688,
        0.49904908091659067
    ]
}