{
    "idx": 710915,
    "fights": [
        {
            "enemy": 5,
            "fitness": 90.0852886203982,
            "player_life": 56.800000000000324,
            "enemy_life": 0,
            "time": 269
        },
        {
            "enemy": 6,
            "fitness": 30.52353644806849,
            "player_life": 0,
            "enemy_life": 60.0,
            "time": 239
        },
        {
            "enemy": 7,
            "fitness": 90.8117329693055,
            "player_life": 61.000000000000334,
            "enemy_life": 0,
            "time": 198
        },
        {
            "enemy": 8,
            "fitness": 88.81968822339262,
            "player_life": 45.4000000000003,
            "enemy_life": 0,
            "time": 305
        }
    ],
    "weights": [
        1.3915592646192667,
        1.4092772169281809,
        1.283063619248825,
        0.5008288516002998,
        -1.8259899556647439,
        0.024849052427070674,
        -1.4588694666806519,
        1.2536296377670517,
        -0.6164192730862081,
        0.8054184957966539,
        0.08544962470074022,
        -0.6124298050985018,
        -1.391844564504662,
        -1.065109494866182,
        -0.3377631893479564,
        1.6167890980632096,
        2.2276928676351226,
        1.2610889360932325,
        0.18115144187309207,
        2.086757449044929,
        -1.1030926063722704,
        -0.10672859062344862,
        1.53507543740798,
        1.9935569680115697,
        0.6123737843888337,
        1.3725833229788218,
        -1.1591617927836184,
        -0.438703498902686,
        0.5184966959679739,
        0.6635696288511093,
        -0.8487457854246074,
        -0.3530530860700577,
        -0.37753355674622,
        -1.0418107286716323,
        0.7743059743877172,
        -0.018593368406009073,
        0.7524452637834538,
        -1.1147165762893685,
        -0.3041044748626551,
        0.8554875625974832,
        -0.5290872148870902,
        -1.587013131796085,
        0.9423183294248998,
        1.6766118966346462,
        0.237361225445092,
        -0.5531316175088824,
        1.2677252274835469,
        -0.2710035453186891,
        0.6372243081917137,
        1.2973533192099511,
        -0.41724774584864377,
        1.6758173759053043,
        -1.7092329045918042,
        -1.2333055927276704,
        -0.6705824227838315,
        2.715081775472118,
        0.3595001012323957,
        -0.3085245407717366,
        -2.3868794595031257,
        -0.1208973605400352,
        1.0236516803287625,
        -1.5401022575460415,
        -0.3865697922619895,
        0.5302782605272803,
        0.8760218067769381,
        0.302683888124419,
        -0.5024593758429077,
        1.9951488780995157,
        -0.7185757230901673,
        0.3372914395409903,
        0.14087259600213106,
        -1.2723619778619863,
        -0.22544465519275514,
        -0.16401953852411477,
        0.020616531643726253,
        -1.086170440997634,
        -0.5711283859291572,
        -0.9413751989561993,
        1.0197109538446432,
        0.6087499501035214,
        1.135372325482657,
        0.058230985148294764,
        0.8321031053386064,
        1.7775739390718241,
        -0.29957832438551124,
        -0.8079996030806286,
        -0.6661513828796899,
        1.2333418217021133,
        1.414041724809851,
        -1.4754050338271054,
        -0.41015413394407363,
        -0.4008530245686865,
        -0.5600468965136796,
        -1.9458681276265,
        1.4480374241057383,
        0.010079401769841336,
        -1.184878430308958,
        0.3931163876258578,
        2.566328508016446,
        -0.47780247287988725,
        1.0447786189306605,
        -2.289420313280334,
        1.950523128411515,
        -0.4901526291089,
        -0.08683046813023068,
        0.7705722059454957,
        0.5428326567090194,
        -1.4279423569157208,
        1.1341657086512118,
        -0.7267733967448659,
        0.2867982721026495,
        -1.5260505357801766,
        1.2861223187695234,
        0.501608066163576,
        -1.6649647191465724,
        -0.17453421973606714,
        0.5466018753876978,
        -0.21109629976373917,
        -0.19074852446925045,
        0.1891382612315231,
        -0.021290478433777054,
        0.06281670044152504,
        0.4391747783954446,
        -0.14106388020555927,
        0.9518514095198245,
        2.518159089563315,
        0.3577681538512947,
        -1.2804442388175084,
        -0.6346776901969764,
        0.23532616978296236,
        -1.19971678336393,
        0.2411665438995234,
        0.20673411246168263,
        0.8553147367999019,
        -0.5804501691524165,
        0.8212848659117046,
        0.317255244811495,
        2.563967954503886,
        0.14586657513911067,
        -0.6876310745122481,
        1.3357827547816816,
        1.5502607937167736,
        -0.7199278248479074,
        -0.5392872130125981,
        0.518095618683531,
        -0.5116939315045499,
        0.815512227070343,
        -2.511574262334845,
        0.8821365895753197,
        0.7493967843494816,
        0.41208156542954916,
        1.737477894687554,
        1.8818537446661363,
        0.8393673489154873,
        1.5004551573294,
        1.0072923039655832,
        -0.32099715686966507,
        1.7787825776614739,
        0.36913899680059825,
        -0.44285338135469077,
        -0.8750313597024204,
        1.1872151520530805,
        -0.25822086981572406,
        -0.4444270694668729,
        0.7513960278122778,
        0.17162803919780736,
        0.2645982887528693,
        1.599053010786458,
        0.9488989666464338,
        0.7218820957938645,
        -1.4837916468344978,
        0.20933235870809921,
        0.4519207131512001,
        0.7232249902534877,
        0.5768308430546886,
        -0.9396643538099616,
        -1.2106437702994308,
        -1.1527201630505979,
        0.44433273724558736,
        -1.582952513186003,
        -0.24261488057759822,
        -0.30990600794920625,
        -0.017672887186967697,
        0.4376955332064707,
        -0.2929480888387984,
        0.5756089826664444,
        0.2816592250040105,
        -0.6433507028971688,
        0.26177458209716953,
        1.0891357317315733,
        0.20605091969095685,
        0.07195569344876242,
        0.287083712685328,
        -0.3243643798768221,
        0.28267879743207147,
        1.0332163062371438,
        -0.17801974209992877,
        -0.4742489690670319,
        0.0946409384162097,
        -2.4533975363895557,
        -0.3735296018246774,
        0.24876964772821145,
        -0.9664618666424379,
        0.45558418303322756,
        -0.979303907296615,
        -1.0489037473134888,
        -1.5984660216158733,
        0.37317345078966535,
        1.1579918051806488,
        -2.248739687433929,
        0.38546249266292204,
        0.9469448295519484,
        1.0641937230002194,
        0.06492567062199137,
        0.8598983515415187,
        -0.6612133401296663,
        -1.4863211122016642,
        0.11753355168811025,
        1.383370930072115,
        -0.8520338610896014,
        1.132891122222656,
        -1.818558440432945,
        1.879219873169447,
        0.8438367946918306,
        -0.21874816605908104,
        -1.0646283161033234,
        0.18277976158773607,
        -1.010609768285209,
        -0.41358408667239527,
        1.692501934531067,
        -1.5286368589353732,
        1.6130250636593464,
        1.22215144051617,
        -0.33276132879043663,
        1.273726310726517,
        -0.8947253701053332,
        0.3030677465497037,
        1.6271962587156292,
        0.49496040421781473,
        0.44937809804819595,
        1.2812746372558308,
        0.396740608039055,
        0.6949517903058283,
        -0.20757206038462916,
        1.660953417962624,
        0.3139652445661251,
        -0.640968009088702,
        1.509217239343824,
        2.2044190866624325,
        1.9532913723839056,
        0.802532720829316,
        -1.1283557601140808,
        -0.4508581505650801,
        0.30483964775958317,
        0.3081482874781939,
        -1.809463226707284,
        0.3984132107058508,
        0.6594779744574708,
        0.5002065067707469,
        0.24153261638601853,
        -0.24664748469378475,
        -1.1011489341604033,
        0.45506933230142765,
        0.24405996542635705,
        0.8237462758824083
    ]
}