{
    "idx": 707844,
    "fights": [
        {
            "enemy": 5,
            "fitness": 91.23650369121833,
            "player_life": 68.2000000000003,
            "enemy_life": 0,
            "time": 266
        },
        {
            "enemy": 6,
            "fitness": 39.55326262833369,
            "player_life": 0,
            "enemy_life": 50.0,
            "time": 232
        },
        {
            "enemy": 7,
            "fitness": 89.8262779964458,
            "player_life": 52.600000000000314,
            "enemy_life": 0,
            "time": 229
        },
        {
            "enemy": 8,
            "fitness": 86.33574420258549,
            "player_life": 22.600000000000243,
            "enemy_life": 0,
            "time": 374
        }
    ],
    "weights": [
        0.7072950701560042,
        0.6428139301675976,
        0.6656278239028032,
        -0.9545929027044402,
        -1.844489121950193,
        0.9074136895632563,
        -1.6684799999940292,
        2.3954691401223407,
        -0.48003728008768864,
        0.537181236658425,
        -0.05598010795446884,
        -0.7573295540627063,
        -1.2711144371022183,
        -0.6400586939469984,
        -0.09130488222646588,
        2.63571958354105,
        1.1926838852148145,
        0.7381647192659395,
        -0.5421542622897273,
        2.180940760279617,
        -1.3998065928384746,
        0.1331156574197575,
        1.544082487983035,
        1.3833314485527384,
        1.0954429310969982,
        1.6557452130880455,
        -1.4260701803400178,
        -0.1402320593379676,
        -0.42834370758905266,
        0.15092396321414775,
        -0.4670073863286579,
        -1.2205693687806367,
        -0.8333966501697684,
        -0.9327251411423759,
        1.0746687184125063,
        0.32106241650695455,
        0.30505137431722895,
        -0.8377705894159382,
        0.39254861861494805,
        0.4525376298176113,
        -0.2796073110599189,
        -1.0364417704705213,
        0.6375507510260245,
        1.801745203656087,
        0.7083223605291461,
        1.265614806640886,
        1.9490046657068567,
        -0.13115834433875456,
        1.107523970979267,
        1.0636242721926101,
        -0.23680009407676225,
        1.901721213943907,
        -2.3850870730719325,
        -1.4058068582100005,
        -0.6697369565364905,
        2.0015463974687675,
        0.6486899806870492,
        -0.26828984396281325,
        -2.3794050900563324,
        0.9327782206348989,
        0.745167561741495,
        -1.4466721361338142,
        -1.8597452564861312,
        0.2887769687515584,
        0.27436482217554914,
        -0.037911040710565586,
        -0.88540249938741,
        1.7625013020473268,
        0.8401975122886991,
        0.14981054756180834,
        0.5331676832965373,
        -0.22379670901959284,
        0.11121486252381083,
        -0.048414799234135206,
        -0.43835518846649835,
        -1.6039348878852169,
        -0.7866210825759206,
        -0.02307388107267838,
        0.643567796205879,
        0.11744672324180684,
        -0.40872920602766577,
        -0.2970312692773303,
        0.5033277557491322,
        4.199534093817524,
        0.4601205994652985,
        -0.8748470636218579,
        -0.9346488305790482,
        2.014954373020674,
        0.04270859196173294,
        -0.6636586779715559,
        -0.3258468174241926,
        -0.5629277883346546,
        -0.047438626401401646,
        -0.832209193993529,
        1.235973020478802,
        -1.2449126223433478,
        0.25305843464379074,
        -0.20340985196761485,
        1.155222851791123,
        -1.138970224207313,
        0.5540223653813082,
        -1.9367692110652728,
        0.1687642972763954,
        -0.5571616958911245,
        0.20444899634574754,
        0.13868804466332846,
        -0.5837395144949099,
        -1.4967039012393517,
        0.7413659547477945,
        0.032853602781793126,
        -0.9900280402210306,
        -0.601356146010784,
        1.1800755477359532,
        0.23212051612373308,
        -0.992343803790754,
        -1.1318750192378892,
        0.25637436214386,
        -0.2735445886195103,
        0.6787872435241016,
        0.6810401724122351,
        0.2846754893315685,
        0.2790439380298016,
        0.4504016724711476,
        -0.6739745708472725,
        1.2165235657445845,
        1.5427038387655707,
        1.0311841832361757,
        -1.1222172419021312,
        -0.41874231878249396,
        1.2380812335879594,
        0.15479318758406482,
        -0.18979819563832473,
        -0.480903870875049,
        1.300607751293422,
        -0.26087359724508635,
        0.9378286799930761,
        0.10622114271574584,
        1.7989834374302396,
        0.4054315752650661,
        -0.5548444119782923,
        0.9928697579728691,
        1.6962527627926942,
        -0.8678941907959681,
        0.03759296398048913,
        0.4833613958380857,
        -0.7455432184591462,
        1.2927706375590389,
        -0.5005557660507535,
        1.7469289327178887,
        -0.4832313535458774,
        0.48020303502497486,
        1.3988455249268492,
        1.7282658787887468,
        0.5024357708272561,
        1.0098194542766499,
        0.15054296839544498,
        0.33597267460309244,
        1.939248688132176,
        1.7710192065820205,
        -0.8629718044169242,
        -0.6207229780786605,
        -0.322987157723127,
        1.5763247437385766,
        -0.0859351432836405,
        0.00973766529855942,
        0.13831774355472048,
        -0.18129950782998494,
        1.1851451898224286,
        0.1558006887817438,
        0.6520235803566923,
        0.2601574793843822,
        0.23203468316233755,
        0.8808372431606046,
        0.3460034560776484,
        0.6748604186234403,
        -0.23962727660092226,
        -1.0751274663630292,
        -1.038416959700884,
        0.3343305021715,
        0.4599868245362046,
        -0.40710729502841814,
        0.14920166403483057,
        -0.6048488858938775,
        0.5870062565856904,
        -0.7930018445688181,
        0.9653848576652959,
        0.4446619066795101,
        -0.6817445273585474,
        -0.44185540088719366,
        1.7882345208490324,
        -0.025505572710519828,
        0.1533125066466272,
        0.3975751624705285,
        0.1746098533536631,
        0.1508752504553417,
        -0.012627043288422794,
        0.3529603305744446,
        0.04800145233330423,
        -0.7007274838836544,
        -1.3890646597755938,
        -0.8633218220313519,
        0.1327140721666733,
        -0.0006891904982985475,
        0.28475952966384466,
        -0.04544462103527379,
        -1.8013413865734136,
        -1.6783117931620142,
        1.0579996959515099,
        0.7637083449907526,
        -1.3772567767457051,
        -0.6037285560140844,
        0.9820688841710599,
        0.39120894118106736,
        -0.5678647043900538,
        0.9200916786670496,
        -0.900838176633826,
        -1.4425682857315403,
        0.16316686598119656,
        0.23366758510216165,
        0.10151088879881788,
        2.1774063326842796,
        -0.9448853160125169,
        1.0797641610455242,
        0.8616275706544079,
        -0.19440210014681553,
        -1.631701534558872,
        0.8094642450320926,
        -0.834806761934273,
        0.4531002319245285,
        0.6934251545442279,
        -1.124965543633892,
        1.114783161684266,
        1.8481092601653648,
        0.08888280697592463,
        1.2824086835532622,
        -1.0956799897254594,
        1.3991355296761978,
        1.0879300238086604,
        0.7004683150385196,
        0.14216633642465387,
        0.5335863479075761,
        -0.274076041451694,
        -0.42508730175308596,
        -0.06696163985322612,
        3.452435650740154,
        0.6424253051206913,
        -1.1261609102446213,
        0.8257026591377267,
        1.5598105244346654,
        0.4096461679845332,
        0.37450178643015103,
        -0.9095159766752734,
        0.18199307479632668,
        -0.4427890527685705,
        0.47904154015807987,
        -1.2720435570224344,
        -0.18125366010400068,
        -0.8811481218505193,
        0.6635891914983942,
        -0.33912371524476226,
        0.08007019277359076,
        -0.5382379515346712,
        0.5640409553436984,
        0.6384742451838663,
        1.0556718139375638
    ]
}