{
    "idx": 714566,
    "fights": [
        {
            "enemy": 5,
            "fitness": 90.15650369121833,
            "player_life": 57.400000000000325,
            "enemy_life": 0,
            "time": 266
        },
        {
            "enemy": 6,
            "fitness": 21.924826184766175,
            "player_life": 0,
            "enemy_life": 70.0,
            "time": 160
        },
        {
            "enemy": 7,
            "fitness": 87.6238995977956,
            "player_life": 30.40000000000026,
            "enemy_life": 0,
            "time": 225
        },
        {
            "enemy": 8,
            "fitness": 84.03531660910582,
            "player_life": 1.6000000000002341,
            "enemy_life": 0,
            "time": 457
        }
    ],
    "weights": [
        0.642789326744116,
        0.7990911606079699,
        1.3360680528090974,
        -1.1320357881455603,
        -1.6908793407410523,
        0.40359338167919095,
        -1.1386734292133776,
        1.4400204454617809,
        -0.40531462357761794,
        0.9686236653393164,
        -0.05148342310835605,
        -0.8640299614656486,
        -0.8704339843329756,
        -0.43055437261253976,
        -0.6965475635329796,
        2.995871520798171,
        2.2390366350357773,
        2.097087404208886,
        0.6130155226273266,
        2.1675089640806915,
        -0.9969424712464818,
        0.2737615928357093,
        1.0793657731558548,
        2.5369731069992967,
        0.7597237719666304,
        2.339627806514837,
        -2.011592040615913,
        0.16586420945568203,
        5.073261186180733,
        0.41058705604290385,
        -0.7238034399107024,
        -0.5357934563937101,
        0.09577794663897038,
        -1.8235957115166046,
        1.5723073416687152,
        -0.6151589605865101,
        0.8203583664752218,
        -1.7245552322380688,
        -0.7898069941348846,
        0.5176103660737424,
        -0.7353095355745323,
        -0.7059885822936043,
        -0.20777782154946767,
        0.9145856620172433,
        0.9717032165589737,
        -0.3345608323472045,
        1.5723539440706344,
        0.052687177115016214,
        0.03998627592112721,
        1.5675044703629757,
        -0.5468316177804181,
        1.9705575298633455,
        -1.6439665210106877,
        -0.964101500065026,
        -0.778123319265575,
        1.9146080328008463,
        0.5048499074160012,
        0.09852728673635222,
        -1.7213540876560363,
        0.7998639362989293,
        1.2579392205322324,
        -0.4934183267236041,
        -1.4315893641180062,
        0.6182899444716242,
        0.179320031590267,
        0.3828488716309017,
        -1.6557491005976177,
        0.8013431449968571,
        0.5511625696787452,
        -0.5892575870695598,
        0.9126156392431032,
        -1.358032905956853,
        -0.8631947671646758,
        0.49280238883104477,
        -0.015782103642122902,
        -1.3493594933165214,
        -0.2301158850622611,
        0.15201852597060078,
        0.9370053325374348,
        2.557130997151398,
        0.9242575128792373,
        -0.3262858934978805,
        0.16599485186554117,
        3.1404861110459135,
        -0.05658602357913367,
        -0.247196854041845,
        -0.0073994251703912856,
        0.5770603769323635,
        0.8301106766032976,
        -0.25250202553994994,
        -0.3801268481537564,
        -0.5613275884981205,
        -0.22655048922479643,
        -1.104494252927282,
        0.4320738587383506,
        0.443337017574331,
        -1.1547643593139905,
        0.5068352229716324,
        2.1137579405051774,
        -0.3653564679555594,
        1.1295460512200173,
        1.0598129697498655,
        -0.08990058981817911,
        -0.5170766030218317,
        0.23032335852380525,
        1.184923549389625,
        1.7179868588808096,
        -0.7809929015104808,
        0.5640320076392228,
        -0.514362651227911,
        -1.1436753302118168,
        0.23511935870887715,
        1.2761466501901224,
        -0.22702986924201143,
        -0.9650810176612623,
        -0.8418336704929346,
        -0.5241013623629135,
        -0.21824003978360462,
        0.2569280460284298,
        0.14399373693883316,
        -0.17652417373729676,
        0.1509122805172175,
        0.08827462651421275,
        -0.003045937239489968,
        1.2424093172548567,
        3.248482326473993,
        0.5536790647225619,
        -0.677500039453537,
        -0.13272218563930413,
        -0.6278262643080467,
        -0.8915504211909097,
        1.1470780510268692,
        -0.06212976936967601,
        -0.47011207025373125,
        0.40222901332700595,
        0.6906965189549674,
        0.7315492770396169,
        2.644246539941645,
        0.4663762952865157,
        0.2545162980243429,
        0.9625474062738124,
        2.9849993761549287,
        -0.7041661432575864,
        0.5961603253474853,
        0.01935315322699112,
        -1.1489153388648619,
        1.3309338152061585,
        -1.2873259093476432,
        0.8262103992133739,
        0.7277253120591302,
        0.16885637534650935,
        1.2741424588095813,
        1.2720201643998463,
        -0.20261518383277272,
        1.581962691135751,
        1.0835651349132778,
        -0.024053627263579708,
        1.3955029732325974,
        1.8067499409796874,
        -0.06514434015886397,
        -0.8294807198041734,
        0.5763910996222188,
        0.1791893358384829,
        -0.38603453482591293,
        -0.22183438118738694,
        -0.18739309746699057,
        -0.1559986031190237,
        0.48609792377548616,
        0.1058027047537409,
        0.6015597307533729,
        0.5260501569145037,
        0.4393372344128082,
        0.8619997020192817,
        -0.19627601143769186,
        -0.2117018225681226,
        -0.8184171409522326,
        -1.3671907691178182,
        -1.0091285656746374,
        0.976014740168049,
        -1.1491638686839265,
        0.16897785376426844,
        0.6085940025453431,
        0.6360028886281671,
        0.4536349699721851,
        0.6858626520016589,
        1.5375657102906495,
        1.413186914547368,
        -0.2724082412632108,
        0.858263506143719,
        0.9829476127513876,
        -0.6688139495894736,
        0.16407069670780378,
        -0.5859069472420478,
        -0.8984096303930683,
        -0.364464860972178,
        1.3952675476584988,
        0.6953553309955934,
        -0.6570667333895392,
        -0.3493530090767359,
        -2.0633186999306186,
        -0.39163846427617455,
        -0.10094486800655701,
        -0.8578532027628326,
        1.0562891278816056,
        -0.9661263833732545,
        -0.8072900241909554,
        -1.2949475633815837,
        -0.654565056088295,
        0.7350263834987092,
        -1.3295505344128613,
        -0.22341229766142492,
        0.9274570580009189,
        0.7035726519863845,
        0.877637088833097,
        0.9326271392398428,
        -1.198069113572383,
        -1.300152682780503,
        0.17024158345127044,
        0.4447494507327285,
        -1.137806840666325,
        0.1306462897215636,
        -1.4593103309551492,
        1.928503002892716,
        2.604159232577299,
        0.922323952821741,
        -2.00460887006474,
        0.4013049098023437,
        -1.4782551602102896,
        -0.9192455835803726,
        1.0560773111829125,
        -1.102787133784853,
        2.0950054919679135,
        1.1628394294445743,
        0.11327467289554295,
        0.7622979083347818,
        -0.427353399768151,
        0.737619752338109,
        1.2279835462843758,
        0.42505843931723336,
        -0.6224674354614749,
        0.7963294990477328,
        -0.0950344172868138,
        0.89815924438912,
        0.35900350875794496,
        0.8555780791862485,
        1.1318501872091504,
        -0.9589052598223359,
        0.7662583765420828,
        1.653644525590354,
        1.5184245058049244,
        1.126396478087855,
        -1.0088328407086904,
        -0.8377445096959208,
        -0.4752624322360698,
        -0.22375837509207702,
        -0.864269117886303,
        0.2652394644177992,
        0.3869982859718146,
        -0.4536939311453273,
        -0.24641073683780626,
        0.02315667481527796,
        -0.9592262514202095,
        1.2110756970528516,
        1.1393204685300389,
        0.07990559100074544
    ]
}