{
    "idx": 703245,
    "fights": [
        {
            "enemy": 5,
            "fitness": 86.782357756651,
            "player_life": 28.600000000000257,
            "enemy_life": 0,
            "time": 436
        },
        {
            "enemy": 6,
            "fitness": 39.63870783429057,
            "player_life": 0,
            "enemy_life": 50.0,
            "time": 213
        },
        {
            "enemy": 7,
            "fitness": 89.97289246928257,
            "player_life": 53.200000000000315,
            "enemy_life": 0,
            "time": 210
        },
        {
            "enemy": 8,
            "fitness": 86.99788162462296,
            "player_life": 28.000000000000256,
            "enemy_life": 0,
            "time": 331
        }
    ],
    "weights": [
        0.3173872340542214,
        0.6454000490634731,
        1.1635608541029536,
        -1.1941075628508584,
        -0.8403647982918194,
        0.7388938061754784,
        -1.056449929192991,
        1.0384496076688112,
        -0.3521321465755224,
        0.4665719822691976,
        -0.7588309063566859,
        0.3583699235302814,
        -0.6830777634726031,
        -0.881546975040969,
        -0.522173959637804,
        1.7361342508910584,
        -0.2741802237884715,
        1.2945780231508621,
        0.30219136095134574,
        0.2551422588535147,
        -0.7493891414831201,
        -0.26357691008072737,
        1.8314265968270937,
        0.3921513711694944,
        0.7261172496853224,
        1.3950900946457852,
        -1.0134665141869803,
        0.12957843814657058,
        0.16677745508536154,
        0.4321301414358339,
        -0.42139250038638537,
        -0.44306816175893776,
        -1.310604086370451,
        -0.15136110486180337,
        0.5987182513556063,
        -0.4404824604307601,
        0.7671860564696587,
        -0.8537459798966698,
        0.6255225652735392,
        0.30380746226861505,
        -0.4357637601877865,
        -1.0860255251185729,
        0.9119834537249287,
        0.5288551933690773,
        -0.25557627346731,
        -0.8330998328143208,
        0.692931768509798,
        -0.3887331027123679,
        0.2284995797743364,
        0.7231470621283492,
        -0.15456756516714987,
        1.3842890251695643,
        -1.1913925153978726,
        -0.546880824465808,
        -0.020969339000646216,
        2.0124166200055087,
        0.5450074200621643,
        -0.1169255521496231,
        -1.4808763060635817,
        -0.1930617660247503,
        1.0464013800561114,
        -1.1681266367201386,
        -1.0886312902831783,
        0.5032610238280875,
        0.605192163448206,
        0.6662464275965407,
        -0.9128886743895313,
        1.0797322845137742,
        0.17880387168088063,
        -0.5761943225150934,
        1.3680922638929045,
        -0.5127948696143194,
        -1.234929919713968,
        0.2785480383435843,
        -0.33511274863809914,
        -1.7040529082184996,
        -0.014886653140828536,
        -0.517044314819366,
        0.9365158192320617,
        0.34766514021423534,
        0.5976034042705636,
        0.25934088679203615,
        0.4509183451912145,
        0.29141084968158004,
        -0.03185129869781612,
        -0.533365146387806,
        -0.4720785968477791,
        0.8791638712899377,
        -0.11158196179077542,
        -0.12728856938217747,
        -0.37104572017501264,
        -0.5280726908946497,
        -0.23977309291717303,
        -0.6202871769258008,
        0.5546984110114,
        -0.6786108552619473,
        -0.5188501255709134,
        0.22742279924738207,
        1.603672526937734,
        -0.8832732636196857,
        1.034647807338333,
        -1.331446814839834,
        -0.3549712657349037,
        -0.5364405476272703,
        0.38348030002970906,
        0.539208359002891,
        0.6101638731306884,
        -1.415970962229949,
        1.276469099927134,
        -0.6338391058518736,
        -0.8560246718990469,
        -0.12241627654207746,
        0.9773566128800334,
        -0.04754652969414196,
        -0.8663178499035843,
        -0.2309153757927825,
        0.31747316477023385,
        -0.5816793196689298,
        0.2012352384505965,
        0.47101698363828637,
        0.2157001204481822,
        1.4717639162459681,
        0.24937939870186265,
        -0.6752824123947334,
        1.2823530226531856,
        1.6451665281890353,
        -0.24596434346749235,
        -1.1186251996563976,
        -0.4170090010302907,
        -0.7289231104077125,
        0.1995516365075664,
        0.1959183160639306,
        -0.2743408320996178,
        0.194935404381161,
        -0.17479880942424686,
        0.6809919231364339,
        -0.28322051798826114,
        1.4431438059897204,
        0.701871049616924,
        0.04073882831693204,
        1.1142454712639902,
        0.8279827345437696,
        -0.6634340646752849,
        0.47084266052325724,
        0.44743843722705184,
        -0.9265197751712818,
        1.0668963188711331,
        -1.1142537247466557,
        0.69592138823109,
        -0.16623189912414643,
        -0.4386318703248951,
        1.1049045001506004,
        1.2107750709791014,
        -0.3121906184884311,
        0.9632808491800946,
        0.5152052225988661,
        0.3298390262279885,
        0.7948719632709844,
        0.4654256098256916,
        -0.0013619302023308855,
        -1.1271037143421103,
        0.2115707127513881,
        -0.1668727616756447,
        -0.6061716362642615,
        0.17238381554508164,
        0.35297782638060327,
        0.12142619927258116,
        -0.3428707709236016,
        0.6346098279334359,
        0.04566847064563165,
        -0.1682503998093221,
        0.2810235622923024,
        0.3237909462456664,
        0.21144241462125016,
        0.9805746432549526,
        0.25656491301270784,
        0.314161117150431,
        -1.303469822579557,
        0.5080227359520596,
        -0.4745670002136884,
        -0.6378012643808657,
        -0.3671053814918179,
        0.14647817179023373,
        0.24486842714233886,
        0.021547438747740982,
        0.32597208291796853,
        -0.11242406288261017,
        -0.28158649967161187,
        0.5361554899677757,
        0.9607182504360724,
        0.009271022969742443,
        -0.1775187662757091,
        0.24682646045624512,
        0.06473616408277252,
        0.38851983994555994,
        1.1523158900482033,
        0.11526512926331545,
        -0.2723815728909983,
        -0.6125506327595085,
        -0.856861303796026,
        -0.5632714413807535,
        -0.8554199775284327,
        -0.13678623572628826,
        0.4728880926075056,
        0.06089524348572456,
        -0.7932669722008094,
        -0.7746733739966767,
        0.5431490448071336,
        0.7086922461500288,
        -1.574385214035994,
        -0.07741866143143196,
        0.2277262909457924,
        0.8166805877710194,
        -0.5475542414180327,
        0.9985318823426447,
        -0.4899512038288432,
        -1.0973490351473545,
        0.8563343783728381,
        1.0044498709873946,
        0.5515738448862065,
        1.00158907353836,
        -0.87226752680212,
        0.9149726365880141,
        -0.06636805252082283,
        0.30864257228201747,
        -1.2377764351110732,
        0.7535741132078717,
        -0.5309868851127029,
        -0.20991874628805207,
        0.6674265944487883,
        -1.5046728208891507,
        0.6647362711499796,
        1.752608692042966,
        -0.15102216227348306,
        0.2997861770549701,
        -1.1135591108896998,
        1.6909627877313849,
        0.6688995981763182,
        0.2939964194243906,
        0.18177957308275738,
        0.9234609812348337,
        -0.3089809137126502,
        0.982747084690652,
        1.0403800334483697,
        0.4332051282413468,
        0.5499464198353321,
        -0.9225677280530836,
        0.02105089269378261,
        0.30870803180346695,
        1.3607703527395716,
        0.5902684185077869,
        -0.47886377411466374,
        0.05403306307581941,
        0.2391434464958654,
        -0.22836604869186525,
        -1.0598362403505845,
        -0.07553203974636293,
        -0.21075470759748172,
        -0.2549182529817518,
        0.11675795677846607,
        -0.16569197734671465,
        -0.8913715721245964,
        0.37456738929438305,
        0.3179054904970787,
        0.3707091041631711
    ]
}