{
    "idx": 710112,
    "fights": [
        {
            "enemy": 5,
            "fitness": 89.47788117912033,
            "player_life": 50.80000000000031,
            "enemy_life": 0,
            "time": 271
        },
        {
            "enemy": 6,
            "fitness": 57.557582289478205,
            "player_life": 0,
            "enemy_life": 30.0,
            "time": 231
        },
        {
            "enemy": 7,
            "fitness": 89.5906543710456,
            "player_life": 50.20000000000031,
            "enemy_life": 0,
            "time": 228
        },
        {
            "enemy": 8,
            "fitness": 86.33574420258549,
            "player_life": 22.600000000000243,
            "enemy_life": 0,
            "time": 374
        }
    ],
    "weights": [
        0.9072220226569284,
        1.328644476482551,
        1.4204182775904044,
        -0.9685107824007427,
        -1.4139624960856119,
        0.08633940297037468,
        -1.475822763340534,
        1.3672670087665852,
        -0.7423024890371634,
        0.7479465572621944,
        -0.21954358095180976,
        -0.34455956534074395,
        -1.2695224537473446,
        -0.8577797453366217,
        -0.7072559306089881,
        2.285795933149614,
        2.195438714624231,
        0.7269083017201173,
        0.3950569391719801,
        2.7132076508286294,
        -1.2036866004651743,
        -0.006882423252788782,
        1.3032482289426977,
        2.3410296314940098,
        0.4269579443451756,
        1.9536761736847468,
        -1.6271320779707148,
        0.2913494902764932,
        0.9007221682807793,
        0.09759643033728081,
        -0.7658205209278781,
        -0.8227654220359579,
        -0.43694854767182123,
        -0.9302105138819186,
        1.3269106728023532,
        0.0954182927354493,
        0.11167671397509461,
        -1.3711510958189173,
        -0.27168834522040497,
        0.3398550341621355,
        -0.27374378533268484,
        -1.4243289264568242,
        0.18099467472506914,
        1.0398311550768184,
        0.5013919282896218,
        -1.0129654805939192,
        1.7222595470810076,
        -0.23817764795305288,
        0.42329853187582184,
        1.8414606458299283,
        -0.8190879907189551,
        1.4802442279863366,
        -1.6009590839892034,
        -1.253191428933453,
        -0.25242349025394184,
        1.5942533900128597,
        0.4396978733532442,
        -0.2440517348552113,
        -1.941823608668493,
        0.21674961226594563,
        1.0407631586767767,
        -0.6065432934587434,
        -0.41256759337944204,
        0.6907094214732725,
        0.06606755043898263,
        0.1731942498032784,
        -0.8574605627504475,
        2.4055485151692855,
        -0.8430354162751756,
        0.3878089460041486,
        1.0813550088086765,
        -0.9264363354157754,
        -0.4092024968063444,
        0.3207277063452275,
        0.2231555438795435,
        -1.3857493026929848,
        -0.5292310420563732,
        -0.07343652228408776,
        1.0354175256718454,
        0.003923176218207598,
        0.8441157362073798,
        0.17840309343591043,
        0.7366729006619184,
        2.3326286422086744,
        -0.1134231172922243,
        -1.0970428368120975,
        -0.05208307182064512,
        1.2199701449358715,
        0.9456184009953248,
        -1.9632626260912363,
        -0.8662092227876932,
        -0.32428195624950024,
        -0.4770747667961188,
        -1.9242950499945726,
        0.8970670634576633,
        0.2577432720792994,
        -1.512882770008415,
        -0.13522297749248574,
        2.1501211711960746,
        -0.7069097450830436,
        1.0360309017399745,
        -1.4233974653352592,
        1.4707055112302483,
        -0.4763815121911615,
        0.06969646159546362,
        1.225695464048115,
        -0.22414525209834715,
        -1.2954694612537603,
        0.8940851812325131,
        -1.1188546394621866,
        0.11563452867696755,
        -0.21811221756224064,
        0.772643225427392,
        0.24564390672349765,
        -1.331508826587367,
        -0.6869064584757882,
        0.2542660986684316,
        -0.8898013712956527,
        -0.18880568414088894,
        0.7264333969663705,
        -0.2283981885259986,
        -0.08918185177616153,
        0.6651832071090801,
        -1.197212295979144,
        1.3839337185058151,
        2.40081808600699,
        0.6939939634489701,
        -1.2353373735450421,
        -0.24885468667620056,
        0.5214918128385934,
        -0.37064823987333606,
        0.5715982738474635,
        0.40628518209738573,
        0.2904919472763279,
        1.8844329043854953,
        1.25385494704583,
        0.05830050098097637,
        2.680642267224727,
        -0.08761259652112845,
        -1.3666664229076249,
        1.1353689372162523,
        1.096443445651938,
        -0.9557755310839006,
        0.11965081745775591,
        0.0639647269253283,
        -1.1076816064273332,
        1.6409070459261113,
        -0.6077297606926237,
        0.942987196031046,
        0.9689575915975049,
        0.06443493943465704,
        1.808461529874326,
        1.431194721605468,
        0.362121011144833,
        1.3077184740000976,
        1.3946444843611154,
        0.1766227996358519,
        1.6499612281703384,
        1.183231136782337,
        -0.3839717757619402,
        -1.0729220591566317,
        0.7003721766465281,
        -0.3656027470183999,
        -0.22996479151513963,
        0.5399901360935868,
        0.2831976936343821,
        0.07566918875826163,
        0.6034731624151108,
        0.8296773953839265,
        0.9661049569761218,
        0.2728052056858823,
        0.3625365641585867,
        0.5830057591982896,
        0.6520869284255283,
        0.048451440836332585,
        -0.38990815558486885,
        -0.9065612274149779,
        -0.48649117287240784,
        0.4791692628027918,
        -1.4920624198680814,
        -0.5666883428690632,
        -0.7079739891094721,
        -0.8426959437545608,
        0.600518791728688,
        0.22627943360722655,
        0.600372450313382,
        0.3062651225727687,
        -0.558072046767301,
        0.2775438036319374,
        0.7289342808325827,
        -0.1756808711301313,
        -0.12460980075820237,
        0.5860571568786186,
        -0.047138036668639034,
        0.34643754672961985,
        1.543115258530227,
        -0.05461196695577973,
        -0.7335092601230063,
        0.05800362387529279,
        -1.7722590804104275,
        -0.39395807171720665,
        0.2162560493934838,
        -1.1659239648274298,
        0.2826251824158678,
        -0.059152828969858726,
        -1.1978869829571603,
        -1.6880808528000633,
        0.14269749094793044,
        0.9143508618376961,
        -1.9183604559115008,
        -0.18531459452861987,
        0.5776030987763947,
        1.2968910612996438,
        -0.21769474565219432,
        1.2253456656898538,
        -1.0500874127468436,
        -1.2430495669503732,
        -0.05979938133900699,
        1.0226205537856408,
        -0.03524883990741845,
        1.1902478316039988,
        -0.5824950985468365,
        1.1716780706445715,
        0.6728210484796078,
        0.18732754366544221,
        -1.5552263065998646,
        0.37495310432109663,
        -1.0360631800413442,
        -0.05824963978496717,
        1.403363510158861,
        -0.8572429439274125,
        1.4052308598334466,
        1.6123549157625177,
        -0.0626498814052675,
        0.5764454516950575,
        -1.0090455769771083,
        0.9616942386751907,
        1.6556574997308524,
        0.4863669295184915,
        -0.3098023080419005,
        0.6824555275208655,
        0.2642558245764457,
        0.6928993098386972,
        0.5908797190117581,
        0.9614339728815307,
        0.5584375330899056,
        -0.6824051752053111,
        0.8781532763003101,
        1.1031906649962087,
        1.0319394943685725,
        0.5323215178719326,
        -0.6551663307293805,
        -0.10370794522836346,
        0.20257932282691082,
        0.3406059248842365,
        -1.6749451754141518,
        -0.0870435397686423,
        0.2613520268129082,
        -0.6204776592587558,
        -0.20043699578519306,
        0.1652252556466066,
        -1.6936951860691996,
        0.46006678761065994,
        0.6588330155748159,
        0.20576004565892514
    ]
}