{
    "idx": 701914,
    "fights": [
        {
            "enemy": 5,
            "fitness": 89.40693855665948,
            "player_life": 49.000000000000306,
            "enemy_life": 0,
            "time": 243
        },
        {
            "enemy": 6,
            "fitness": 84.77598249381268,
            "player_life": 4.0000000000002345,
            "enemy_life": 0,
            "time": 277
        },
        {
            "enemy": 7,
            "fitness": 89.85289246928257,
            "player_life": 52.00000000000031,
            "enemy_life": 0,
            "time": 210
        },
        {
            "enemy": 8,
            "fitness": 84.89574420258549,
            "player_life": 8.200000000000232,
            "enemy_life": 0,
            "time": 374
        }
    ],
    "weights": [
        0.6753475833319057,
        -0.1597419469433478,
        1.0846174890676514,
        -1.2242686710409112,
        -0.7178809172803298,
        0.652445700731253,
        -0.5768192204237336,
        0.9972127725713769,
        -0.3742309628526409,
        0.6324672732611434,
        -0.5423060628502119,
        0.595743567396247,
        -1.2588980465620434,
        -0.5384544440654785,
        -0.7936639339134585,
        1.8915006272348212,
        -0.16326170933578033,
        1.192607895312119,
        0.352328538965902,
        0.49409193952888264,
        -0.9794029172464179,
        -0.1947727628436278,
        1.3402107407871933,
        0.4055451635161832,
        1.08691349117255,
        1.4588073695011425,
        -0.756592825862022,
        0.40244861178794156,
        -0.04417354266744072,
        0.18413828935216542,
        0.1057624620065172,
        0.15471378973768257,
        -0.7242065636802227,
        -0.21201955002282713,
        1.1486394554853356,
        0.1392832665139025,
        0.34264634725106136,
        -0.6837353164310606,
        0.49877269777351796,
        0.38072695122559314,
        -1.0317794806324363,
        -1.0937263558539165,
        0.7021226615520395,
        0.23607155870637203,
        0.31284147187536737,
        -0.5626415548579293,
        0.47625850385993174,
        -0.09249670431971306,
        0.12725819578640607,
        0.6576013627634567,
        -0.5383907462969113,
        1.3211815995749798,
        -0.32909381780748886,
        -0.3854927483217696,
        -0.5185645019487612,
        1.825726009587326,
        0.6736892346786683,
        -0.35806537375181474,
        -1.6310107394913351,
        0.4788534821171132,
        1.0721747988718149,
        -0.8919668325447021,
        -1.1336367797521862,
        0.6766594370485206,
        0.8468026809167383,
        0.5917931356468846,
        -0.8743112475624008,
        0.7238065063402703,
        -0.6117794067416001,
        -0.3088178841394697,
        0.8122658073631238,
        -0.68719290272799,
        -0.8929562036546106,
        0.1739077354328148,
        -0.49696293126918367,
        -1.7635293187235899,
        -0.02479116920704859,
        -0.08828146342490825,
        1.0781204526195833,
        0.8184774092818315,
        0.7980888756904129,
        -0.08167414325217731,
        0.6772903855767954,
        0.3056370595781396,
        -0.2606579279947705,
        -0.46642524239931904,
        -0.25021352867209773,
        0.944953237314576,
        -0.22110859214411377,
        -0.3301183733988051,
        -0.7997389964174846,
        -0.47528466838795363,
        0.09208818169581603,
        -0.6844469867170188,
        0.4755015027065739,
        -0.08192402075411592,
        -0.4146119519068921,
        -0.04005121011890558,
        1.4174826009754464,
        -0.8267781057614904,
        1.1989995951296684,
        -1.5716913204424945,
        -0.24298425873935592,
        -0.15379327468444043,
        0.09865467510916856,
        0.6168382073890007,
        0.21953662313862113,
        -1.2144634836379709,
        0.6548327793116985,
        -0.7170829368096352,
        -1.1221424063953027,
        0.23582747955615646,
        1.568215089650609,
        -0.3171723314471292,
        -1.4488111208689431,
        -0.5137195574771015,
        0.976691150927674,
        -0.6135207357980045,
        0.12446419969648981,
        0.42869685917754635,
        0.5994606743763315,
        1.2293884363559637,
        0.32154509858613606,
        -0.8284449472463713,
        2.2920381372881984,
        1.5567254146280827,
        -0.1878884829224516,
        -0.7843011874834578,
        -0.5326431429183945,
        -0.8459060115761081,
        0.1239376276231082,
        -0.1302310231478434,
        -0.14395154697318863,
        0.6611815166623447,
        -0.13136156219997436,
        0.9589951185560622,
        -0.4142122627592677,
        1.308457531182434,
        0.13695657444830261,
        -0.03068325127891936,
        0.8002760430286106,
        0.767326003999379,
        -0.2635156746642912,
        0.38595028194382114,
        0.22184120206846855,
        -0.314523444688403,
        0.985599968290988,
        -0.39316374009431043,
        0.0075975771950490545,
        -0.544054406866023,
        -0.3018454961045851,
        1.670923624305742,
        0.8957260086535669,
        -0.5047791950721825,
        0.6965474126853547,
        1.0447132763375668,
        0.4664282678032076,
        0.6577181892365448,
        0.6797091864032433,
        -0.15473315373711935,
        -1.3523138373939878,
        0.4327428792357163,
        0.05666959453491227,
        -0.6434610153678311,
        -0.6159585683715473,
        0.9012545669154266,
        0.5759914501033822,
        -0.3121888095277088,
        0.6974325935700472,
        -0.4411971173177466,
        -0.2102202106789925,
        0.5332054698304538,
        -0.06250082980485296,
        -0.0608408671245486,
        0.5453302918149727,
        0.5704669688162719,
        0.001026456029244849,
        -1.3084315784938867,
        0.4885475985199021,
        0.24723079258393374,
        -0.9772108480207877,
        -0.2658457146048931,
        -0.9324395508177669,
        0.4889522484703762,
        0.3345220881254053,
        0.006080292677237699,
        -0.11789624160438744,
        -0.7640979440613551,
        0.39436725549521057,
        0.4529410012994279,
        0.10866099165573487,
        -0.29700618229365056,
        -0.2972790030898933,
        -0.11280425564281635,
        -0.5664415928743136,
        0.5640413478235929,
        0.2322891984870614,
        -0.49243298830506393,
        -0.9646632677050279,
        -1.0743539784168343,
        -0.8177394960439832,
        -0.8653391049813222,
        -0.43354548174166374,
        0.19673533759373768,
        0.11929142713936045,
        -0.3827266416154627,
        -0.8566388841752498,
        0.369585703245474,
        0.9561952067389674,
        -1.5715246135109018,
        -0.4365978434505733,
        0.32175814375014583,
        0.49704078293827336,
        -0.6677552112168716,
        1.0469858112016295,
        -0.9031646038522094,
        -0.9926547591759199,
        0.6969500988040618,
        0.8815235335781635,
        -0.1482081625207634,
        1.4741735489350498,
        -1.5610551188235662,
        0.600178498641257,
        0.6085432163277166,
        -0.2530779087158575,
        -1.316758336393488,
        0.8134688960248423,
        -0.5027417695171865,
        -0.09262785050639202,
        0.5236566412766589,
        -1.760641057148445,
        0.7500034162377545,
        1.7855975290628372,
        -0.4255870969854744,
        0.2369950807052112,
        -1.2211914397363213,
        0.8755995840802138,
        0.7116099717385025,
        0.07190080851907316,
        0.10888632808101059,
        1.1422593545126776,
        -0.2472089057386553,
        0.7683113625819633,
        0.9450078531361258,
        0.01108264560030689,
        0.4516246746689354,
        -1.1687187891762671,
        -0.18211392732087855,
        -0.2594837778176793,
        1.2611653309612059,
        0.7154438890248263,
        -0.576158266937981,
        0.12469515965319074,
        0.12327097224364872,
        -0.9187242205113267,
        -1.1353698387886473,
        0.21809661574692002,
        -0.7225424639619941,
        0.19721662739088053,
        0.19198608939270367,
        -0.18053701142045891,
        -1.4576668504167496,
        0.2233667668219782,
        0.37892621855491315,
        0.2512170577480633
    ]
}