{
    "idx": 701905,
    "fights": [
        {
            "enemy": 5,
            "fitness": 91.22772932632856,
            "player_life": 67.00000000000031,
            "enemy_life": 0,
            "time": 238
        },
        {
            "enemy": 6,
            "fitness": 75.31982739098294,
            "player_life": 0,
            "enemy_life": 10.0,
            "time": 293
        },
        {
            "enemy": 7,
            "fitness": 90.63679627126204,
            "player_life": 59.20000000000033,
            "enemy_life": 0,
            "time": 197
        },
        {
            "enemy": 8,
            "fitness": 88.92324619773174,
            "player_life": 46.0000000000003,
            "enemy_life": 0,
            "time": 292
        }
    ],
    "weights": [
        0.4632986226518747,
        0.7364347775254914,
        1.075805254150237,
        -1.35635413501019,
        -0.7656094201828539,
        0.8215968961213196,
        -0.6221558295518667,
        0.5541556492540296,
        -0.8161057921804505,
        0.47287985144349237,
        -0.6505903242052348,
        0.42396733251355917,
        -0.9887756916256697,
        -0.7148832787683131,
        -0.7865579124919037,
        1.8127913045599755,
        -0.399537275372177,
        1.2782451774976176,
        0.41556225694327176,
        0.7336807097262057,
        -1.4540558140931468,
        -0.25764859986943256,
        1.4063127431108513,
        0.5787496714426045,
        1.111808758231117,
        1.5848410749747155,
        -0.47386304295818577,
        0.6609749260023728,
        0.17465460103214436,
        0.17926759769774894,
        -0.006398432824988934,
        0.12061780353549001,
        -0.6994276234925532,
        -0.23336368940384092,
        1.5005205349191455,
        0.05603863091862986,
        0.6141294121954569,
        -1.0043902265188591,
        0.7440164596836408,
        0.1740745215684138,
        -0.38040605363840657,
        -1.0283641631018647,
        0.8628731239820104,
        0.2244286820532071,
        0.025480397631621667,
        -0.4019289945266664,
        -0.2804174996636027,
        -0.2082181730977579,
        0.024718759668788923,
        0.5683870983636441,
        -0.7458128176758855,
        0.8385245312153693,
        -1.3854556423859918,
        -0.6651225828289494,
        -0.13437065755578712,
        1.948878954753199,
        0.5299729634678018,
        -0.08245515336044482,
        -1.7409299740946576,
        -0.021324619891955613,
        0.5671435153559362,
        -0.741137707431207,
        -1.5322705866434083,
        0.6065627876231074,
        0.9922045738921826,
        0.17173405257565458,
        0.19905563904613258,
        0.8138594983986076,
        -0.47832284749468124,
        -0.5812881614622077,
        1.0753918175065311,
        -0.6981999234533218,
        0.10373335969020747,
        -0.018603491670678624,
        -0.42199854408435056,
        -1.7208700728793476,
        -0.3559951500421417,
        -0.6053772667411058,
        1.2664998362926758,
        0.33173606632199915,
        0.712976008552104,
        -0.3772665067903146,
        0.3998729241028194,
        0.38222797251415597,
        -0.167566603273291,
        -0.18867455114616025,
        -0.5161317563785385,
        0.9157178317160904,
        -0.0321778453295708,
        -0.11879137065894106,
        -0.651342250828703,
        -0.9320587797096591,
        0.11199310459007952,
        -0.5707538425250355,
        0.3352502003938044,
        -0.4175152003954507,
        -0.5653182566796021,
        0.06992483470049007,
        1.3878485585910394,
        -0.5593475097873267,
        1.3850560953816722,
        -1.7349248028369968,
        -0.3108406801957002,
        -0.23109772747697188,
        0.14719433930119322,
        0.6210044506650846,
        0.31825191472210146,
        -1.1979130495315289,
        0.9730205681350951,
        -0.8643127084896473,
        -1.265396253639452,
        -0.16087446926547316,
        1.569014486951582,
        -0.3990307625131353,
        -1.5199973068997572,
        -0.47583245759940296,
        0.9879151441435134,
        -0.8144028932131981,
        0.03764177664593946,
        0.1767455555777693,
        0.24260473074134023,
        1.0285328028291278,
        0.1288492817560899,
        -0.4172676005893978,
        1.262246426052491,
        1.4339184756374375,
        0.18174742487915385,
        -0.865764819812628,
        -0.6681308694180779,
        -0.5499869376191057,
        0.32279757419484945,
        0.21560807479811667,
        -0.1351700259341858,
        0.20580165398998515,
        -0.5091696338304512,
        0.9414616370191613,
        -0.5143620467552215,
        1.8662462213883244,
        -0.037782977270890125,
        0.6311411593885341,
        0.6608506193753134,
        0.927532694048134,
        -0.23526874011680737,
        0.28296762640825485,
        1.4774230871812437,
        -0.30825874835313455,
        0.9781703752365037,
        -0.6847377813218567,
        0.5799706298204688,
        -0.471626546985335,
        0.1751317885235167,
        1.6451346265643156,
        0.8959148816554315,
        -0.49325920298576964,
        0.6716243422961811,
        1.8546215188098032,
        0.5019834100904486,
        0.5513704153679169,
        1.01019998722974,
        0.28500226549547397,
        -1.3871328080344452,
        0.49854770556300804,
        0.193867406568607,
        -0.11523511548364887,
        -0.545779215335847,
        0.8900631490962106,
        -0.32988872741181524,
        0.31083339462997706,
        0.4118341359379198,
        -0.3298340038263466,
        0.12048789254565921,
        -0.1408221753560888,
        0.5942809812599031,
        0.2805941251199033,
        0.5204902419766576,
        0.16561725565350596,
        -0.2094549387878007,
        -1.39391009076383,
        0.3629642154788167,
        0.09390509781487272,
        -0.9240143127633359,
        -0.9542741775650309,
        -0.8835044181239928,
        0.8433079453905634,
        0.606779210847176,
        0.7328637884246259,
        0.09619465168088501,
        -0.7059474471060101,
        0.47657102172203913,
        0.9273461729340112,
        -0.11276871505086691,
        -0.14593392497431984,
        -0.5515731894001642,
        -0.17128629229164358,
        -0.5385454283811855,
        1.0417117435946361,
        0.32872003465539,
        -0.08959513245483891,
        -0.6892551525858784,
        -0.9884483737133956,
        -1.026020600686417,
        -1.0169537089957152,
        -0.40778027316510984,
        0.09717739680057313,
        0.21353270600105453,
        -0.5005165239301785,
        -0.7153491208582277,
        0.5219848417799583,
        0.8084839156859179,
        -1.6769884508849064,
        0.020354847154318265,
        0.5131723509643025,
        0.544264074624649,
        -0.46117638880673667,
        1.1549116994400683,
        -0.8097443619932698,
        -0.9461081115309679,
        0.5945293232643376,
        1.036627023751873,
        0.36428036351978255,
        1.3181604834420806,
        -1.6110194286950283,
        0.8071107328657935,
        -0.5824204630501387,
        -0.2233917959617536,
        -1.2222613709065353,
        0.967299176651943,
        -0.3197867246944439,
        0.013589588758674546,
        0.43113821595371216,
        -1.205878214038596,
        0.4257360421575363,
        1.8579049632425504,
        -0.8903426190144057,
        0.8345156587580171,
        -1.2702438219232874,
        1.1415891397470044,
        0.6676049353108392,
        0.02571451954778072,
        -0.053237027039986326,
        0.92389782620169,
        -0.30452732810791877,
        0.6294436691513553,
        1.247166522940774,
        -0.15868830049361402,
        0.4319935685789659,
        -1.5772177483136995,
        -0.12216472255674053,
        -0.3540399719151234,
        1.3904024726376103,
        0.7056358230421684,
        -0.8696709536936862,
        -0.18092814069040547,
        0.9219521209694626,
        -0.968163432800142,
        -1.6500167214091115,
        0.256845803467544,
        -0.42109242955199433,
        0.10861130060845593,
        0.43623549364584124,
        -0.20212067496723812,
        -1.2073429287072432,
        0.4603752462198874,
        0.54319862237624,
        -0.12578949511749882
    ]
}