{
    "idx": 714051,
    "fights": [
        {
            "enemy": 5,
            "fitness": 88.92693855665948,
            "player_life": 44.200000000000294,
            "enemy_life": 0,
            "time": 243
        },
        {
            "enemy": 6,
            "fitness": 39.58835394814496,
            "player_life": 0,
            "enemy_life": 50.0,
            "time": 224
        },
        {
            "enemy": 7,
            "fitness": 88.99504998251862,
            "player_life": 44.200000000000294,
            "enemy_life": 0,
            "time": 227
        },
        {
            "enemy": 8,
            "fitness": 87.13935834262664,
            "player_life": 29.80000000000026,
            "enemy_life": 0,
            "time": 344
        }
    ],
    "weights": [
        0.9561785462261845,
        0.6613973586227533,
        1.4453472269541363,
        -0.27324353803178314,
        -1.5108973078484556,
        0.6211494982739632,
        -1.0533627998238468,
        1.6146005766461535,
        -0.7179495246635614,
        1.043473305723606,
        -0.12868682727878664,
        -0.6444898586009256,
        -1.119482444698701,
        -0.5609323515374484,
        0.049699339072386245,
        2.53314452275054,
        2.0766719318349467,
        2.366401491010537,
        0.8671565718046678,
        1.9356120980752634,
        -1.1961708397492181,
        0.1866890056315166,
        1.0739340011283247,
        2.388451015980403,
        0.6101314555668526,
        2.1079584362148687,
        -1.8744468540152333,
        0.12042676653977125,
        0.4787626399031375,
        -0.1571039002936006,
        0.20073601514216233,
        -0.6432381430007786,
        -0.23363741382776734,
        -1.0859873304853136,
        0.7403971419639134,
        -0.7310927292372482,
        0.15012508064751037,
        -1.6129213014250787,
        -0.06695564486166418,
        0.4322236652026957,
        -0.371122613991744,
        -0.6264390795191452,
        -0.028662345027210392,
        1.1069524975244183,
        -0.04766257471572517,
        -0.7569350353633573,
        1.2002591388037096,
        -0.2792845910189402,
        0.7409095343138808,
        1.333192988472649,
        -0.4850425169522108,
        1.807375325457494,
        -1.6372599696360859,
        -0.8280589722812614,
        -0.7253678533491442,
        1.7047789266379791,
        0.49353338576748046,
        0.009608638404966702,
        -2.229972957804415,
        1.1802433671784545,
        1.2812326501423983,
        -0.8045670937903154,
        -1.0403167490213565,
        0.4955359294998255,
        -0.1771799515277664,
        0.45628118587407746,
        -1.5479189804454025,
        1.0424127411557211,
        0.12658194765026945,
        -0.42163596187919133,
        0.5390017262221753,
        -1.2739314172519636,
        -0.717283543653336,
        0.6541531459387483,
        0.28398952520686943,
        -1.3153671506617082,
        -0.3315752805793296,
        0.3168339176450003,
        1.3603709615540172,
        1.455566110251205,
        0.5032053335716348,
        0.049578078163936806,
        0.18522152186516042,
        3.2213135949159377,
        0.12618011891858796,
        -0.4368331340955245,
        -0.23031806826345416,
        0.5875829511964458,
        0.7781728619376506,
        -1.2881350160927638,
        -0.706401970033517,
        -0.35767035208696013,
        0.24877892684728561,
        -0.9059978349014397,
        0.34773699967472743,
        0.2249190280783796,
        -1.3081062882567136,
        0.5752456523394495,
        1.996294229015372,
        -0.45936199637027264,
        0.956536481224169,
        -1.0065903520614259,
        0.15656939153740443,
        -0.5534537372502127,
        0.36203071213507704,
        0.8536352446815818,
        0.3400965161732686,
        -0.8778544442162213,
        0.48466401569271605,
        -0.4198546253182854,
        -0.4346534796947717,
        -1.269713310131265,
        1.3498210393428673,
        0.10696681294188833,
        -1.079536592025862,
        -0.28232678355904417,
        -0.25314361738322777,
        -0.3390384260637938,
        0.1322019593890052,
        0.39881240604789653,
        -0.07464404727480019,
        0.7221047149957444,
        0.797838081597484,
        -0.12081946431503635,
        1.024863222266585,
        3.604171927936353,
        0.748759830711962,
        -0.7224079020339653,
        0.13719040727498868,
        -0.2234961882385295,
        -0.8828577987805413,
        1.20171276850794,
        -0.38269589580647556,
        -0.05901545711338686,
        0.27057659725504146,
        0.4625552037251322,
        0.4767335618016759,
        2.571672106926316,
        0.2012691054341047,
        -0.35482057669237355,
        1.0432451221997878,
        2.1042307512649656,
        -0.763250576789602,
        0.8727514361387677,
        0.005273111694659237,
        -0.9905492185194861,
        1.1078310193724867,
        -1.3562985258343092,
        0.9909171184539738,
        0.4594765722728296,
        -0.1937756856356907,
        1.4353085385736224,
        1.6006485452107435,
        0.9094684962046271,
        1.4952301154319665,
        0.6486713156002595,
        -0.24200326360598812,
        1.5582734313627422,
        1.6525127506866253,
        -0.10260342808317349,
        -1.1434267115449879,
        0.3900511555844915,
        0.46057093372700597,
        -0.18941711212216134,
        -0.2593979187311404,
        0.6295568519752319,
        0.07204432093095967,
        0.0985344922949286,
        0.7158444759218537,
        0.5498130482406914,
        -1.0670131151344657,
        0.3822014830216537,
        1.0282569234646044,
        -0.24991771552025904,
        -0.11907124467059135,
        -0.8986786297578245,
        -0.9687340952811306,
        -0.9672290477604297,
        0.25623442183078543,
        -1.1684328574572762,
        -0.04378192455595338,
        0.40373729977889455,
        0.8798642986844408,
        0.505270988141791,
        0.02536540600755817,
        0.9867742652690594,
        0.7854331422763623,
        -0.43199819618596147,
        0.43076449429517505,
        1.0565733149765326,
        -0.5537710687777602,
        0.3147814727521695,
        -0.8234579733183531,
        -0.8223859002788533,
        -0.7593282292075842,
        1.236952196707472,
        0.675771634282663,
        -0.4584513313973273,
        -0.6198455906925029,
        -1.7549963299283524,
        -0.3166035886416748,
        -0.1604777976377768,
        -0.14380986332234716,
        1.211340359846583,
        -0.5239012280142812,
        -1.5300608988530322,
        -0.808321163832475,
        -0.19913701710448095,
        0.8909680093258701,
        -1.3726682939253967,
        -0.34520395075550475,
        0.8153537289516001,
        0.8631142215238977,
        -0.07744708970682393,
        0.9108977141038039,
        -0.8992171640958955,
        -1.3755444419506153,
        -0.2788279051070447,
        1.4005054673334678,
        -0.7853387707912962,
        1.6977592790307074,
        -1.2736922556672474,
        1.4346903726105222,
        1.6868329534121884,
        0.45840522387011956,
        -2.09979155970256,
        -0.05065525561462886,
        -1.4024004187418242,
        -0.4589476228348869,
        0.9768508994877528,
        -1.43259143455648,
        1.9022273340141056,
        1.5756953068578468,
        -0.23713392617389134,
        0.5091146814495238,
        -0.3757953176759099,
        0.5561087048405183,
        1.0101077793127302,
        -0.11097681356994102,
        -0.6930149062813928,
        0.6389411333225992,
        -0.06078755630265898,
        0.4985336333213499,
        0.438050207934627,
        0.9182371812982468,
        1.2898630141497534,
        -1.1731813304216279,
        0.9480314621655569,
        1.5274354701936514,
        2.0228333016740287,
        0.4505637543417281,
        -0.46257232878798527,
        -0.7148803215866731,
        -0.33487790882153484,
        -0.2991680386917773,
        -1.1940806725105593,
        0.18667022478816905,
        -0.5321136909255245,
        0.6322817193504467,
        0.027835394066459886,
        0.36069975051459086,
        -0.7804769934758853,
        0.9267173106967987,
        0.37274195885891387,
        0.20946709207489372
    ]
}