{
    "idx": 714073,
    "fights": [
        {
            "enemy": 5,
            "fitness": 89.04283177470683,
            "player_life": 45.4000000000003,
            "enemy_life": 0,
            "time": 244
        },
        {
            "enemy": 6,
            "fitness": 85.03357331188758,
            "player_life": 7.000000000000233,
            "enemy_life": 0,
            "time": 289
        },
        {
            "enemy": 7,
            "fitness": 90.86669517527555,
            "player_life": 61.600000000000335,
            "enemy_life": 0,
            "time": 199
        },
        {
            "enemy": 8,
            "fitness": 75.01606371931281,
            "player_life": 0,
            "enemy_life": 10.0,
            "time": 397
        }
    ],
    "weights": [
        0.7950253145062285,
        0.39778108694973635,
        1.3012738182238426,
        -0.5373042771905577,
        -1.602898563691583,
        0.6082104113361942,
        -1.3012624796011172,
        1.5990256329857087,
        -0.9865072889586786,
        1.1949366269557014,
        -0.1749284971191057,
        -0.7649188583856561,
        -0.6140919415368432,
        -0.5881696118935623,
        -0.48980612118941463,
        2.6410620072541864,
        2.086986353858364,
        2.4476927711524223,
        0.7621465130132258,
        1.8725929483956545,
        -1.189235408303473,
        0.2795123583160636,
        1.1538267073847845,
        2.5142291662424507,
        0.6615763676978094,
        2.1099113138220917,
        -1.849080370727146,
        0.2453553734931232,
        2.4028096890703208,
        -0.18642419449876196,
        -0.05997278685888735,
        -0.5274557179468777,
        -0.05447561700245958,
        -1.2215179677643193,
        0.7354396205431919,
        -0.6140639433178016,
        0.1442315924525322,
        -0.7485801224708784,
        -0.13577906147426266,
        0.35431354661708697,
        -0.6302407374957733,
        -0.8277872733880359,
        -0.015915521474470944,
        0.9827771899185785,
        0.01437549280542915,
        -0.6284523358351969,
        0.927482741009798,
        -0.4031207840674986,
        0.13448845706735002,
        1.0101226529515732,
        -0.5594499696608892,
        2.0340210756971095,
        -1.6909658096911386,
        -0.9658589862818875,
        -0.7008559565478831,
        1.7592330776635172,
        0.3647092050863343,
        -0.3438538125332808,
        -2.222046411784165,
        1.0962459317956765,
        1.3315539387360318,
        -0.5749301431598665,
        -0.9103194693564106,
        0.4392609703223771,
        -0.06164332968039442,
        0.5735139876029303,
        -1.5336689766565732,
        1.0735470866004695,
        -0.08190112721545695,
        -0.39034743327091126,
        0.49413809167849776,
        -1.3018817958494657,
        -0.8685328541656765,
        0.4199979055379497,
        0.26700070193504205,
        -1.2760002386460478,
        -0.1265893989182054,
        0.14981409048905592,
        1.4215517190146125,
        1.2901525900018467,
        1.2391101732933387,
        0.3279890206764788,
        0.15709349110443313,
        2.653656042385803,
        0.24658630727008218,
        -0.6955685634689415,
        -0.41713772590386183,
        1.0822559875759599,
        0.7824028153945407,
        -1.4462351967550457,
        -0.6046547831660297,
        -0.6599488383854945,
        0.16239801292372996,
        -0.850261748385378,
        1.0557149431023471,
        0.48461976857762484,
        -1.164577097412331,
        0.6767042133024735,
        1.9356768757526128,
        -0.4723513173464192,
        0.9755190150584999,
        -2.357457105067649,
        -0.2664500335269529,
        -0.43706669861305486,
        0.11550532217290146,
        0.8877979308391498,
        0.07774151540220683,
        -1.159336620827319,
        0.6000470600592673,
        -0.47042411165586423,
        -1.0539236318855931,
        -1.390219447492932,
        1.4757815469966582,
        0.17415293302055027,
        -1.1321310723440674,
        -0.2570822809466417,
        -0.3346157175404436,
        -0.44525279136013846,
        0.2807703476519346,
        0.814023168553536,
        0.07665412242103267,
        0.1291739019419767,
        0.9264562806695963,
        -0.26845676979530436,
        1.3564313030413682,
        3.615552820559401,
        0.7083935313024801,
        -1.3464195872240654,
        0.11070283167073103,
        -0.4503394627722867,
        -0.6438793953755455,
        1.0051638636904847,
        -0.3120465040011259,
        0.8150045539882362,
        0.5829003130322727,
        0.5445283533866553,
        0.24773307657889115,
        2.956301389225836,
        0.11906477866154551,
        -0.29237973920262106,
        1.319355901115229,
        1.9656411806513177,
        -0.7795052621616507,
        0.25794339586896375,
        -0.046193017059373925,
        -1.171488844195922,
        1.3430579760589285,
        -1.2629171477296846,
        0.8304505164375273,
        0.5167894638485087,
        -0.2043758660702023,
        1.4600289018753234,
        1.655355085182721,
        0.6105266275713588,
        1.8232937749452156,
        0.7850210993154428,
        -0.3070594950101718,
        1.664962702896481,
        2.2459631479577538,
        -0.11072890350874826,
        -1.1718492489553771,
        0.5567613742788099,
        0.35184261347077983,
        -0.1597561305733255,
        -0.07240832154182163,
        0.6335750622033832,
        0.5703276420752286,
        0.482598663765947,
        0.03999539730270446,
        0.38006713536694675,
        -0.8133401699562128,
        0.5336288571414303,
        0.6578919162354422,
        -0.1632949200923677,
        0.09683457941101248,
        -0.7872443391787823,
        -1.0312394883905551,
        -0.9954047996883388,
        0.19353235605694874,
        -1.136603384101079,
        -0.02940686029804221,
        0.45576610467543544,
        0.9885556326846218,
        0.41141617309745027,
        0.47437199124809376,
        1.1435432663691825,
        1.0793846136429595,
        -0.7774811074402344,
        0.1877165754810906,
        0.7892637054744238,
        -0.8004437457200526,
        0.2626866974509907,
        -0.9015738096261948,
        -0.6383705226541567,
        -0.7627776569416884,
        1.2598616646620606,
        0.7100461482151693,
        -0.7468306128811747,
        -0.5035338117489639,
        -1.62884627780396,
        -0.7076953059387617,
        -0.07206182418182767,
        -0.1868879956788528,
        0.7877223264606117,
        -0.5297597796653846,
        -1.702876869970503,
        -0.7759915151514613,
        -0.12872652224317443,
        0.97586705405546,
        -1.5395011499418139,
        -0.330487003823489,
        0.8350186074035407,
        0.7246418329609328,
        0.06160527206170778,
        0.7994994770832903,
        -0.795306280878267,
        -1.1161466148877361,
        -0.5589514722206818,
        1.3991080633630546,
        -0.9113258389051005,
        0.8512287517850305,
        -1.5997842817246128,
        1.4150705103503936,
        1.7895455177524264,
        0.571450084590053,
        -2.1123341938590494,
        -0.00036790486699207064,
        -1.3536698520391623,
        -0.40125321220392096,
        0.9317475666110512,
        -1.175493397075494,
        1.681866656289032,
        1.7344390488205594,
        -0.3099160151051051,
        0.5109225726661037,
        -0.5594345639618324,
        0.6267304395134855,
        1.0961818548002467,
        -0.057294622747822606,
        -0.6578423609057764,
        1.3147519621809143,
        -0.047746150394164695,
        0.5535396992862236,
        0.49999259231563925,
        0.8209580625059621,
        1.3054105620375924,
        -1.1257101751185727,
        0.829182986888574,
        2.0663690506509145,
        2.0670690138493653,
        1.0131001805495927,
        -0.6269365290407821,
        -0.7615330280335604,
        -0.1857388144366114,
        -0.37018656006379647,
        -1.376842051888218,
        0.40877318345369623,
        -0.500485593915535,
        0.8345493952183,
        0.14421139231376476,
        0.5833819359536107,
        -0.8573723884139558,
        0.808412488819795,
        0.4352270462993468,
        0.13251289104277408
    ]
}