{
    "idx": 708065,
    "fights": [
        {
            "enemy": 5,
            "fitness": 88.39520306650937,
            "player_life": 38.80000000000028,
            "enemy_life": 0,
            "time": 241
        },
        {
            "enemy": 6,
            "fitness": 85.25165549623893,
            "player_life": 8.200000000000232,
            "enemy_life": 0,
            "time": 262
        },
        {
            "enemy": 7,
            "fitness": 57.33357331188757,
            "player_life": 0,
            "enemy_life": 30.0,
            "time": 289
        },
        {
            "enemy": 8,
            "fitness": 91.44188000615581,
            "player_life": 67.6000000000003,
            "enemy_life": 0,
            "time": 204
        }
    ],
    "weights": [
        0.779892494063882,
        0.6346348822993797,
        0.735882987246788,
        -1.1443580280714656,
        -1.71194533960711,
        1.3103574269551022,
        -1.7869782422658578,
        2.0760681053811547,
        -0.4320405046141055,
        0.2105041943325849,
        -0.2517406702845422,
        -1.0354514156554906,
        -1.0645499672814958,
        -0.6845752107752754,
        -0.05978068297720214,
        2.523870025862802,
        1.2604448344390107,
        1.1755907008800963,
        -0.07868017773695382,
        2.0523749556560724,
        -1.2638890832020724,
        0.05221708329163641,
        1.622671886063167,
        1.3100472803338263,
        0.3503780212185623,
        1.956492994817226,
        -1.67986760319569,
        -0.39200366952363197,
        -0.2777434256139618,
        0.3457554447857226,
        -0.6147630133065889,
        -0.517824043395809,
        -0.5162789781719804,
        -0.847883026325203,
        1.2329372055083918,
        0.45716192695230906,
        0.1574447744897675,
        -0.5774283212004366,
        0.46994075285482395,
        0.2953482575490939,
        -0.36834213304258845,
        0.06323611492605063,
        0.3376644751314923,
        1.797749230665065,
        0.8680360651975735,
        -0.13469082990251868,
        1.2805956174983977,
        -0.17714110331110325,
        0.7710634049281071,
        1.2756639392572202,
        -0.3079452011268986,
        2.639698715479915,
        -1.196926993769138,
        -1.212439690005526,
        -0.5695848327244084,
        1.9973758598000535,
        0.583201740044245,
        0.19130484790998764,
        -2.342641753643504,
        0.23833003018778354,
        0.7003627747415131,
        -1.4111187456590881,
        -0.6280584207821556,
        0.772998015418667,
        0.6763842790182255,
        0.026605189331558688,
        -0.7474329897168323,
        1.6739869794426603,
        0.7850312541579482,
        0.11271663379642399,
        1.131780530683281,
        -1.1422113434875703,
        -0.35860031724817953,
        0.42529409900846105,
        -0.41324883527353923,
        -1.3349899616436423,
        -0.4496792837544319,
        -0.38103332780873245,
        0.5221949935206122,
        -0.0793813188162317,
        -0.025217893536142316,
        -0.11571104418503939,
        0.4586922862856358,
        2.3146738865881002,
        0.7212705869125985,
        -0.943887157755746,
        -0.7881668664871543,
        1.9186652109562823,
        -0.20125284579215788,
        -0.5918478371347,
        -0.32805154294340283,
        -0.9099874925507379,
        0.30596524791352964,
        -0.4160029648262087,
        1.2939977256814732,
        -0.9513877159630744,
        -0.22487318996361821,
        -0.3650605930041946,
        1.406332093037713,
        -1.1209402016515122,
        -0.10585508743913788,
        -1.947351380932924,
        0.5154317066375468,
        -0.7162556280964063,
        0.3065975520373053,
        0.49332013925681506,
        0.7807778389872088,
        -1.377439563641404,
        0.9107993306808432,
        -0.34738289282131535,
        -1.3989221215496368,
        1.4977561938630417,
        1.028963486378551,
        0.4510984403789856,
        -1.0825039165475108,
        -0.9831376890077813,
        -0.043348927962820534,
        -0.25742763507855315,
        0.5362866995887853,
        0.7865052875718574,
        -0.08943492735626236,
        0.27318770494750594,
        0.24333035065865727,
        -0.7718830061661249,
        1.3076115962146069,
        1.5787270951272898,
        0.24361747374579484,
        -1.1386629135250437,
        -1.388107457614411,
        0.662869959400429,
        0.05696926803154859,
        -0.18050345475720325,
        -0.06525444219181115,
        0.5807889851383877,
        0.494626178892535,
        0.7787971015360973,
        0.15771686539537078,
        1.966364020652101,
        -0.4908882676506927,
        -0.7695197952484467,
        0.6491909486842142,
        0.6040582390309754,
        -0.8836917831778875,
        0.2437978986512151,
        0.5706777240799074,
        -0.9721510535354461,
        1.1462883971547015,
        -0.5412405534825443,
        1.7888104828681641,
        -0.31579998368866663,
        0.4556122838672798,
        0.4929870070015489,
        1.5268127152994504,
        0.5692330086826316,
        1.7227722900020404,
        0.3182996149586979,
        0.3933825403769603,
        2.1855608310818764,
        0.2875690378587039,
        -0.25186799360492224,
        -0.3938844821455534,
        -0.1262020620780868,
        0.6508052752218819,
        0.09788634389828596,
        0.0021306105686704907,
        0.6014697382001627,
        -0.4464003469137155,
        1.0216110073925906,
        0.24082801337270698,
        -0.040397048067238095,
        0.27364485750186573,
        0.6965082624651407,
        0.6994791715217851,
        0.5317042010994428,
        0.7040029393689844,
        0.28344904761840584,
        -1.1534361171256684,
        -1.4650924890655839,
        0.32781442981889247,
        -0.45511743965965373,
        -0.3917916116688613,
        -0.8204934984494321,
        -0.2161044359068976,
        0.49395792381756,
        0.0703600838568368,
        0.9419831011905476,
        0.5201194733276323,
        -0.9533309295280866,
        -0.29587813650010786,
        0.8360264184508464,
        0.01787627684098833,
        0.31479158931346773,
        1.482534273299646,
        0.30964851454426373,
        0.3433185074632246,
        0.7142244431981353,
        -0.2232678318212143,
        0.20835074898601033,
        -0.461685262067682,
        -2.189912034926963,
        -0.6831800553187104,
        0.7676542358052445,
        -1.3214514024980644,
        0.7800218629959622,
        -0.2994605412132925,
        -1.2892970078890769,
        -1.4469338491651675,
        1.4344701321048634,
        1.0871178931856498,
        -2.5450492394338746,
        0.12916325810743107,
        0.24377416409967373,
        0.2667417424704047,
        -1.0180448209921056,
        2.27423271649497,
        -0.8583053925447613,
        -1.7858746532215797,
        0.2848292423129427,
        -0.31850628439163087,
        0.5474543495571446,
        1.5503346249719834,
        -0.5553400576270507,
        1.0903996896331667,
        0.28240899171600725,
        -0.04037940503647673,
        -1.0024751433307795,
        0.11132109968115714,
        -0.9303956714572191,
        1.0639538525789265,
        1.0632437459314625,
        -0.9036467366947705,
        1.0327661734126061,
        1.641636004696118,
        -0.07496419981272381,
        1.392208163422254,
        -1.196100017545475,
        1.4988951060495759,
        1.3637900725845005,
        0.3574679218175484,
        0.2539951228452196,
        1.0989593028195976,
        -0.524463400283824,
        -0.36186160953539115,
        1.085580521844924,
        0.7688026209500978,
        2.184943105952021,
        -1.161857682479053,
        1.024912546599472,
        2.029668030917507,
        0.7536572901364079,
        0.30102607360102757,
        -1.0569662616349156,
        0.18429036200082188,
        -0.11778970313357137,
        0.35291833897348857,
        -1.0830733227484384,
        -0.17215187851241814,
        0.8713277419093914,
        0.7015765056128566,
        0.1173916035396611,
        0.26859677568153306,
        -0.6666445199528412,
        0.9434290622131348,
        1.0197400147361768,
        0.5277822256882303
    ]
}