{
    "idx": 700196,
    "fights": [
        {
            "enemy": 5,
            "fitness": 87.50384284030167,
            "player_life": 35.20000000000027,
            "enemy_life": 0,
            "time": 410
        },
        {
            "enemy": 6,
            "fitness": 57.43931836898447,
            "player_life": 0,
            "enemy_life": 30.0,
            "time": 260
        },
        {
            "enemy": 7,
            "fitness": 90.38814186652397,
            "player_life": 57.400000000000325,
            "enemy_life": 0,
            "time": 211
        },
        {
            "enemy": 8,
            "fitness": 88.81968822339262,
            "player_life": 45.4000000000003,
            "enemy_life": 0,
            "time": 305
        }
    ],
    "weights": [
        0.33135259268693984,
        0.001729548571963474,
        1.1066993538204277,
        -0.41626039761841305,
        -0.9029142829326184,
        -0.15458479121548446,
        -1.28033065836151,
        0.8102367011025322,
        -0.935261162709915,
        0.5361982213542633,
        -1.1766229543026552,
        0.35815322651979076,
        -1.1317378649815537,
        -1.0233364849035331,
        -0.6972556865871631,
        1.9127205500979318,
        0.3053551111388414,
        1.440156261762514,
        1.0692964207157187,
        0.691022115235071,
        -0.7491906774427117,
        -0.4038636155994185,
        1.8684670216574972,
        1.715754069087181,
        0.8580677333257027,
        2.9101423741482315,
        -0.5753509101371622,
        -0.14696889923549622,
        0.46284013081629405,
        0.2725075242784603,
        -0.21970430985199307,
        -0.05486212750987551,
        -0.9867149925102592,
        0.0561921486558207,
        0.7594443696821283,
        -0.6620571123210133,
        0.5479771213783078,
        -0.5476754079922689,
        0.08716561077195317,
        -0.09150293753164498,
        -0.6101482887208347,
        -1.2383735483139275,
        1.1082777480257489,
        0.5743438519996855,
        -0.0955481115940344,
        -0.8224741006455165,
        1.6625150874366366,
        0.5066164876047039,
        0.30264392638641696,
        0.8574780005484682,
        0.1547459672012676,
        0.842906003212508,
        -0.923425717759728,
        -0.2988297243720214,
        -0.9400739039206517,
        2.8054983573638728,
        0.08813436194325969,
        -0.4072091670500267,
        -1.5692044194292682,
        0.9509744858499047,
        1.3580700289947096,
        -0.8639015246960036,
        -1.2431547567486416,
        0.15880718635172847,
        0.6877110520478927,
        0.7344670123362986,
        -0.9776789647764665,
        0.8557772985635937,
        -0.46198590718161986,
        -0.16536317113704266,
        1.3201063543697937,
        0.2200284096174185,
        -1.2673964019397848,
        -0.15243942215010545,
        -0.37308917452552365,
        -2.1918788615811917,
        0.41913115570602577,
        -1.2221164422024797,
        0.6713357628386358,
        0.36759500666876804,
        0.45349668059908477,
        -0.2167435017925311,
        0.6232754356383559,
        -0.21965233807197393,
        -0.5551282246806017,
        -1.063440911628896,
        -0.12852774619318205,
        1.2941560866533428,
        0.16317245110287693,
        -0.24108305403161934,
        -0.629946806546547,
        -0.9404889599274792,
        0.028156488858314073,
        -0.8566951478874959,
        0.34339802956161547,
        -0.3876399824776609,
        -0.9580901220153902,
        -0.3618306760062535,
        0.8111681337561203,
        -0.47504814350442054,
        1.461668152932004,
        -1.2596784537172596,
        0.20095435875195042,
        -0.3034031830498667,
        0.12511207234130067,
        0.9260715165267389,
        0.2676133080082177,
        -1.4149229194001514,
        0.9001348646538694,
        -1.1176512998807622,
        -0.9777086804228599,
        -0.24581517109281326,
        1.101684423917112,
        -0.5060654814813857,
        -1.721740718246814,
        -0.5800880471714432,
        0.4663071132411344,
        -1.3156305147630054,
        -0.046274742421937354,
        0.39599909457561167,
        -0.21198787023092444,
        0.3269663919672886,
        -0.015255991650626799,
        -0.1863473785558282,
        1.8347866078995114,
        1.7984022318639497,
        -1.0336217214268715,
        -0.21323811245501115,
        -0.4801366257410875,
        -0.5488263742864393,
        -0.07930744321366562,
        -0.16064326296345907,
        -0.6906390516903016,
        0.32301598680477595,
        0.42567471153194153,
        1.2204544780809787,
        0.966857917917646,
        0.9620162510708066,
        1.331089779796688,
        0.5945553915479743,
        1.2298128829917139,
        0.7809769769169598,
        -0.8323832733564379,
        -0.1791173034911511,
        1.01220003051778,
        -0.8492597667912436,
        0.7527329814219342,
        -0.551455508456034,
        0.5821560175037603,
        -0.08625552070120414,
        -0.12149158207604618,
        0.875379529521369,
        1.582969859110773,
        -0.19376439504007628,
        0.6063936813680995,
        0.8239742551213586,
        0.5395742517115834,
        0.14211688111622994,
        0.07703648540303076,
        -0.06637578452216923,
        -1.444901505221416,
        0.5237707883851288,
        -0.6011724350187473,
        -0.4570350359775497,
        -0.5766170531848479,
        0.5392143400497654,
        -0.2559360694849268,
        -0.2458266530847505,
        0.48028322136470364,
        -0.739625965948697,
        0.6414617424423543,
        0.413036253913127,
        0.23121569147320195,
        -0.3732062080812898,
        0.24081813752156084,
        -0.8180953379392121,
        -0.4040862423641804,
        -0.6701378170117416,
        0.3718060028877627,
        0.5739886242325201,
        0.24469163853630477,
        -0.9590650524084586,
        -0.6968209920888438,
        0.42868824646098264,
        0.7772897194590355,
        0.7297921679210388,
        -0.17890567215942021,
        -0.6450411666772966,
        0.8384700381492388,
        0.7253623235069178,
        0.0774089863082732,
        -0.2512707613293976,
        0.2220392492483132,
        -0.42421319969705207,
        -0.27904126903256404,
        0.1824917802249322,
        -0.05213926539312697,
        -0.30551254541717376,
        -1.0693556288341182,
        -1.060857447533288,
        -0.6672620147265719,
        -0.32953265508146434,
        -0.3706108723839962,
        0.3857838339233966,
        0.7600188549962673,
        -1.089718582932294,
        -1.1381231263259768,
        0.09275375706747747,
        -0.07403550201412673,
        -0.9969594562275456,
        -0.2992966984287391,
        0.000873128569272727,
        0.5639858469189053,
        -0.1493598506128969,
        0.40739153377580434,
        -0.028305343854756693,
        -1.0860050353854391,
        0.8344733175038037,
        1.307207146870692,
        0.22565878277799276,
        1.3962897058435586,
        -0.333168777664113,
        2.0444017574437265,
        -0.02397730490877567,
        -0.14926272089310577,
        -0.9758296853556546,
        0.5466982072424861,
        0.2822778812630347,
        -0.3068395517622121,
        0.8821798377915431,
        -1.013011187653954,
        1.6569179890699883,
        2.590921194818226,
        -0.3791321709450865,
        0.35816261066475674,
        -0.9637208959488651,
        1.143896389281011,
        0.4227473908292001,
        0.10674959436211298,
        -0.09399617843867114,
        0.6014220758784833,
        -0.23536771252208122,
        0.30543988253824095,
        0.740512432922323,
        1.77097051443097,
        0.6496530972932566,
        -1.323293080851519,
        -0.4280084681621266,
        0.17424748385097763,
        0.8032605722139471,
        0.7681579736667208,
        -0.23612331864580774,
        -0.08548952678553173,
        -0.4594404803051918,
        -0.33502952104415695,
        -1.356349299629958,
        0.14001065216422023,
        0.17587975368373904,
        -0.15736935921838657,
        -0.2440405226208105,
        -0.29957761910838365,
        -1.1602667223299536,
        0.42101633268117045,
        0.24067402956658518,
        0.7612989934285144
    ]
}