{
    "idx": 710239,
    "fights": [
        {
            "enemy": 5,
            "fitness": 88.64528862039819,
            "player_life": 42.40000000000029,
            "enemy_life": 0,
            "time": 269
        },
        {
            "enemy": 6,
            "fitness": 48.601837298482245,
            "player_life": 0,
            "enemy_life": 40.0,
            "time": 221
        },
        {
            "enemy": 7,
            "fitness": 89.29946500072774,
            "player_life": 47.2000000000003,
            "enemy_life": 0,
            "time": 226
        },
        {
            "enemy": 8,
            "fitness": 87.05788162462296,
            "player_life": 28.600000000000257,
            "enemy_life": 0,
            "time": 331
        }
    ],
    "weights": [
        0.6247423942627547,
        1.553738761015898,
        0.45379167450406455,
        -0.6307881397782512,
        -1.3082171808467968,
        0.555610128549573,
        -1.595980173307908,
        1.2417295291646013,
        -0.5948518450513067,
        0.6957577899264601,
        -0.19297662499018728,
        -0.3832878714161628,
        -1.2571823976535472,
        -0.8699714127563057,
        -0.7379078639343746,
        2.1047456087872214,
        2.1285789093512513,
        0.664468314647823,
        0.8226280899843593,
        2.789796611909188,
        -1.1673303996134796,
        0.10780682299441147,
        1.3993903298746175,
        1.8799939934636698,
        0.5158685986195707,
        1.5382316979540178,
        -1.4136520377236041,
        -0.44388317582768494,
        0.8726233295533571,
        2.196074332857355,
        -0.7949498187663492,
        -0.8531877444816064,
        -0.7144331035504189,
        -0.5749427065175169,
        0.9516420656143058,
        0.11846002662099225,
        0.5624227209614482,
        -1.191586412241925,
        -0.3391527121709368,
        0.03658836335783991,
        -0.3973123171653199,
        -0.4822452290200543,
        0.6225933781952516,
        1.0867713541290032,
        0.3389214392823698,
        -0.46686434658109127,
        1.8273616497462284,
        -0.3272028779795404,
        0.250392838175966,
        1.0381474007183196,
        -0.23422500422851367,
        1.6820283597350607,
        -1.5737829341813976,
        -1.3666358381540347,
        -0.696373817677164,
        1.0989106917210696,
        0.6889904553590493,
        -0.3942294187874877,
        -2.246065647175029,
        0.5092416627850693,
        0.9255406858057691,
        -1.0542772171914407,
        -0.4171519423100467,
        0.8513054272165267,
        0.19866733260098154,
        0.16791910932318055,
        -0.8479923643936803,
        1.6460786106781862,
        -0.9732122370336818,
        0.5435569625027438,
        0.582660690684222,
        -1.168020884363424,
        -0.2621655264209034,
        0.15545644037706435,
        -0.02572609985652949,
        -1.3348133759459029,
        -0.6339233816715992,
        -0.43841393046311566,
        0.9882163436077813,
        0.6321442696633346,
        1.0606474834390915,
        0.11937978165864252,
        0.7301298481427166,
        2.344165478226799,
        -0.5240896227360592,
        -0.9038502686082164,
        -0.7090625986426438,
        1.270138095883869,
        1.0519517570862722,
        -1.6582912424532739,
        -0.5967420967401373,
        -0.8181411734754346,
        -0.43616182648796487,
        -0.9053830670740196,
        0.7083033235600412,
        0.2006648426030085,
        -1.3275512254132067,
        -0.09216577030709337,
        1.4561533319481474,
        -0.7408977016408119,
        0.6676834700425747,
        -1.5528041447011887,
        2.011646766989638,
        -0.17022023123858576,
        -0.13024051827882124,
        0.7173206206135085,
        -0.31911063065205425,
        -1.3222921205741036,
        1.2872401466508179,
        -0.32914213044837104,
        -0.22852162119159608,
        -0.894601010616862,
        0.7514884718323855,
        0.2922439781990937,
        -1.3609148003608527,
        -0.6239772729334427,
        0.14997205245196357,
        -0.9646250983609038,
        -0.13515200567815452,
        0.39723278405055595,
        0.34092722758725047,
        0.018938395245705633,
        0.47970295250705364,
        -1.1683690047396147,
        1.5921348871875327,
        2.5797165075153785,
        0.5547071012597693,
        -0.8804772993755087,
        -1.0560201463040686,
        -0.1560545246189037,
        -1.198694757773535,
        0.0629607132699131,
        0.2939594333021429,
        0.7122289697649208,
        0.11800226969281141,
        1.0806994804342818,
        0.052944599536656395,
        2.5095063992060296,
        0.23754553178748056,
        -0.9345573921325998,
        0.263630032353431,
        1.8390331030802962,
        -0.9284827543822459,
        0.41926341031885583,
        0.21788050886841104,
        -0.6026109815442956,
        1.4243512109440695,
        -2.5039677974156542,
        1.007300589931529,
        1.0875831528215303,
        -0.21797963209547877,
        1.9457479509338305,
        1.6125249868632663,
        0.37317944945739223,
        1.6452473486801216,
        1.2389474015734097,
        0.14616537739776242,
        2.0106554102095413,
        0.8748886163089021,
        -0.38793145516535343,
        -0.9849783550347915,
        0.7568200821424125,
        0.06054116454241862,
        -0.39359279175699297,
        0.20954247658341846,
        0.613444902893146,
        0.23655616021762826,
        0.6509134777242964,
        0.5553815489500729,
        0.6904662733704902,
        -1.2888423081996345,
        0.22135472825266617,
        1.0006781725740632,
        0.487463498872896,
        0.16563796687504367,
        -0.7880664468090798,
        -0.7480439850056241,
        -0.5435666381536363,
        0.8773479099700154,
        -1.7992271349411628,
        -0.31013351235665965,
        -0.8807948492194009,
        -0.5959129746976843,
        0.7196827444338002,
        0.011190639818295304,
        0.18135056197214128,
        0.8670228417187253,
        -0.7345807900060459,
        -0.09399228889591839,
        0.6651528216733853,
        -0.0942769803995405,
        -0.4866749437563454,
        0.41222048093495123,
        -0.3794746988086079,
        -0.07319723442138604,
        1.094204074336114,
        0.30898887019267207,
        -0.4043939734173408,
        -0.37209298929677664,
        -2.2132788296925554,
        -0.6143102438548054,
        0.760366812730578,
        -1.3664850162846753,
        0.196970203881781,
        -0.8343705472889008,
        -1.3701219827020037,
        -1.474383822424184,
        0.6275991466465669,
        0.8066784449539155,
        -2.1962375464659982,
        -0.21480005357744458,
        0.03518613245641945,
        0.6019167251534374,
        -0.09465279038951559,
        1.5331690174490913,
        -0.9722325067417257,
        -1.3911337890251465,
        -0.023877451630315724,
        0.9007198307317192,
        -0.7975905426336707,
        0.9991442161963017,
        -1.4818263604232509,
        1.0339771648833538,
        0.299529390742928,
        0.2777177853369667,
        -1.110798208892605,
        0.41191064392123555,
        -1.0668505664427537,
        -0.1677638327062665,
        1.640451609240059,
        -0.9741952027602535,
        1.107267052760455,
        1.4662300084445368,
        -0.01679169995241802,
        0.365172622958501,
        -0.03861991338040177,
        0.30211142488465226,
        1.3127884193926855,
        0.3128547230183001,
        -0.3980348377931331,
        0.826725858269852,
        0.7056598068122455,
        0.2873119747060339,
        0.782713637305213,
        0.9659585871262426,
        0.2614872260946016,
        -0.6643513717564298,
        1.2470697577192837,
        1.0401619025332247,
        1.2964505820461039,
        0.5616162261432335,
        -0.7016591326612958,
        0.014084597988512517,
        -0.11793758606435027,
        0.36001075697149065,
        -1.6145476664509095,
        0.14887203368397306,
        -0.06753775207612152,
        -0.18523204231286178,
        0.3194960748043255,
        0.010756006278101339,
        -0.967374599862117,
        0.34626991381851635,
        0.8664362696824626,
        0.405638774031741
    ]
}