{
    "idx": 704201,
    "fights": [
        {
            "enemy": 5,
            "fitness": 89.62405089685372,
            "player_life": 52.00000000000031,
            "enemy_life": 0,
            "time": 264
        },
        {
            "enemy": 6,
            "fitness": 85.74693855665947,
            "player_life": 12.40000000000023,
            "enemy_life": 0,
            "time": 243
        },
        {
            "enemy": 7,
            "fitness": 48.629361971872335,
            "player_life": 0,
            "enemy_life": 40.0,
            "time": 215
        },
        {
            "enemy": 8,
            "fitness": 90.26661051127252,
            "player_life": 58.00000000000033,
            "enemy_life": 0,
            "time": 253
        }
    ],
    "weights": [
        0.15688474212544662,
        0.38668945758744466,
        1.018537316761622,
        -0.694730168666819,
        -0.6931010061073681,
        0.32165499264460523,
        -1.6783816519638874,
        1.012383183201972,
        -0.9908380799151683,
        0.5853329156621536,
        -0.5028984475218059,
        1.065850983767019,
        -0.944093050011181,
        -0.5459851386209715,
        -0.5292914441485972,
        1.8391513677109477,
        -0.20895641930056683,
        2.360600655006593,
        0.11024172094273933,
        0.9447956717053898,
        -0.8983133156693232,
        -0.4729185060369083,
        1.588452814638507,
        1.9594930538486164,
        0.5213437106030221,
        -0.11192031739027158,
        -0.6708044413631244,
        -0.4020663020808746,
        0.22821041084089316,
        0.31840789573989264,
        -1.0574772538421409,
        -0.36532125954048866,
        -1.0193156008966893,
        0.7064784880214225,
        0.781463472235763,
        -0.39774508794218816,
        0.529045642005714,
        -1.5242220676713856,
        -0.2724700046736774,
        0.007358782091662151,
        0.3417756122598154,
        -0.6498382916173309,
        1.0301923799541122,
        0.41808450793401236,
        -0.5229835970674219,
        -0.8305500575698784,
        0.49202484274617975,
        0.20878979843331613,
        -0.6731454036379829,
        0.5200230663840046,
        0.75723130684308,
        2.261872701994361,
        -1.0561713596824545,
        -1.1144931219693366,
        -0.2731411662948322,
        1.7487288685250146,
        0.5967911551954409,
        0.023437631248043912,
        -1.4107088816998428,
        0.46356619843096836,
        0.7797984529658788,
        -1.7523645542968056,
        -0.6706617936580371,
        -1.2263602212991591,
        1.2766414162417052,
        1.099563873061585,
        0.13014148872726672,
        1.462148143958972,
        -0.5660645426003321,
        0.18341847008044024,
        1.0660333563449815,
        -0.02537748633928047,
        -0.8896695475493253,
        -0.2024742241991983,
        -0.7919312587048417,
        -0.8505570918095291,
        -0.5182569453890293,
        -0.8934485679473534,
        1.1770623098534654,
        0.1342809095482714,
        0.1452071634676041,
        -0.7409953916737579,
        0.4686930283150302,
        2.133615767128193,
        0.515020632046432,
        -1.1247417770487849,
        0.5604257798606046,
        0.8550543155985392,
        -0.09082040360217997,
        0.1033288391795595,
        0.08778243764508134,
        -0.7809574084784304,
        -0.14938698982793464,
        0.08336263813948536,
        0.3983021672627698,
        -0.1247525246104362,
        0.08390464016559615,
        0.7601612985341915,
        1.1319096549816858,
        -0.3953503403091949,
        0.6590279315239843,
        -1.4281721791713677,
        -0.7851389923909401,
        -0.29790266043665237,
        -1.014022551316329,
        0.8035559235833256,
        0.09647066933384131,
        -1.614243957907018,
        0.520773504105051,
        -0.7065246396618925,
        -1.2241252928873203,
        -0.19237129730637526,
        0.7238378332384857,
        0.3902165284888333,
        -1.4471431593388582,
        1.0601014140612277,
        -0.6915750744415164,
        -1.0344545309522235,
        -0.10421122588036882,
        -0.01696443801676381,
        0.48778865809684974,
        1.1051589264806483,
        1.200281455507533,
        -0.8487738628973044,
        1.727062338995635,
        1.1011677122157884,
        0.5498954370103779,
        -1.0629787732124933,
        -0.9615300254238556,
        -0.6538809120905645,
        0.35190731530065616,
        0.19128705003327595,
        -0.9429979498891093,
        0.25074998957045036,
        -0.30473589669679596,
        0.932997799243734,
        -0.3380899212162449,
        1.1697252145366617,
        0.37913132104341896,
        0.0006390366333083389,
        1.128012621052475,
        0.6389193898219723,
        -0.437946325868994,
        0.6806289477633296,
        0.6956338719324408,
        0.31849201343270966,
        0.8320121981179267,
        -1.0480515427616846,
        0.06312445458521736,
        -0.07542263785357739,
        0.2596050586505725,
        2.6732563761523096,
        1.2970756001353203,
        -0.4412508750363929,
        0.39553025270881426,
        0.2963271519918507,
        0.28332528556785325,
        0.4066068807547889,
        0.5130305502786217,
        -1.2844631623589344,
        -0.8046699221950173,
        0.45420073625019003,
        0.024673305349080202,
        -0.9521645919156363,
        0.006306164288788163,
        0.3375165820291289,
        -0.29410287209182373,
        0.6996011842564578,
        0.5714764934523732,
        -0.10843823510054361,
        0.3009621042357148,
        0.10795124901160343,
        0.4027443375675611,
        0.1851079310964845,
        0.03646445021740646,
        1.2302190586336224,
        -0.02340958934344788,
        -1.0960457434984714,
        0.16947561104708475,
        0.26783655521461436,
        -1.1626010695764593,
        -0.6181624701123933,
        0.36957609687709286,
        0.5193786481883688,
        0.3892178863569018,
        0.2926667180982284,
        0.05185001729596774,
        -0.7784299917354336,
        0.29193045009363516,
        1.3509337799970895,
        0.3427426748591435,
        0.10704246471093723,
        0.23173781762112863,
        -0.2745491711266919,
        -0.12826689974486846,
        1.5499464376617644,
        -0.26283096309553133,
        -0.7567492216543527,
        -0.44299689094220196,
        -0.2901778978967735,
        -1.2762028578180042,
        -0.6821077256809669,
        0.09094153283524188,
        0.6171887656027992,
        0.10463923562361735,
        0.8923305860426861,
        -0.513447651710984,
        0.4999091944233545,
        -0.029882227472430897,
        -1.1940589331759368,
        -0.23160584588002264,
        0.8564986159201862,
        0.6773399198511918,
        -0.7560469416022013,
        0.7400355148653582,
        -0.8262947814570223,
        -2.0298514244793617,
        0.5239173417317023,
        0.40603338348004453,
        0.2373341602872618,
        1.4115485718212326,
        -0.5490673562664555,
        1.078412448389927,
        0.8937647036858956,
        1.5462697008270805,
        -1.2296742868337134,
        0.9337844234083589,
        -0.352203522722958,
        -0.34574964504670913,
        0.45474452118197717,
        -0.7707703790687604,
        0.7649491663504814,
        2.8083092714882154,
        -0.4093090801083691,
        0.6653151365340041,
        -1.0815858986203608,
        0.9099391544708044,
        1.3086752745189316,
        0.24318879346145816,
        0.1361616339014345,
        0.8825979915870817,
        -0.28857763984621276,
        0.3727359213252786,
        0.8482306725178931,
        0.27641489558421917,
        0.11408327714004701,
        -0.4782952371083028,
        0.4269765263453243,
        -0.24102170771544074,
        0.6343374378821957,
        1.0330342746903407,
        -1.6150141353647391,
        -0.01940533924093544,
        0.26197950590295843,
        -0.028930349605254063,
        -1.8201253332059601,
        0.18812420590444684,
        0.026515751075440908,
        -0.6445149388630589,
        -0.345959931271542,
        -0.46142573149959243,
        -1.902294800949195,
        0.6276063499189503,
        0.2306624193681443,
        0.17775393448738327
    ]
}