{
    "idx": 707411,
    "fights": [
        {
            "enemy": 5,
            "fitness": 85.58628484395722,
            "player_life": 16.000000000000227,
            "enemy_life": 0,
            "time": 409
        },
        {
            "enemy": 6,
            "fitness": 39.48657125383502,
            "player_life": 0,
            "enemy_life": 50.0,
            "time": 248
        },
        {
            "enemy": 7,
            "fitness": 85.24109822612274,
            "player_life": 10.000000000000231,
            "enemy_life": 0,
            "time": 317
        },
        {
            "enemy": 8,
            "fitness": 86.0224637949176,
            "player_life": 19.600000000000236,
            "enemy_life": 0,
            "time": 379
        }
    ],
    "weights": [
        0.6527073529190343,
        0.0894142022655958,
        1.0002155161984256,
        -0.9440142377810016,
        -1.6285764147631834,
        0.8864554596007566,
        -1.5305237346520149,
        1.8933216458829771,
        -0.34218146625222645,
        0.9432894146241427,
        -0.011921327839030119,
        -0.8700186918711412,
        -1.0067615830662755,
        -0.6796914787745341,
        -0.6244877411924151,
        2.572135002765046,
        0.9719645110434338,
        0.3874355193095224,
        -0.13566551206911504,
        2.442481622005738,
        -1.1468080006111552,
        0.054000431994329315,
        1.6500017573029777,
        1.407484998908784,
        0.44593518045958713,
        1.942631926971413,
        -1.6126265693729158,
        0.26790747581503793,
        0.5394419449900686,
        0.20552741483240416,
        -0.3705738667094156,
        -0.7217006090162984,
        -0.914022290330149,
        -0.837472686594352,
        0.8786253330686197,
        0.04587357318119925,
        -0.026829620138745125,
        -1.2676460284274194,
        -0.053183725344893136,
        0.4720865867968539,
        -0.4828501173237948,
        -0.2966925336992058,
        0.5028409880066775,
        1.153196121423803,
        0.95432394364461,
        -0.02909269380655874,
        1.7662203244838819,
        0.06149107524053815,
        0.5542840043778208,
        0.40472914179022057,
        -0.6027187442967448,
        1.4046686056977191,
        -2.1737452113235656,
        -0.6708095083544753,
        -0.9738249045104846,
        1.707771044778521,
        0.5836782772164244,
        -0.4058349854011521,
        -1.9596218288351595,
        -0.3240007522503217,
        0.572573733716513,
        -0.8369258789244172,
        -1.188404601801178,
        0.6523728489436389,
        0.5017967429084096,
        0.15745479137166382,
        -1.199664546284272,
        1.4350041474907493,
        -0.5914725894900145,
        0.12104428147201968,
        0.6558207473582122,
        -0.06128146594087439,
        -0.38679607906201535,
        -0.04386621397503871,
        -0.2776133341440694,
        -1.4209391663718096,
        -0.5451095142429017,
        -0.05211316632547634,
        0.36538272932879334,
        0.18511864559672678,
        0.12394082217836037,
        0.5363616580739285,
        -0.09851276867371439,
        2.307562777958462,
        -0.3599970017036222,
        -0.3653926530493503,
        -0.7412547365279534,
        1.761649421023408,
        1.4874795067757476,
        -0.6199972754041464,
        -0.593231378479812,
        -0.9273496888152924,
        0.09202576320554451,
        -0.581441596040375,
        0.7920288115006453,
        -1.1231209241799822,
        -0.2636036816316075,
        0.29852301037073753,
        1.1648773700124004,
        -0.22591405520260696,
        0.9601488656818947,
        -1.9348921670213661,
        0.5941182583694276,
        0.31494122302119143,
        0.45781465791301323,
        -0.08762021876528037,
        -0.36245034207742854,
        -1.6499524054550725,
        1.0206522756657277,
        0.09128598289939796,
        -1.3989458655068818,
        0.9104619461497274,
        1.0035014625507437,
        0.2795035905426335,
        -0.9571055081153699,
        -0.49398684418555083,
        0.22206564616046184,
        -0.744164675335338,
        -0.019544931733687,
        0.769458415215824,
        0.05234544001778981,
        0.2437666310478665,
        0.33681202029307455,
        -1.8124427385831499,
        1.2665321828772866,
        1.567505471826503,
        0.8789972542279901,
        -1.5747908492026215,
        -1.1207305950216886,
        -0.5480562475041331,
        -0.12658409801470777,
        -0.19993277266623832,
        -0.18414966414236153,
        0.932709416935471,
        0.35617741076042786,
        1.095178921946938,
        0.09950980239400584,
        1.5592307692993554,
        -0.27598005287660543,
        -0.33502665187917696,
        0.9148341386042121,
        1.9051012683391033,
        -1.244628826199089,
        0.3427126724335721,
        -0.11834546752300916,
        -0.8763173276039612,
        1.9467188087724585,
        -0.5491305134416398,
        2.215369249867525,
        -0.40774446270387893,
        -0.334772941927365,
        1.960015831649412,
        1.1694267512193592,
        0.518992333525053,
        1.6396841611012571,
        1.2507636724072737,
        0.19562102494871947,
        2.413707223771249,
        1.124736398377613,
        -0.647940017931514,
        -0.4602286200062393,
        -0.5226399986881815,
        0.8884513747389455,
        -0.4494471682115485,
        0.08225908861073811,
        -0.06417848906317025,
        -0.6699106381236472,
        1.0761257061333405,
        0.2965827699768888,
        0.412057933312734,
        -0.09523828701624891,
        0.6241515992134212,
        0.5780158255629666,
        0.13676183140561218,
        0.5078278486181405,
        -0.186694144499622,
        -1.2671325166660283,
        -0.6416643897504204,
        0.17161380074013013,
        -1.4642119523078374,
        -0.9123558886880859,
        -0.30524908161731823,
        -0.6295430445778105,
        -0.24982715573683925,
        -0.19357742149964405,
        0.8778770013026354,
        0.4853466835733849,
        -0.6801549549575411,
        1.0156117447394395,
        0.8956459561484188,
        -0.28667138133284653,
        0.022092775312531454,
        0.7003272496713302,
        0.1949599728313666,
        0.08507316767917678,
        0.9486033076297691,
        0.2839283928449204,
        0.21026125661233686,
        -0.32626351781443097,
        -1.8811859846040955,
        -0.6172242329302943,
        -0.028460937236312798,
        -0.5067063509741909,
        0.32069265953950854,
        -0.061765436849230776,
        -1.4095333650081503,
        -0.9121164102336825,
        1.005627082819249,
        -0.046173243049666544,
        -1.813641717074708,
        -0.5624485075951724,
        1.1578980395819105,
        1.1100678821851189,
        -0.7800242714445457,
        1.4364031816121448,
        -0.826139662978135,
        -1.2225952024209463,
        0.2982096757825602,
        1.7183696914613975,
        0.25628664964904935,
        1.5438138468856886,
        -1.0505589120219099,
        1.1218587383964393,
        0.8447715686014141,
        -0.21100940705088045,
        -1.6198857088865102,
        0.6859015431883297,
        -1.1390989142852037,
        0.5289319231243335,
        1.0638527423673068,
        -1.2082416791184132,
        1.3766314342173134,
        1.7990610237446232,
        0.07999957197409346,
        0.4763069608736704,
        -0.5964894635191571,
        0.6735472514747418,
        1.9086526331625644,
        0.804236214892689,
        0.3401635210641705,
        0.8485427313083639,
        -0.23356306232143714,
        0.6332469766495827,
        0.4076709518179651,
        0.8458770149637421,
        1.03399740621524,
        -0.6469644561075768,
        0.7639944171499011,
        1.141374659638569,
        0.8125792487839196,
        0.5931701195864,
        -0.9215752609443197,
        0.6318512490836463,
        -0.35876340301910375,
        0.4179824647429844,
        -0.6259421046135947,
        -0.5847320263058181,
        -0.08231281532635883,
        -0.3761718563742284,
        -0.009297506078875261,
        0.23966292887613677,
        -0.6306456790963255,
        0.533944291176652,
        1.3174709057925824,
        0.45721835832206204
    ]
}