{
    "idx": 712010,
    "fights": [
        {
            "enemy": 5,
            "fitness": 90.70027017401381,
            "player_life": 62.80000000000034,
            "enemy_life": 0,
            "time": 265
        },
        {
            "enemy": 6,
            "fitness": 39.601837298482245,
            "player_life": 0,
            "enemy_life": 50.0,
            "time": 221
        },
        {
            "enemy": 7,
            "fitness": 90.87679627126205,
            "player_life": 61.600000000000335,
            "enemy_life": 0,
            "time": 197
        },
        {
            "enemy": 8,
            "fitness": 89.89936107665805,
            "player_life": 53.80000000000032,
            "enemy_life": 0,
            "time": 240
        }
    ],
    "weights": [
        0.6703772314903225,
        0.7387745882824002,
        0.7245859924997117,
        -0.9235692021180355,
        -1.3116330851243065,
        0.28457989631967184,
        -1.37671663154362,
        1.8636241973876237,
        -0.865666337858798,
        0.8761630995546617,
        -0.11517887557289322,
        -1.088158757090775,
        -0.9319365481111044,
        -0.946858177169004,
        -0.840936439791158,
        3.062043515488537,
        2.5331077510483864,
        1.6774988466120302,
        0.3844712395314304,
        2.446133034713094,
        -0.9468128101114477,
        0.41672035660666273,
        1.1539288651304116,
        2.485125977936831,
        0.47536132917498974,
        1.5734041620190922,
        -1.7745498903673802,
        0.5358254943262676,
        1.5188418636857282,
        0.5023680214270985,
        -0.2571808384270581,
        -0.6233980817268776,
        -1.3689410747463955,
        -1.3813670152745605,
        0.4730996749409807,
        0.06677191438147112,
        0.344478393072758,
        -1.236519459085905,
        -0.09150065407781749,
        0.7019450532963485,
        0.001401245445614846,
        -1.0808150336744171,
        0.31444455738178473,
        1.050342363162641,
        0.8584673335836863,
        -0.4942383502129438,
        1.1254248236526736,
        0.050492514628804275,
        0.3902580884142641,
        0.8963868386799222,
        -0.5733195394682327,
        1.6002080851133373,
        -1.7412215750187046,
        -0.802011511852215,
        -0.18228939981901693,
        1.5643493359199427,
        0.12831882816818793,
        -0.11009990950429233,
        -1.5034883714047078,
        -0.09394841670728696,
        0.6369079894463023,
        -1.0201036817045472,
        -1.6278886602176665,
        0.49797973481345015,
        0.5885760643556968,
        0.604309421331195,
        -0.42574499265366095,
        1.2473959534868104,
        -0.7045557180836542,
        -0.32727351062008736,
        0.9629634554972062,
        -0.6161762477161395,
        -0.6613676279501473,
        0.2818791063317728,
        -0.0034906506420563643,
        -1.9758986927014803,
        -0.44382777141597807,
        -0.0027718438935365325,
        1.9416697997640293,
        0.2541340703505236,
        1.1504295572980332,
        0.1938844662505123,
        0.5262614580756345,
        3.0685674207811973,
        -0.5804470950521592,
        0.3415351967081236,
        -0.1893211151259899,
        0.5684786760407886,
        0.2883729196413102,
        -1.6619351550547758,
        0.15314664547731233,
        -0.6352320270485681,
        -0.21670124053367204,
        -0.7076272804588087,
        0.616031628440488,
        -0.8456693564719802,
        -1.1053053375796627,
        0.26668255312096556,
        1.460976592276115,
        -0.6204773346526135,
        1.1893387229511068,
        -1.5179506294937488,
        1.5595179611216363,
        -0.5694826192094347,
        0.04552544660129819,
        0.19914928928057263,
        0.25787248555668174,
        -1.0855440315954359,
        0.9015830326427529,
        -0.5886682781264287,
        -0.13676223493097472,
        -1.2552815599113212,
        0.8379550921997977,
        0.740787284085045,
        -1.35969050846992,
        -0.2239431321684466,
        -0.0994465532536117,
        -0.3810203295042798,
        -0.22132520443979853,
        0.6424464317788945,
        0.5851559180861745,
        0.4570965066702577,
        0.7789980823329034,
        -1.9812354211519307,
        1.948985284686973,
        1.1326659695091037,
        0.6240748589214522,
        -0.5664819569627968,
        -0.8618276605228617,
        0.002508964480822124,
        -0.8654347376528768,
        0.5318814498020192,
        0.7976096737022135,
        0.33506966016334977,
        0.6643632461464629,
        0.9073971425420294,
        0.039703448663705676,
        2.4957662239457994,
        0.32727388785742295,
        -0.5502674717898832,
        1.537829054426918,
        1.7357397141644537,
        -0.45419194323265927,
        0.11512207426661829,
        -0.16153917094722603,
        -0.6330794047031364,
        1.3377699199386477,
        -1.4408999862641862,
        1.5689554802670853,
        -0.307912704927984,
        -0.11804287700364456,
        1.432198654153099,
        1.6894309665115825,
        0.3775926555207372,
        1.9831463893248653,
        0.9919957191236677,
        -0.532506893807931,
        1.5835467547903952,
        0.9481209242256078,
        -0.5331437293989228,
        -1.1113256197520753,
        -0.29128441938817123,
        0.5126744847110319,
        -0.8502741849422674,
        0.21749401190548293,
        0.2065150368901586,
        0.21007533161118108,
        -0.1353538197913129,
        0.6679500396342863,
        0.39853020929091165,
        -1.01646771290279,
        0.5419069984880551,
        0.5553570633824825,
        0.32009629851195753,
        -0.008197132229029878,
        -0.5850745665807053,
        0.2285232659913757,
        -0.9885119651063238,
        0.5026254898361947,
        -1.4675428194557372,
        -0.4645255140784122,
        0.6433235155456788,
        -0.5631184900835537,
        0.20747135806314376,
        0.39502481404340456,
        0.7899129614433119,
        0.483839303553517,
        -0.18152051019074042,
        -0.13215965131781615,
        0.5995575653066706,
        0.5124345787745255,
        -0.4672151918720127,
        -0.015328521255568509,
        -0.29805929303913564,
        -0.34296386054334016,
        0.9101577469910183,
        0.285419703487425,
        -0.28524839454832224,
        -0.20419158776218105,
        -1.9087984397739621,
        -0.4744371356217167,
        -0.9952853860500409,
        -0.6345572834753082,
        2.257396209699766,
        0.4110425428998722,
        -1.0392914436079648,
        -1.4262144164910753,
        0.39019882758828733,
        0.8496261966349952,
        -1.4977575884299177,
        -0.09837606865318815,
        0.7060719542777708,
        0.9832020729196813,
        -0.7453034234236298,
        1.139236206784008,
        -0.7921349515418862,
        -0.981189538351677,
        -0.2484400967614531,
        1.2291690817549341,
        -0.7402061995769248,
        0.8693965158528549,
        -1.0645605802483191,
        1.3936937864200096,
        0.23224684456982803,
        0.032405263152461075,
        -1.2827126029466882,
        0.7490201319681563,
        -0.9864342517907652,
        -0.3771218669172517,
        2.009878195245235,
        -0.7766110805266261,
        0.8517463994152358,
        2.024935122402828,
        -0.3184910404837084,
        0.8472061467724278,
        -0.59760593894716,
        0.7738427200778099,
        1.171335487531623,
        0.6841288470693141,
        -0.9174664962259821,
        1.0577559335395292,
        -0.1784692086968837,
        0.0732830148379635,
        0.523143401972749,
        1.173691998324496,
        0.2955836397094397,
        -0.8846366361132358,
        0.76525284047552,
        1.248753378496627,
        1.674201024021282,
        0.8950932977347916,
        -0.6434246977140606,
        -0.3549366648303376,
        -0.10630802858846998,
        0.4028462082315121,
        -1.3769587592997519,
        0.04209618044940698,
        -0.17482616520690075,
        0.25807734036829166,
        0.06610628198872182,
        0.04233321349417173,
        -0.8831149257881542,
        0.8229482181715737,
        0.8998377511453558,
        0.00315676489412111
    ]
}