{
    "idx": 703014,
    "fights": [
        {
            "enemy": 5,
            "fitness": 86.24226955283409,
            "player_life": 20.80000000000024,
            "enemy_life": 0,
            "time": 343
        },
        {
            "enemy": 6,
            "fitness": 85.80322890233344,
            "player_life": 14.200000000000228,
            "enemy_life": 0,
            "time": 275
        },
        {
            "enemy": 7,
            "fitness": 91.11679627126205,
            "player_life": 64.00000000000034,
            "enemy_life": 0,
            "time": 197
        },
        {
            "enemy": 8,
            "fitness": 90.08661051127251,
            "player_life": 56.20000000000032,
            "enemy_life": 0,
            "time": 253
        }
    ],
    "weights": [
        0.07445756818091939,
        0.2766839695512428,
        0.5930184040960317,
        -1.0369230503819173,
        -0.9187739300574975,
        1.3543731511492925,
        -1.2083406979271873,
        0.9351055728346381,
        -0.37477063611833633,
        0.4826025125545013,
        -0.46520726997351974,
        0.56547863469905,
        -0.6885389930278036,
        0.2668071776145712,
        -1.1410462774775487,
        1.6127344647237123,
        -0.6091916285322643,
        1.0920128055499414,
        0.22633014750763866,
        0.905955832095207,
        -0.9448924508368758,
        -0.04317680498328978,
        1.8758969310437943,
        -0.04230400445742777,
        0.9352753676391365,
        1.180033972010363,
        -1.1887032080670594,
        0.15178699786113922,
        0.7464532103173589,
        0.5510068742106502,
        -0.7102165975255869,
        -0.5230079567983934,
        -1.4720769698448422,
        -0.2172926195537105,
        0.7666922823389148,
        -0.3371596589705405,
        0.46622976934581617,
        -0.16942449357235273,
        0.2876896884941693,
        0.5131636952264759,
        0.33403392352050587,
        -1.1138609295463755,
        0.7851705264633827,
        0.06341091078731712,
        -0.4370726094827712,
        -0.31199405835571586,
        0.5305111493895673,
        -0.693789600823167,
        0.13360800294495537,
        1.235930618627757,
        -0.7378899464536877,
        0.9619204065582415,
        -1.633100808992928,
        -0.5959200535369114,
        -0.15263817997041174,
        1.889736477938765,
        0.6367062741777593,
        0.07262128925802891,
        -1.4425082203311739,
        0.31003774921450505,
        1.0556041897692183,
        -1.4843365931367019,
        -0.7265482322484987,
        0.5790479928370162,
        0.5673578571956168,
        0.7298698261579248,
        -0.6395440988300755,
        0.7831095022913529,
        0.3396276073804536,
        -0.42398865537579244,
        0.741240461134438,
        -0.0754466552978064,
        -0.5164008642921265,
        0.6107836811690788,
        -0.17279677539959717,
        -1.0017912661616397,
        0.3490781461830644,
        -0.6248581910055555,
        1.5840037969269563,
        0.6373488373521161,
        0.6882249964973207,
        -0.13425282040527037,
        1.800854722950776,
        0.3731893827959373,
        0.3590279846669016,
        -0.6200050389620424,
        0.0390650396221735,
        1.1048814452897717,
        -0.23114139255333696,
        -0.1456013566098788,
        -0.4254087952178392,
        -0.13433971774187256,
        -0.12693156028542485,
        0.3381800943403836,
        0.2534190835349277,
        -0.09113477012424184,
        -0.5510907934558752,
        0.462211379849885,
        2.117201775979571,
        -1.1355825458156146,
        0.6983588244734278,
        -1.4710104585759345,
        0.023977560348324933,
        -0.6551983742238607,
        -0.07865029257332593,
        0.339535669991006,
        0.22851646864122704,
        -1.6175092500896102,
        1.5557856653786435,
        -0.19507148744702826,
        -0.8942197587617804,
        -0.04497375428974313,
        1.0246192357753816,
        -0.0012168628727199926,
        -1.2393934341951949,
        -0.42162506353945783,
        -0.24836793707800534,
        -1.0545282242523846,
        0.4538465972914113,
        1.0122996767373502,
        0.2934214101997946,
        0.9165967984326149,
        0.5041325776539118,
        -0.9905439698238641,
        1.0080620612559679,
        1.1560614213497413,
        -0.580715627532867,
        -0.16303849958113284,
        -0.40156941505717947,
        -0.48160739941992936,
        0.14962631795823206,
        0.5563669115715942,
        0.13976262125087066,
        -0.4074258543127737,
        -0.2729652004383622,
        0.03595862848984086,
        -0.8956094991037287,
        1.1536272021423783,
        0.5997556728754002,
        -0.032453884445232395,
        1.2406288009343167,
        1.0136888111127054,
        -0.71465540937189,
        0.46676324961609755,
        0.8467265526538552,
        -1.1104958141211512,
        0.843466917749083,
        -0.2342752882474438,
        0.48757279742116305,
        -0.6121549632654517,
        -0.48746879763983236,
        0.06109426111726006,
        1.6001226946084772,
        -0.10322004918996514,
        1.086077659985459,
        0.1548142261560775,
        0.47758181262878524,
        0.7531791183014199,
        1.24128900295548,
        0.06586906987584523,
        -1.633737161078039,
        0.4205834351933311,
        -0.0035981120388142163,
        0.6514661806337915,
        -0.8388116690470415,
        0.4528327651419922,
        0.195188722395547,
        -0.10230090305196415,
        0.3878616115747343,
        0.35370396899568635,
        0.6950654560112295,
        -0.08281618952490824,
        0.31301003360417384,
        0.03841392014529274,
        1.2751368512256354,
        0.37315136085471884,
        -0.015396102343791379,
        -0.9431547967848848,
        0.04199870465906018,
        0.2273272158195202,
        -1.0644703733386311,
        -0.7104422546138963,
        -0.24234941122427084,
        0.647621212341574,
        -0.2717559878326973,
        0.7358869224867602,
        -0.21679232618027344,
        -0.4053220481875385,
        0.30594421601324795,
        0.7046285625654097,
        -0.22129192421883354,
        -0.08957047367010851,
        0.48772216732173196,
        -0.07570902873415679,
        -0.2728516917126631,
        1.1429207423627987,
        -0.11414999537019391,
        -0.4453251727516866,
        -0.6102672069153265,
        -1.0920704914401183,
        -1.0002949932306342,
        -0.9396654715305528,
        -0.5641346991341002,
        0.1805135956592448,
        -0.3178163822518935,
        -0.8579278313928805,
        -0.8231100313644784,
        1.2871521973454596,
        1.386313141054369,
        -1.0149317054095195,
        0.05770042745210366,
        0.36954306837776635,
        2.278927767440089,
        -0.1796926116292838,
        1.192414778422011,
        -0.7677753777833415,
        -0.7629023932410276,
        1.2748665644736592,
        0.7185626153712971,
        -0.23821213019301068,
        1.3442500559928232,
        -0.5907176399731717,
        0.6023327662258422,
        -0.16247315937227136,
        0.24260489336341065,
        -1.6864804695039066,
        0.4781594199091584,
        0.6988626202914578,
        0.30625256131514317,
        0.2830993069628902,
        -1.1629411619670207,
        1.155054371238818,
        1.734994442061795,
        0.20532076510596922,
        0.856661257378582,
        -0.40926070813774196,
        0.7861179975457055,
        0.7828872207553608,
        0.19072320385365668,
        -0.1745797346704982,
        0.9472199841276132,
        -0.1043973791620737,
        0.23283463334038598,
        1.3864912123037456,
        0.43069351051967275,
        0.054984743702267636,
        -0.9907147141715954,
        0.000884708292907474,
        -0.40302874604167377,
        2.363510841196352,
        0.9999553061962174,
        -1.0362497978445435,
        -0.00849446011860833,
        0.17104558471030493,
        0.21057012503912975,
        -1.4359111834286906,
        0.2403646127868589,
        -0.03800244873457496,
        0.12346537918113933,
        -0.24905375314234918,
        0.11862082816975345,
        -0.7647751962914101,
        0.41864528854456445,
        1.5150746908638357,
        1.0643091154340585
    ]
}