{
    "idx": 704896,
    "fights": [
        {
            "enemy": 5,
            "fitness": 89.65788117912034,
            "player_life": 52.600000000000314,
            "enemy_life": 0,
            "time": 271
        },
        {
            "enemy": 6,
            "fitness": 85.47616819497442,
            "player_life": 9.400000000000231,
            "enemy_life": 0,
            "time": 236
        },
        {
            "enemy": 7,
            "fitness": 90.75679627126205,
            "player_life": 60.40000000000033,
            "enemy_life": 0,
            "time": 197
        },
        {
            "enemy": 8,
            "fitness": 91.03669509194096,
            "player_life": 63.40000000000034,
            "enemy_life": 0,
            "time": 201
        }
    ],
    "weights": [
        0.9734425373568535,
        1.3037434770457297,
        0.7145859436901214,
        -0.732696320101107,
        -1.2797805450563864,
        0.4425328073020764,
        -1.573126744803485,
        1.4109324644768988,
        -0.6595821770865072,
        1.4226534259162935,
        -0.04814871342452798,
        -0.3491642080028782,
        -1.409346815959571,
        -1.0257410331910333,
        -0.9971614415762222,
        2.823781362278403,
        1.880382020888045,
        0.6064515428945323,
        0.6777946273787169,
        2.3363857048730514,
        -0.7284899751260087,
        0.6662386617881826,
        1.092678641380234,
        2.229946061062293,
        0.645621195491075,
        1.7980945330646572,
        -1.7937332724783128,
        -0.02759536781424684,
        1.4645705281450339,
        0.015141853880663206,
        -0.05512051815581835,
        -0.8370697155356009,
        -1.2848630759511996,
        -1.0820067601672119,
        1.3726158051405495,
        0.6240192600829152,
        0.18330870047331582,
        0.09383451964089118,
        -0.08909453138125611,
        0.30739425833806366,
        -0.5031070355132006,
        -0.6015054244348383,
        0.5082919995437658,
        1.1962747302380694,
        0.5005980159352503,
        -0.7818867723026758,
        1.5597830897832279,
        -0.29696453795986094,
        0.47176752223862417,
        1.248050500582176,
        -0.7485967508742024,
        1.775172656492825,
        -0.6768670783485963,
        -1.4129506580231312,
        -0.8290106060740983,
        1.7419058878334062,
        0.31447192786144135,
        -0.15592562590063158,
        -2.078814188652282,
        0.552842115595127,
        1.0511972642244451,
        -0.9356267335972466,
        -1.0798775575103947,
        0.6521112121866717,
        0.4919145319471902,
        1.158313595214213,
        -1.2349616400412577,
        1.6966110619536225,
        -0.6845629262172244,
        0.6900210748239147,
        0.30238445904189437,
        -1.1177339586791648,
        0.009808657864618705,
        0.7774426720331089,
        -0.9306597359859174,
        -1.4439385701005012,
        -0.9653095235046404,
        -0.303413534029232,
        0.3940009564466578,
        0.07504965083920535,
        -0.3110080148526813,
        -0.046741243879911465,
        0.29696278526545844,
        2.0777358682950378,
        -0.672488252498483,
        -0.17972622303973343,
        -0.06212868924164444,
        0.8118916483642722,
        0.46884583608813474,
        -1.6696124871343436,
        -0.8353343064977026,
        -0.9443365802056785,
        -0.3525368680301837,
        -1.819968632624114,
        1.2760757511424712,
        -0.32077354465620006,
        -1.185369705105162,
        0.6899261156984584,
        2.0187615401807615,
        -0.8188512620765267,
        1.3395956602477463,
        -2.0044763160563974,
        1.503312009687625,
        -0.32901797512284975,
        0.41136629672441377,
        0.7320279186037658,
        -0.2840831582973246,
        -1.6083257060355214,
        0.8395416856167716,
        -0.9110856982090589,
        -0.1403879879074047,
        -1.1216844419882372,
        1.1985197067185642,
        0.06209092373217126,
        -0.7038894475890117,
        -0.2222048421653393,
        -0.08286920847735073,
        0.3415346640196588,
        0.0043506819990898615,
        1.1962507068815071,
        0.6337268775243924,
        0.44005230482620283,
        0.5447934036033375,
        -1.1740631991585715,
        1.6357644569736876,
        2.1171703883027035,
        0.4658246541092687,
        -1.4560741911229709,
        -0.49799279135004304,
        0.13369661433367927,
        -0.992161004754659,
        0.19517067174296587,
        0.2344546283101076,
        0.3736610786809661,
        0.05357246512138583,
        1.097155202262744,
        0.259805791357121,
        2.3879470347394625,
        0.3698389579205317,
        -0.8658405257276611,
        1.6038936565673305,
        1.3893608117868657,
        -1.6355908700900617,
        0.04551328609113715,
        -0.10216538602724382,
        -1.071163276717279,
        1.0929773358517936,
        -1.1880447766383961,
        0.8383583124401309,
        0.6426044798779356,
        -0.0017713026829148312,
        1.975256998510108,
        1.0388496841779542,
        0.033571353607937886,
        1.5340200455637085,
        0.8865201168534559,
        -0.31293077659605695,
        1.4652839676768146,
        0.8551224898790856,
        -0.3865297650450661,
        -0.7720575414390485,
        1.0945941260927663,
        -0.01652688639360679,
        -0.3100434242665145,
        0.2783803857866716,
        0.3568177491348838,
        0.3791783042661434,
        1.0820786963088054,
        0.061719169572299865,
        0.43422859437828276,
        -1.5774992959293168,
        0.6051079510060515,
        0.9228051528779366,
        0.6228732978697681,
        0.3139304092791154,
        -0.5672190677553778,
        -0.1818510246111061,
        -0.5511312006154223,
        0.13123341887905868,
        -1.6391739512996792,
        -0.2011189953984073,
        -0.6474704398551258,
        -0.9679916874665833,
        0.6204435708962901,
        0.4559705148549336,
        0.5713348116096145,
        0.8640309666816061,
        -0.5050331042320297,
        0.06871319046124079,
        0.8889414502939942,
        -0.06898070547224208,
        -0.23135709407905242,
        0.16368375429158707,
        0.11138779444681034,
        -0.43650551402920423,
        1.0017509569163927,
        0.11621808005765374,
        -0.761375821744523,
        -0.1366801385600606,
        -2.1558907667750864,
        -0.7819144509210432,
        1.0827886896910073,
        -0.16696872073278363,
        2.1878713002902956,
        -0.39727470022081857,
        -1.3575579703451786,
        -1.2752289191987456,
        0.36289524207798995,
        0.8580120792374318,
        -1.345438343349285,
        -0.704413027492785,
        0.6606960678589741,
        0.8575198250544553,
        0.3090845086705313,
        1.3932889754365974,
        -0.40751680977881255,
        -1.5173832766913282,
        -0.1834068325793264,
        1.238849834330545,
        -0.5794324760845364,
        1.2659204028530444,
        -0.9743042715374526,
        1.2335863178684656,
        1.1124526089532043,
        0.21441478382308937,
        -0.6316345416507656,
        0.5096424061256559,
        -0.7098937347109726,
        -0.03592485742997272,
        1.532408123216821,
        -1.1875642360806506,
        1.0828013859282273,
        1.367048754850089,
        -0.3690000229534791,
        0.42839991034461167,
        -0.35808160615431717,
        0.5469736697194456,
        1.8971623200914371,
        0.6426437175904074,
        -0.28752032836730645,
        0.9770358777469896,
        0.4849355790054069,
        0.49374895559343873,
        0.42913550552819385,
        0.8767602233067879,
        0.09995839084461826,
        -0.7922221758835513,
        1.3471151993504336,
        1.0522718889822786,
        1.9416094482104258,
        0.8245505152840749,
        -0.8945573869080635,
        -0.0960131352378539,
        -0.24738721466535693,
        0.389569864727066,
        -1.1136493178178157,
        0.3479457694590712,
        0.9981130157052288,
        0.7134265971336093,
        -0.7843834504026129,
        0.08446360840860535,
        -1.042417859293782,
        0.747940297521993,
        0.8478975917490051,
        0.31918127922441253
    ]
}