{
    "idx": 706753,
    "fights": [
        {
            "enemy": 5,
            "fitness": 89.23520306650937,
            "player_life": 47.2000000000003,
            "enemy_life": 0,
            "time": 241
        },
        {
            "enemy": 6,
            "fitness": 30.470570912488576,
            "player_life": 0,
            "enemy_life": 60.0,
            "time": 252
        },
        {
            "enemy": 7,
            "fitness": 89.34192069107684,
            "player_life": 47.8000000000003,
            "enemy_life": 0,
            "time": 230
        },
        {
            "enemy": 8,
            "fitness": 86.95935834262663,
            "player_life": 28.000000000000256,
            "enemy_life": 0,
            "time": 344
        }
    ],
    "weights": [
        0.7938426124558794,
        0.28657800222999175,
        1.3668253557101446,
        -0.9387385040317668,
        -1.6227284546721028,
        0.9868992967205851,
        -2.435977970236804,
        1.3065648439998474,
        -0.887210181621032,
        0.9837007041348891,
        0.24392181627758536,
        -0.4869928497968684,
        -1.7606726382489823,
        -0.09413769496372822,
        -0.9423562325585362,
        2.434421732086894,
        2.0905773873177336,
        0.910412032776836,
        0.45758091992002037,
        2.0687411747829874,
        -0.9068124254399901,
        -0.11177300863828643,
        1.6928676660799566,
        1.492395844985642,
        1.1722842698014697,
        2.1446898702366095,
        -1.5703571116329118,
        -1.1615839138896553,
        0.306656107604284,
        1.2293921921563684,
        0.26052971427978994,
        -0.5527578521093952,
        -0.3714849752299196,
        -0.7806353269155579,
        1.1829747425534844,
        0.5645558325806951,
        0.2353400064489032,
        -0.881129060260295,
        0.30549541572843214,
        -0.05144823846567712,
        -0.12835485016276998,
        -0.3773832081903805,
        -0.12292018551674724,
        1.4527675136087763,
        0.2968900746290354,
        -0.04697887748230145,
        1.3178202703770872,
        -0.35353051912656225,
        1.799059205522669,
        1.2640919299538564,
        -0.6783352854493822,
        1.6119774518893126,
        -2.0283675156455585,
        -1.2627496316021602,
        -1.5143939626607583,
        2.436606679839238,
        0.6193166169654892,
        -0.04613592414018847,
        -2.2164320852592434,
        0.5641153647722873,
        0.946133010885551,
        -1.384276451109683,
        0.1401443677456245,
        0.5645632337713238,
        -0.11243673610844074,
        0.574628141255471,
        -0.23434143279262976,
        1.8979642304711608,
        -0.8892609149393059,
        -0.35148770584303335,
        0.11254038632439246,
        -0.9163020825544722,
        -0.5328722017419809,
        0.9322848615590539,
        -0.36939850223513804,
        -1.1425786385912893,
        -1.669101096997632,
        -0.7044443902785513,
        0.6763333228023707,
        0.6589951489050574,
        0.41017490570793036,
        0.011939519303560325,
        0.5318747765613467,
        2.8184809961333577,
        -0.7955122656843913,
        -0.4688457207708706,
        1.7763999074574093,
        -0.013504393372345116,
        -1.9814380721921925,
        -2.4365459599990196,
        -0.3853655389624477,
        -0.279150887713104,
        1.0133731326437045,
        -1.9634975478054257,
        1.812352597717326,
        -0.8911468127779362,
        -0.8736925325815907,
        -0.0006778091275678778,
        2.4950415328133926,
        -1.0726868694362617,
        1.1135594370463922,
        -1.5484710849963852,
        0.4627623908938171,
        0.278433366635651,
        -0.6107740991454462,
        0.0867156198466642,
        -1.4726406772756617,
        -1.574926783189007,
        1.3742900213471927,
        0.7480545878123817,
        0.08044874148357045,
        -0.9014885180405404,
        0.8034264612754081,
        0.7722199540018788,
        -1.3079635708097799,
        -0.3956899217485722,
        0.527775252372591,
        0.10050285967420762,
        -0.23069760744789936,
        0.14706285674452696,
        -0.29501526374826736,
        0.6652500813138456,
        1.416501110014703,
        -1.9047912873373802,
        0.7244817444260352,
        3.6890744690167865,
        1.6059067709253696,
        -1.008494277661922,
        -1.2594131055683193,
        -0.006747423521425225,
        -0.6952436342030753,
        0.13014360721333282,
        -0.8510679510483723,
        0.46436156933084044,
        0.47026018137709086,
        1.3637646524380067,
        -0.2570538960291872,
        1.9881265463770974,
        0.0922395332491382,
        0.24610271218533164,
        2.0357910808696684,
        1.8587561485164725,
        -0.6310839929073067,
        0.05905329710873214,
        0.3230577690749045,
        -0.6990702285729767,
        1.0297857799249481,
        -1.079246023703987,
        -0.053900441269554095,
        0.16246605071809972,
        -0.11562388643890362,
        0.9480613481654897,
        2.2603040125196525,
        0.7148969761430473,
        0.37828844727312466,
        2.4979642554427715,
        -0.29842764657667986,
        2.143890426426965,
        0.9611691683723858,
        -0.07793271697167001,
        -0.7468708120814581,
        1.0130000401722803,
        0.07577322629914876,
        -1.005270752208938,
        0.03094482044472415,
        -0.3713934686750037,
        0.9124629565051271,
        -0.28955541076015034,
        0.1573021225674842,
        0.5150681998904617,
        -1.5773459916490575,
        0.311498876567298,
        1.3583982263832135,
        0.5153620273611947,
        0.7921258646829049,
        -0.8686948797550449,
        -0.8004622224621805,
        -0.0608730003886106,
        0.504180358811916,
        -1.6362241297899613,
        -0.6825671232877579,
        0.07322272697095762,
        -0.47621472602586845,
        0.5358210101990132,
        0.05726574359754229,
        0.3473754413005179,
        1.4547216145868198,
        -0.26766784807334154,
        0.9665983148941407,
        1.0753305836261875,
        1.3096742618411927,
        -1.2749070163551315,
        0.011857420887227552,
        -0.5257719794090405,
        -0.13843913321500326,
        0.3758985609635143,
        0.4796506067536744,
        -0.7242898853033327,
        -0.13637128555624928,
        -1.9315012247826298,
        -1.1892686787578235,
        0.19485348697744148,
        -0.3768555438247698,
        2.2258862087416005,
        0.09396589451754146,
        -1.7110488391167347,
        -2.8787600994313967,
        0.08267200610379084,
        1.1241288084827836,
        -1.7531240501489176,
        0.6115100260924103,
        0.5281982233806679,
        0.864707231479882,
        -0.2442036763360736,
        1.017432736120616,
        -0.7228161688071535,
        -1.5786703833359157,
        -0.23396192094495868,
        0.4556464561649187,
        -0.4872283196652317,
        1.7685685120978825,
        -1.3866721660261196,
        1.3738378348321596,
        0.9427820246707563,
        0.6564649784461162,
        -1.6623121786130228,
        0.9145023180433518,
        -0.8808290338633924,
        0.5921928028516636,
        1.9795636774734438,
        -1.0504347698902023,
        1.287629383010527,
        1.3624727223500692,
        1.2031450578388527,
        0.7072440809087654,
        -0.28374340303922463,
        1.027772116805213,
        0.9683648367358072,
        1.8144915235576806,
        -0.8477259900591282,
        0.30409943441545895,
        0.16558429110285447,
        0.16946391105033531,
        -0.35663548794429134,
        1.974126810392882,
        0.15688310804930172,
        0.013707480381875525,
        1.1442918056616822,
        1.1618279725455418,
        0.3098535373866246,
        -0.6117181474102014,
        0.06873170950831198,
        -0.2348084213373459,
        -0.07944113107436648,
        0.10830615306961387,
        -1.5234406856188933,
        0.06761202357091654,
        0.39065902660756247,
        -0.49007192958401247,
        -0.2548730212746903,
        0.21848019105351685,
        -1.3237871825704752,
        0.2563074951203726,
        0.8174162538590672,
        -0.2970920602575979
    ]
}