{
    "idx": 701636,
    "fights": [
        {
            "enemy": 5,
            "fitness": 89.3987417894553,
            "player_life": 49.000000000000306,
            "enemy_life": 0,
            "time": 245
        },
        {
            "enemy": 6,
            "fitness": 12.458736454841574,
            "player_life": 0,
            "enemy_life": 80.0,
            "time": 255
        },
        {
            "enemy": 7,
            "fitness": 90.81679627126205,
            "player_life": 61.000000000000334,
            "enemy_life": 0,
            "time": 197
        },
        {
            "enemy": 8,
            "fitness": 87.7622642182204,
            "player_life": 36.400000000000276,
            "enemy_life": 0,
            "time": 357
        }
    ],
    "weights": [
        0.48363442853772404,
        0.6836590895231693,
        1.1385105887537006,
        -1.2201869274943657,
        -0.45095227557792394,
        0.23941576404381018,
        -1.3950122881450877,
        1.8551649965376693,
        -0.30919292724905645,
        1.0324465240968135,
        -0.09614505879762844,
        -0.8206131533281458,
        -1.107063408536338,
        -0.342977577436942,
        -0.7158827435383406,
        2.4858226740188227,
        -0.852005424111381,
        0.5592380175727413,
        0.33015253944801587,
        2.141934426874537,
        -0.9785401994797884,
        0.7485879520230302,
        1.5303323359070646,
        1.1398507727918794,
        0.5424543672988777,
        1.7750239222589552,
        -1.1174599469690596,
        0.14501568492855982,
        0.7634102712274493,
        0.5093907792645106,
        -0.4149026028221111,
        -0.3699975358609578,
        -0.5903130685730273,
        -0.9409439151597712,
        0.8701398410093466,
        -0.8516941437394225,
        0.9919042809003389,
        -1.3183245172817226,
        0.126145690342433,
        0.5678832939476538,
        -0.3812011279852439,
        -1.6513041557815313,
        1.0085841940183713,
        0.8765498039767006,
        -0.15655816941559028,
        -1.1359813175972384,
        1.6136909968471813,
        0.018954180622812858,
        0.5130865313201617,
        0.7627357877956873,
        -0.1893644740467647,
        1.6031590654903802,
        -1.6422880823150365,
        -0.7929822028451448,
        -0.8089441704658967,
        1.9268859236709883,
        0.3126800404626278,
        -0.862449620294904,
        -1.6912258550640953,
        1.9315489598664237,
        1.2150487638836165,
        -1.1908931355313568,
        -0.9846748190228725,
        0.6416795930208564,
        1.075767037195853,
        -0.2941365144861918,
        -0.19990822601246655,
        2.2403116835565426,
        0.8160142677695545,
        -0.2722029973383594,
        0.9084229667610058,
        0.15007122692207803,
        -0.42640252352583896,
        -0.060886936136273315,
        -0.2647006013495961,
        -1.3723112554079908,
        -0.35379583743739396,
        -0.40948846480891404,
        0.3491253160652131,
        -0.11151459909447942,
        0.3073845354358343,
        0.13501332344602782,
        0.3935835255518919,
        2.4900990959317557,
        0.29044358953541144,
        -1.2052550888443205,
        -0.562209627216502,
        1.309883861398167,
        0.22898955453337722,
        -0.2698116127860136,
        -0.41623442884519946,
        -0.5253466742332701,
        0.05236990253258063,
        -0.04627055789346132,
        0.7787540871496794,
        -0.9474144497275298,
        -0.975068684756681,
        0.5257818406692147,
        1.2147365317283287,
        -0.5450558986776145,
        1.472554242756064,
        -1.6645599369916444,
        0.2710547658242263,
        -0.5962082480745514,
        0.550870416568348,
        0.5373948976627947,
        0.1558944256062335,
        -1.4148712009034077,
        0.830701308075104,
        -0.673361635936915,
        -1.4185283601679832,
        0.47525080674373976,
        0.8438860432847686,
        1.1077992579870104,
        -1.2739621484193362,
        -0.48804749759176536,
        -0.39901629243851233,
        -0.5193419568105049,
        0.5338052614614346,
        0.5470049777782091,
        0.04207393449174654,
        0.09550785295560683,
        0.8535166080918524,
        -1.1741393209921303,
        1.1789055488459823,
        1.938180850250868,
        0.3475738638295561,
        -1.0517585615163216,
        -0.2022601556026411,
        -0.06515149091968167,
        0.28159167234460114,
        0.27174023813635007,
        -0.16225251511257321,
        0.9706473429550755,
        0.49820190010919935,
        0.8338870150850612,
        0.4219175988121433,
        1.6454698199781814,
        0.5143446300545583,
        -0.44569076710695615,
        0.5733115728585845,
        0.774401374599954,
        -0.727280038145685,
        -0.28087462044134837,
        0.0709195962497885,
        -0.7146628621379668,
        1.1967841365882148,
        -1.061445948660493,
        0.6344177592296067,
        0.11551131300138417,
        -0.22991407735820066,
        1.291490948054732,
        1.5093632600626035,
        0.20159319997184022,
        0.711782708225114,
        1.0084974050802844,
        0.05102119191408522,
        0.5607097802772771,
        0.878259375859624,
        -0.3817580193334899,
        -0.4503930623646269,
        0.2657550557708508,
        -0.3978374539021565,
        -0.3744987751745992,
        0.2790489825166908,
        0.7066162279988498,
        0.400566268568024,
        0.9292497097796886,
        0.7445822773219282,
        0.7112348955257705,
        -0.4134669141146498,
        0.40057964545602676,
        0.4523892126780807,
        1.024463299012107,
        0.6826544225326843,
        0.5583963366690041,
        -0.19693668252100205,
        -1.048009015676154,
        0.21230503093950803,
        0.35942715798373354,
        -0.5957477083885636,
        0.4836300265019411,
        0.34069206033041044,
        0.7387641312890034,
        0.1954076096923052,
        1.019701451186655,
        0.4298414022593541,
        -0.7243523949218614,
        0.17050241551028314,
        0.9472888103200567,
        0.2678497896833859,
        -0.14966418732119657,
        -0.19824265571783706,
        -0.1651410542532296,
        -0.3311328907765908,
        1.6478056733138904,
        0.2681274640882161,
        -0.10545219980995499,
        0.2839716201406025,
        -1.1900402835184414,
        -0.9129506307809275,
        -0.14175778756442217,
        -1.064725891859539,
        1.4267809367865814,
        0.13633212726082827,
        -1.4789894178948781,
        -1.3288944856014424,
        1.0146286550767487,
        0.6696181552036099,
        -1.946277053769981,
        -0.2277641548957509,
        0.5878783031847591,
        0.5537711430950937,
        -0.44693243714424846,
        0.8743925045373481,
        -1.3201588711000345,
        -1.4518046074074737,
        0.2070315839938383,
        0.7814765364749584,
        0.033994286229735146,
        2.008933872928066,
        -1.137207208815887,
        1.3580215235998632,
        0.6432010094097056,
        -0.37629309978640774,
        -1.0820666041291558,
        0.8045625091714605,
        0.45162602945629265,
        -0.18390679926249998,
        2.183270099317959,
        -1.1138845938644413,
        1.2500342785298255,
        1.701307083790401,
        0.12260027577887875,
        0.3436701517606576,
        -0.8242479209968687,
        0.8845336027737085,
        1.1701440264795362,
        0.563865099559927,
        -0.5417671877027274,
        1.0512105410227295,
        0.08485371788628962,
        0.5807737489273197,
        0.508438123781352,
        0.6995402173901255,
        1.1310171400078877,
        -1.089678662735579,
        0.20400249741113702,
        1.5111548104488912,
        1.4349783057701742,
        0.8699509510179406,
        -0.4796460396170923,
        0.7138375662099301,
        -0.07988420903099747,
        0.6986550505289765,
        -1.053108566433786,
        -0.09940240640348874,
        -1.0109996957190508,
        -0.7258043072464468,
        -0.032685842353729976,
        -0.14001205851706944,
        -0.7367146580015492,
        0.885391724427642,
        0.6224333871783195,
        1.0760383936692346
    ]
}