{
    "idx": 433,
    "fights": [
        {
            "enemy": 1,
            "fitness": 13.002787726235885,
            "player_life": 0,
            "enemy_life": 80.0,
            "time": 148
        },
        {
            "enemy": 2,
            "fitness": 49.36527101177036,
            "player_life": 0,
            "enemy_life": 40.0,
            "time": 103
        },
        {
            "enemy": 3,
            "fitness": 39.95014399275046,
            "player_life": 0,
            "enemy_life": 50.0,
            "time": 156
        },
        {
            "enemy": 4,
            "fitness": 48.15645558296864,
            "player_life": 0,
            "enemy_life": 40.0,
            "time": 345
        },
        {
            "enemy": 5,
            "fitness": 90.04405089685372,
            "player_life": 56.20000000000032,
            "enemy_life": 0,
            "time": 264
        },
        {
            "enemy": 6,
            "fitness": 39.67212383121042,
            "player_life": 0,
            "enemy_life": 50.0,
            "time": 206
        },
        {
            "enemy": 7,
            "fitness": 75.28626719449063,
            "player_life": 0,
            "enemy_life": 10.0,
            "time": 303
        },
        {
            "enemy": 8,
            "fitness": 87.66990021702647,
            "player_life": 34.00000000000027,
            "enemy_life": 0,
            "time": 308
        }
    ],
    "weights": [
        0.15581571449406434,
        0.2650433580323481,
        -0.25492073649168717,
        0.5032705297547165,
        0.12440536241413956,
        -0.2540700630320162,
        -0.31127661427864234,
        0.03888176398982729,
        0.1002163395223571,
        -0.1763660413980515,
        -0.4696796758617927,
        0.4506071722643766,
        -0.10111416777725728,
        -0.32709432049619397,
        -0.5639038926251501,
        -0.2912885092943614,
        -0.03820205137576641,
        -0.38799667468955307,
        -0.2987716214045129,
        0.020744519317652952,
        -0.37469878167354437,
        0.8137229313870976,
        0.3102802366925683,
        0.38608081104477104,
        0.14571240418804965,
        -0.06718371140470522,
        -0.2660152727987509,
        -0.6243712268521776,
        -0.4419893488269222,
        0.203422100970585,
        -0.12987369636962776,
        -0.06143043116762316,
        -0.07776981849032112,
        -0.45941813354012995,
        0.4261686033949915,
        0.690629788215332,
        0.39383923538262156,
        0.08944119002105858,
        0.0103839145439827,
        0.2928008960673823,
        0.5646119343814704,
        -0.009350775531368961,
        0.060961079360714,
        0.1185534992009889,
        0.3074473885480438,
        0.2503144327331575,
        0.924530992496309,
        -0.08288444424945174,
        0.3406510170934629,
        -0.5351039599693789,
        0.04542909912692155,
        0.2192194832313169,
        0.7417216799533428,
        0.027666113164438833,
        0.20376945694300969,
        -0.5445461455227223,
        0.26001380093924686,
        0.22399312635419466,
        -0.4656110105203113,
        0.151035315909472,
        -0.5524727569723936,
        -0.06605226110549133,
        0.37495170818117124,
        -0.13154985694930876,
        0.5443795897969689,
        0.05244220288333098,
        -0.017184608843843006,
        -0.09087832718912081,
        -0.09621103825494567,
        0.006106786096086794,
        -0.18272387932708417,
        -0.0005053848351641082,
        0.053090977998990714,
        0.31222267304427653,
        -0.5497665585053855,
        -0.6304428288661119,
        -0.16512193713566073,
        -0.04728089962291179,
        0.10150543116218952,
        0.5277462235736802,
        0.37842438050877314,
        0.5297080804669225,
        -0.10378849658126657,
        0.731355950010293,
        0.5131871958007121,
        -0.14426166922775518,
        -0.19333798582114986,
        0.4895309179547075,
        0.4727362972429908,
        -0.11951928221957475,
        -0.2631464936931877,
        -0.6799766411238682,
        -0.17212393376828117,
        0.558603806620491,
        0.704133628190109,
        -0.5885651082483558,
        0.4724182108276393,
        0.5154836021110498,
        0.0751902521813287,
        0.6993004501699045,
        0.202592431098892,
        0.18781791634843073,
        0.6588274805316098,
        -0.8412008745938249,
        0.09848500695722559,
        -0.824105386858374,
        0.23633932212145795,
        -0.06359985747574319,
        -0.7899441851021021,
        0.5175764221984366,
        0.7535982950276268,
        -0.23657298368615756,
        0.20942069178460165,
        -0.24222544873160357,
        0.5402278635756766,
        -0.8903562932577371,
        -0.5364729035367214,
        0.10932086632518948,
        0.28078549423603105,
        0.3741015457482427,
        0.04483814377837503,
        0.2890999393126537,
        -0.3214713804139215,
        0.2968739834136257,
        -0.10367150465484186,
        0.05594142835609135,
        0.17937862146805883,
        -0.7975363904190784,
        0.43047118277540025,
        -0.5450851603703959,
        0.7358931691777639,
        -0.3803663599189719,
        -0.20931996894576546,
        0.08504074444371768,
        -0.2487739738672886,
        0.07334284769272789,
        -0.0027541962692081375,
        -0.11940455813346859,
        0.3032116362827447,
        -0.2682610540894303,
        0.3637940754786081,
        -0.834206297567331,
        0.8089524559011887,
        -0.2702938562271747,
        -0.16338118491452452,
        0.18464429142067176,
        -0.631502544567665,
        0.4407931846318621,
        -0.21807325533003807,
        -0.14428158308365047,
        -0.3798753255707202,
        -0.6728658023943457,
        0.31188563408169623,
        -0.3869879878527771,
        0.24298807677426829,
        -0.14799946122664173,
        -0.19759768071647676,
        -0.020266825644708757,
        0.07657750260528573,
        0.18391753994345006,
        -0.2649637475460631,
        0.051279851173318,
        0.06421628548794686,
        -0.15462801366324333,
        0.0452049864750882,
        0.39942637295702615,
        0.5107696646058442,
        0.4523571015783205,
        -0.3571955898347639,
        -0.004974015023293643,
        0.6068776253404201,
        -0.1649872725138619,
        0.4357690345543775,
        0.019502634133992114,
        -0.0756618739238129,
        0.00016453173644945251,
        0.08438164893000462,
        -0.7474816640023256,
        0.5889701740523497,
        0.17024072260394102,
        -0.8295868778339551,
        -0.26326771583944325,
        0.07770106524600764,
        -0.02882846264528254,
        -0.48034925762131037,
        -0.47188903791871256,
        -0.3413228888370581,
        -0.1981506724165335,
        -0.34439061720201,
        0.6871646813642297,
        0.05284660456128546,
        -0.08877779628523283,
        0.03106157898929853,
        -0.6679536467737661,
        0.45412559431758887,
        0.5651746695928247,
        -0.13576773629788758,
        0.21404861712389622,
        -0.20150964887635112,
        0.14214250697154507,
        -0.16263600858910224,
        -0.038820435322081515,
        -0.11325380429213426,
        0.0397564090937242,
        -0.579998556366808,
        -0.16824679918005092,
        -0.13988415026730452,
        0.048769935984752794,
        -0.5433327433130662,
        -0.6352337123945295,
        -0.43335657091137303,
        -0.5326410195243663,
        0.1944200925047516,
        -0.4935623701632726,
        0.36252076076243583,
        -0.3285728024331606,
        0.6107832737952889,
        0.6327117210742447,
        0.1808514781184205,
        0.14748706956997665,
        0.025488972358890777,
        -0.4279108431927151,
        0.06943420140736509,
        0.22043045843243625,
        0.0159183137922592,
        -0.12634700102458532,
        0.4275301494091368,
        -0.062321147442457786,
        0.4197915683808471,
        -0.4620197733400553,
        -0.40432389452328943,
        -0.1035576562664954,
        -0.029643702393770253,
        -0.4326978972307537,
        0.3717585387599793,
        0.011624087517168726,
        -0.05301105567089282,
        0.2664359318607727,
        0.27415290646991536,
        0.13034515852459344,
        -0.6059996517906874,
        -0.4622784906076403,
        -0.31507499700009106,
        0.16347293637441074,
        0.44366986824258886,
        -0.10280384431832545,
        -0.025949350761423632,
        -0.2854212564141362,
        -0.5292671688672914,
        -0.13562454136678306,
        -0.02824190932716911,
        -0.14386615618781545,
        0.3942123632359307,
        -0.024956100999188116,
        0.7068199138407535,
        -0.1489825792943004,
        -0.4645079293884629,
        -0.23637176249977088,
        0.15709338706813442,
        -0.11472184075255437,
        -0.7754995931558922,
        0.2788136903075317,
        0.37416993713597935,
        0.503686230355056,
        -0.014175533047809857
    ]
}