{
    "idx": 2219,
    "fights": [
        {
            "enemy": 1,
            "fitness": 12.790513847158579,
            "player_life": 0,
            "enemy_life": 80.0,
            "time": 183
        },
        {
            "enemy": 2,
            "fitness": 89.44417294239875,
            "player_life": 44,
            "enemy_life": 0,
            "time": 142
        },
        {
            "enemy": 3,
            "fitness": 4.140187595638328,
            "player_life": 0,
            "enemy_life": 90.0,
            "time": 129
        },
        {
            "enemy": 4,
            "fitness": 3.3198273909829323,
            "player_life": 0,
            "enemy_life": 90.0,
            "time": 293
        },
        {
            "enemy": 5,
            "fitness": 10.65224472101788,
            "player_life": 85.60000000000014,
            "enemy_life": 90.0,
            "time": 1000
        },
        {
            "enemy": 6,
            "fitness": 3.667281206734631,
            "player_life": 0,
            "enemy_life": 90.0,
            "time": 207
        },
        {
            "enemy": 7,
            "fitness": 30.24109822612272,
            "player_life": 0,
            "enemy_life": 60.0,
            "time": 317
        },
        {
            "enemy": 8,
            "fitness": 87.13935834262664,
            "player_life": 29.80000000000026,
            "enemy_life": 0,
            "time": 344
        }
    ],
    "weights": [
        0.37568267774007347,
        0.3693251644356274,
        0.9261537060263587,
        -0.27274883259527627,
        -0.9512136260055298,
        0.15061250255112751,
        -1.1562791578305875,
        0.31591927719360885,
        -0.6737777986671273,
        0.9207161157776435,
        -0.6850496254977962,
        0.9571938531393305,
        0.7307056056175655,
        0.8414511710717403,
        -0.7142394681683026,
        1.007717175466037,
        -0.349702977926061,
        1.0816502620759678,
        0.439663412611921,
        -0.0029528965725691414,
        -0.7050161455601162,
        0.1378425611490623,
        1.0148684484590185,
        1.7194145763033344,
        0.18808922180290844,
        0.5647528534145239,
        0.46276343054263913,
        -0.67588183171621,
        -0.2058421673783219,
        -0.6511799694450194,
        -0.10486922232690579,
        -0.97958816871976,
        -0.6746208467722998,
        0.11977275221755729,
        0.7838915701711611,
        -0.09406353494640125,
        0.20984291952042794,
        -0.01924408906691702,
        1.5285301744369861,
        -0.1444643326496195,
        -0.6334118456770687,
        -0.042950344236698614,
        0.925388416031691,
        0.831003965729885,
        -0.6740741950422581,
        0.3139544591830895,
        0.6324799578863728,
        -0.6985960060013167,
        0.4396049906185765,
        0.5909484480364757,
        0.09600352848585578,
        1.2719386304828433,
        1.072291503702167,
        -0.21188526982093908,
        -0.9354858376462412,
        0.2586775330936763,
        -0.20593350845204256,
        1.3555464430340933,
        -1.1107346757367784,
        -0.2817423011071849,
        0.9821138592371148,
        0.33367489024554164,
        -1.1424026618791352,
        0.7398306132016018,
        0.46626658130590215,
        0.0854686679702195,
        -0.7245241532404143,
        0.22158951320843326,
        -0.025352916509926327,
        -0.10056059445340082,
        -0.27057502982340664,
        0.08457207051880167,
        -0.5268735261347628,
        -0.04040210735139896,
        -0.6876387446530925,
        0.841635681104015,
        -0.18592631198010764,
        -1.0153151532725682,
        0.5570290298305447,
        0.24634575513371518,
        0.33857394277561076,
        -0.30101215097742207,
        0.6906164358654024,
        0.7095972816349406,
        0.026265110284157123,
        -0.6274126731006472,
        -0.23881317280702488,
        -0.5362107108862457,
        -0.9121932000265346,
        -0.5614259109622654,
        0.05667736731093144,
        -0.3057803868754852,
        -0.7151709612899629,
        -0.3592488670900006,
        0.44530998656167203,
        0.8579520385611241,
        0.07451190684205486,
        -0.10443828487315099,
        0.832505792926998,
        -0.7848112515374841,
        1.0930791229829775,
        -1.1139928483791168,
        0.02180064890348865,
        -0.0889730492479832,
        0.9282124687823143,
        0.23401193744895166,
        -0.21867051578064908,
        -0.9244830255731409,
        0.9997001991616357,
        -0.26969715558350127,
        -0.6009109529965131,
        -0.31825574765028475,
        0.9594521035266269,
        -0.7241871329978151,
        0.0031013503614416016,
        -0.5975505600629841,
        -0.08936741421941743,
        -0.5829264867557664,
        0.14711908379272048,
        0.5134062405989762,
        -0.09046772823433628,
        1.0741042856764826,
        0.06821010148029928,
        -0.08482640860999668,
        1.3788268377379196,
        1.1113112446656077,
        -0.6604739013527867,
        -0.7509703684537961,
        -0.6090284595059984,
        -0.2401585339806898,
        0.45151369493949156,
        -0.7346585591866213,
        0.030739918513558367,
        0.9718772326093491,
        -0.27702515163572516,
        0.9606221702711197,
        -0.14136707900572018,
        0.820268049855351,
        0.2241339261551934,
        -0.11608827130591295,
        0.9973777415215735,
        0.4934296879450228,
        -0.7710129222478183,
        -0.22976789103258372,
        0.4396715720659232,
        -0.7736996766586342,
        -0.6295527104092338,
        -0.5859099863664243,
        0.7270605475942095,
        -0.26073356023793154,
        0.41385370931159565,
        1.064575528906438,
        1.4911306434946119,
        0.19977200311416451,
        -0.32788736211444036,
        0.45517251485718896,
        -1.1476620446755879,
        -0.03133660082743855,
        0.6892287094832865,
        -0.06469637118867719,
        0.3082741190124817,
        0.4386243574538908,
        -0.6701506571404668,
        -0.3328480190932759,
        0.16783966713741877,
        0.6982052926385536,
        0.2590587708910278,
        -0.4460673039104522,
        0.30970469674536927,
        0.7799460440199001,
        0.006379673433611149,
        -0.16336784712729385,
        0.7999236855346185,
        -0.18079435180999207,
        0.5963463351508671,
        -0.032186760862251654,
        0.4446087017279542,
        -0.7929652325414679,
        0.24333153832082477,
        -0.3439338022696624,
        -0.8176788643723863,
        -0.2649524159165022,
        0.15446630108114556,
        0.6476237673743606,
        0.335861682402607,
        -0.3215045317484424,
        -0.5023794664751976,
        -0.9443334191995173,
        0.406602249634482,
        -0.9668146137369246,
        0.2415196866354145,
        0.7731122170807636,
        0.5566927710586923,
        0.5627272396955867,
        0.3436685094491404,
        0.8077171973487844,
        -0.06080552233203909,
        -0.6270808698779254,
        -0.8210427776245031,
        -0.45677772186402793,
        -1.1101974237041548,
        -0.24625716405211923,
        -0.9681799733742655,
        -0.13494862321587223,
        0.43503389237132645,
        -0.23621319553821235,
        0.07529968536919081,
        0.827485812552048,
        0.8299513093733842,
        -0.5816410763992135,
        -0.2737760863103704,
        0.41864363504697927,
        0.07342217834675051,
        -0.5327959597840191,
        1.051565122621561,
        -0.6535722789090228,
        -0.4831554204454024,
        -0.08262395223715922,
        1.064832999947754,
        0.08741426772173311,
        0.641337093391449,
        -0.31932057203743053,
        0.7717340088797039,
        0.4948110825948987,
        -0.3463933884562008,
        -0.12746522773684826,
        0.5041915278633166,
        -0.5231856048992778,
        -0.05232146868150565,
        0.23192052201107716,
        -1.022025240311652,
        0.658778300945418,
        0.47130270159598875,
        -0.3193409346381672,
        -1.0633982072919579,
        -1.0668991462345796,
        0.520664295617926,
        0.5634104754579404,
        0.411760235546879,
        -0.5838234223268627,
        0.49775551032530807,
        -0.17325724040673743,
        0.6666532478354829,
        0.6090909441796571,
        1.0614789330526366,
        -0.7024877678109844,
        -0.6622243227194027,
        -0.04932016458421162,
        0.10682967213542804,
        0.9618847837947261,
        -0.44109497552974747,
        -0.2970601183889595,
        -0.48686218688495436,
        -0.150908997531794,
        -0.8006281562748968,
        -0.611939005296917,
        0.33207778791181874,
        0.8095116735157263,
        0.22818002486041225,
        0.526052740199836,
        -0.5269338782533546,
        -0.04874332551064552,
        0.4908145237145432,
        0.42504387749738426,
        0.04535074640691887
    ]
}