{
    "idx": 304,
    "fights": [
        {
            "enemy": 1,
            "fitness": 21.956574883080755,
            "player_life": 0,
            "enemy_life": 70.0,
            "time": 155
        },
        {
            "enemy": 2,
            "fitness": 91.57237888630937,
            "player_life": 72,
            "enemy_life": 0,
            "time": 278
        },
        {
            "enemy": 3,
            "fitness": 66.4316554962389,
            "player_life": 0,
            "enemy_life": 20.0,
            "time": 262
        },
        {
            "enemy": 4,
            "fitness": 30.38687189361193,
            "player_life": 0,
            "enemy_life": 60.0,
            "time": 274
        },
        {
            "enemy": 5,
            "fitness": 90.2052886203982,
            "player_life": 58.00000000000033,
            "enemy_life": 0,
            "time": 269
        },
        {
            "enemy": 6,
            "fitness": -4.897839799950911,
            "player_life": 0,
            "enemy_life": 100,
            "time": 134
        },
        {
            "enemy": 7,
            "fitness": 66.27641489804762,
            "player_life": 0,
            "enemy_life": 20.0,
            "time": 306
        },
        {
            "enemy": 8,
            "fitness": 3.610928270183499,
            "player_life": 0,
            "enemy_life": 90.0,
            "time": 219
        }
    ],
    "weights": [
        0.2427285038389132,
        0.2263688222193487,
        -0.19058862528098972,
        0.7382422749410315,
        -0.04147341938538754,
        -0.18361586590965526,
        0.2001791679440532,
        -0.1757249169855653,
        -0.17946087832784707,
        0.6022718769963487,
        -0.31005824973046425,
        0.4172071276765996,
        0.040737418968919595,
        -0.4271630608915922,
        -0.24815842430441087,
        -0.18524846346258186,
        0.09190205637348185,
        -0.18444276023002013,
        0.1658784729173286,
        -0.0977864493162224,
        -0.23019886302005088,
        0.6767731133724457,
        0.3079282071549055,
        0.7441743412885661,
        0.06292846713428432,
        0.2613602680156279,
        0.23729419876307314,
        -0.2384878468679374,
        0.18177373904954824,
        0.2413339729549897,
        -0.10460006080071281,
        -0.24763398175353218,
        -0.2140639192432967,
        0.6293596148849119,
        -0.5739000326723436,
        -0.36070349354654146,
        0.004019905206844976,
        0.1532499437632872,
        0.11794425899399874,
        0.3810044419550422,
        -0.07749345329620712,
        -0.015518137993210652,
        0.012422003438740493,
        0.042501443725292576,
        0.3319528497725695,
        0.1363433786985822,
        0.7230033710302867,
        0.020798294540125547,
        0.04507041541465048,
        0.9896782579442445,
        0.28486787412106435,
        -0.22267532038176618,
        0.2894130783765496,
        -0.0670888535995288,
        0.0802630224542224,
        -0.058120414753178,
        -0.2589173993685836,
        0.20618492354898318,
        -0.3409760901153961,
        0.3160758478938784,
        -0.4392991483248601,
        0.01333649752024893,
        0.07746554889612861,
        -0.019295771507108567,
        0.26728186563769185,
        -0.04120156048001032,
        0.14411838550529804,
        -0.006004090035611753,
        -0.4340804660249673,
        -0.45698871298830146,
        0.036217740785630226,
        0.04748825532077554,
        0.4060693518499324,
        0.07958915029654204,
        -0.2844160474581362,
        -0.660614968887804,
        -0.0004738371905111949,
        -0.14828257845368834,
        0.13297620841956434,
        -0.33070680486417453,
        0.3760110421671093,
        0.710155656073395,
        -0.21041771178199475,
        -0.4898583955387991,
        0.3609322147464303,
        -0.07776417601413102,
        0.1562011621926069,
        -0.26264887161595196,
        0.3840194463075971,
        0.04526433728763318,
        -0.2509671984390904,
        -0.6840285802741682,
        -0.11206630119159995,
        0.42390143016873927,
        -0.11430994422350013,
        -0.5138491009032528,
        0.22786386930761737,
        -0.1700412038541094,
        0.44797888269852093,
        0.5971545867020258,
        0.15343040898028293,
        0.1478608417311277,
        0.038368470823856304,
        0.3132121068225721,
        0.5555041098174219,
        -0.6504177630812179,
        0.15673519876803954,
        -0.09009375070481469,
        -0.8102476831834309,
        0.4162998582174535,
        0.4843110711678275,
        -0.24374709227793873,
        0.0019395563056522347,
        -0.260051824638939,
        0.17468949951794963,
        -0.3883356662820511,
        -0.5198869060939193,
        0.3675995452125303,
        0.09823883851476153,
        0.6252888496571236,
        -0.261369528909478,
        0.6410866934777305,
        -0.2450885460559675,
        0.5346567453338329,
        -0.27118579899494344,
        -0.03618242867704859,
        0.4153329651968701,
        -0.5994017905335981,
        -0.11395394326105553,
        -0.4656608614026296,
        0.5121618298781249,
        -0.41996063596126776,
        -0.11381645894206398,
        0.22185621291504926,
        -0.5815167184508256,
        0.17184706302693328,
        -0.3428242049243574,
        0.44276812832398027,
        0.18766454155921097,
        0.06984060157366984,
        0.09065951293837936,
        -0.28604990942091746,
        0.09129374998216219,
        -0.33885975289771275,
        -0.21825898247013537,
        -0.2246825371432648,
        -0.5027215348213504,
        0.3384027626975571,
        -0.2163284388583866,
        0.1794413429573388,
        -0.3231649338428207,
        -0.5051059906432542,
        -0.11792201527242124,
        0.5015684321186721,
        -0.029330344067480082,
        0.36697323715044555,
        -0.428175531000808,
        -0.11682512800052244,
        0.06064010100043683,
        -0.399082171257906,
        -0.01551631514016041,
        -0.04319472587155595,
        0.05153977052265091,
        -0.12137281820348869,
        0.0964454995631688,
        0.36633732974128336,
        0.2938880219079501,
        0.625023241905359,
        -0.32678212405104884,
        0.2515347712014558,
        0.4511535985277856,
        0.045112535514915425,
        0.45023154129827053,
        -0.43524666281605484,
        0.047619923762959024,
        0.10461325958143933,
        0.30676718142028114,
        -0.7522492539138577,
        -0.012615526437413815,
        0.04330277850002498,
        -0.38174703775903607,
        0.4218363531834259,
        0.0025212387476329368,
        0.27677182144674956,
        -0.5567486868935733,
        0.33414092974997267,
        -0.40264832475321277,
        0.25174074326580137,
        -0.11123238584585374,
        0.548051627723361,
        0.40151884975103413,
        -0.32480319849842954,
        0.18058935449258096,
        0.47870555990410424,
        0.1552234183971568,
        0.02126751312054287,
        -0.23165894749084345,
        0.2446382777170359,
        0.15480225564251301,
        0.2182601717866871,
        0.8002128617706511,
        0.05534557299231681,
        0.13499565936061886,
        0.03811803480892202,
        -0.03183191049714118,
        0.17735633016907643,
        0.39687570837709896,
        0.21174149619013155,
        0.562938849562445,
        -0.8733650097930962,
        -0.40609234503536296,
        -0.2404046786700958,
        0.31591941418462194,
        -0.40808127743759964,
        0.056971848806359554,
        -0.11824712685550667,
        -0.14778610814722318,
        0.5270049523435211,
        -0.24366165424303216,
        0.731312180260591,
        -0.2996555455415462,
        -0.558432663679239,
        -0.3767410041204952,
        0.07887838306815671,
        0.4322744247342721,
        0.28484432805074533,
        0.054406573194548606,
        -0.12925344613770068,
        0.2790437987006056,
        -0.4137634464303427,
        -0.19987821873107547,
        0.16508613318604146,
        0.31541393998669615,
        -0.09032785584058708,
        0.2760798950008171,
        -0.34038874496450083,
        0.33613863108298975,
        -0.6608199195047983,
        0.4686145512372547,
        -0.4448560766095797,
        0.5863175914417729,
        -0.6462267911632865,
        0.027481114391782198,
        -0.06064127001859029,
        0.6131868487732708,
        -0.22233791611356912,
        -0.22197322638709488,
        -0.1994982579999201,
        0.32906052985044876,
        -0.134527618409228,
        -0.5748624225397915,
        0.3648420808053874,
        0.16969867197856625,
        0.08838475306406493,
        -0.12531651975333466,
        -0.35615101435160573,
        -0.38492190612992844,
        -0.09733063537477679,
        0.12189936704013977,
        0.43082511571590665,
        0.2086051501973112,
        0.464462601821595,
        0.17608824218136473,
        0.5123716486855223,
        0.3067664159652724
    ]
}