{
    "idx": 703393,
    "fights": [
        {
            "enemy": 5,
            "fitness": 89.15379680945988,
            "player_life": 49.000000000000306,
            "enemy_life": 0,
            "time": 313
        },
        {
            "enemy": 6,
            "fitness": 85.28835394814497,
            "player_life": 7.000000000000233,
            "enemy_life": 0,
            "time": 224
        },
        {
            "enemy": 7,
            "fitness": 75.29955642660931,
            "player_life": 0,
            "enemy_life": 10.0,
            "time": 299
        },
        {
            "enemy": 8,
            "fitness": 89.88322890233346,
            "player_life": 55.00000000000032,
            "enemy_life": 0,
            "time": 275
        }
    ],
    "weights": [
        0.23437960378623657,
        -0.3712483120288911,
        1.0443141082115361,
        -0.666637735965858,
        -1.040319675208302,
        1.0588105846790725,
        -0.9318706220696386,
        0.4619199839571598,
        -1.1922728761803245,
        0.7376001299392921,
        -1.1612417477795323,
        0.49885781720818734,
        -0.9905051403491256,
        -1.0515092427185693,
        -0.9634384219710369,
        1.81977851952447,
        -0.2646847624825768,
        1.143472968525474,
        0.5420974999720769,
        0.35430289069017135,
        -0.8906723368060296,
        -0.15769869232719755,
        1.687405460914751,
        0.3708249742926696,
        0.5510590879026213,
        1.0785128735248162,
        -0.6961289889789061,
        0.8265478251634201,
        -0.08688025559978438,
        0.06309956006862538,
        -0.6625437486886071,
        -0.02603213669629441,
        -1.345255078564223,
        -0.16861823092511422,
        0.6702073960563809,
        0.5075288115696838,
        0.7728851432201047,
        -0.8253596772383412,
        0.7837414151032279,
        0.4060501354568106,
        -0.6868462302972783,
        -0.22067064834241032,
        0.630590375082512,
        0.3899754013818362,
        0.08173530403742094,
        -0.6640076002781935,
        1.1715214230858826,
        0.015720995943533385,
        -0.032496072665101405,
        1.2023913740920438,
        -0.15611166824586092,
        0.8714829818959736,
        -1.177179420329391,
        -0.10718147645294127,
        -0.1953831689657228,
        2.496430458027363,
        0.03856136861827712,
        -0.10633664486732117,
        -1.6083512250613767,
        1.3117448526045665,
        0.5577470437648733,
        -1.2160056670591664,
        -0.6198070728493487,
        0.7462116676060968,
        0.10369788807545799,
        0.03329078672858188,
        1.0291459496511028,
        1.0982615807415372,
        0.2118238306918136,
        -0.45876108920086206,
        1.2683942564718218,
        -0.20100216875175958,
        -1.263868621826827,
        0.4063154141804344,
        -0.6782822598701235,
        -1.7584180376333194,
        0.3657644696290878,
        -0.7234784177721247,
        1.1924949629088295,
        0.39791444916759133,
        0.3933296762222611,
        0.025992999772159214,
        0.7256469181418448,
        0.5992080702545117,
        0.05397430205661019,
        -0.37649413225573247,
        0.16485423411268252,
        1.3885755359622858,
        -0.08041729455784764,
        -0.3125555234609419,
        -0.31856966364910305,
        -0.37608531766532705,
        -0.06402301572512337,
        -0.3463994667856537,
        0.5242193346532346,
        0.009975327145002915,
        -0.33029374226696867,
        -0.4692023541232181,
        2.3021858484111464,
        -1.0923101879396888,
        1.0240568926991367,
        -1.4500624369940234,
        -1.0116227716678117,
        -0.5552765230465039,
        -0.014459815766169878,
        -0.018497792857934046,
        0.6774191710172911,
        -1.4620450017864193,
        0.9764847165236579,
        -0.699333446173832,
        -0.9430639709882747,
        0.0028284208094556665,
        0.6265819828263061,
        -0.3710143707666913,
        -1.0123782174211224,
        0.514205577002477,
        -0.1384665299003664,
        -0.6952556981166451,
        0.09561185278528428,
        0.6074096700849341,
        0.28242496082750645,
        0.9514610038924258,
        0.2565306791873207,
        -0.9862499935432782,
        1.515163383149415,
        1.1529504456249589,
        0.2993570368331722,
        -1.421342279863293,
        -0.42848647034633686,
        -0.1563455716514635,
        -0.13926480671763053,
        0.009681986000103573,
        -0.6290179089168202,
        0.42044565804957307,
        -0.3826482494154402,
        0.3195920463718754,
        -0.4773955592660373,
        1.3203361870659867,
        0.723232492898777,
        0.4162657297747739,
        1.1131057963120026,
        1.3475674746855293,
        -0.5430093801747531,
        0.26294747310947986,
        0.5654718638833112,
        -0.9950257143083158,
        0.44285829684713407,
        -0.5497832509962775,
        -0.41223891720946093,
        -0.44151886962224013,
        -0.7438378346610623,
        1.025721789957841,
        1.1167123779512662,
        0.3160009202111672,
        0.7922400886982918,
        0.11034323432503695,
        0.2640898268134232,
        0.6330802631382212,
        1.5085966613835493,
        0.026681409012319968,
        -1.0123316820249635,
        0.5226260262193394,
        0.5480056315878095,
        -0.4729442897891692,
        -1.0024390141255166,
        -0.2633513901742983,
        0.4870779634895317,
        -0.12244004344343658,
        0.8144206548741931,
        0.279739301765467,
        -0.07340197376246851,
        0.44648106447089914,
        0.6302025203384366,
        0.5547570110577047,
        0.688474637953999,
        0.016359835379502898,
        0.26109541341940945,
        -0.031094512208193273,
        -0.4186977163788157,
        0.24816507651509023,
        -0.6128161030693549,
        -0.4125690335645618,
        -0.20579829688649148,
        1.2084805195298107,
        0.33548158867131805,
        1.0083836961329917,
        -0.3778420393056125,
        -0.6398968735722849,
        0.8529524423646091,
        0.6834549347418525,
        0.77419323556991,
        0.0015890048863571177,
        0.721569436145273,
        -0.035363433045381726,
        -0.23337340494281547,
        1.3723857347410826,
        0.021848361641229552,
        -1.216426412774524,
        -0.7976165035972074,
        -0.4683028201628371,
        -0.5156318197352032,
        -0.34318719130746766,
        -0.5835805713233101,
        0.46254986757848093,
        0.44758862294778534,
        -0.6170644168583103,
        -1.0186806192298803,
        0.6990016164183674,
        1.0005827591696106,
        -2.150891980684697,
        -0.04352344662119408,
        0.5181231094664848,
        0.6905924872522303,
        -1.1701416541092193,
        1.1177585586661316,
        -0.2465751438914593,
        -0.5358443161380542,
        0.4550605444505042,
        0.7910931738885694,
        0.4118917749663903,
        0.8369950473333977,
        -1.031416309052489,
        1.14397510082803,
        -0.37897376640634794,
        0.1903694402235171,
        -1.6094228206960903,
        0.9527828754045575,
        0.1826233018555649,
        -0.07955446289807111,
        0.7807305272366502,
        -1.3033312864984203,
        0.7648401963647306,
        1.8606897842949222,
        0.32857649824296475,
        0.3522546499091456,
        -0.9535197115868748,
        1.7337315021430397,
        0.6328278244728972,
        0.4818306451345841,
        -0.004932419604912662,
        1.0369675933015077,
        -0.11288414034675012,
        1.2920047676344737,
        1.7993444635942573,
        0.04237269984692066,
        0.405400258377487,
        -1.0798910356243305,
        -0.06608564482313732,
        0.7911615143239411,
        2.147913221739845,
        0.6339694991862588,
        -0.10873479686345563,
        -0.20954591318500712,
        0.32005239480673775,
        -0.31398232321245395,
        -1.1215694053755838,
        0.06586916440729541,
        -0.05507331491351424,
        -0.18467674663038142,
        0.19475823017050803,
        0.3138769174084766,
        -1.724742246656398,
        -0.19674058210153628,
        0.6439363068757138,
        -0.2803948329312365
    ]
}