{
    "idx": 700272,
    "fights": [
        {
            "enemy": 5,
            "fitness": 88.11105438238982,
            "player_life": 39.40000000000028,
            "enemy_life": 0,
            "time": 340
        },
        {
            "enemy": 6,
            "fitness": 85.8701190770195,
            "player_life": 15.400000000000228,
            "enemy_life": 0,
            "time": 290
        },
        {
            "enemy": 7,
            "fitness": 66.63870783429057,
            "player_life": 0,
            "enemy_life": 20.0,
            "time": 213
        },
        {
            "enemy": 8,
            "fitness": 90.08661051127251,
            "player_life": 56.20000000000032,
            "enemy_life": 0,
            "time": 253
        }
    ],
    "weights": [
        0.6971520588146152,
        0.18964335042285077,
        0.8963235004666473,
        -0.9038722843019368,
        -1.050725071948015,
        0.24589096100438126,
        -1.2857584669213464,
        0.8577460524425189,
        -0.3706384539117512,
        0.48254259284018614,
        -0.5510205986908826,
        0.6382837584879306,
        -0.8060967697278966,
        -0.7365158136007859,
        -0.46384036195605804,
        2.090543854158152,
        -0.19680526457237835,
        1.1676617883612508,
        0.2865202404648613,
        1.156528990316976,
        -0.5048173962982239,
        -0.141694826375306,
        1.4584371596407886,
        0.8923174223868301,
        0.6496074865469306,
        1.2230294988563617,
        -0.6843152686775889,
        -0.053569612388273784,
        -0.09567709434643076,
        0.17900166243885982,
        -0.7683308025835637,
        -0.569015159330165,
        -1.0508629872146036,
        -0.15344218459171177,
        0.8773589989078849,
        -0.5086625520476797,
        0.3023092140865522,
        -0.41867647432343724,
        0.14581540322163072,
        0.3478104142232327,
        -0.6184455089021246,
        -1.0621632236198348,
        0.6838578778676541,
        1.1811738671204588,
        -0.45563327032753903,
        -0.6449889270994638,
        0.49906257144265553,
        -0.2715195662906548,
        0.15367418673887587,
        1.0009846785825098,
        -0.20360195166130463,
        0.9997597417027982,
        -1.2375409678975748,
        -1.502930779934038,
        -0.20851674782301483,
        2.016573628226451,
        0.2275002481122405,
        0.09936498540763053,
        -1.4258352371302303,
        0.6449539503055746,
        0.5861281916835728,
        -0.9362547095908313,
        -1.1992300868768875,
        0.7987355653071021,
        0.3243534627059472,
        -0.20814187055937905,
        -0.651016086702322,
        1.2322358310768713,
        -0.24332752910153438,
        0.5007165624752412,
        1.134069981830446,
        -0.44227007893934384,
        -0.7221962365779874,
        0.09731048613690997,
        -0.5776040071096764,
        -1.4906128854593912,
        0.23044265914477963,
        -0.9148861109476352,
        0.9031957467986929,
        0.6399699070055014,
        0.18166988623791644,
        -0.07603753334261394,
        0.6312945462801385,
        0.5195514951251332,
        0.2984787343123427,
        -0.8992038297234917,
        -0.44856735237841816,
        0.4619028582604495,
        -0.13261607317636062,
        -0.1858055022321712,
        -0.10060519940288697,
        -0.7434475642611413,
        0.18831383208744698,
        -0.5390038976653359,
        0.644884393643167,
        -0.6910374549486978,
        -0.3752656430324294,
        -0.0155468807674937,
        1.3112043852248316,
        -0.9380059963515679,
        1.0721811278717568,
        -0.9825814074309104,
        -0.4835632247034316,
        -0.288281040158328,
        0.045386010428675,
        1.0303233971526753,
        0.3089110708482591,
        -1.731310181852597,
        1.3948542194359703,
        -0.3712112772420456,
        -1.3319631911355776,
        -0.27342765428931587,
        1.405290334242227,
        -0.1772509313112487,
        -1.3094898137615205,
        -0.19710154591364554,
        0.20765372340658703,
        -0.6150428184149123,
        0.5491933091338141,
        0.35976812176692125,
        0.20322731365963992,
        1.2851371264341536,
        0.5060136006311391,
        -0.829376353555273,
        1.1436252716597302,
        1.5400453357747792,
        -0.30166586473847434,
        -0.9829151044619691,
        -0.15995863011362188,
        -0.4164089582908044,
        -0.21823719201890526,
        0.003673644786437641,
        -0.5680915761077424,
        0.32098486678669036,
        -0.13504932981959458,
        0.5582769727127633,
        0.5628767437280282,
        1.3535333150226616,
        0.08669915198356078,
        0.13334041808830305,
        1.3190967712400887,
        0.8050341899257161,
        -0.30631834784681267,
        0.16526136645550246,
        0.4471854861338882,
        -1.0259330683917118,
        1.1544831004065914,
        -0.4544476048056383,
        0.9471758108544861,
        -0.602600441067933,
        -0.24545237853321467,
        1.3473915156857978,
        1.2272328748630925,
        -0.5831136416809959,
        1.2350228808576218,
        0.7646698352414795,
        0.33559512994483204,
        0.7257555050270554,
        0.9066004539388616,
        -0.43805408837573573,
        -1.003302669101477,
        -0.03691611214537957,
        0.14236855713149416,
        -0.7083807845176298,
        -0.00947464158437257,
        0.29259782539782936,
        0.007872135630334141,
        0.6422955974319972,
        0.5084561122384031,
        0.76255408296079,
        -0.3083308867241897,
        0.38965743736835884,
        0.561333158154595,
        0.32355555222600013,
        0.5254216118841256,
        -0.2083673512523499,
        -0.01893612231545466,
        -0.6092650383101258,
        0.2980827292082799,
        0.0766974473584174,
        -0.2950668550869372,
        -0.6400924521536794,
        0.4176826116349602,
        0.7230815446829126,
        -0.1868172514262696,
        0.5702665018057446,
        0.4127152536587033,
        -0.5298984646737713,
        0.30004213662100293,
        0.5558710513727703,
        0.5694983379099171,
        -0.2600998228767155,
        0.5370373741844197,
        -0.02096881100772406,
        0.46458851968955506,
        1.1042633339044345,
        0.7983458569413976,
        -0.15541781630907742,
        -0.6826787717264498,
        -1.3464212640430742,
        -1.0060463537536437,
        -0.5400255889975385,
        -0.5101447535035036,
        0.8320822558358806,
        0.5730320206968744,
        -0.9192176403307231,
        -1.160811548474457,
        0.6151011239488409,
        0.8537319181381321,
        -1.6958749464139418,
        -0.13649252974890025,
        0.31053314855417313,
        1.050515643325268,
        -0.7536803955909034,
        1.1579380816006148,
        -0.5366625606505202,
        -1.2022463574460838,
        0.7317531554147146,
        1.5176911306498015,
        0.09065671715610035,
        0.8433040109502815,
        -1.2487318055236722,
        0.8269719770766588,
        0.23811716641252018,
        0.43975103021666,
        -1.2735454073548558,
        0.8994053948441021,
        -0.4546240378598412,
        -0.3908352808172496,
        0.7445395524718335,
        -1.4028460228564037,
        0.8999043996475898,
        1.722816380541704,
        -0.13876361082162345,
        0.4832908360708815,
        -1.0945218030353498,
        0.9624540130160324,
        0.837013047040002,
        0.42177304545196276,
        0.18913493223437014,
        1.2182084565337217,
        -0.061436723446290115,
        -0.1699959249872266,
        0.995718799218121,
        0.5565990268325665,
        0.4372187412035008,
        -0.8464452965623342,
        0.13197059810908107,
        0.7468851345417642,
        0.9282532954257048,
        0.7719907814134961,
        -0.6582159618547094,
        -0.08303315247401338,
        0.5951667698214942,
        -0.1482969592659812,
        -0.8032708739685399,
        0.1337802697933446,
        -0.030383334156959055,
        0.1000507530344929,
        0.8565628227924333,
        0.08286344543582287,
        -0.7926267317593616,
        0.5431182223656843,
        0.9360621611751001,
        0.048810068795995844
    ]
}