{
    "idx": 707717,
    "fights": [
        {
            "enemy": 5,
            "fitness": 89.52693855665949,
            "player_life": 50.20000000000031,
            "enemy_life": 0,
            "time": 243
        },
        {
            "enemy": 6,
            "fitness": 57.615504937210915,
            "player_life": 0,
            "enemy_life": 30.0,
            "time": 218
        },
        {
            "enemy": 7,
            "fitness": 88.87946500072773,
            "player_life": 43.00000000000029,
            "enemy_life": 0,
            "time": 226
        },
        {
            "enemy": 8,
            "fitness": 87.49968822339261,
            "player_life": 32.200000000000266,
            "enemy_life": 0,
            "time": 305
        }
    ],
    "weights": [
        0.8685348081601382,
        0.8033474147248448,
        0.8486229384212343,
        -1.0787457158530833,
        -1.404656893639199,
        1.169531777099116,
        -1.5354053675264878,
        2.384774969085558,
        -0.6181412176058357,
        1.481119065493993,
        0.012263622259464799,
        -0.3085667483815589,
        -0.8331059242679909,
        -0.9248640592532906,
        -0.6732786834096244,
        2.685560074530909,
        1.1652439648687432,
        0.8981380365130862,
        -0.1434841574761889,
        2.235122422402475,
        -1.3646323984827782,
        0.11788543673597061,
        1.4827352424328553,
        1.5637012305934581,
        1.361177182984064,
        2.112741349487658,
        -1.3796102607180345,
        0.023846432528197993,
        -0.17329867291320367,
        0.31493399807340366,
        -0.6259882257367441,
        -0.8090039562904834,
        -0.8865904998753963,
        -0.9693656263757742,
        0.4490226153591198,
        -0.03812528564306031,
        0.48356522152476744,
        -1.182166735929603,
        0.4112564404064676,
        0.646801307623441,
        -0.3686595863412824,
        -0.6456852842120393,
        0.38046251467930425,
        1.1068709304995075,
        0.3713969978083278,
        -1.1726729253208128,
        1.8054556991069497,
        -0.3351812986873739,
        0.7720052421301525,
        1.1939448919811135,
        -0.7104010974045235,
        1.0255198094162132,
        -1.4729776422968026,
        -0.9805774665282054,
        -0.6692772448000398,
        1.9613481893267146,
        0.724509849649744,
        -0.0848882958504622,
        -1.7380238872227798,
        1.0741914685710878,
        0.5676577965908562,
        -1.0364801752913646,
        -0.7768232385719536,
        0.16367632145964434,
        0.6293062797396869,
        -0.14310257306084176,
        -0.8932748791946028,
        1.8832106338934844,
        0.7373065100428529,
        0.4646604190060311,
        0.7305187340200342,
        -0.9141632637220681,
        0.004139606393606171,
        0.21327599798524596,
        -0.4607854662541859,
        -1.5756040411894665,
        -0.8525507787714015,
        0.22532297416736935,
        0.5623642317364066,
        -0.0489523811052495,
        -0.33965934706994494,
        0.17454581668823355,
        -0.2638361295302063,
        2.1796329048575442,
        0.07093209051990912,
        -0.37593216784324496,
        -0.8235322868812971,
        2.0048311768350877,
        -0.4543582605769688,
        -0.4466874700474472,
        -0.17534807035654315,
        -0.5954933033622389,
        -0.04860124332985455,
        -0.9916718217408846,
        1.07241357671759,
        -1.035859904925896,
        0.29300422060938974,
        -0.160397798388402,
        1.8558085520744056,
        -1.0638950318503555,
        1.0208261067207798,
        -1.6917210444465083,
        0.7167954031688066,
        -1.1707300129227234,
        0.6002771661816897,
        0.12403807902427291,
        0.2248614631431088,
        -1.3171634523943472,
        0.975223092040419,
        -0.14228682442174367,
        -0.9343943496166784,
        1.1343352624531409,
        1.1633802878918518,
        0.2333542198889672,
        -1.0142009257361286,
        -1.0931181956389395,
        0.5141642692654737,
        -0.036150853972615755,
        -0.6893587867129041,
        0.6566550895478368,
        -0.11125942132637087,
        -0.4160222909227692,
        0.41968811067075407,
        -0.8161216717819934,
        0.7861559381909791,
        1.731603278904875,
        1.16717852172315,
        -0.3978577351557404,
        -0.4477577682384893,
        0.16492810558185425,
        0.22483313871268668,
        -0.10030157365321427,
        0.020871237595657604,
        1.5847171563624791,
        0.6890487882375707,
        1.5229260093184345,
        -0.11466961010136778,
        1.8011222480890727,
        0.09149481021152236,
        -0.43629212872947454,
        0.7142641682703093,
        1.651081556758669,
        -0.9598850397377516,
        0.11392417752502648,
        0.03204417240094082,
        -0.8715629473870612,
        1.1044665285288686,
        -0.5532231674224868,
        2.083761221265859,
        -0.6365774207788074,
        0.3428562888661016,
        1.402643063640448,
        1.5853547310176146,
        0.22033694881010712,
        1.5995010039999036,
        0.6814318564643489,
        0.13334276433966036,
        2.0334425411852557,
        1.0841287086937546,
        -0.6363582635993034,
        -1.509295322820946,
        -0.43525901141540707,
        0.6723173254299468,
        0.09735987524426098,
        -0.2523203442816563,
        0.04820673656046723,
        -0.21623542634141757,
        0.7437804360347161,
        0.4783949316350278,
        0.49866986583562095,
        -0.21328332492256294,
        0.23345383222824723,
        0.5398639853579795,
        0.3283695890367985,
        0.34883375853111376,
        0.08437060757190609,
        -1.3276496158381865,
        -0.7708739405537548,
        0.6834589291855221,
        -0.5719390612475109,
        -0.6500344168462536,
        -0.7349849156191666,
        0.01142732214793063,
        0.1754822521090438,
        -0.8319335892333021,
        1.0120944102320841,
        1.026171558357334,
        -1.0484571202515895,
        0.7373476037200843,
        1.23382734684289,
        -0.11736094566005684,
        0.6356590083615744,
        0.8267707214923602,
        0.45854301328615643,
        -0.13253412964057215,
        0.6282431366030168,
        1.1259215134680949,
        -0.37648353058534784,
        -0.7368331753351193,
        -1.6313381506092552,
        -0.9078293301773713,
        0.06318339756348385,
        -0.42734891182287293,
        0.08072359386316055,
        -0.355070019174726,
        -1.7171613773864822,
        -1.6205243113529058,
        1.362012908954537,
        0.007513787118142247,
        -1.5438970444764437,
        -0.6192231299690111,
        0.972846487739074,
        0.33555816897718993,
        -0.8669959468588802,
        1.0277311457397271,
        -1.2947731514822631,
        -1.207690137267969,
        -0.04237708513438196,
        2.3834287972717694,
        0.5187560627251049,
        1.8406036525104859,
        -1.464308127550254,
        1.2335843754665219,
        0.7219563985513688,
        -0.3102585493509896,
        -1.4687890280403004,
        0.435856550370187,
        -1.4660542830901309,
        0.6196878225018598,
        1.7042715711468903,
        -0.825576138280958,
        0.546473117994827,
        1.824296466436687,
        0.019799166803815743,
        1.3549984826559973,
        -1.187012527089725,
        1.0701891075737118,
        1.2593444674050025,
        0.49522945182646244,
        0.006903833740333265,
        0.6013888235520843,
        0.09138891786941106,
        -0.07526666521108633,
        0.09748133389249858,
        0.9178087164056282,
        0.9274548857505382,
        -0.834179235648866,
        0.8446530409172432,
        1.4718778518661135,
        0.25159046179816574,
        0.6706542952248596,
        -0.9677092562992812,
        0.3039787580780442,
        -0.20302559560035088,
        0.20006384313060852,
        -1.8212729476919758,
        -0.44367033647488163,
        -0.5510240123738146,
        0.4338105777787094,
        -0.5163568538388218,
        0.3732287898900169,
        -0.3249725076621431,
        0.6387830526245172,
        0.6767932731320283,
        0.7706076329030975
    ]
}