{
    "idx": 711177,
    "fights": [
        {
            "enemy": 5,
            "fitness": 88.94901301948917,
            "player_life": 45.4000000000003,
            "enemy_life": 0,
            "time": 268
        },
        {
            "enemy": 6,
            "fitness": 21.56627799644576,
            "player_life": 0,
            "enemy_life": 70.0,
            "time": 229
        },
        {
            "enemy": 7,
            "fitness": 90.43870783429061,
            "player_life": 58.00000000000033,
            "enemy_life": 0,
            "time": 213
        },
        {
            "enemy": 8,
            "fitness": 88.86324619773175,
            "player_life": 45.4000000000003,
            "enemy_life": 0,
            "time": 292
        }
    ],
    "weights": [
        0.7483127497291298,
        2.248821305527243,
        1.3654191151722788,
        0.7564409453473975,
        -1.9684000168737315,
        0.3453871463536076,
        -1.2757120997568099,
        1.2513407048051852,
        -0.11662759335099442,
        0.5808854019115328,
        0.2733466986496276,
        -0.3117891672337488,
        -1.2870293517077611,
        -1.4679318508193127,
        0.45153673417203755,
        2.312318776406921,
        1.7894731226180154,
        1.1336890393875982,
        0.364928038508339,
        2.155659978306819,
        -1.1395479958990173,
        -0.2100026808505999,
        1.6133888310829736,
        1.8381838360732015,
        0.6107929421809224,
        1.154310444339271,
        -1.1887666481775112,
        -0.43935500583686254,
        0.9102116358901442,
        1.1218130714662078,
        -0.6628298970409816,
        0.18689877353602208,
        -0.8463100968694557,
        -1.069502073617405,
        0.7188052830344981,
        0.4272564409266326,
        0.1577866786825037,
        -1.149249204509801,
        -0.21873454014937,
        0.719313717365636,
        -0.6833149637856571,
        -1.5510179570568976,
        0.6837055146566594,
        0.4919888705194009,
        0.28173145649468306,
        -0.5132040810515832,
        1.1734239743337913,
        -0.18747542490290672,
        0.6923814069943022,
        1.589014338013393,
        -1.2159884689049452,
        1.301630658082549,
        -1.495180189596039,
        -1.394156616230792,
        -1.1164581612334215,
        2.6285313825335668,
        0.7825961782283901,
        -0.40368619888267826,
        -2.2814171676230557,
        0.06968189803000581,
        0.7026080483532836,
        -1.4611830409171342,
        -0.5750098394566734,
        -0.07897692281007532,
        0.17218129375909816,
        0.5763723296178256,
        -1.2419351079057952,
        2.0056293198479587,
        -0.9995066759256854,
        0.1428707866049982,
        0.7152726695823257,
        -1.3508891897307107,
        -0.5187312060056932,
        -0.31268047927511033,
        -0.06190441966276519,
        -2.068958317305297,
        -0.916579258794238,
        -0.5586018769974014,
        0.08433340833426185,
        0.36674788230928573,
        1.2133250571829537,
        0.09947214364983166,
        1.3805709190006825,
        2.561530503167909,
        -0.643448189270882,
        -0.29105581486218535,
        -1.0370738887595756,
        1.5575932791870428,
        1.4288247682459074,
        -1.446517949184701,
        -0.8418238494326216,
        -0.7336097601750041,
        -0.49976239352528207,
        -1.127710093925386,
        1.374650026696773,
        0.05159379276191,
        -1.4382005650652074,
        0.3656679770967969,
        2.022839091320886,
        -0.6702432552333456,
        1.1709937935791017,
        -2.098972140634468,
        0.5194558736832843,
        -0.7524397139780852,
        -0.26297104392370807,
        1.2836931936183076,
        -0.06181197834232867,
        -0.7005558516284759,
        1.256834966325679,
        -0.8789180934059944,
        0.18127624443296647,
        -1.4429569510658895,
        0.6219338797217772,
        0.42752500696217555,
        -1.252891736754494,
        -0.0640474765602308,
        0.49325866193231205,
        -0.4319839740623881,
        0.26850683150134347,
        0.03062162613595429,
        -0.4973841010072973,
        0.12309839773979728,
        0.8764636137637696,
        -0.40894589545033866,
        0.937313796104119,
        2.5795157499504398,
        0.5084663647786285,
        -1.4374877798949417,
        -0.7090630781103259,
        0.47818306019396273,
        -0.8327640268499982,
        0.4458448215924686,
        0.24591243904123564,
        0.9313167695291295,
        -0.6881666233261854,
        0.6312239933024337,
        0.8420715533955936,
        2.513293930632281,
        1.6834652403370665,
        -0.8033673378400881,
        1.7975436645346798,
        1.120983210189697,
        -1.8553667390677915,
        -0.5699696810695112,
        0.5007362146910809,
        -0.35396719110370434,
        1.61717581576964,
        -1.5808970873811623,
        0.9650191821910019,
        1.1193383399660715,
        0.24886211081098047,
        2.4182699404858954,
        1.7202855455550465,
        0.43152472469596187,
        1.3348645451799444,
        1.092750279460933,
        -0.6612877021728462,
        1.4007641718032218,
        0.22140708583318863,
        -0.03886923430642682,
        -1.2675720335983764,
        0.9387503735719407,
        -0.3544274900321781,
        -0.2812166347719302,
        0.567161691727286,
        0.10429915162077295,
        0.2853864924979751,
        2.3914660540400328,
        0.6812350575324937,
        0.6203527827822102,
        -1.405548218717179,
        -0.06892833088893863,
        0.799727776458326,
        0.5804870320279887,
        1.4415686472879226,
        -0.6162460753558122,
        -1.0686954374729576,
        -1.0411464406336803,
        1.0959042048444458,
        -1.6139014922351331,
        -0.6497347450676982,
        -0.22925863916639028,
        0.21773282918832698,
        -0.10376526287087465,
        0.04566153959797595,
        0.9774871507277779,
        0.1796047663821433,
        -0.24747683753354704,
        0.09172173336666209,
        1.1709157188580046,
        -0.8686117052484845,
        0.02087017562332069,
        0.07446939689189441,
        -0.9704994688031203,
        0.5467504400097327,
        0.9987902505918562,
        0.33752486566762047,
        -0.3863585610164652,
        0.029896668454963624,
        -2.358656337683795,
        -0.6102738870026472,
        -0.023993517534010113,
        -1.439690366959944,
        0.8120446051837356,
        -1.0779235209816171,
        -0.8605337356545355,
        -1.6141155441882247,
        0.3092645665364243,
        2.0157519730096882,
        -1.7465605152680261,
        0.153452300975576,
        0.4373882914729538,
        0.8554575088170292,
        -0.2517394209769648,
        0.46656042136082165,
        -1.0481882327620589,
        -1.0195429348961165,
        0.255729628360894,
        1.3967366825720386,
        -0.5933639837811103,
        1.292370762937371,
        -1.3700259598005904,
        1.6014871683430003,
        1.2041316739355596,
        -0.19288853692055952,
        -0.9750230396616593,
        0.32686993587665036,
        -1.2381254826472115,
        -0.4955187408999099,
        1.5744685884336618,
        -1.479430733921968,
        2.207167329401869,
        1.1677213210591708,
        -0.9875158310143306,
        0.5650106513960976,
        -0.8651856073341626,
        0.6495704720185506,
        1.4385696610553405,
        0.8625168654262951,
        0.03916146890703186,
        1.132119090385983,
        0.21514650683146397,
        0.7861585945612182,
        -0.32334818610892213,
        1.2841762754670756,
        0.521885590901566,
        -0.9053493375216503,
        1.7974302158754303,
        0.91652291723153,
        1.7806297888453047,
        0.6482337896052628,
        -1.2411375211504199,
        -0.21596525518335327,
        0.5392760551526355,
        0.378350871507949,
        -1.7560923924956677,
        0.38966317702072684,
        -0.5724443413321565,
        0.10065723951449901,
        0.5614983493983707,
        -0.22390587679253354,
        -0.8293043941769382,
        0.4750792065654279,
        0.09858069492350185,
        0.8214681647196524
    ]
}