{
    "idx": 705493,
    "fights": [
        {
            "enemy": 5,
            "fitness": 89.66901301948917,
            "player_life": 52.600000000000314,
            "enemy_life": 0,
            "time": 268
        },
        {
            "enemy": 6,
            "fitness": 30.606372453647637,
            "player_life": 0,
            "enemy_life": 60.0,
            "time": 220
        },
        {
            "enemy": 7,
            "fitness": 90.45289246928257,
            "player_life": 58.00000000000033,
            "enemy_life": 0,
            "time": 210
        },
        {
            "enemy": 8,
            "fitness": 85.76628484395722,
            "player_life": 17.80000000000023,
            "enemy_life": 0,
            "time": 409
        }
    ],
    "weights": [
        1.0430080990208759,
        1.0525869387411178,
        1.054980962258018,
        -0.6275106175589467,
        -1.412355196403556,
        0.4414903622791782,
        -1.4919307951701066,
        1.4442879566473985,
        -0.3334211890817572,
        1.8970961016920973,
        -0.25169700278210905,
        -0.9890511674976648,
        -1.0772745961084347,
        -1.46248892787996,
        -1.338139573172396,
        1.8893146421719043,
        1.7419342580702688,
        0.3025624043628248,
        0.571032222707825,
        2.717365755004832,
        -1.1324795855440284,
        0.4849632677124047,
        1.180932196719478,
        2.3232867301506435,
        0.666367957517635,
        2.0417341394472874,
        -1.394829396524971,
        0.16552544523315216,
        1.4623395257501122,
        1.4232347372495873,
        -0.9582723021504499,
        -0.8295797798284489,
        -1.1560561189358856,
        -1.057611134485108,
        1.5236455425502322,
        0.7119119705710358,
        0.18017936677121452,
        -0.7841369920948534,
        -0.0370172009150591,
        0.6349544201744624,
        -0.3325850155790445,
        -0.5544668379252131,
        0.3519530886709875,
        1.8935722802058106,
        -0.0344343897235348,
        -1.0589432633228157,
        1.591951112962409,
        -0.14765024489369039,
        0.6104474156701392,
        0.7283957599395734,
        -1.293871004038449,
        2.0648655634537834,
        -0.48014581653629484,
        -1.4253390815560496,
        -1.0124472089898884,
        1.5500945791176655,
        0.18118716469746304,
        -0.036616900155224195,
        -2.0695194751967363,
        0.47246163635750604,
        0.8750058876058298,
        -0.48994499016432813,
        -0.8107033912539977,
        0.7790723362151987,
        0.5707151898393256,
        0.6984665348304958,
        -1.3549800133564676,
        2.5237138684968987,
        0.19922619293858615,
        0.09562024200571098,
        1.1004298566875077,
        -1.2410425714770799,
        -0.15885832727386714,
        0.5702221116526563,
        -0.49692666129117896,
        -1.529211696298355,
        -0.21837709885647227,
        -0.3256583672341785,
        1.4880710392259553,
        0.3480347523158641,
        -0.25755127267020567,
        0.04225918348144246,
        0.4476088661007387,
        2.161238645265094,
        0.2045620792579363,
        -0.8261128377758651,
        0.21771499397798794,
        1.0362266825960542,
        1.1366823206214902,
        -1.860404630457265,
        -1.3719925268394464,
        -1.0101350208001434,
        -0.1855513091570345,
        -0.8484468039227911,
        1.0834942181324907,
        0.17386933084146158,
        -1.3957964672393885,
        0.5364150052414333,
        2.3662210749983283,
        -0.9288269376079369,
        1.1366724544560185,
        -1.575179453127176,
        1.3137084145047728,
        -0.74533022818862,
        0.6532123604672863,
        1.2777682455570416,
        -0.6396862937483828,
        -1.611951798703833,
        0.6267240766771205,
        -0.8322600773398874,
        -0.37281591252181523,
        -0.6030693230549881,
        0.7080801493402296,
        0.05928348642287586,
        -1.9710100902089867,
        -0.19740794027066344,
        0.24163397735970232,
        -0.7967024215987575,
        -0.07297371311643064,
        0.01412705736615133,
        0.6053746203959267,
        0.3324928184015661,
        0.5579730526706226,
        -1.404989002737299,
        1.6271907481139398,
        2.190286724839745,
        1.365733050340525,
        -0.9138348225692416,
        -0.6281052884697397,
        -0.1522543712894035,
        -0.8584549173552478,
        0.28016216872320826,
        0.4047128382011502,
        -0.18718738882341934,
        0.7444773447993185,
        0.7858522338452371,
        0.3138498760739006,
        2.343158148360038,
        0.6396847539777177,
        -0.873602181303164,
        1.5747730956567567,
        1.8286385676928512,
        -1.382941391211922,
        -0.22285398433917306,
        0.02351391901671189,
        -0.41306589774915625,
        1.7765256037899388,
        -1.1345780863675565,
        0.8610107260558167,
        0.35470318395160283,
        0.6393888854661969,
        1.5723047159690082,
        1.850293050964738,
        -0.04237132824829129,
        1.3355088291992738,
        1.1190132398007735,
        -0.39973268552145313,
        2.2892874317003757,
        0.7924029781829736,
        -0.0023901527831894087,
        -0.5565795935626894,
        -0.37566848774891737,
        0.35603902457796033,
        -0.288350440020307,
        0.19523304798113075,
        0.8670607239423451,
        0.18264725818128522,
        1.223943397943484,
        0.13094355513771153,
        0.26769291403814055,
        -1.5355728691295971,
        0.900534216306895,
        0.5953532169787713,
        0.34494972625650355,
        -0.20651567192873857,
        -0.7361117221818314,
        -0.658830282692016,
        -0.7907119983066585,
        0.6979520827847012,
        -1.6934942669153916,
        0.06725057165116574,
        -0.6989378331295192,
        -0.022933087792399567,
        1.087478111439683,
        0.5431781764475203,
        0.5116714505938146,
        0.7513987120916915,
        -0.24980400216305088,
        0.3468824745756624,
        1.105502821899898,
        -0.11188401276204242,
        -0.7609080207924209,
        0.34488674442833234,
        0.29393653610533427,
        -0.5568222773398162,
        1.157261452387206,
        0.5248259976513194,
        -0.8129713929778457,
        -1.1994719122126014,
        -1.8766376323870766,
        -1.3470146738222788,
        1.161074878227568,
        -0.2847629289686509,
        2.073683835819547,
        -0.3879261754176083,
        -0.668621905837442,
        -1.3382870950843864,
        0.7020336298709849,
        0.7832276169069701,
        -1.4189083815906043,
        -0.1086910814929072,
        0.26596992114477186,
        0.30681635935229673,
        0.04095941935636557,
        1.3841788903098313,
        -0.6314897836640613,
        -1.2298267653072337,
        0.07763428513419529,
        1.0394983631848138,
        -0.37108959676921277,
        1.377373693732577,
        -1.1505992238735188,
        1.235956090678212,
        0.5500814582519942,
        0.325955855425456,
        -1.6384388031089276,
        0.47109875605702234,
        -0.7133666929956071,
        0.29901700578416596,
        2.263023732063893,
        -0.967604762358732,
        0.6762397453654783,
        1.339979666879597,
        -0.031635687140587426,
        0.17779707009047688,
        -0.6217147524258033,
        0.7084428723303176,
        1.9806060579351241,
        0.959062670393972,
        -0.014142733531639563,
        1.1709165755391888,
        0.10616459612897461,
        0.05519073548578899,
        1.534218292977017,
        0.7519081267047578,
        -0.050842057603599396,
        -0.8170824168749258,
        0.5073040299172652,
        1.1698291592563663,
        1.5349113997563548,
        0.9017820729182943,
        -0.6962231339270565,
        -0.0954099823468797,
        0.010619383815615946,
        0.7666089214279113,
        -1.113756051341902,
        -0.1780038582942035,
        0.6723995452622796,
        0.8656430199826498,
        -0.7947831690756152,
        -0.31800795294636325,
        -0.8909902340005849,
        -0.022392642198828736,
        0.8497758726755522,
        -0.02001581715013609
    ]
}