{
    "idx": 713843,
    "fights": [
        {
            "enemy": 5,
            "fitness": 88.64157804100165,
            "player_life": 42.40000000000029,
            "enemy_life": 0,
            "time": 270
        },
        {
            "enemy": 6,
            "fitness": 30.686794020958214,
            "player_life": 0,
            "enemy_life": 60.0,
            "time": 203
        },
        {
            "enemy": 7,
            "fitness": 87.85946500072774,
            "player_life": 32.80000000000027,
            "enemy_life": 0,
            "time": 226
        },
        {
            "enemy": 8,
            "fitness": 86.33574420258549,
            "player_life": 22.600000000000243,
            "enemy_life": 0,
            "time": 374
        }
    ],
    "weights": [
        1.1118548685801055,
        0.3928941908627626,
        1.331371510258058,
        -0.5485387566932062,
        -1.6861719359828475,
        0.7516757735635808,
        -1.1344087380743089,
        1.459926544560082,
        -0.4384053431157329,
        1.0354571210703092,
        -0.276683990493592,
        -0.6626587428090183,
        -0.7914230110739661,
        0.03385220458881796,
        -0.5610882664279441,
        2.5928674139908687,
        1.9467463245508425,
        2.225957140763322,
        0.69692047324382,
        1.9679254746462629,
        -1.1326975044628935,
        0.13833042724392974,
        1.0302063532428036,
        2.0556509642897787,
        0.9891529360822728,
        1.8810437583256685,
        -1.8929881730851827,
        0.2699782825430215,
        1.2542452856710953,
        -0.033767920144411864,
        -0.13867862274376558,
        -0.6419476113479012,
        0.09403927084752826,
        -1.5143001050700435,
        1.0039357520607093,
        0.11484932936881287,
        0.5986618809842632,
        -1.1276864661286254,
        -0.1456657165673445,
        0.7398156304482132,
        -0.5295560307653003,
        -0.44936857427204163,
        0.22193777224483313,
        1.148991035608908,
        -0.07014093871943686,
        -0.6650259994252016,
        0.8010229056504308,
        -0.14707851730718796,
        0.15434467020019682,
        1.3259018103268747,
        -0.8744286291367867,
        1.7067999080597878,
        -0.6682072069060323,
        -1.2473802943757906,
        -0.3551051466897432,
        1.5255005942608466,
        0.3377588299434016,
        -0.46305032605339774,
        -2.3033240331318066,
        1.3005008470518886,
        1.0913377240749607,
        -0.5489621889041761,
        -1.0201919565472726,
        0.27391327665603826,
        0.06345612946680096,
        0.47327813753502374,
        -1.4764470799535292,
        1.0667079481578792,
        0.022203357037117868,
        -0.490065721931545,
        0.5005464582777387,
        -1.0345707172701035,
        -1.0481190286520312,
        0.40446533917402416,
        0.053145028812526925,
        -0.6730504917260532,
        0.18503646315483116,
        0.08069427836778381,
        0.9732507326073909,
        0.5411681257680032,
        0.6676383719842589,
        0.022063799751961682,
        0.4376502989845373,
        3.0827799059316603,
        -0.027482481665838228,
        -0.2734786690210088,
        -0.39084045024821173,
        0.9238696449983298,
        0.8745189125171946,
        -1.151977617508285,
        -0.1272016295693883,
        -0.9822275791511054,
        0.1222397045713065,
        -1.619745572939136,
        0.7046000124280045,
        -0.8193318853134935,
        -1.2212165442450047,
        0.5927613880027395,
        1.841562833007079,
        -0.6339488809636803,
        1.104371306916738,
        -1.1990947352931283,
        0.019000478047276906,
        -0.4927401472495136,
        0.3704567862799751,
        0.974733547311907,
        0.0645903420790056,
        -1.1874953982063872,
        0.7402498932540612,
        -0.6143269644707061,
        -1.1638262238961392,
        -1.342412744676556,
        1.1907132892828547,
        0.202813710532779,
        -0.9977108853186909,
        -0.4456270177054412,
        -0.49123312402964153,
        -0.3708050254233116,
        0.19098440898741265,
        0.021964287305300888,
        0.1398956323295935,
        0.44323601638645804,
        0.8221780548794485,
        -0.43626495542983174,
        1.1489016629459075,
        3.2057522974709634,
        0.9350256849019585,
        -0.8605619492292403,
        0.08890765395481975,
        -0.38122776908946154,
        -0.4499922673654039,
        1.2115291132181574,
        0.011002788408130626,
        -0.10225631782394035,
        0.23355746389325768,
        0.9679044736560644,
        0.47626081050209584,
        1.4953825509404406,
        0.16158860080361076,
        -1.175214779579805,
        1.1623613369719552,
        2.2358942929400065,
        -0.4222208612523852,
        0.7773391347307426,
        0.2386197212364713,
        -1.4089811264890644,
        1.264800722214594,
        -1.3270332276962238,
        0.9667263297894861,
        0.6103601074229432,
        0.14567345671741827,
        1.4296921772674775,
        1.2072642947363217,
        0.583198045067477,
        1.576498968742489,
        0.8753840319784759,
        -0.11802855460772474,
        1.4849396213807298,
        1.7783487023377271,
        -0.587621125929609,
        -0.8004515049319024,
        1.2046977656018918,
        0.8500681512156211,
        -0.2805873247641928,
        -0.10164228275945679,
        0.7583361871567875,
        0.026172217930830195,
        0.7149218250176098,
        0.3853519552272767,
        0.4361555036566059,
        -0.09091953945522956,
        0.13897172062188307,
        0.4833833922070145,
        -0.11090944274859024,
        0.08127842547552694,
        -0.8085915009666939,
        -1.0139966281358304,
        -0.9532040801870512,
        0.3953085682264528,
        -1.298261265064719,
        -0.08404423617450957,
        0.27008005177278005,
        0.958251158679893,
        0.3174757405121141,
        0.24611731009044746,
        0.6073295196169036,
        0.9633209136762303,
        -0.3317664079975285,
        0.07592888723535163,
        1.1119979407511638,
        -0.6784692719498661,
        -0.020033626161850553,
        -0.450667861828436,
        -0.7255453787029339,
        -0.7509026904722934,
        1.1693074633139393,
        0.6821287663172598,
        -0.5088496517098343,
        -0.4954586765787226,
        -1.7323647643174396,
        -0.6041942911632331,
        0.3176875346213568,
        -0.04030101096989335,
        1.1078982284505121,
        -0.9115378083670687,
        -1.4023531466692065,
        -0.8751462445688669,
        -0.1846678820273322,
        0.5296594568575146,
        -1.4567453043038614,
        -0.33925616105979184,
        0.8446445785159259,
        0.3957986990547205,
        -0.18684948863489198,
        0.834104782459959,
        -1.0582990262552736,
        -1.6670975907012253,
        -0.06668510177381823,
        0.9558785103670624,
        -0.6428092741288288,
        0.9570642546629972,
        -1.8186548408745444,
        1.3875018605664908,
        2.239406096957627,
        0.4692005997451165,
        -2.1182845724755714,
        0.09569113017882025,
        -1.3874367658906708,
        -0.39851581317551854,
        1.1670556853656835,
        -1.2775858085758764,
        1.6393079831574944,
        1.2199616906355402,
        0.39406983859215144,
        0.30193384055768163,
        -0.4755202648209822,
        0.7577988758601885,
        1.365858851361887,
        0.21400158568609073,
        -0.6136659859755325,
        0.197222143126291,
        0.0655595115237844,
        0.5981965540594955,
        0.7599688668095373,
        1.2560106295442166,
        1.3164344365749883,
        -1.1270480612955718,
        0.4921100178132109,
        1.1704924133537662,
        1.98593325986064,
        0.6692225135554855,
        -0.460405021701574,
        -0.5045413202333682,
        -0.3178494636334486,
        -0.00435022706657473,
        -0.9309222920555378,
        0.22851358779593728,
        0.2779797557341547,
        -0.6411411266471864,
        -0.15633375995773785,
        0.5536707341492919,
        -1.1034145107133804,
        0.9910769999097904,
        0.5708840797282528,
        0.06663597163441592
    ]
}