{
    "idx": 713834,
    "fights": [
        {
            "enemy": 5,
            "fitness": 85.3084308604417,
            "player_life": 16.000000000000227,
            "enemy_life": 0,
            "time": 540
        },
        {
            "enemy": 6,
            "fitness": 39.94375419465169,
            "player_life": 0,
            "enemy_life": 50.0,
            "time": 157
        },
        {
            "enemy": 7,
            "fitness": 89.1838995977956,
            "player_life": 46.0000000000003,
            "enemy_life": 0,
            "time": 225
        },
        {
            "enemy": 8,
            "fitness": 86.99788162462296,
            "player_life": 28.000000000000256,
            "enemy_life": 0,
            "time": 331
        }
    ],
    "weights": [
        1.1139588749333225,
        0.29386599016760595,
        1.1786973154365858,
        -0.5307920550059306,
        -1.511178439876327,
        0.5091529631887391,
        -1.305452911997436,
        1.3898109789894602,
        -0.0016763186896038978,
        1.0794889381337969,
        -0.10179191893990344,
        -0.6831862417990743,
        -0.911416251654207,
        0.07462514389065966,
        0.05416075761070819,
        2.482590517235809,
        1.9806407165719557,
        1.9472249611344383,
        0.6728188884567305,
        2.806997813250082,
        -1.2433463326569132,
        0.3748117506971909,
        0.959750802522817,
        2.6034002794618787,
        0.5556661098875644,
        2.253859715431,
        -1.8047369200235568,
        0.029643174528086343,
        2.0416423361692364,
        0.35955151753893977,
        -0.314354450244677,
        -0.8009148607221244,
        -0.06559544767039333,
        -1.104156031402975,
        0.8428084317577185,
        -0.172652100840663,
        0.1938164072356374,
        -0.9927278919576277,
        -0.15200954963503702,
        0.41922701329074263,
        -0.8074257163295262,
        -0.48364847806191924,
        0.2885289927505026,
        1.0965828042165673,
        0.7916668135664203,
        -0.6182546670320714,
        1.355201818867161,
        -0.14512300011721221,
        0.2785791978199733,
        0.7788442934137074,
        -0.5434720281449847,
        1.3536840770433851,
        -1.7913038464355127,
        -1.3623077948534987,
        -0.5829308600320926,
        1.8529370979947306,
        0.4701967586679676,
        -0.2525007463166477,
        -2.0116056123382644,
        0.7284427996155484,
        1.2585104210407583,
        -0.6887297333625955,
        -1.0241903087656876,
        0.44277181340826954,
        0.012707581749416802,
        0.4387893052237134,
        -0.8346058620206885,
        1.4556005075277716,
        0.026550280836865454,
        0.6369044498613772,
        0.6152750174871077,
        -1.1044080681976653,
        -0.7629843304888728,
        0.5599025614958666,
        0.02593657848350319,
        -0.6921893859770607,
        0.1293636588770673,
        0.192512894607818,
        0.8966847839801181,
        0.9363540876777593,
        0.6086136583037276,
        -0.08828847179369913,
        0.3839927862131518,
        2.8647640626288187,
        -0.2028516960975465,
        -0.6036876939286873,
        -0.5179474880081731,
        0.5652592429334866,
        0.8666502198666518,
        -1.4627486069205602,
        -0.24169477029334321,
        -0.541115742280456,
        -0.005211168078223791,
        -0.9816806530520253,
        0.2611916266399798,
        -0.41512904728580047,
        -1.1597436434139043,
        0.330258042297554,
        2.158502804044468,
        -0.41510781275150954,
        1.221201628919839,
        -2.3913763588026287,
        -0.43620962796635243,
        -0.3208158594162771,
        0.630483589810538,
        1.0506128874759864,
        0.0003188030691599203,
        -0.976158965994247,
        0.7308630516311737,
        -0.31829639962759454,
        -1.1788790962215157,
        -0.7318635685181485,
        1.583430811956264,
        0.11055290309030152,
        -1.0167174607219784,
        -0.5289870526098803,
        -0.27604048181710755,
        -0.5351376733194151,
        0.2015902433356308,
        0.1527873415522824,
        -0.033377667639745104,
        0.4859834340578581,
        0.531300631231189,
        -0.1333401899055435,
        1.3742818892524367,
        3.8542195072943195,
        1.2277439903411647,
        -0.8152787856104181,
        0.0015446766958916482,
        -0.4117571297987771,
        -0.2255366794385183,
        1.1931118780451755,
        -0.1563738650041226,
        0.5578392744038891,
        0.21009040999990797,
        0.5861453275065192,
        0.5027509189094163,
        2.3614472545377505,
        0.1629178619456113,
        -1.0583273159503517,
        1.059810186493273,
        1.8034702143774244,
        -0.5268742055105327,
        0.26662435090116354,
        0.38482881046514705,
        -1.3294928547766018,
        1.4820819364127655,
        -1.6348652806472894,
        0.9073732861074018,
        0.6775699998261518,
        0.19693913379817898,
        1.3189982719686528,
        2.01997340902475,
        0.8732741020981934,
        1.3282298931322352,
        1.0654729243523264,
        -0.1675925908913848,
        2.054856606998357,
        0.7556284022668803,
        -0.5147590869801182,
        -1.3723019541431831,
        0.3796101567331641,
        0.6194746905642161,
        -0.3172858245460095,
        -0.17113240565440418,
        0.6399941632648308,
        0.4002713793885652,
        0.7371450439657042,
        0.29468139258853365,
        0.48946374382291924,
        -1.1887357721651912,
        0.125006277081999,
        0.7860600021050849,
        -0.0993896873031841,
        -0.048331371196615736,
        -0.91195580358792,
        -0.8732391705726029,
        -0.5823134565743686,
        1.098807300986258,
        -1.1951266992124794,
        -0.18460799785918558,
        0.35263619522440276,
        0.7763153443536034,
        0.35057568529583305,
        0.29694655579248735,
        0.5570487128820544,
        0.7945435593444796,
        -0.374833070542419,
        0.07428311632980607,
        1.1982837307325276,
        0.3272371029524027,
        0.005435844201284679,
        -0.4881696662183549,
        -0.7832758423287821,
        -0.42271862812657474,
        1.2020174147889118,
        0.44379325375760825,
        -0.5101480479327686,
        -0.6480451189726758,
        -1.7667332157845383,
        -0.4502466415634693,
        0.028388541068257528,
        -0.06000770668266319,
        1.0656287115991026,
        -0.8896139998992603,
        -1.4603968267376048,
        -1.088785693189463,
        -0.10143784870609532,
        0.9162945471558887,
        -1.471648557067671,
        0.04650649612408553,
        0.35093132589827636,
        0.609711277018645,
        0.34099947191101165,
        0.9269694984177682,
        -0.9947702921306373,
        -1.2662142620212682,
        -0.5253463386293011,
        1.2228270496142353,
        -0.5641489893308296,
        0.8997585320753901,
        -1.8689517843809331,
        1.503149420194529,
        1.894284079701531,
        0.43082466856872637,
        -2.053723604363514,
        0.3198129180675379,
        -1.4263881628611537,
        -0.5534208772074061,
        1.1145797870948981,
        -1.3107487318752389,
        1.7172777057303414,
        1.5236113259405768,
        -0.07493975648901835,
        0.3092437985058093,
        0.1934211354559652,
        0.7757375189336222,
        1.2900873208955912,
        0.30283877065896997,
        -0.690304652024092,
        0.7505196476284985,
        0.09130946935970007,
        0.7166656365328177,
        0.40334027734704675,
        1.592099626495542,
        1.4010226332147924,
        -1.080129596519472,
        0.6378464374922237,
        1.329734265405345,
        1.7059853530530735,
        0.8453571244348537,
        -0.5496967168706905,
        -0.5141518464126963,
        -0.4173966738288676,
        -0.15844472641277943,
        -1.256602169674637,
        0.0030824900089825996,
        0.1666632080349824,
        0.556103383044211,
        0.0005147306689064976,
        0.28031030568778204,
        -0.7990235698443451,
        0.9007425433298576,
        0.4338184309655606,
        0.004751974348854434
    ]
}