{
    "idx": 701887,
    "fights": [
        {
            "enemy": 5,
            "fitness": 89.53052820481507,
            "player_life": 51.40000000000031,
            "enemy_life": 0,
            "time": 273
        },
        {
            "enemy": 6,
            "fitness": 30.779644174921675,
            "player_life": 0,
            "enemy_life": 60.0,
            "time": 185
        },
        {
            "enemy": 7,
            "fitness": 90.39679627126205,
            "player_life": 56.800000000000324,
            "enemy_life": 0,
            "time": 197
        },
        {
            "enemy": 8,
            "fitness": 88.63968822339261,
            "player_life": 43.60000000000029,
            "enemy_life": 0,
            "time": 305
        }
    ],
    "weights": [
        0.6442173897785504,
        0.6454141095972192,
        0.543435637908785,
        0.16026528118962502,
        -0.6011234176909775,
        0.9819162799275203,
        -0.840084629671644,
        1.0370488534825781,
        -0.6880375706739013,
        0.6200744491811644,
        -0.8562501925078124,
        0.3765873274811778,
        -1.10852781244562,
        -0.721904315801373,
        -0.8242742170622142,
        1.9824911661883213,
        -0.30311132177249955,
        1.1978235223776628,
        0.3089611617365312,
        0.41858526776312593,
        -1.3117936608018181,
        0.20265344951234826,
        3.435948953789981,
        0.28905918692173,
        0.5134480353817672,
        1.598075938367439,
        -0.6291210181390924,
        0.11201942345351344,
        0.013894722393800754,
        0.20019740139904618,
        0.09710539051029965,
        -0.133556972929294,
        -1.1748590801856962,
        -0.017156626233694468,
        0.7399131306966414,
        -0.011663150413164056,
        0.649018781378134,
        -1.046943947260179,
        0.45494323251425484,
        0.3366290551417873,
        -1.1290447177643204,
        -1.0113884742207133,
        0.8308410180787826,
        0.05846287053170647,
        -0.35147482501019955,
        -0.8640949199624892,
        0.28222389881329213,
        -0.0757211691687269,
        0.1215243397700803,
        0.7111491279246701,
        -0.6032934150582362,
        1.002175337940281,
        -0.7606825897283931,
        -0.2072384773784521,
        -0.3018483310554527,
        1.8664976002185278,
        0.6610564747596326,
        0.4811427206477045,
        -1.7323440273216621,
        0.3486932833435398,
        1.1312134311253217,
        -0.7917079690930127,
        -1.2679772292244265,
        0.28802247958101757,
        0.9074519757951561,
        0.6136578308395373,
        -0.5817003183934732,
        0.6635087727872093,
        -0.1526792260759095,
        -1.0991815200087443,
        0.7944603777962139,
        -0.7297488903400755,
        -0.27285537467765864,
        0.3277534765928805,
        -0.3865703646958074,
        -1.7325594710029104,
        -0.04004934883167964,
        -0.2833242772324838,
        1.0343442724576284,
        0.8443263670157068,
        1.0079212650329887,
        0.18059426411320256,
        0.6229912531817791,
        0.48854567015779143,
        -0.0019796191695675702,
        0.1560190717695985,
        -0.09961790028142234,
        1.0462275959421032,
        -0.29232157756727123,
        -0.32142914771251546,
        -0.3729557841579043,
        -0.6536347289384944,
        -0.06939878433437018,
        -0.6170704976817083,
        0.6981932523582461,
        -0.29468111339153885,
        -0.3127382230168999,
        0.5455207377242189,
        1.1391426435040006,
        -0.6222662226491955,
        1.342661146496881,
        -1.816905012359562,
        -0.25222150856978415,
        -0.3147869378817398,
        0.03667979733101083,
        0.5258918572520224,
        0.852212945982969,
        -1.1933148668272298,
        0.9895350725275383,
        -0.7313634552153798,
        -1.1885193074954985,
        -0.03171908453009145,
        1.8779635880354064,
        -0.32546811386853747,
        -1.8753024392002693,
        -0.40337046689825323,
        -0.08509396354313124,
        -0.7845717777059026,
        0.06820288748456349,
        0.5075172368127282,
        0.6139563786719058,
        1.6050864513848258,
        0.13163843761044097,
        -0.6164818933877875,
        1.49503841517337,
        1.4633804423591106,
        0.055638634940905374,
        -0.9353636090639204,
        -0.6737542760407872,
        -0.5176928492561219,
        0.07874526947611743,
        0.150909449948537,
        -0.14109840219453662,
        0.4314162054845709,
        -0.13683036600703555,
        0.8844145101005304,
        -0.35687895634339956,
        1.3893320269559908,
        0.3085754084360125,
        -0.0613933387674374,
        1.2280618401914776,
        0.8877167180880696,
        -0.399218175090244,
        0.38336773838212346,
        0.15306412568215894,
        -1.2868316904694015,
        0.926933861838779,
        -0.5720012948797608,
        0.642666921560086,
        -0.7168644761207831,
        -0.385469495793142,
        1.2780381725481857,
        0.8544293890125039,
        -0.5186996438680196,
        0.5900631507729792,
        0.7418869628425041,
        0.6240168864181965,
        0.5120478337996606,
        0.940989104619834,
        -0.333159574482238,
        -1.2773364591942342,
        0.49832785024592874,
        0.1510030057247283,
        -0.21199115377896965,
        -0.8047108175915413,
        0.7884815937297103,
        0.5555355600611719,
        -0.3973943166949802,
        0.45600042834877597,
        -0.29005348705481576,
        0.2054623493240549,
        0.4929197770501876,
        -0.09358643026143595,
        0.2551569940900681,
        0.5704039557513797,
        -0.017303174605399874,
        -0.021396499774242947,
        -1.2955942884838567,
        0.10573299071307277,
        -0.1441832053699421,
        -0.8355900817288194,
        -1.022171242296893,
        -0.814338289357552,
        0.6626020164857023,
        0.19430356502050114,
        0.027056068269704858,
        -0.0339778728569341,
        -0.7420760470862732,
        0.6485070455742264,
        0.4715833805049839,
        0.03231287835509304,
        -0.46236810124239525,
        -0.2576067770095633,
        -0.547951818138863,
        -0.027796165655065912,
        0.9186178422090832,
        0.24862612924497915,
        -0.4779260010678276,
        -0.7630289447919627,
        -1.1755507037159192,
        -0.955523607011452,
        -0.7353520380943821,
        -0.47354454000332685,
        -0.026066783226327647,
        -0.0022672313218373846,
        -0.3607919312078739,
        -0.825705182650807,
        0.33754230519123063,
        0.7121943678990663,
        -1.564334147124845,
        0.11476812915365672,
        0.3485355726181927,
        0.5297660586643561,
        -0.1805692584268224,
        0.9802868926412582,
        -0.8931696779942612,
        -1.0375688328423782,
        0.8512053169912376,
        0.9174724234874606,
        0.0575403008733096,
        1.56225500709861,
        -1.599807561621577,
        0.638190703279848,
        0.037281788017348653,
        -0.22066004421526259,
        -1.2654506602572562,
        1.8054260703701448,
        0.2999073160166009,
        -0.09075495389780579,
        0.5139465219200416,
        -1.7733437961120975,
        0.8790962652114691,
        1.6325922600153329,
        -0.088019060071273,
        0.5782227914682629,
        -1.0302413203990315,
        0.9556305526451839,
        0.6471459438094622,
        -0.2042305046479061,
        -0.06404563220966727,
        0.9568102533389368,
        -0.4043560649283386,
        0.44044769469966577,
        1.1533174367947425,
        0.8105300204902289,
        0.4518001056071177,
        -1.3769832607701975,
        -0.20961132289667572,
        -0.23762765559397422,
        1.3677140112065491,
        0.5104937007944695,
        -0.8776476117047591,
        -0.41495601197764564,
        0.2566906632781817,
        -0.5648773920788224,
        -1.655029827756215,
        0.29506738181733116,
        -0.6206276307959825,
        0.09530272970207732,
        -0.14883064600359974,
        0.06491543100089908,
        -1.2413508252990448,
        0.608839030306959,
        1.0174319781661745,
        -0.13905617091166528
    ]
}