{
    "idx": 709031,
    "fights": [
        {
            "enemy": 5,
            "fitness": 89.85794861721986,
            "player_life": 56.20000000000032,
            "enemy_life": 0,
            "time": 318
        },
        {
            "enemy": 6,
            "fitness": 66.40901301948914,
            "player_life": 0,
            "enemy_life": 20.0,
            "time": 268
        },
        {
            "enemy": 7,
            "fitness": 90.69173296930549,
            "player_life": 59.80000000000033,
            "enemy_life": 0,
            "time": 198
        },
        {
            "enemy": 8,
            "fitness": 88.8796882233926,
            "player_life": 46.0000000000003,
            "enemy_life": 0,
            "time": 305
        }
    ],
    "weights": [
        0.5442081695417913,
        0.9051263914453402,
        1.129784204948381,
        -0.8709776898716021,
        -1.3343307589375415,
        0.15989435683360054,
        -0.9591350521400502,
        1.682209790303545,
        -0.8250418780223103,
        1.1549246278008378,
        -0.7076172455874782,
        -1.0301049453485167,
        -1.0538628241913295,
        -0.49838594664113767,
        -0.9789228907490475,
        2.2137886545312133,
        1.7754218519218128,
        0.8078064588361202,
        0.2383293919774225,
        1.8692347859750504,
        -1.2199627553770365,
        0.03402766700538268,
        1.39484125885636,
        1.3718303528536513,
        0.7394116842710183,
        1.266292908549423,
        -1.32685290095316,
        -0.013504431317205464,
        1.1162747116769756,
        0.746224191564101,
        -0.652386377676541,
        -0.4647799998014154,
        -0.9626852167526946,
        -1.0686812175396643,
        0.8909718044580179,
        0.11585533899890324,
        0.3740573156080131,
        -1.1796663519261954,
        -0.01969485912701205,
        0.6808365325040212,
        -0.42659351764284337,
        -0.22423471932077702,
        0.5182533783243651,
        0.6798705848273542,
        0.8170863635322551,
        -0.906094236243337,
        1.6917832933725503,
        -0.3213367534426792,
        0.2540307004235262,
        1.101067297195389,
        -0.3208618708455495,
        1.5847814014520438,
        -1.3314579678293486,
        -0.9567381371998199,
        -0.6023593331557213,
        1.7310394020612154,
        0.5846971801718331,
        -0.845930216864297,
        -1.7734988348777305,
        0.5973876019235597,
        1.4928811966611302,
        -0.5383399634277977,
        -1.0523749438085845,
        0.36105460559722197,
        -0.024374930549982715,
        0.01789901924409741,
        -0.5041715540997891,
        1.208189184688622,
        0.653482974008851,
        0.925270886182461,
        0.5418602814182486,
        -0.5645473240185599,
        0.8029882759043634,
        0.13911539006371804,
        -0.37426766134705985,
        -1.673248020366254,
        -0.35620880749994666,
        0.5895512790766979,
        1.4763362890150251,
        0.5205498778023343,
        -0.14711687709457583,
        0.612224793089379,
        0.22173513467262868,
        2.587551600573977,
        0.19816162836319645,
        -0.9222498962678947,
        -0.4121092531821017,
        0.9934154699900642,
        0.13293093057188335,
        -1.3275275679301914,
        -0.3912968794933035,
        -0.45911551245226195,
        0.16575496407913404,
        -0.15598181288660667,
        0.9895114368275305,
        -0.02431891554307168,
        -0.5789074221292202,
        0.08914541247892528,
        1.3227774965124413,
        -0.7477655397533385,
        0.9510535156719118,
        -1.8855451023162426,
        0.09623594070345179,
        0.26454981507968284,
        0.31707153367657115,
        0.395286816575941,
        -0.1804766235925106,
        -1.2615086902167787,
        0.7354288216604324,
        -0.7244090366891535,
        -1.3860676022963834,
        -0.19008675376757772,
        1.1572668745485202,
        0.20601490264778413,
        -1.056238739242736,
        0.45352183967041465,
        -0.7571758703320632,
        -0.5923535280418551,
        0.14510501686201238,
        0.5761344269185017,
        -0.04590990368931218,
        0.2221214817203851,
        0.507870577001084,
        -1.423057522740593,
        0.6931529706731093,
        1.3673396694536248,
        -0.07072087572114286,
        -1.6613300280557453,
        -0.31225803373402355,
        0.20075076205209721,
        -0.5602545903799964,
        -0.6803708168461855,
        -0.08098381864394476,
        0.5716537777108466,
        0.6011238534642507,
        0.9138094982271215,
        0.1580908705777539,
        1.675516812743795,
        -0.04131224855458661,
        -0.30334053269027783,
        1.5438434670037386,
        1.9026146926607765,
        -0.4336667551558726,
        -0.2103850566727867,
        -0.2600132103148521,
        -1.0217422853742446,
        1.420029582732187,
        -1.118112394521268,
        1.4439873014177178,
        -0.5820114999915772,
        0.11875892760704729,
        1.2056401555481353,
        0.9587372067765273,
        0.6645166181426109,
        1.2702154164383344,
        0.9571107421600062,
        -0.2789532136160687,
        1.5413274722618122,
        0.7590863785684518,
        -0.38017974452207554,
        -0.47643595235040037,
        0.19265485205810381,
        0.8899076591795665,
        -0.37062834685301943,
        0.648710830027937,
        0.21774981646768582,
        0.22285045606730491,
        0.585418164715788,
        0.26030663792292635,
        0.06272593578658499,
        -0.2470123658738403,
        -0.04926358831381515,
        0.36068341150320665,
        0.4062198944939671,
        -0.019449251482665447,
        -0.8265155494231218,
        -0.29675902900048434,
        -1.0998758547885565,
        0.8778348956542223,
        -0.5953074221579515,
        -0.44214368828378786,
        0.7618054486373674,
        -0.16514037210971325,
        0.700596989838447,
        -0.4905750799839662,
        0.8770841964891943,
        1.020422275575808,
        -0.4082764899816218,
        -0.10447704897745069,
        0.5214364998291983,
        0.22577642988271707,
        -0.24822899322716796,
        0.20511848066288377,
        -0.5694998040764508,
        -0.2862991682880743,
        1.5688833584091122,
        0.3984331445752861,
        -0.38555197950642306,
        -0.2364231765501503,
        -1.4941638233482955,
        -0.18133804845375406,
        -0.4790400427608635,
        -0.8743132648860525,
        0.9787764155756211,
        -0.4885220745092623,
        -1.0479150424845753,
        -1.420202696040596,
        0.056709395617794034,
        0.5488871552421836,
        -1.872128184092606,
        -0.21265808503312325,
        0.21519557601617162,
        0.9201421465187917,
        -0.18306242900901062,
        1.0062471874819758,
        -0.7908654777205443,
        -0.9203592185416647,
        -0.0513244169898046,
        0.8938585146366953,
        0.15927698042095123,
        1.291971942752565,
        -0.6704053078599713,
        1.2339213836770164,
        0.10536295049238854,
        0.5536458637224032,
        -1.1558447446065734,
        0.892782399835827,
        -0.942271317885806,
        0.17195301222284515,
        1.153376056828606,
        -1.511840922279126,
        1.5806715306935473,
        1.4856139488694937,
        -0.0280407595111392,
        0.07752205327857695,
        -1.0335711602103854,
        0.852403871579998,
        1.1968148842131705,
        0.976398416568217,
        0.3955129675607014,
        1.2075099609968272,
        -0.05316011123978722,
        0.48898194500584635,
        0.7914339418536251,
        0.4504752158524974,
        0.142472293901783,
        -0.9749245434635544,
        1.0361320758523886,
        0.2552274874587553,
        -0.22752961602663238,
        0.34701375962358666,
        -0.42685306470455864,
        -0.7411775932567896,
        -0.11614394167066087,
        0.4739926743324363,
        -1.592079650578096,
        -0.1643262427254532,
        -0.7390080840464089,
        -0.21497611342275696,
        -0.2523661263597266,
        0.5070975137647574,
        -1.1609146551276368,
        0.573788710362996,
        0.7099359888456197,
        0.1372161634120368
    ]
}