{
    "idx": 713639,
    "fights": [
        {
            "enemy": 5,
            "fitness": 84.07269413745881,
            "player_life": 5.200000000000234,
            "enemy_life": 0,
            "time": 631
        },
        {
            "enemy": 6,
            "fitness": 48.29288973525112,
            "player_life": 0,
            "enemy_life": 40.0,
            "time": 301
        },
        {
            "enemy": 7,
            "fitness": 90.43870783429061,
            "player_life": 58.00000000000033,
            "enemy_life": 0,
            "time": 213
        },
        {
            "enemy": 8,
            "fitness": 88.81968822339262,
            "player_life": 45.4000000000003,
            "enemy_life": 0,
            "time": 305
        }
    ],
    "weights": [
        0.9410824630601071,
        0.6232711951687152,
        1.3722941934116304,
        -1.2800703748073374,
        -1.6296649448830878,
        0.7892879264438167,
        -1.6139765669352495,
        1.3660645709831463,
        -0.34743792201792967,
        1.756356174938998,
        -0.3181041497683939,
        -0.5574431091182437,
        -1.1905100402421014,
        0.3192859978089705,
        0.17494517857031955,
        2.3241739828159234,
        2.1677165691136233,
        2.084632024984881,
        0.08958403962771169,
        2.9278692537914788,
        -1.1301922036439895,
        0.043180676696625876,
        1.5719621719506285,
        2.4533946685117622,
        0.5920592402340907,
        2.02926781486272,
        -1.9083981021619896,
        0.05527502040190539,
        1.23665395110544,
        0.045145805738350094,
        -0.25034787919231377,
        -0.44924452799865294,
        0.019223013895733887,
        -1.4327953679553471,
        1.0454432770169564,
        -0.28384102109963993,
        0.17673704286569575,
        -1.1051196768376441,
        -0.04322821984810274,
        0.3102925852496162,
        -0.43597342593304317,
        -0.6603619389359463,
        1.3125117709367973,
        1.6415482693500991,
        0.032026670688752486,
        -0.6665045485862484,
        1.0240835675522486,
        -0.27616355230952694,
        0.5386526477143955,
        1.0139953552127994,
        -0.43470828332253264,
        1.2742544003357086,
        -1.5892567755895703,
        -0.03352522098173063,
        -0.5692005325116197,
        1.5170828674334438,
        0.32803789840940223,
        -0.251798399409918,
        -1.9384905451622807,
        1.0038348344269508,
        1.1999189116064237,
        -0.80724197412642,
        -0.8912273007639561,
        0.48755068562816867,
        -0.18400178112159493,
        0.37165487086962734,
        -1.2349211390328982,
        0.9655718698753049,
        0.03246201593401051,
        -0.31434967222699706,
        0.538294244020239,
        -1.078551293100799,
        -0.6483109871064431,
        -0.004902685225223316,
        -0.07315532764394686,
        -1.2982065909431484,
        -0.2363817372633794,
        0.05979333876416045,
        0.9866266011418837,
        0.2508896343483416,
        -0.19004901501062285,
        -0.09305582864945099,
        0.17698694269884588,
        2.946733318674356,
        -0.14219076123102664,
        0.01667205019965006,
        -0.5644145376249857,
        0.5931588855988655,
        0.9507012224348605,
        -1.1530931381549399,
        -1.0183892696522299,
        -0.6118281692089785,
        0.022857917645122183,
        -1.2625288895951097,
        0.4172075974506187,
        -0.7002445548416782,
        -1.1238276374644651,
        0.6928370532235346,
        1.9493699069501496,
        -0.6125753968074358,
        1.369508691614248,
        -2.1349804158198373,
        -0.16081499835420768,
        -0.3468225271379736,
        0.34491180036878866,
        0.7287034522018021,
        -0.0014096682016484594,
        -1.2454545077650658,
        0.849591509670996,
        0.43039716398350036,
        -1.00590410524081,
        -1.4246417518888592,
        1.4534793586004673,
        0.10971344267748753,
        -0.8543874766799845,
        -0.6102234245916335,
        -0.38514291940367273,
        -0.6179641834188798,
        -0.27206158698744387,
        0.39639503759818645,
        0.010274824542517488,
        0.2653991005347056,
        0.9068496603718292,
        -0.21662453076702498,
        1.6136971395184505,
        3.1972607610832955,
        0.7576379737823484,
        -0.8111576405866313,
        0.12209842292280246,
        -0.3259194803900654,
        -0.620390993227803,
        0.46956328903974753,
        -0.33804925037308536,
        -0.04867029826983906,
        0.07565287808775335,
        0.718234407417323,
        0.5943592671713677,
        2.5299394446025203,
        0.20560747167935328,
        -1.1117495971642064,
        1.225603979466788,
        1.7860694502654442,
        -0.4439176095850052,
        0.33568591555521565,
        0.3115628192378597,
        -0.8567838977741055,
        1.3365383450086312,
        -1.3650781665776583,
        0.9194355875905459,
        0.5642487674786992,
        -0.05881810276411485,
        1.166320512853817,
        1.972738873853899,
        0.11912533296610592,
        1.8865783640575733,
        0.9376003145578504,
        -0.075630367656035,
        1.780799029959642,
        1.7526413697854484,
        -0.23595823686462097,
        -1.228427219467789,
        0.7007835449774832,
        0.47776179821721154,
        -0.12920032621001282,
        -0.15295477434894283,
        0.47349389994137503,
        0.01455986554289488,
        1.12097302153715,
        0.40640228199592676,
        0.5898422147908409,
        -1.2588305745650212,
        0.15849291392616333,
        0.8518504448050765,
        -0.15597270346374884,
        -0.02957649939501364,
        -0.7674064649395237,
        -0.9165932180687253,
        -1.0066614453449967,
        1.0018741389480061,
        -1.5092165926879881,
        -0.25087414479659803,
        0.34772018312694486,
        -0.04983658361336865,
        0.9526083732335919,
        0.16490478643675602,
        0.8829050876562807,
        1.1128581014805798,
        -0.5420335795460569,
        0.019741674118060423,
        0.6715768623644445,
        0.3677665289308056,
        -0.3082371955113981,
        -0.6433705069864096,
        -0.7514504475833536,
        -0.8059134132574022,
        1.2548647845603296,
        0.3638633401945002,
        -0.16755772415981057,
        -0.4378569469620569,
        -1.7517731366360902,
        -0.5718164482247667,
        0.16636775714734992,
        -0.4403643671625749,
        1.2387584283591362,
        -0.7486414588617505,
        -1.4398894185127151,
        -1.013756391258191,
        -0.1395751130471241,
        1.0063074393451767,
        -1.9833622068386436,
        -0.5474394620816891,
        0.5608250011759904,
        0.8409829681221639,
        0.042296207081055956,
        0.6059046740950003,
        -1.151740855098181,
        -1.0814481910389548,
        0.09352844242877896,
        0.9257653214190925,
        -0.6562421214094769,
        0.9022172231078837,
        -1.559799886742437,
        1.3187200779856934,
        2.0700984432925154,
        0.4997428461746221,
        -1.8386121759630067,
        0.511003897418222,
        -1.135578708975361,
        -0.3190177782172421,
        1.0592029182363305,
        -1.1200141556031422,
        1.662672111810717,
        2.111001435439355,
        -0.16446169930167773,
        0.40729387088468594,
        -0.08520779311306931,
        0.7307773295712642,
        1.5125700603644696,
        0.2921513485613426,
        -1.0182521193394218,
        1.0163430246775411,
        0.023080051380121605,
        0.80827649495358,
        0.7295647782853681,
        1.2479500834238897,
        1.3482631029040741,
        -1.242270986015339,
        0.9128969645548256,
        1.274813037701223,
        2.058109642843871,
        0.8955667096235884,
        -0.8081838712792206,
        -0.7966654829413764,
        -0.16943495951832865,
        -0.009022561256530611,
        -1.4094155783736517,
        0.16983898228485228,
        -0.2518474058848944,
        0.331930771033749,
        -0.09685846979403373,
        0.25490845074602436,
        -0.8875614822513479,
        0.769626321382619,
        0.4009924571593117,
        0.05416066211560679
    ]
}