{
    "idx": 50031,
    "fights": [
        {
            "enemy": 1,
            "fitness": 4.163718093048522,
            "player_life": 0,
            "enemy_life": 90.0,
            "time": 126
        },
        {
            "enemy": 2,
            "fitness": 21.216174817670264,
            "player_life": 0,
            "enemy_life": 70.0,
            "time": 325
        },
        {
            "enemy": 3,
            "fitness": 39.20090734553948,
            "player_life": 0,
            "enemy_life": 50.0,
            "time": 330
        },
        {
            "enemy": 4,
            "fitness": 3.8880122116434563,
            "player_life": 0,
            "enemy_life": 90.0,
            "time": 166
        },
        {
            "enemy": 5,
            "fitness": 87.69389596854987,
            "player_life": 35.800000000000274,
            "enemy_life": 0,
            "time": 360
        },
        {
            "enemy": 6,
            "fitness": 13.384879483158741,
            "player_life": 0,
            "enemy_life": 80.0,
            "time": 101
        },
        {
            "enemy": 7,
            "fitness": 57.2731522524128,
            "player_life": 0,
            "enemy_life": 30.0,
            "time": 307
        },
        {
            "enemy": 8,
            "fitness": -5.278114659230517,
            "player_life": 0,
            "enemy_life": 100,
            "time": 196
        }
    ],
    "weights": [
        0.7233579095308995,
        -0.8935055054813905,
        0.27278823881736125,
        -0.7200315795412338,
        0.28000340604950913,
        0.20633738891849407,
        0.018973350701468883,
        -0.024754281309175674,
        0.34522546057369485,
        -0.910987498938163,
        -0.8856430348358,
        -0.054491530781397124,
        0.9008709578116363,
        0.3718884041099866,
        0.5610807644595157,
        0.5142344843868325,
        0.20653068814858866,
        0.9158195000673819,
        0.9057664835029451,
        -0.31950548498170117,
        0.5486850328381989,
        0.1676905852540369,
        -0.7736310655765108,
        0.18977529281868333,
        -0.25093143423103825,
        -0.6408378036980089,
        0.8858358054308784,
        -0.46396392980603984,
        0.8234581102041294,
        0.4275017448191232,
        -0.15595595083852354,
        0.7554000368306752,
        -0.7904175628700449,
        0.9844551645775346,
        -0.8495954524399454,
        -0.17439763706308575,
        -0.8124504808923605,
        0.18577333160489817,
        -0.3255740970561607,
        0.5303175774089688,
        -0.2965049509036026,
        -0.897714611255126,
        -0.1007996314426498,
        -0.5102853112872419,
        -0.7785883809346363,
        0.03287712341850879,
        0.40272790588996177,
        0.7385353072765035,
        0.38999735715103245,
        -0.41157479821832177,
        -0.9058005831431191,
        0.8482397590747774,
        -0.033721892027190226,
        -0.7410228297918444,
        0.4236403091788732,
        -0.09727035394699102,
        0.7173889643663822,
        0.35457976172584726,
        -0.3813188129897833,
        -0.6370744142701266,
        0.24465015012576674,
        -0.09019763783440649,
        0.9438503703144061,
        0.6763213748560974,
        0.7281695724587598,
        -0.9744071432608534,
        -0.989669027672154,
        0.6373112128177854,
        0.6878193335577547,
        0.9294510847775954,
        0.863000849579799,
        0.059820426990889075,
        0.692929810916916,
        0.3704277412276731,
        0.5867236373710536,
        0.22678204305442695,
        -0.8757359771195707,
        -0.5445902761258634,
        0.7573606538641731,
        0.40329423905256356,
        -0.298291008283873,
        0.24664843629426203,
        -0.722632771761949,
        0.46949025854806714,
        0.010511687007136672,
        -0.020903116063446747,
        -0.8075179521724185,
        0.281487922571265,
        -0.30309637504407494,
        -0.9901970202393651,
        -0.24436017272014476,
        0.5487648015562256,
        -0.5462875276696719,
        -0.3578785950330039,
        -0.16422796495581182,
        -0.9256040255180242,
        -0.5626446889629848,
        -0.08920246994689962,
        -0.02579599146220768,
        0.4368637717311512,
        0.34767008724733706,
        -0.19570096644834578,
        -0.3814091825841335,
        -0.4870444995849883,
        -0.0726120022782124,
        -0.2775955432259205,
        0.5330137036410703,
        -0.9480566569694802,
        0.2171849640621959,
        0.2676552768182463,
        0.48510044778219363,
        -0.0067943023044569895,
        -0.055548994464910795,
        -0.4502144027645054,
        0.30514704966926276,
        0.5785266538583114,
        0.24264530163692744,
        -0.11391237153883593,
        0.055368368910150956,
        0.4116840646000264,
        0.5428542678849786,
        -0.47021481633075113,
        0.8715500364432118,
        -0.07393286110441166,
        0.8997379752376542,
        0.23369613915464105,
        -0.029998728717940626,
        -0.5232041891136125,
        0.5590790854083358,
        -0.5456058584918184,
        0.11875199123812274,
        0.5488752801220322,
        -0.3580477170152936,
        0.3330391746782435,
        0.848587677640557,
        0.5507866028725743,
        -0.9043599203885917,
        -0.025896768921841007,
        -0.34673715575980535,
        -0.6086626823942689,
        0.42747272722162677,
        -0.8228641288260201,
        -0.9397624240717675,
        0.4170943891274146,
        0.8720335492367757,
        -0.6817896059540403,
        -0.6686672017837272,
        0.4860753490129106,
        -0.4508850349674438,
        -0.05246315928320966,
        -0.5638592067266461,
        0.9023669976285735,
        -0.2163238098384619,
        -0.8004663238155838,
        0.05762431958361991,
        -0.6735900763731582,
        0.7527133603268528,
        -0.6177464919167621,
        -0.2835121803372782,
        0.7361334142596268,
        0.2525129639127317,
        0.9342021477565099,
        0.0894109807732335,
        0.9712696214451901,
        -0.42694924024133885,
        0.008881657812668253,
        -0.8679675430461598,
        -0.20111818779020774,
        0.45338735950908093,
        0.1821189940789687,
        -0.9452832576000278,
        -0.5328310565638059,
        0.9136995476102661,
        -0.5077143785488742,
        0.8796042937180897,
        -0.1422968334008885,
        0.7828599484774363,
        0.737591972976678,
        0.8051741898718492,
        -0.026594821694238435,
        -0.04315998475706939,
        0.8348002808405759,
        0.4069619400112565,
        0.07267829984156737,
        0.2663456826678061,
        -0.8279368778541076,
        -0.8465326047999495,
        -0.40526746981452466,
        -0.23277314073222244,
        -0.019698620091536556,
        -0.3363589977250956,
        0.6433639005977032,
        -0.14773694618698663,
        -0.6442463786032839,
        -0.8053568846314614,
        -0.7453304522133519,
        -0.8022593189468739,
        0.3201584857143025,
        0.8213830006433955,
        -0.7773943556330873,
        -0.28870210945382313,
        -0.2462669616827513,
        0.6866546609676065,
        -0.6502464428218102,
        -0.9811215046135351,
        0.9972690336693188,
        0.9732284401843561,
        0.3047919711822833,
        -0.668324148513965,
        0.003186795365587747,
        -0.24854626519786294,
        -0.5747616872927677,
        -0.4523991221115933,
        0.20983638768511303,
        -0.8368908606149283,
        0.2878375510315032,
        -0.638063524831936,
        -0.5410743501492821,
        0.8748084131133576,
        -0.19478218581571105,
        -0.6822476114727827,
        -0.01473451770014722,
        -0.36426960600060787,
        -0.9678791783889997,
        -0.8156070255121102,
        -0.9407382577811254,
        0.7186703120307805,
        -0.6982134448300399,
        0.9797189558754755,
        0.6289450135979004,
        0.8674475783461302,
        -0.6859342436598215,
        -0.6868437554019777,
        0.4691678309894385,
        0.03652404448555324,
        0.136868437533463,
        -0.35703852483095466,
        -0.8274258347957897,
        0.10463936896228843,
        0.22653343181665075,
        -0.49477429829116293,
        -0.551474428787599,
        -0.07292018074871587,
        0.7076091672363074,
        0.6522371463244911,
        -0.20993857715716446,
        0.9479223731575237,
        0.1097329190903178,
        -0.45960501252107044,
        0.5084151012687133,
        -0.6465151768393149,
        -0.06760509965276507,
        0.7884542778635213,
        0.48371421938657844,
        -0.8675470024238578,
        -0.41128939534617714,
        -0.041680099885892385,
        0.11321032886340054,
        -0.7318992995043803,
        -0.21800361492339793,
        0.8858346171752183,
        0.982207979298144,
        -0.40258468528776037,
        -0.23720966484289052,
        0.5683617759656434
    ]
}