{
    "idx": 700037,
    "fights": [
        {
            "enemy": 5,
            "fitness": 90.02901301948917,
            "player_life": 56.20000000000032,
            "enemy_life": 0,
            "time": 268
        },
        {
            "enemy": 6,
            "fitness": 30.870101285076927,
            "player_life": 0,
            "enemy_life": 60.0,
            "time": 169
        },
        {
            "enemy": 7,
            "fitness": 91.10341372532802,
            "player_life": 64.60000000000034,
            "enemy_life": 0,
            "time": 212
        },
        {
            "enemy": 8,
            "fitness": 86.99788162462296,
            "player_life": 28.000000000000256,
            "enemy_life": 0,
            "time": 331
        }
    ],
    "weights": [
        0.4147051121172578,
        -0.06395701894420716,
        1.4198161586609213,
        -0.9815391832383483,
        -0.33911851160581596,
        0.44595256752515056,
        -0.6760024946834502,
        0.7001520503152859,
        -0.5405231243705994,
        0.7167382407805416,
        -0.8010075356082872,
        0.568479172532195,
        -0.6971038348898363,
        -0.6829630265135852,
        -0.4533956673786595,
        1.4648657956684308,
        -0.36793801026123485,
        1.6290557558654333,
        0.19843947945616638,
        0.33744508147230984,
        -0.5645557357008015,
        -0.08559179190597109,
        1.9356783324788074,
        0.8468554129109144,
        0.684744849970927,
        1.209835215750411,
        -0.6005223558748698,
        0.22023065640601705,
        0.15074247469072227,
        0.4585149622407817,
        -0.5031927707070428,
        -0.12400046717587274,
        -1.1569339395185616,
        -0.053256136921727516,
        0.8228374174339246,
        -0.32561320502241625,
        0.6205981097128235,
        -0.6390627934760441,
        0.49867951536289423,
        0.05621461954910975,
        -0.5350499244007525,
        -0.9913773536292557,
        0.9525506094470019,
        0.415942627840903,
        -0.261207811841514,
        -0.6804202501225405,
        0.6595628861446464,
        -0.18876622177578498,
        0.5811961459336072,
        0.6115126813171952,
        0.05942791887017401,
        1.4175103397416642,
        -1.2325895379540235,
        -0.46450301452572534,
        -0.15532729127438566,
        1.7064336078868312,
        0.7202876452394998,
        0.0784130964685385,
        -1.5022450464701889,
        0.588043110300198,
        1.0456892801359037,
        -1.1561076121250577,
        -1.2119391736843295,
        0.33035170560607335,
        0.32803635984619356,
        0.7220856702467031,
        -0.2971650491121769,
        1.186699080314489,
        0.18726271307941855,
        -0.5116018902817613,
        0.873057971808586,
        0.1147271203770334,
        -0.588979999844802,
        0.33757377444589254,
        -0.4765609362882147,
        -2.150501312562078,
        0.4516178079710529,
        -0.8727207272793598,
        0.8269854991350248,
        0.3238795619405975,
        0.6734589246353164,
        -0.11903911844346096,
        0.4074053543654724,
        0.1986954260654934,
        0.32439672884317583,
        -0.5805046326493022,
        -0.40877731555841545,
        0.9616754006972628,
        -0.17951535900175888,
        -0.4076737649825245,
        -0.32253161116806667,
        -0.3871679256071281,
        0.13360137590742455,
        -0.8997292436842629,
        0.5280622927371281,
        -0.334404238889263,
        -0.5033377625114394,
        -0.026559066603646327,
        1.8661432714649335,
        -0.9454621865151444,
        0.9764826435784347,
        -1.4016169602517201,
        -0.31354527369581087,
        -0.4971503233000425,
        0.4632356940029114,
        0.864165442292807,
        0.4556324895428945,
        -1.4887863373716932,
        0.8903026819037808,
        -0.6723828128231826,
        -1.0598675238067847,
        -0.2544963235961685,
        0.7603968298196974,
        0.2733703611678628,
        -1.649645729788771,
        -0.18863056804345998,
        0.44755102965305393,
        -0.8564294280205668,
        -0.011551855116252695,
        0.2243199117987984,
        0.15048249688210977,
        1.2761662671168388,
        0.3308756850197445,
        -0.5756670856389138,
        2.074357971914768,
        1.4310481776589334,
        -0.26835701869833356,
        -0.8937542994756692,
        -0.29773958885797064,
        -0.8562896565438008,
        0.011212905941249022,
        -0.12101934014636043,
        -0.3824246794781329,
        0.3017461269218788,
        0.282650735511059,
        0.4718477477893061,
        -0.0231243994862447,
        1.1054851322646622,
        0.2013847469313019,
        0.3019093375331229,
        1.1751487757933874,
        0.7405659747079489,
        -0.535789860129974,
        0.5109078749887243,
        0.3778064550750621,
        -0.9916222952093324,
        1.0061678982009576,
        -0.864380638392199,
        0.5584983186535655,
        -0.24642771280950881,
        -0.6104441024935273,
        0.9358179102219901,
        1.4849444747228864,
        -0.29366727507645995,
        0.903915106090669,
        0.7795914259574612,
        0.16451388010419046,
        0.10670649239376134,
        0.5814745371716457,
        -0.3497338211321474,
        -1.43829531128116,
        0.7209718294790983,
        0.023548889405254497,
        -0.5935981177723328,
        -0.4267990470298443,
        0.4950760633295737,
        0.1702515667930911,
        0.1427226796345789,
        0.7223945579561448,
        -0.11777657884525855,
        0.22107799517061844,
        0.27463511428521503,
        0.4770867796999411,
        -0.2409777628892832,
        0.7572157386618945,
        0.24567286879398842,
        -0.04972557822457169,
        -1.2518414415760808,
        0.35954392375800104,
        0.2435788928574994,
        -0.6757201655556754,
        -0.5344067006026018,
        -0.06344532092967659,
        0.5249189130565863,
        0.05511496596338826,
        0.7172495430351034,
        -0.285675735934349,
        -0.7892333118310889,
        0.328947595647288,
        0.5513794525928978,
        0.11988848488676505,
        -0.2277554196075165,
        0.2524384495176278,
        -0.22004144930130642,
        0.07844697473365543,
        1.0301839978832363,
        0.22494372979750557,
        -0.19202613584272105,
        -0.42711833285837314,
        -0.8642348230523725,
        -1.4118827751570957,
        -0.9956345782576281,
        -0.4451362238258326,
        0.3510706581319945,
        0.7189071685047861,
        -0.7708487136097532,
        -0.659495655703413,
        0.6407862622121019,
        0.9126184495607883,
        -1.393737079770802,
        0.095223647427113,
        0.1715838386801346,
        0.6684383321301169,
        -0.48217929254339414,
        1.0272183778181658,
        -0.4468771672287692,
        -1.089290258649456,
        0.452737749594262,
        0.839853211916043,
        0.21019440451739652,
        1.2141350891045286,
        -0.31750329210524725,
        1.1055473254711803,
        -0.003460413174116563,
        -0.31847066400661883,
        -1.34569331895327,
        0.6710422412856419,
        -0.5232333056387681,
        0.4887826817555546,
        0.31762733911242763,
        -0.9612749019658646,
        0.5917365428645135,
        2.3464399912683156,
        0.03280536359440099,
        0.15354728111830243,
        -1.2251421349426703,
        0.9810638769755569,
        0.46011244379617383,
        0.43391738248962575,
        0.09988510263273169,
        0.8294091425781185,
        -0.013410806406557396,
        0.4404113698226177,
        0.9483899153164489,
        0.9420655528709959,
        0.2089601152703232,
        -1.040612272222923,
        0.17652029792883583,
        -0.0916838385237166,
        1.1506008019745804,
        0.6283759223044199,
        -0.3042341960167103,
        -0.13392126931860798,
        0.10982228429637658,
        -0.407670585583079,
        -1.0971392929619346,
        0.11038511161695518,
        -0.47984840944884594,
        -0.15003071627715234,
        0.206950230311168,
        -0.05354301795609778,
        -0.9452319863154599,
        0.21544170089200068,
        1.0899069202278546,
        0.2045778474947354
    ]
}