{
    "idx": 704794,
    "fights": [
        {
            "enemy": 5,
            "fitness": 89.85275134159977,
            "player_life": 54.40000000000032,
            "enemy_life": 0,
            "time": 267
        },
        {
            "enemy": 6,
            "fitness": 30.54041448585584,
            "player_life": 0,
            "enemy_life": 60.0,
            "time": 235
        },
        {
            "enemy": 7,
            "fitness": 90.7517329693055,
            "player_life": 60.40000000000033,
            "enemy_life": 0,
            "time": 198
        },
        {
            "enemy": 8,
            "fitness": 89.9666105112725,
            "player_life": 55.00000000000032,
            "enemy_life": 0,
            "time": 253
        }
    ],
    "weights": [
        0.8343492860269505,
        1.0616082703342957,
        0.7673419832834972,
        -0.7395851315558051,
        -1.1165060792013843,
        0.33725163202147274,
        -1.2291229505824652,
        1.0967504129505314,
        -0.5665148108579305,
        1.655673945508377,
        -0.03392947090122839,
        -0.32456621792846935,
        -1.3480935532655287,
        -1.2557616130010185,
        -0.7645332335578481,
        1.5731784346695197,
        1.8122522166997848,
        0.7258793754041372,
        0.6775461119228428,
        2.438457422397062,
        -1.070989135585486,
        0.22548017203205242,
        0.6616975319329045,
        2.140389955017936,
        0.7506109439762744,
        1.9367939869570738,
        -1.71987324084775,
        0.1792243173185974,
        1.022515325523208,
        1.3007032801106104,
        -0.1318589032266413,
        -0.8413152029977996,
        -1.383292786753515,
        -0.8272551535597262,
        1.1101669160820928,
        0.12331378958072374,
        0.20707433299050496,
        0.3327968060047843,
        -0.0347837388023984,
        0.4896689337687783,
        -0.46333863827151145,
        -0.5860929983686275,
        0.3519550061894118,
        0.8733984753014982,
        0.5089330351562245,
        -0.683633722062795,
        0.044013979418518506,
        -0.7144862132249084,
        0.5472927813017251,
        1.1051901538186342,
        -0.9134112323855927,
        1.2124242542965156,
        -0.6602021736974757,
        -1.5624111740274462,
        -0.6396805142958976,
        1.470933582745268,
        0.595139005289918,
        -0.14508177202664935,
        -2.3960155148365803,
        0.14969742790261203,
        0.7358812427047848,
        -0.9168241970297295,
        -0.6177427213172945,
        0.6330250783591098,
        0.47473001692702294,
        1.1220722515140042,
        -0.5473595382420023,
        1.4978150825456638,
        0.054789408400216066,
        0.040964008706232166,
        0.3732094672782804,
        -0.8725574454455579,
        0.013197557640745497,
        0.8168510360681303,
        -0.6851688925761632,
        -1.3477712781046212,
        -0.8917891944966322,
        -0.10142404094850781,
        1.2490902361924694,
        -0.21941015990268548,
        0.5795478591776225,
        0.17544138003540685,
        0.18988007494364562,
        2.3562864818724636,
        -0.08486946108034749,
        -0.6471599052302912,
        -0.4085127573999105,
        0.9238741195947106,
        0.6984155609452833,
        -1.5155144817849628,
        -0.9611769423832782,
        -0.8115782464807573,
        -0.026003948299590518,
        -1.1328318130923127,
        0.7912013432298266,
        -0.25524378051750385,
        -1.3727286956075404,
        0.29474895494203013,
        1.9492209629970418,
        -1.5061757310938562,
        0.9166430809534811,
        -1.4634635039269897,
        0.058996479174897996,
        -0.3801369959207589,
        0.2589983395793546,
        0.6479343712449155,
        -0.2693569418641024,
        -1.6681977529654168,
        0.5075270388744901,
        -0.5111548840426692,
        -0.0016490289124459628,
        -1.092758524819177,
        0.7443180310008041,
        0.27409797310397527,
        -1.411049451673902,
        0.050635056663989354,
        0.09187142138139612,
        -0.6232645475456687,
        -0.1300924910831534,
        0.4233905852248853,
        0.78215775976032,
        0.725902173526782,
        0.559088592437888,
        -1.333669726750538,
        1.6567714776895164,
        3.1189451955604035,
        0.8752587200856126,
        -1.1076007992913306,
        -0.26242764303405497,
        0.0077482054958043925,
        -1.0585838696330663,
        0.37983817777359147,
        0.27078474357609994,
        -0.09918005608395124,
        0.447307569986234,
        1.14146424493052,
        0.3528402369443665,
        1.790046502982654,
        0.3565742639114885,
        -0.6911619084864756,
        1.5953352369733649,
        1.5048050328868887,
        -1.5052055075730388,
        0.08582295387218757,
        -0.09263683953506158,
        -0.6205071409869765,
        1.6890440379170788,
        -1.1600040760640888,
        1.1603635329411115,
        0.8233000158647873,
        -0.24732706706102978,
        1.5700404027406418,
        1.1579147784289279,
        0.17531772468419782,
        1.4199535672290375,
        1.0257542284877652,
        -0.4224393637236599,
        1.4373560657156454,
        0.9616224849453067,
        -0.8571784866953238,
        -0.8766445035692132,
        1.021111961055268,
        0.11697180195841081,
        -0.3685457465434473,
        0.36173644524810095,
        0.5541594857984582,
        0.12796018882426793,
        0.7644977869417935,
        0.27980659923882534,
        0.7317067052553746,
        -1.559137032745965,
        -0.09615588096247017,
        0.7381287108064679,
        -0.0036534949187362227,
        0.15993864671507285,
        -0.6084404237421265,
        0.26982756350868353,
        -0.8068334144720386,
        0.6047446633881274,
        -1.6614518250713102,
        -0.4758722767052263,
        -0.6620260719071972,
        -0.6758869892297615,
        0.8247280361403889,
        0.4104596232735674,
        0.7046726967384908,
        0.7860998039950733,
        -0.5634034195076888,
        0.0322128510813473,
        0.8537913784035663,
        0.2715513073591031,
        0.045220270627464317,
        0.27563284451000397,
        -0.11917235891347255,
        -0.30232670806730977,
        1.140655577079139,
        0.3264507256614725,
        -0.6795929922675773,
        -0.46903259121580443,
        -1.9985333394353995,
        -0.7929877951450192,
        0.9870371949877825,
        -1.2418761787352395,
        2.5203940553257573,
        -0.6680428188613416,
        -1.4017121488659283,
        -1.3236071332796813,
        0.7188216968645095,
        0.9906666475769683,
        -1.9865649123952973,
        -0.6146948542917686,
        0.49173825969408735,
        0.7176276006383572,
        -0.0814212604580713,
        1.4460663491637258,
        -0.714131189827955,
        -1.2333651388293243,
        -0.20111423699014302,
        1.2265806596908708,
        -0.6787548624613549,
        1.289208673103267,
        -1.0678924908985632,
        1.5070611341519338,
        0.13029373609986217,
        0.16879155558941508,
        -1.3352861546006716,
        0.520040337538503,
        -0.7087864429483153,
        0.327148352193812,
        1.3121868511321904,
        -0.7944218144481076,
        1.210957311827965,
        1.2068813745129512,
        -0.2394377817505308,
        0.31163309624017727,
        -0.6260765446895031,
        0.7489097247108673,
        1.6533587721423895,
        0.8020664133185953,
        -0.256191448733847,
        1.15846099815273,
        0.47537678613880113,
        0.02608404210198454,
        0.4109423550218697,
        0.8865778039086859,
        0.3985366069894982,
        -1.0252845884591197,
        0.7203005790413498,
        1.0577536741210354,
        1.5965582895250474,
        0.6442522713235564,
        -0.8174607699290575,
        -0.3092861402469538,
        0.21253052281458792,
        0.2948539488097143,
        -1.5077721690488564,
        -0.050585322694908674,
        0.7647362240540141,
        0.8874161236319312,
        -0.6741188066495949,
        0.12289412347506858,
        -1.2191086293433155,
        0.3725081233855707,
        0.8126430958439633,
        0.22932689345281065
    ]
}