{
    "idx": 706191,
    "fights": [
        {
            "enemy": 5,
            "fitness": 90.0787364548416,
            "player_life": 56.20000000000032,
            "enemy_life": 0,
            "time": 255
        },
        {
            "enemy": 6,
            "fitness": 48.375982493812664,
            "player_life": 0,
            "enemy_life": 40.0,
            "time": 277
        },
        {
            "enemy": 7,
            "fitness": 90.31504998251863,
            "player_life": 57.400000000000325,
            "enemy_life": 0,
            "time": 227
        },
        {
            "enemy": 8,
            "fitness": 87.13935834262664,
            "player_life": 29.80000000000026,
            "enemy_life": 0,
            "time": 344
        }
    ],
    "weights": [
        0.2892177894329676,
        0.3198868137457218,
        1.5351667661068513,
        -1.073189154250091,
        -2.398619699280713,
        -0.046706586526595595,
        -1.7765020838522718,
        1.9403615268442012,
        -0.26098797083404324,
        1.1471282676883445,
        -0.32468316533198327,
        -1.3897127394227327,
        -1.3582729512327256,
        -0.8290501030072397,
        -1.0038269644382611,
        1.7478135991529595,
        2.190952599420833,
        0.5816098200123334,
        0.6391356128451107,
        2.5062476927966086,
        -0.7700609584786793,
        0.5386756093625573,
        1.267581935904303,
        1.8316523169036345,
        0.7891320716372642,
        2.1911973426568983,
        -1.6884469866933627,
        0.45964238615581965,
        1.2657124608002979,
        2.302331840848847,
        -0.5634599952490649,
        0.44750847102183067,
        -0.600079660465693,
        -0.8611630043609766,
        0.5600699290782503,
        -0.35104783257387545,
        0.2592076388312345,
        -0.6326407232578799,
        -0.5776710919423799,
        -0.07588472806958683,
        -0.44034640853328694,
        -1.071544978516182,
        0.7656964518725717,
        0.3684994844585497,
        0.571067788789758,
        -0.25366886689004686,
        1.8263926115893065,
        -0.5146896129479193,
        0.555675295379816,
        1.6214017078562302,
        -1.1398766125948618,
        1.9964487071317638,
        -1.7973547462047659,
        -1.0898621140250997,
        0.0741908947005413,
        1.7165381309761956,
        0.2657629289080645,
        -0.299344702402889,
        -1.990194881210057,
        0.31469718959025705,
        1.388351996390089,
        -1.6150226995406973,
        0.6515876727492749,
        0.575499592778508,
        0.3031790966250453,
        0.014860787938045808,
        -1.366672521451593,
        2.395999886103944,
        -0.6825967469705678,
        0.5673829233657802,
        0.7409587916655545,
        -0.513463717907624,
        -0.374075427571087,
        0.9123057143406068,
        -0.6575764640980079,
        -1.1754525051563363,
        -1.0277897176870605,
        -0.7033877403409516,
        1.896680979976129,
        0.09516542190138821,
        0.35887599133524,
        0.31921874143112616,
        0.511518297629292,
        3.0338297041310605,
        -0.714082773904293,
        -0.10850009197939334,
        0.1069257009066624,
        0.8645643026075354,
        -1.0433303644896137,
        -1.395089310822071,
        -0.48441081223425475,
        -0.5293373594102567,
        -0.3186548232351311,
        -1.739128612135369,
        0.955727239510257,
        -0.6232125467042543,
        -1.7933480433263846,
        0.03157257190738637,
        2.595612510847971,
        -0.3884796976782424,
        1.7186333188560112,
        -1.229563659790895,
        0.07983882797959456,
        -0.2945348201199207,
        -0.21013158092180317,
        -0.057598929992971865,
        -0.5197279491326635,
        -0.6188312881084888,
        1.0709313506980203,
        -0.13082521346688067,
        -0.2098819638920124,
        -0.8464743924102328,
        0.7766689606095103,
        1.4024930413477619,
        -1.2810668733907078,
        -0.35874970346691637,
        0.3314592378507577,
        0.13516154119586996,
        0.8327591730730423,
        1.1303826764936769,
        0.3704837492087672,
        0.33453149545642086,
        0.7839136107974715,
        -1.7231942110799887,
        1.7397530249813487,
        2.5366352294049417,
        0.8900924615657838,
        -1.521347090376917,
        0.03276531018060383,
        0.35037832569147515,
        0.8821020174445563,
        0.20607419054979845,
        -0.10804751433575631,
        0.16036050072086633,
        1.3840650624293283,
        0.6143126926854524,
        0.26463084011359805,
        2.247334884802409,
        0.4097641831760971,
        -0.16975082618395693,
        1.8173389940523852,
        2.09498695025365,
        -0.8694321298751293,
        -0.08370983204469959,
        0.23666424105403877,
        -1.4865002003970762,
        0.9587118923370886,
        -1.508953433429648,
        1.0259221872435806,
        -0.030533013803787812,
        0.1706381102987095,
        1.542672739210652,
        1.3834701572176487,
        0.40759495865394535,
        1.6984656743294133,
        1.2670555622917492,
        0.45428264365229276,
        0.847188263334649,
        0.9190369393312808,
        -0.2800902181868746,
        -1.163001681094533,
        0.8380671634731612,
        0.6194160471518373,
        -0.6376015502556855,
        0.14949096810807946,
        -0.2608254399514006,
        0.4229952544319877,
        0.001110719405118324,
        0.3625451178492094,
        1.358309686516248,
        -1.406718079240432,
        -0.2022551354576076,
        0.6166599725669228,
        0.4848366435844047,
        0.1786800182645006,
        -0.910157577850847,
        -0.9423589630941808,
        -0.6289730068578461,
        0.5734318471449503,
        -1.436437034012432,
        -0.933461787400409,
        0.18270636011802344,
        -0.7915600817663747,
        0.48523397581241245,
        0.08997085312999399,
        0.8866651333382471,
        0.849079936294712,
        0.012711121596805826,
        -0.26126755859829054,
        0.9167665728394695,
        -0.2896550469473861,
        -0.5207011017180503,
        0.31402054373314897,
        -0.7135390813006595,
        -0.07627099020003858,
        -0.11244192477613278,
        0.7063450215053964,
        -0.3011412798620918,
        -0.6830430568461688,
        -1.9870149953286274,
        -0.9464097350949023,
        0.5189929857519229,
        -1.0296273026996294,
        1.8998009066349357,
        -0.45295510836894504,
        -1.3631554207024064,
        -1.9668499513624949,
        -0.1112000027062639,
        0.8873356912305306,
        -1.8614019611573978,
        -0.008641829908372978,
        0.466712809361018,
        0.6584805879961166,
        -0.06472726892911408,
        1.1924794886533456,
        -0.27917521604898954,
        -1.643187310726519,
        -0.3939654154419445,
        0.6315048019265569,
        0.30630718000767804,
        1.344834009228299,
        -0.8230433454314466,
        1.3936156491844243,
        1.4137614289891025,
        0.582891924330583,
        -1.8322841771815341,
        0.813508806112659,
        -0.8905654119747842,
        0.5940295599676647,
        1.89552273065389,
        -0.6229541927780873,
        1.7922078877691805,
        1.5717674213027275,
        0.7901613513241116,
        0.9358693114351139,
        -0.6016759995810608,
        1.1780798883470789,
        1.1484714155629043,
        1.31926477844229,
        -1.0173018330151629,
        0.5107808312957981,
        0.4310826109158875,
        -0.39824497297410555,
        0.7090033604619491,
        1.533216612028915,
        0.14879959535274878,
        -0.9898420904621803,
        1.051759026849682,
        0.996549703081966,
        0.30044338213258104,
        0.40707612806108984,
        -0.6850135169820923,
        0.09011019747650291,
        -0.21327553107671457,
        -0.17509043150361334,
        -1.2330543804836838,
        -0.12919788359071135,
        0.5855824983812874,
        -0.5751968868600507,
        0.6428541010213854,
        0.34670774115307773,
        -1.4276961911938626,
        0.8403299394001168,
        0.8223434216216672,
        0.5118254815863457
    ]
}