{
    "idx": 704455,
    "fights": [
        {
            "enemy": 5,
            "fitness": 89.10687189361195,
            "player_life": 47.2000000000003,
            "enemy_life": 0,
            "time": 274
        },
        {
            "enemy": 6,
            "fitness": 48.544678884642295,
            "player_life": 0,
            "enemy_life": 40.0,
            "time": 234
        },
        {
            "enemy": 7,
            "fitness": 87.91946500072774,
            "player_life": 33.40000000000027,
            "enemy_life": 0,
            "time": 226
        },
        {
            "enemy": 8,
            "fitness": 86.33574420258549,
            "player_life": 22.600000000000243,
            "enemy_life": 0,
            "time": 374
        }
    ],
    "weights": [
        0.7731306636644871,
        1.037555419072587,
        1.2906682993706282,
        -0.7409897415949621,
        -1.3816082180426683,
        0.2329316572114622,
        -1.3535047571613348,
        1.3481108238707686,
        -0.3267214435899489,
        1.205274399255629,
        -0.31504144825463176,
        -0.6099901535609417,
        -0.9371298193242374,
        -0.7550911582216407,
        -0.8265558795692036,
        1.6219791346006718,
        1.751535731043906,
        0.5447508782207617,
        0.2752776211108653,
        2.1963111138921154,
        -0.8909935897418183,
        0.01573969794719994,
        1.4881551435903113,
        2.3578671987345925,
        0.7664987686668974,
        2.266965868788606,
        -1.6422984821926994,
        -0.008684296596853852,
        0.9809173768131377,
        0.23453118027699965,
        -0.10412993031208963,
        -0.6552329742463587,
        -0.6436298623716472,
        -0.9620220648174675,
        0.6119122468812476,
        -0.5348476392288857,
        0.25062314100772404,
        -0.2636305469215609,
        -0.20748764819816243,
        0.4125000650544595,
        -0.03820461693202039,
        -0.4143575861361102,
        0.5389236739438573,
        1.3555293720545414,
        0.14467967764945838,
        0.030354311461365743,
        0.7784320582190191,
        -0.24166025044777256,
        0.4133672352891779,
        0.9753303726563701,
        -0.7770986986989552,
        1.694504673664745,
        -1.25110311099235,
        -1.653981541728631,
        -0.8904903764113848,
        2.2949154052389376,
        0.5512250966245102,
        0.043475750484872025,
        -1.8871216805094806,
        0.08105148505478824,
        0.9739497044136577,
        -0.6125907211811498,
        -0.7329653791696681,
        0.39450121546564026,
        0.8729129529372996,
        1.111145155934455,
        -1.1047160475107762,
        1.6015254105370393,
        -0.742579750818592,
        0.31997730693396,
        0.40859234195756183,
        -0.9766467870676324,
        -0.12256486645439288,
        0.8610467481042303,
        -0.6422045327919287,
        -1.2783138827802043,
        0.006883938233920035,
        -0.48425925115142276,
        1.4065203990938244,
        -0.06586704221725745,
        0.7667566491430537,
        0.13350022239425446,
        0.350786747417621,
        3.223269976734746,
        -0.6358327086105966,
        -0.8004517364476452,
        -0.5394809221740814,
        0.9792367337170176,
        0.7218561777589256,
        -1.3090848493273306,
        -0.7804246892506247,
        -0.6378640861640444,
        -0.013606948191607664,
        -0.6897693378250749,
        0.6620957181292755,
        -0.4904868975013082,
        -1.251633925872751,
        0.5835865224441912,
        2.1999051844991113,
        -1.0543102506308075,
        1.2061552196154308,
        -1.2516463094247217,
        1.3377485186641902,
        -0.7090413124447703,
        0.1993007329068509,
        0.6745076746822962,
        0.9020494160009065,
        -1.5388630848297473,
        0.6874539563433967,
        -0.9983931608825651,
        0.07749983157743778,
        -1.0813309628367156,
        0.8447657517916453,
        0.07057045755175782,
        -0.718775352702822,
        -0.2893144702272272,
        0.4336859357344383,
        0.19713206912208198,
        0.08360296115167755,
        0.5853578829321401,
        0.4984586361866164,
        0.14867449823647452,
        0.6885686495472654,
        -1.3060182716639428,
        1.7469620661653045,
        2.295654041475459,
        1.0178374804277892,
        -1.233152469661214,
        -0.246455040716965,
        0.4997592920845315,
        -0.8918582804651729,
        0.22140026151429748,
        0.39807469014779046,
        0.47327520876881873,
        0.1276657123741017,
        1.107590112505192,
        0.17191421967600226,
        2.059527966769904,
        0.4504651921722155,
        -0.838449585840311,
        1.3601201789703194,
        1.4799569300582427,
        -1.6469078709185054,
        -0.10800531951021031,
        0.13004305953516437,
        -0.7405913178899982,
        1.583303460506438,
        -1.1794362524075037,
        0.8948145838344671,
        0.7724684456138767,
        -0.020827826654438157,
        1.4843968679903328,
        1.6710513107215008,
        0.30168958254367706,
        1.354167056831014,
        1.097083549495942,
        -0.12486503151427952,
        1.8377198514726225,
        0.4355326025746465,
        -0.6370706000275982,
        -0.7809397761215725,
        -0.2940478490357444,
        0.20532260341423408,
        -0.4903969975603526,
        0.5515209075326398,
        0.5088307665753228,
        0.07651037904603597,
        0.8839582803357735,
        0.37238492994138317,
        0.5417330791817186,
        -1.0950133174980907,
        0.3325726726448292,
        0.6589175014900982,
        0.21073952070481766,
        0.3678822873545404,
        -0.7777140723019906,
        0.1644315376741705,
        -0.9104958682407278,
        0.5556907295924904,
        -1.3101401876544505,
        -0.3184008305376269,
        -0.49374877019843055,
        -0.3741827884493798,
        0.2148157432645567,
        0.3265011235930418,
        0.7496766077602974,
        0.9561423156249422,
        -0.6989949284277706,
        0.04244710646075028,
        0.755482061940908,
        0.19537676447475857,
        -0.22347543608080622,
        0.07283981438338127,
        -0.6173453960975617,
        -0.42120129343221563,
        0.19770915303815262,
        0.03323582981720243,
        -0.6623502811408819,
        -0.22594086176728326,
        -1.7381058910707226,
        -0.9413214776211638,
        0.04213319197875887,
        -1.1600840931888456,
        0.4525076932365023,
        -0.10909427448052306,
        -1.2308093366853936,
        -1.3435611804458591,
        0.5004494444792318,
        1.0110551143118813,
        -1.6483303969239351,
        -0.49581023508021493,
        0.47598699279628637,
        0.5881491122866617,
        0.1288909234445401,
        1.522089516544888,
        -0.9546944816767798,
        -1.178800123740472,
        0.8013704785700524,
        1.0746747954987033,
        0.2566619163448063,
        1.220154002049784,
        -1.0151265770207167,
        1.145672773381591,
        0.210139289094196,
        0.2484377125502218,
        -1.0367265063497846,
        0.5445416837787285,
        -1.0244709079176293,
        0.30903754941461886,
        1.7685227753738315,
        -0.46312585996470157,
        1.0692595953370208,
        0.9556360562819983,
        -0.19438227890356422,
        0.4759860014015304,
        0.014774928294797651,
        0.3942620385545851,
        1.694169113583096,
        0.5492985337839978,
        -0.1614064744095005,
        0.9842329539966624,
        0.46805315960841043,
        0.046635853645270994,
        0.4398990680056315,
        0.9089992184716816,
        0.1545685442587313,
        -0.9961725937793529,
        1.4913497842669754,
        1.1778023901510977,
        1.61516941591088,
        0.5878854816726623,
        -0.9564566580088318,
        -0.3888949954680619,
        -0.25617741728022975,
        0.1529478391921548,
        -1.2102308134990718,
        -0.018818945245698826,
        0.3822621857774393,
        0.6380033940877233,
        -0.36423811838950343,
        0.03318740097509463,
        -1.1994460072461834,
        0.4982038626606462,
        0.860957207367787,
        0.28440708953700855
    ]
}