{
    "idx": 704471,
    "fights": [
        {
            "enemy": 5,
            "fitness": 89.11052820481507,
            "player_life": 47.2000000000003,
            "enemy_life": 0,
            "time": 273
        },
        {
            "enemy": 6,
            "fitness": 48.924826184766175,
            "player_life": 0,
            "enemy_life": 40.0,
            "time": 160
        },
        {
            "enemy": 7,
            "fitness": 89.53946500072774,
            "player_life": 49.60000000000031,
            "enemy_life": 0,
            "time": 226
        },
        {
            "enemy": 8,
            "fitness": 87.13935834262664,
            "player_life": 29.80000000000026,
            "enemy_life": 0,
            "time": 344
        }
    ],
    "weights": [
        0.8747662954803529,
        1.04017152036691,
        1.3036666442869111,
        -1.0355357683541575,
        -1.196700996254119,
        0.3447974867765089,
        -1.6726782414778252,
        1.459140090860298,
        -0.5439992044390404,
        1.1943759769814906,
        -0.13016061774141408,
        -0.5492415206317324,
        -1.232383058371667,
        -0.9327296043997957,
        -0.753781885074558,
        1.5115612224366664,
        1.7938620702234809,
        0.4696309532961739,
        0.46604799092904253,
        2.2500795710661396,
        -0.4382052549917749,
        0.1376734387536221,
        1.0829507365967102,
        2.1062156335377145,
        0.6362941148166252,
        1.756246345596319,
        -1.508343975695745,
        0.19950521414000663,
        1.0758546371778652,
        0.23986334965294898,
        0.0890765054254426,
        -0.7409604176325569,
        -0.7366032412300993,
        -0.8720287774500077,
        0.5425381914472515,
        0.029139295140625104,
        0.214606924484993,
        -0.703186194910721,
        0.21035102009333856,
        0.5000065908318834,
        -0.40299264949595787,
        -0.730728916817387,
        0.3546945295235937,
        1.2721188742610086,
        0.20477428004365972,
        -0.3076030306206122,
        1.5955958071488068,
        -0.05329794803173235,
        0.1750941253044302,
        1.0926849275441257,
        -1.0680365430682708,
        1.8381252649767081,
        -1.3185302678314161,
        -1.2068549227396665,
        -0.6300590434488175,
        1.8517627416754714,
        0.38105425469250626,
        -0.22159743091298015,
        -1.7802107524485091,
        0.36378179721537274,
        1.0420026163286906,
        -1.4478753823715034,
        -0.7349232405578349,
        0.6044660634057535,
        0.7740266227423592,
        0.1448302737137501,
        -1.2581556097888402,
        1.356549653783,
        -0.8007233443095272,
        0.4650677727413348,
        0.38238008224819736,
        -0.9385498676501064,
        -0.36465313615836814,
        0.7874738096180448,
        -0.54104499286374,
        -1.651203933195614,
        -0.4137258143215411,
        -0.3392091996301651,
        1.1326623113740166,
        -0.11271712705849371,
        0.5798615931047546,
        0.14599447652677394,
        0.4471017512975649,
        2.3477581943782546,
        -0.6052423552136745,
        -0.832717033875142,
        0.1030641117512717,
        0.8477720523553103,
        0.44267840637003675,
        -1.6479258542821527,
        -0.5721119371988057,
        -0.5398304425665789,
        -0.31939625860933696,
        -2.0341899081381665,
        1.1861885007831132,
        -0.39767866348527925,
        -1.1978733460689919,
        0.3376614843500494,
        2.1736145755018264,
        -0.9646914901842297,
        0.927745889864602,
        -1.8940814426983261,
        0.4132523869193637,
        -0.8026619008536552,
        0.3120143197985359,
        0.7542599533702347,
        -0.5040584861708662,
        -1.4736373261368318,
        0.6910140704468613,
        -0.25108217378245185,
        -0.0003697539354736157,
        -1.0215808470846677,
        0.9975683355420372,
        0.21450114609651463,
        -0.7607736613164752,
        -0.7879026671938401,
        0.5443171201950794,
        -0.9977332171420166,
        0.30867255870304067,
        0.3757896486627139,
        0.6466259361319917,
        0.5435973768477018,
        0.6120918668695159,
        -1.358538783309399,
        1.7586899453068714,
        1.6175660326873444,
        0.8147852493235244,
        -1.3209518408252245,
        -0.2834946891114659,
        0.3735515185505908,
        -0.9378207464980953,
        0.4549663946571381,
        0.4752101712000431,
        -0.056026925715728926,
        0.5197328271242467,
        0.983832694017912,
        0.20935298336815408,
        2.5049724009773127,
        0.37985809377599955,
        -0.7870767028486003,
        1.3520312627337234,
        1.518854602763537,
        -1.6672956775392231,
        -0.2430336809772342,
        0.11380778627497518,
        -1.0103161093618351,
        1.914064915419448,
        -1.1985226980633692,
        1.1928187827615055,
        0.7931627869838049,
        -0.010747932714144717,
        1.4638765939935685,
        1.6094178348636943,
        0.010904391837052586,
        1.4289915989007376,
        0.979727806388997,
        -0.3290696566110475,
        1.7571793373609264,
        0.9416804355907655,
        -0.9151162427680961,
        -0.6763351643764751,
        -0.22707622061521993,
        -0.1470831430452869,
        -0.321220122092468,
        0.5374795679063209,
        0.2204779337741973,
        0.11849864501315552,
        0.8932927326679438,
        0.340028121430949,
        0.7963626229821668,
        -1.2039656629498796,
        0.3973216984236648,
        0.8967390660880056,
        0.4024898786130422,
        0.347511530927619,
        -0.7214932271806951,
        -0.5397421181389932,
        -0.849955525344076,
        0.490375189749701,
        -1.635053926526669,
        -0.1844302019989008,
        -0.6270554097127482,
        0.5059593975144187,
        0.6824166858493551,
        0.25684425783259773,
        0.7109496103200672,
        0.7449259297116056,
        -0.6639070353862998,
        0.13882812466701883,
        0.6900830895050688,
        -0.10370204196557387,
        0.24447940290643502,
        0.03523508822407244,
        -0.49153471389930836,
        -0.26910621586577776,
        1.2575801314361854,
        0.193790267567576,
        -0.41635456903349954,
        -1.1627579716710876,
        -1.7369849151261394,
        -0.6275267547197202,
        -0.007216922370677049,
        0.025570209640276065,
        2.2406672157275573,
        -0.0062992315340733365,
        -1.2221021150275293,
        -1.2723359012787256,
        0.49827057515853684,
        0.998565394790529,
        -1.406469448961637,
        -0.018600866088219203,
        0.8371500455263746,
        0.5063503908917989,
        0.2867926301940972,
        1.0120187931368319,
        -0.7962853454410154,
        -1.5848412776917822,
        -0.1966297461073999,
        0.8398937860197333,
        0.42676796451741394,
        1.3042948067791178,
        -1.0318913562588885,
        1.6710933314465217,
        0.6361573621248567,
        0.0798794530475733,
        -1.7345486138563702,
        0.6676829830051888,
        -0.8288899859592965,
        0.05329738433883181,
        1.3063402343596495,
        -0.5514191365619664,
        1.013568463036786,
        1.5271082374167144,
        -0.07845564410555546,
        0.47249283927725255,
        0.2130154298275007,
        0.33614333257282275,
        1.6240924160356562,
        0.4473844365765054,
        -0.1191966815538136,
        0.7059176204003546,
        0.1869761646422068,
        0.3721180918827983,
        0.7795336350220164,
        0.959216751631033,
        0.23619878677556438,
        -1.1683076589540309,
        1.1569149464549708,
        1.4535914275628365,
        1.566524291935838,
        0.6587293588846861,
        -0.8238093891388188,
        -0.37122994468658144,
        0.2695487207930435,
        0.3850409332902086,
        -1.6483805479192302,
        -0.07696621091761983,
        0.14190123617457778,
        -0.034088046804565675,
        -0.331840311301668,
        0.06730813905079512,
        -1.1458837649133697,
        0.5963627621866876,
        0.814065521678922,
        0.16791070253953277
    ]
}