{
    "idx": 701196,
    "fights": [
        {
            "enemy": 5,
            "fitness": 89.84353644806852,
            "player_life": 53.200000000000315,
            "enemy_life": 0,
            "time": 239
        },
        {
            "enemy": 6,
            "fitness": 39.527729326328526,
            "player_life": 0,
            "enemy_life": 50.0,
            "time": 238
        },
        {
            "enemy": 7,
            "fitness": 87.79703951986407,
            "player_life": 34.60000000000027,
            "enemy_life": 0,
            "time": 288
        },
        {
            "enemy": 8,
            "fitness": 86.33574420258549,
            "player_life": 22.600000000000243,
            "enemy_life": 0,
            "time": 374
        }
    ],
    "weights": [
        0.6815791731921281,
        0.7845442237725138,
        1.13281383123669,
        -0.6294024853656679,
        -1.2162754377637601,
        0.4639710403495586,
        -1.8547646776115687,
        0.6779752788970912,
        -0.19813911272746593,
        0.7135643828236996,
        -0.0035345840403390606,
        -0.477829919827074,
        -1.2513135618851314,
        -0.38685391916464873,
        -0.3517401314533159,
        1.6300060519599737,
        0.46601157795959797,
        1.4388798930586557,
        -0.03393536682389442,
        2.1052053294754267,
        -0.41286848249385993,
        0.7587562004292177,
        1.4499060853506172,
        0.6155360966087164,
        0.6596489914652992,
        1.414091012348756,
        0.003109345360632638,
        0.15438243250983666,
        -0.1727115980028287,
        0.20973412506714068,
        -0.31803217329817735,
        -0.5867556632529114,
        -0.7680101262551426,
        -0.47713296117818504,
        1.0526961629319507,
        -0.2082984710618983,
        0.3372475957515316,
        -0.501044603736736,
        0.14134224633161624,
        0.03823882427932877,
        -0.42054751028698517,
        -1.0233918929227424,
        1.065571543135367,
        0.7307448785178972,
        -0.13021747752956306,
        -0.5765653037160963,
        1.9503960256456614,
        0.13342693347124757,
        0.41696578835813225,
        0.8766255596010036,
        -0.09224570798786855,
        1.1177397246286356,
        -1.7841193507181925,
        -0.9686633857267143,
        -0.11923995210384832,
        1.5859881765888648,
        0.11665535521050502,
        0.4443240620535695,
        -1.361357589064003,
        1.3978674407076828,
        0.7502064681688813,
        -1.0084917205595705,
        -1.3463962157310498,
        0.3544757988922892,
        0.4171218849389973,
        0.6188641293710972,
        -0.4872476557932025,
        2.340172840041468,
        -0.05270354975845177,
        -0.42895961342965355,
        0.72255345334516,
        -0.8683839197783477,
        -0.22592361165184024,
        -0.16173033162426767,
        -0.1745823585616899,
        -1.8054330078503709,
        -0.39902204032534194,
        -1.025012849331372,
        0.7916690489856613,
        1.0700623981957298,
        -0.04849721154508177,
        0.08434083330056762,
        0.4878830744391847,
        2.657521882319644,
        0.17569493407278086,
        -1.0018693345277367,
        0.17579899527421103,
        1.0254807015587255,
        -0.5559346026496943,
        -0.41120745947735726,
        -0.5751685401756452,
        -0.7909744265161919,
        -0.03689236854253923,
        -0.6945803926064857,
        1.4552998782149922,
        -1.0247810992624564,
        -0.34686285158214386,
        0.0408771799162522,
        2.3478129549874223,
        -0.2010358796221457,
        1.3733673777388142,
        -2.0004086835188133,
        0.3400946414037157,
        -0.5094595668652155,
        0.6853312571500986,
        0.5076642152178392,
        0.5044920228205034,
        -1.6860933858619747,
        1.0454589947447006,
        -0.34989646579653694,
        -1.1522558471939626,
        0.19988532201518705,
        0.4917797051055783,
        -0.027255839641943863,
        -0.6234024360005866,
        -0.17584489413302432,
        -0.24357036520071204,
        -1.5580902995145234,
        0.004261876663760558,
        0.24201597211438555,
        0.28163213785831365,
        0.1329241563205393,
        0.7587647195254258,
        -0.6279432702138882,
        1.3677450822907509,
        1.6224923515511598,
        0.5872761350111927,
        -0.9631134093048944,
        -0.6609352054857567,
        -0.1013578456729366,
        -0.26536536693039486,
        0.17462090156998575,
        -0.3627911725692283,
        0.6348913071255423,
        0.5348187642521819,
        0.29716157321659575,
        0.4454124923036764,
        1.6426300741783044,
        0.11186914239842664,
        -0.5466636083506362,
        0.9433714970169248,
        1.0840356034215815,
        -0.5495791520526375,
        -0.06994401951985021,
        0.384413963389436,
        -1.0529625101579863,
        0.8766297911797031,
        -1.0443447617444799,
        0.7500792387993784,
        -0.32812521142766676,
        -1.0151702618427494,
        1.2082504202948834,
        1.4917361314729927,
        0.40643502454757907,
        1.2696773390955205,
        0.5229791582739132,
        0.22039687689092327,
        1.0449736640407992,
        0.8335149329826069,
        -0.6020803518210736,
        -0.5819012335183732,
        -0.05948566933662612,
        0.06939518344775178,
        -0.2366751340484674,
        -0.48422151025462945,
        0.21666437105478975,
        -0.25010109436849715,
        -0.3835331175847479,
        0.9294360626495849,
        0.025402428224059047,
        -0.3792030315781935,
        0.3760888882371454,
        0.5591533290458366,
        0.39829438352243823,
        0.29157907864093907,
        -0.2244430620522672,
        -0.0660467484611224,
        -0.9482135846021955,
        0.4121612537701101,
        -0.5348145642414636,
        -0.7927155044289298,
        -0.5220130499944914,
        -0.5594102070376762,
        0.3783138758545613,
        0.007749618379797145,
        0.8630585280771235,
        1.5068632081327937,
        -0.38019581002363967,
        0.3497924776278592,
        0.8232010924713743,
        0.6268003766402167,
        -0.3567894290573268,
        0.40242387131124885,
        0.17332555354162943,
        0.4914580116701325,
        1.3669727491464538,
        0.22314236229819157,
        -0.26293353753091864,
        -0.530511616025567,
        -1.4586019453495598,
        -0.31612945230888867,
        -0.8742459560222838,
        -0.7515715446417965,
        0.36381830648055585,
        -0.11950651353564268,
        -0.9380314172581166,
        -1.0661451646879194,
        1.0539518151133842,
        0.4506215724578958,
        -1.5151327400560517,
        -0.37212881629212446,
        0.5727124651968711,
        0.9439425184837585,
        -0.5613510300588359,
        0.7745287459564074,
        -0.7955006503629711,
        -0.8620696293190735,
        0.5066160840909361,
        0.8260861798925734,
        0.3887541467849837,
        0.9059600157067261,
        -0.9044086298160051,
        1.2557335329671961,
        0.2524773123679682,
        -0.19405779232367154,
        -1.0546866641646175,
        0.960033243451465,
        0.35778361118228197,
        0.02117773472624015,
        0.36453126081228016,
        -1.4290628925729394,
        1.1236233924265404,
        1.9942061112366667,
        -0.05038260290952533,
        0.21669325287110236,
        -0.667438529398876,
        1.1253338073502528,
        1.026868077599775,
        -0.0768664882298888,
        -0.1289287271151448,
        0.6496326409434183,
        -0.270301234002787,
        0.5788242077363839,
        1.107847128877386,
        0.5882674441253202,
        0.6956912511350175,
        -0.34557112172594323,
        0.4570018739020883,
        1.2217997502588043,
        0.5802192107281396,
        1.1716327341990518,
        -0.9028138128113723,
        0.12581386604085926,
        0.7121584817625044,
        0.014747574316016423,
        -1.2930740214640895,
        0.21726282616122267,
        -0.633836782486078,
        -0.49337062598619635,
        0.010874554598025936,
        -0.041209535778095406,
        -1.0184891655443744,
        0.24612505881441096,
        0.58823079686376,
        0.5415699449071749
    ]
}