{
    "idx": 700729,
    "fights": [
        {
            "enemy": 5,
            "fitness": 88.31466846406767,
            "player_life": 38.20000000000028,
            "enemy_life": 0,
            "time": 246
        },
        {
            "enemy": 6,
            "fitness": 39.81821644970792,
            "player_life": 0,
            "enemy_life": 50.0,
            "time": 178
        },
        {
            "enemy": 7,
            "fitness": 90.26814186652396,
            "player_life": 56.20000000000032,
            "enemy_life": 0,
            "time": 211
        },
        {
            "enemy": 8,
            "fitness": 87.53788162462297,
            "player_life": 33.40000000000027,
            "enemy_life": 0,
            "time": 331
        }
    ],
    "weights": [
        1.3823713875120007,
        0.3906993381101182,
        1.0340883701085573,
        -0.8813726446004668,
        -0.39447021974878127,
        0.8710052638870509,
        -0.6270116898966287,
        0.9201815301643227,
        -0.9722400184527356,
        0.555762437842311,
        -0.37317913578214035,
        0.6221066067400542,
        -0.5305807268209475,
        -0.6753796702438363,
        -1.105106698443441,
        1.1417151843559312,
        -0.17049260401002994,
        1.1980043145748303,
        -0.08524871761243091,
        0.3238856139904882,
        -0.4688707535332221,
        -0.0809541833207513,
        1.9308378183660748,
        0.4159501167359973,
        0.20853762459503805,
        0.6197311451823415,
        -1.4229470074235042,
        -0.37516777320298067,
        0.7278045650244764,
        0.02709374268629744,
        0.1222406375836273,
        -0.5043159158426668,
        -1.765841212318259,
        0.9154362517984193,
        0.4538873494033757,
        -0.019247578983947206,
        0.5257831893693032,
        -0.23810831305969016,
        -0.09843027787783173,
        0.017201709256590328,
        0.09430462427225456,
        -0.9684887205472679,
        1.2405970810734106,
        0.13159319418982718,
        0.07127567005073648,
        -0.9455088708835594,
        0.7210121447720015,
        -0.8655836967391525,
        0.25553891273226687,
        1.4908232772374386,
        0.8493758864457751,
        1.3728911908631196,
        -1.1946082267937106,
        -0.6976855561249293,
        -0.13848790093941074,
        2.4251436294649444,
        0.03416794235792392,
        1.3219691545899366,
        -1.4030874771162267,
        -0.24834333505664688,
        0.7511389300225303,
        -1.0233575680208722,
        -1.2396493663525838,
        0.5136659413603761,
        0.5024899312421893,
        0.23254530602332293,
        -1.0117271644357433,
        1.0931421879627665,
        -1.088954646335561,
        -0.5245426630720316,
        0.6961796320096774,
        -0.4002810743360533,
        -0.21699570313859978,
        0.5685674998935218,
        0.18375201774078032,
        -1.9034301411012995,
        0.34938167173394014,
        -0.7997679017206845,
        1.2960783414611057,
        0.6603750815813262,
        -0.05725206679380118,
        -0.0812522215379546,
        0.4021446897114112,
        0.20047385146916002,
        -0.10764360902496006,
        -0.1854075412307598,
        -0.7475856773833887,
        0.6030969156285522,
        -0.8260796069714988,
        -0.3377214307431437,
        -0.2953934493123672,
        -0.2877783127518532,
        0.06826963417500112,
        0.5177824979445501,
        0.3769927082978448,
        -1.1210255484345366,
        0.5710810648809626,
        -0.19888809460173082,
        1.6460263516262703,
        -0.7062565137601551,
        0.7393788024021123,
        -1.1079692347678236,
        -0.49646183008840006,
        0.14450606602933064,
        0.24305566418182195,
        0.36791370954311353,
        0.42398534828363366,
        -1.2341913757048284,
        0.3337786487758948,
        -0.2800234713210575,
        -1.5796879416745495,
        -0.08582352794382693,
        1.2005378282167518,
        0.13999130699076762,
        -1.250463304676016,
        -0.14909514737287707,
        -0.6108456455926379,
        -0.28114576570599714,
        0.2773782389503589,
        0.3663275964150858,
        0.6208897836337933,
        0.8554759992361518,
        0.41511289980236776,
        -0.5960760380571265,
        1.8358562792345712,
        1.1540892935614788,
        -0.020250836690011986,
        -1.1601393479359043,
        -0.3001329470271691,
        -0.8488704491094502,
        -0.7981467001397854,
        0.03636036276760424,
        -0.5304842893808156,
        0.4295151777026897,
        -0.8397607528589209,
        0.1410018143468859,
        -0.5929061351876561,
        1.3154898565617141,
        0.4961593512393411,
        0.23100062032321944,
        1.5689537989018274,
        0.8361549908416905,
        -0.18911276986512937,
        0.4059019662892495,
        1.6125155711762678,
        -0.5632957358459022,
        1.4247821878413192,
        -0.5730234092487548,
        1.8997327641885016,
        0.34491453466681504,
        -0.17672709823130456,
        1.0402019859698528,
        1.6577110052184223,
        0.2120011539630511,
        0.6985119629585109,
        0.7134452683643892,
        -0.07968356388017853,
        0.8621583998769692,
        0.7556091367847528,
        -0.1089133784701819,
        -2.3070828780333485,
        0.4949512196389279,
        0.5055604187784999,
        -0.5338472111099266,
        -0.0324471272628474,
        0.5655616280896747,
        0.10310483567676364,
        -0.2291909840847736,
        0.8025508407365025,
        0.10322499818598738,
        -0.7139252245633259,
        -0.30575813868001844,
        1.24900727492669,
        -0.6775910310962463,
        0.6586759371639351,
        -0.0046669821897814545,
        -0.17531988799561793,
        -1.6244293643144343,
        0.48712127388655063,
        -0.1856301413859357,
        -0.49380784543203926,
        -0.7762207476477371,
        0.26912223216509085,
        0.4638472048172497,
        0.6755502369231292,
        0.7107423520879482,
        -0.013467881996257591,
        -0.19716869898967126,
        0.8150467467138856,
        1.6173707728478228,
        0.6225201106821092,
        -0.2581029344844835,
        0.03305254353959286,
        -0.3499989688823679,
        0.10015168015157433,
        0.7564917593053813,
        -0.2851134910326222,
        -0.17425559779043298,
        -0.2642084883335652,
        -1.26757256709802,
        -0.7720199947223796,
        0.2521709891707873,
        -0.4432093759816281,
        0.3708560889734908,
        0.2485353719145335,
        -0.23988961119617233,
        -0.8880215062005371,
        1.623649818607955,
        0.985655909863206,
        -1.1485703012019595,
        -0.6429939298835693,
        0.1763177805406837,
        1.060189590862453,
        -0.13012792439586712,
        0.5608043758229335,
        -0.5867041959323546,
        -1.2074947572719223,
        1.1018519245591052,
        1.1141985289728196,
        0.31387668645817574,
        1.370176208487998,
        -0.7123964241134193,
        1.1811070667551584,
        0.4988910114071737,
        0.2786129268232832,
        -1.0976147419573061,
        0.12338999825884939,
        -0.8147490953279699,
        -0.029953058105576275,
        0.74782832028478,
        -0.9602564294304295,
        0.7261175052728455,
        1.2602321480581433,
        -0.4879289953902469,
        0.6706291083234457,
        -1.1764222888082605,
        1.473068585077766,
        0.9555105948160132,
        0.30717301954743004,
        0.0860222509300296,
        0.656427227786804,
        -0.3889414113969953,
        0.5015107546573118,
        0.9026336805074637,
        0.005139925060403172,
        0.7552667586241973,
        -1.2257868875151774,
        -0.078967771087341,
        -0.01913265473788761,
        2.7125119927499206,
        0.5707514050745037,
        -0.7057344297563409,
        -0.37800974282800176,
        0.7965632264546195,
        -0.4505696583935132,
        -1.6883420192044092,
        1.1595446192996801,
        -0.26286997722465716,
        -0.2617413281800599,
        0.09263241642532338,
        0.66209630473088,
        -1.6587164371152672,
        0.15661577504125196,
        0.9356958276871139,
        0.5225074167886145
    ]
}