{
    "idx": 702525,
    "fights": [
        {
            "enemy": 5,
            "fitness": 89.00528862039819,
            "player_life": 46.0000000000003,
            "enemy_life": 0,
            "time": 269
        },
        {
            "enemy": 6,
            "fitness": 39.84670840550222,
            "player_life": 0,
            "enemy_life": 50.0,
            "time": 173
        },
        {
            "enemy": 7,
            "fitness": 90.75679627126205,
            "player_life": 60.40000000000033,
            "enemy_life": 0,
            "time": 197
        },
        {
            "enemy": 8,
            "fitness": 87.43935834262663,
            "player_life": 32.80000000000027,
            "enemy_life": 0,
            "time": 344
        }
    ],
    "weights": [
        0.5043915809931985,
        0.5303220470999679,
        0.665177891404186,
        -1.1230822211688607,
        -1.142188002572909,
        0.21576223757749902,
        -1.274268277015528,
        1.2592630638288638,
        -0.6412865938631516,
        1.4705055082172542,
        -0.47568569234775776,
        -0.5786206946920165,
        -1.0206419147219248,
        -0.23020035810095646,
        -0.9563422554302409,
        2.6904181062972774,
        0.6833890317325276,
        0.6478552717610677,
        0.40820698087479634,
        2.0751405472225115,
        -1.4386819329047742,
        0.5175694429974609,
        1.7125694983523643,
        1.3000755254403236,
        0.7305637815969217,
        1.5350610547855952,
        -1.6725379838090393,
        0.4132520902760056,
        0.8949947240813647,
        0.4506810529595643,
        -0.5418816433242735,
        -0.48164482053593344,
        -0.6276042283734445,
        -0.6339756550456898,
        0.9994334937976691,
        -0.6000928540664769,
        0.2527155978561013,
        -0.5048937466961863,
        -0.1198528930137798,
        0.6364597634981132,
        -0.8197173013030907,
        -1.0910102253674736,
        0.6529334593919229,
        0.6936089449374699,
        -1.9250712759273318,
        -0.5636010665481416,
        1.914107384558385,
        -0.44391076771587756,
        0.1187194391717287,
        1.3755636764378292,
        -0.42537869516393106,
        1.335067396552389,
        -1.5179991785494047,
        -1.0915192150711097,
        -0.47440912885760067,
        0.9678547821421805,
        0.1594404603825697,
        -0.3437468640046324,
        -2.2936141695665673,
        0.40545471897893354,
        0.6877914856590676,
        -0.7744474949954493,
        -1.001184098921452,
        0.4726523590758072,
        1.1490367026786923,
        0.6199655708660707,
        -0.8223572981739826,
        1.4843961262281464,
        0.03163857175957164,
        -0.11646664435605461,
        0.03172652366196964,
        -0.8395539042618247,
        -0.4196514994635941,
        -0.15220028550036174,
        0.25593391772920465,
        -1.470458133598516,
        0.14667666012272554,
        -0.04012497628807907,
        1.2142292948484674,
        -0.2625715722385727,
        0.06167069316260461,
        -0.19661613742535516,
        0.32047918404194764,
        2.1192306411926687,
        -0.23801514463658335,
        -0.8885240108945304,
        -0.14773907299282524,
        0.7471987355463665,
        0.21360708083685828,
        -1.2713240441538012,
        -0.5314638346314715,
        -0.386755861005732,
        -0.2724126549561887,
        -0.22255763224293434,
        0.6378730374476854,
        -0.8238808264205417,
        -0.7248124103474197,
        0.3856120645765379,
        1.375296212245579,
        -0.7596349060873043,
        1.6026977550260266,
        -1.8993146606750524,
        0.7111053741125017,
        -1.038755825578556,
        0.25089687729157134,
        0.8584576319002933,
        -0.10798697917337105,
        -2.007531890195523,
        0.7490321932686252,
        -0.460092570605688,
        -0.828957966394494,
        -0.6131108816221905,
        0.7479883080316324,
        0.03524390188031411,
        -1.0626932594981087,
        0.30953232767387956,
        0.9994461007264073,
        -0.6483689383174939,
        -0.0759894282186516,
        0.5222574819495378,
        0.28445998075249784,
        0.6242366935400816,
        0.5638647560067599,
        -0.7193764794337502,
        1.3876516548374458,
        1.9643291862561185,
        0.3456110290768919,
        -1.025302279744544,
        0.07249253687904599,
        -0.06770635572969567,
        -0.22423891378038238,
        0.44199826702555534,
        -0.2479536706401695,
        -0.6229244998278504,
        0.907103530771122,
        1.0482824095117311,
        -0.18143774037643218,
        1.2864377913038367,
        0.5035906206318852,
        -0.7020645957609755,
        0.9226658936552447,
        1.0818098314628566,
        -0.9091992960054688,
        -0.2836798952406543,
        0.3364018410885501,
        -1.100821278584028,
        1.3881965798559102,
        -1.474862017154753,
        1.1515916751831172,
        -0.25993073714619574,
        0.004825368715480859,
        1.3648030361726895,
        1.6259084414935099,
        0.8891512026423983,
        1.4630780148758793,
        1.171134232833184,
        0.05346543012855965,
        0.5223134381155774,
        0.9797280256557834,
        -0.6356852777279398,
        -0.9008083251944999,
        -0.11080072512052272,
        0.18217436457866162,
        -0.4958462210363825,
        -0.33240897169247674,
        0.3329910127926816,
        0.24301851836619096,
        0.6882195549655622,
        0.5691036490862487,
        1.1142733926336912,
        -0.25151800490427323,
        0.17191254612189358,
        0.3524100472737545,
        0.7433323418386103,
        -0.02914928540754051,
        -0.7032137951193304,
        -0.18380810927334545,
        -0.6035575096473053,
        0.7801751416841202,
        0.07595749559303071,
        -0.48950774572050737,
        0.5001175952392922,
        -0.49289781143197964,
        0.8556874690122758,
        0.12963487961280218,
        1.047641392744142,
        0.29431292120070096,
        -0.6588244816486168,
        0.02186931126727458,
        0.5747879955680246,
        -0.09772489466193153,
        -0.2608368624358214,
        -0.20046153454913881,
        -0.15191937684265427,
        0.5450111228530484,
        0.8674663915502699,
        0.30021994055683654,
        -0.21269404528527794,
        -0.9734104253608576,
        -1.6378465595742246,
        -0.7461427042847584,
        -0.8219910905665541,
        -0.27198698099224833,
        2.04945409422233,
        0.18905595307634138,
        -1.2191645003709353,
        -1.3611437536654234,
        0.835091381530946,
        0.7023774969095385,
        -1.7884157166875392,
        -0.09698916676290509,
        0.512225538047854,
        0.6335240840423738,
        -0.6558165132373477,
        0.7809902786284527,
        -0.5977948585627678,
        -2.2994714551434896,
        0.32371429232035104,
        1.0556457820071492,
        0.44027785503677097,
        1.1250388932759159,
        -1.152213529953932,
        1.2129258701813141,
        0.24305512942147084,
        0.2224883982422594,
        -1.3488474003896802,
        0.690201080397181,
        -1.0062705011619988,
        -0.23251581666733828,
        1.9321780068879217,
        -0.915766434268782,
        1.3460134025730888,
        1.1831137659949829,
        -0.024839508673968724,
        0.43356271415603664,
        -0.3316529972658793,
        0.5252620400152055,
        1.1802864070598764,
        0.8309427934055675,
        -0.711599507776241,
        0.8136503111582502,
        -0.036414071263605095,
        0.6265544603236339,
        0.7766104306009939,
        1.322945387902046,
        1.1724211578191668,
        -1.0636686056496858,
        0.0325879682774847,
        0.7366258649158552,
        0.3876465491985819,
        0.8694077098518391,
        -0.6435997561074613,
        0.9903420626385383,
        -0.36354966023347307,
        0.7757955667679607,
        -1.425883122163587,
        0.07798164599541388,
        -0.8589526306162545,
        -0.06027341561996585,
        -0.379495254638884,
        0.21961383015012279,
        -1.0092141095448757,
        0.6080043923096686,
        0.7312435765550305,
        0.4926916238014958
    ]
}