{
    "idx": 702913,
    "fights": [
        {
            "enemy": 5,
            "fitness": 90.81650369121833,
            "player_life": 64.00000000000034,
            "enemy_life": 0,
            "time": 266
        },
        {
            "enemy": 6,
            "fitness": 48.68188000615579,
            "player_life": 0,
            "enemy_life": 40.0,
            "time": 204
        },
        {
            "enemy": 7,
            "fitness": 91.17679627126205,
            "player_life": 64.60000000000034,
            "enemy_life": 0,
            "time": 197
        },
        {
            "enemy": 8,
            "fitness": 88.8796882233926,
            "player_life": 46.0000000000003,
            "enemy_life": 0,
            "time": 305
        }
    ],
    "weights": [
        0.3523737072932027,
        0.3981787587229274,
        0.48294930551754267,
        -1.2771156474634067,
        -0.9977875784628203,
        0.5624810359831818,
        -1.4067039939110113,
        1.017672469196754,
        -0.6383793173313261,
        0.913751321099621,
        -0.8840942577375456,
        0.7875050867087037,
        -1.100695809563404,
        0.27021053932911754,
        -0.4668209234461398,
        1.5147622290145712,
        -0.48263657864592313,
        1.1009250284436036,
        0.06007607098745174,
        0.8139689295037702,
        -0.8913434930308723,
        -0.29359727379611444,
        1.794952630877668,
        0.36018329955323675,
        0.3372357512369704,
        1.7439683615879495,
        -0.9668696853346667,
        0.1520776891786705,
        0.9181683022230168,
        0.2422760521798809,
        -0.5550949838001066,
        -0.5385403812488841,
        -0.8927441168359901,
        0.48080660301420813,
        0.9333801005544162,
        -0.5924212220054472,
        0.43152183037935626,
        -0.5861712966784675,
        0.11281510036575343,
        0.603047491299428,
        -0.1502101480027404,
        -0.9290212918226705,
        0.8036464944672171,
        0.23459173381812878,
        -0.09901598931664857,
        -0.00835954039425102,
        0.5754253985454935,
        -0.4335262543125641,
        0.32099452350103946,
        0.5826681257994291,
        0.02787274626389441,
        1.27879747740952,
        -0.9706319854511032,
        -0.9495345098508992,
        -0.09670307265682263,
        1.7999954911019893,
        0.5250726910327714,
        0.03491722145539805,
        -1.41080814206312,
        0.10117999366149075,
        0.9682444542576809,
        -1.2908793568255619,
        -0.521453404646667,
        1.6711946367562245,
        0.7328433568399638,
        0.8819173061940764,
        -0.38187250633481423,
        0.9168875397676226,
        -0.27273802308418044,
        -0.803679594806371,
        0.19745162584442863,
        -0.059528762728324025,
        -0.4945131385531344,
        0.5439168900402893,
        -0.2606588001117644,
        -1.4479439258772269,
        0.13219281451634324,
        -0.7021441337466682,
        1.341938555918983,
        0.7794535468899513,
        0.45686097293696076,
        0.22030731591596636,
        1.6339468577663703,
        0.20737826574670065,
        0.01992520071895192,
        -0.6065035101355961,
        -0.3245438330555641,
        1.1136495470929613,
        -0.04791459037728389,
        0.6707234722089507,
        -0.317272477772378,
        -0.9008590795521634,
        -0.4309048406278088,
        -0.15894139511532493,
        0.3109093041613649,
        -0.27417262570062273,
        -0.08821999442510393,
        0.28147990461476097,
        2.1460239610763114,
        -0.8723113801072178,
        0.9111532362060987,
        -1.584684618601818,
        0.12332378460399325,
        -0.7319121246978804,
        0.6039796272540359,
        0.41577579822892274,
        0.43979874043742617,
        -1.5693569352322732,
        1.564841012485652,
        -0.28666558652379703,
        -0.8456271642607239,
        0.04814986987844661,
        1.113339480140514,
        -0.409255185216036,
        -1.641162324528432,
        -0.9115219725133079,
        -0.36368877658591064,
        -1.0646210978496167,
        -0.4150961246775185,
        0.6228686935516242,
        0.24345463579720727,
        1.1032548224294847,
        1.046133696396407,
        -0.7889883045950118,
        1.1764264279198182,
        1.011092863379428,
        -0.3113568163062839,
        -0.505266052260287,
        -0.2713708656808379,
        -0.9145942571395903,
        -0.24705744165188895,
        0.8262098058690899,
        0.047325397450900586,
        -0.19032647083679616,
        -0.08529391754540452,
        0.14050019689056678,
        -0.516219621399063,
        1.5948349343557258,
        0.6002404509372364,
        -0.002470529952220246,
        1.2482222553324058,
        0.8132150392603531,
        -0.7427038171474676,
        0.5284145762390358,
        0.7797723709286398,
        -0.42571871762892144,
        0.9167036579538383,
        -0.5049806758829022,
        0.3786526857960088,
        -0.5563277741447842,
        -0.1858571667541543,
        0.837408653085991,
        1.5915028110399947,
        -0.20683206632806792,
        0.696131679861461,
        0.3355606885144518,
        0.4628771852342319,
        0.16664576362791994,
        1.1753911456254178,
        -0.32146583245909,
        -1.1388639642078564,
        0.6456395089990256,
        -0.05657837283054458,
        -0.27985544401951296,
        -1.3985251639978418,
        0.8362043533967736,
        0.4918666888320809,
        -0.09537653756353004,
        0.4470408787998594,
        -0.16315406213881714,
        0.2921458950052389,
        0.05815662714177553,
        0.7063898018224589,
        -0.41610116644988926,
        1.3758872346590305,
        0.06178331660460301,
        -0.13820472797316063,
        -1.2129230798554178,
        0.2783710474475294,
        0.2622745370010907,
        -0.6613441567640971,
        -0.9033455283241392,
        -0.20348385806221458,
        0.6222011676148903,
        0.29924400633293036,
        0.8858706613458343,
        -0.33984337472833215,
        -0.7137607539150882,
        0.1540405845667215,
        0.49840277560949575,
        -0.3498342707271892,
        -0.2370437490177107,
        0.3443073985837501,
        -0.8312597010115864,
        -0.05881851765811302,
        0.7470851027855444,
        0.05355200325637606,
        -0.7549093656333632,
        -1.046720611473579,
        -0.5814801046668887,
        -1.5553676795335993,
        -0.9204749773822801,
        -0.4704432167631555,
        0.6770188729790755,
        -0.15757630653106725,
        -0.5813589328055396,
        -0.8734687995593973,
        1.052176106673413,
        1.0763608492772794,
        -1.2770798768681866,
        -0.45451956555920275,
        0.6118545686895134,
        0.8133605836910501,
        -0.6653066300856845,
        1.1440008477974526,
        -0.8556689928516306,
        -1.2250779848799533,
        0.7902636519914409,
        0.3966603437659383,
        -0.24668633443781035,
        1.2461632956886273,
        -0.6800005195029442,
        0.5908131950346254,
        -0.3670082094201826,
        0.23776770309621464,
        -1.4560612384282217,
        0.6084082608139971,
        -1.2226349859323764,
        0.1799898321138791,
        0.3296773564800497,
        -1.0637412917693791,
        0.5405492026770434,
        1.8235848203199323,
        0.3147239277354047,
        0.8816061325650834,
        -0.44231268985340483,
        0.8317561299505842,
        -0.17877123900549086,
        0.09057353339506641,
        0.007906059676489718,
        1.1018448297139982,
        0.10814208691957783,
        0.2999419747066741,
        1.4872511847045757,
        0.09763357664205892,
        0.06921060587054709,
        -1.1862305036635155,
        0.4647531157661339,
        -0.12387386459371652,
        2.327131022683124,
        0.8928693919705104,
        -0.8168521569614212,
        -0.06226076026556414,
        -0.11077764834224964,
        -0.008400206092523899,
        -1.5168820633168394,
        0.10540398339434398,
        -0.3200035486114189,
        0.3087441224018138,
        -0.15292735373310773,
        -0.08130725542843434,
        -1.0071088521642808,
        0.4089733330816887,
        0.39567447643590514,
        0.17268657354438244
    ]
}