{
    "idx": 704412,
    "fights": [
        {
            "enemy": 5,
            "fitness": 90.28027017401381,
            "player_life": 58.60000000000033,
            "enemy_life": 0,
            "time": 265
        },
        {
            "enemy": 6,
            "fitness": 75.19486503108351,
            "player_life": 0,
            "enemy_life": 10.0,
            "time": 332
        },
        {
            "enemy": 7,
            "fitness": 88.53289246928256,
            "player_life": 38.80000000000028,
            "enemy_life": 0,
            "time": 210
        },
        {
            "enemy": 8,
            "fitness": 88.81968822339262,
            "player_life": 45.4000000000003,
            "enemy_life": 0,
            "time": 305
        }
    ],
    "weights": [
        0.5246477282178454,
        0.6924534854963925,
        1.1623116549157544,
        -0.14180488607619582,
        0.0409360868791942,
        0.644681892723352,
        -0.5516745523496349,
        0.9732639767175764,
        -0.9124720738474398,
        0.7673799875992549,
        -0.8692800213960464,
        0.41166143900564245,
        -0.8933104262154754,
        -0.4560324002130121,
        -0.3905686690726027,
        1.8983495048651535,
        -0.4233703795109658,
        1.7076716911617502,
        0.4290034351849535,
        0.8088388299956096,
        -0.33467268905132297,
        -0.03254213881605396,
        1.798096022615437,
        0.4757320097612754,
        0.29970881772383534,
        1.4701136745555101,
        -0.752830291792705,
        -0.0963110612800764,
        0.07156597890654884,
        0.6410280307628639,
        0.004757036399414327,
        0.12857216497021962,
        -1.5295375356800955,
        0.948433421559476,
        1.0775637389895079,
        -0.5644720671950517,
        0.18946545171644752,
        -0.8437800052675274,
        0.5325353916287923,
        0.2034980506625498,
        -0.5997298085124723,
        -0.5244551747885359,
        0.6781245359002237,
        0.2993037595226878,
        -0.24218855094080544,
        -0.8297324868482929,
        0.47098769114421946,
        -0.2252851127845229,
        0.60370828328157,
        0.655197557376892,
        -0.09735436057491922,
        1.123557110526616,
        -1.1547611909138673,
        -0.688952567394872,
        -0.292241393159934,
        1.6130780760311634,
        0.010919678521386679,
        0.37917110989530706,
        -1.3009250106291348,
        0.48949518488903726,
        0.8368169032329845,
        -0.8933742246688244,
        -1.4545710134282672,
        0.657419988403208,
        0.3854120025020818,
        0.5609376281737413,
        -0.4226506557663876,
        1.191386385061261,
        -0.2512862388973826,
        -0.005123476001917516,
        0.46650496334602676,
        -0.45447164964363873,
        -0.47795712482997565,
        0.2372421471504132,
        -0.36914359997600005,
        -2.0377608601162307,
        -0.03957852775047706,
        -0.49860362288791216,
        0.8245424958552544,
        1.0767972591385016,
        0.5788943316625127,
        -0.022974803972814824,
        0.4645805874848684,
        0.28430805057640535,
        -0.1278606073397822,
        -0.19351361359496688,
        -0.15515909814640425,
        1.1841453196163776,
        0.24196010027816142,
        -0.2177248943951493,
        -0.371115248935992,
        -0.48083485448508045,
        -0.32044288936199794,
        -0.43429953215304284,
        0.6108358690431924,
        -0.43203370101070804,
        -0.3040631252755747,
        -0.10130765046354934,
        2.3050709567753564,
        -0.9150657492053292,
        1.32247505151903,
        -1.6065813102547875,
        -0.23757623321012133,
        -0.40236275282014,
        0.702083908443369,
        0.5261907974101788,
        0.4454262536527155,
        -1.323750144779954,
        0.9176711813383555,
        -0.42531089530214006,
        -1.0559937800916201,
        -0.23656702269918523,
        1.044305363088879,
        -0.056271655298118554,
        -1.0656166764186217,
        -0.18978870326238745,
        0.6042810338646725,
        -1.1218084221248563,
        0.20884672008437577,
        0.747143784928459,
        -0.00299622211861994,
        2.0491567057172517,
        0.3031895120276699,
        -0.8095951393598467,
        2.134821173102067,
        0.9833706956564621,
        -0.2756864595629951,
        -1.0222834154238867,
        -0.45723855341392944,
        -0.3156955934772414,
        0.02046112678133128,
        0.043818664100675815,
        0.09346041990573956,
        0.2694578328599741,
        -0.24485026494376982,
        0.46390552827258486,
        -0.2714617072699063,
        1.5844172241341532,
        -0.0951762735701456,
        0.22612661988519334,
        1.0604380712813632,
        1.2855732311055645,
        -0.37107742163460655,
        0.43868469636739355,
        0.6818881466299747,
        -1.0203167720700732,
        1.4089492338621448,
        -0.21275263771619501,
        0.579651408745328,
        -0.15893964748075456,
        -0.4391426095632105,
        0.9238534662761217,
        1.5369769756520757,
        -0.6295485267998103,
        1.1781055237019118,
        0.4970369979461459,
        0.4726148798659704,
        0.7717035069553042,
        0.53294472430211,
        0.18363217884820082,
        -1.079527489099859,
        -0.08352655832488907,
        -0.024111223263698522,
        -0.696445125190611,
        -0.4634442328675371,
        0.9251874424421797,
        0.1321454975107481,
        0.4448289307184661,
        0.5405856241951219,
        0.14311030864948443,
        0.02700773874695812,
        0.28482439820750066,
        0.029372638540611805,
        -0.12955219036360982,
        0.4970239037130916,
        0.1590819901733344,
        -0.36275780540921265,
        -0.20507996743913992,
        0.3205789454132447,
        -0.2513556713487413,
        -0.8752341877989939,
        -0.8884279321800861,
        0.00431426063699171,
        -0.21345744331605093,
        0.33664454749828754,
        0.7878493353537654,
        -0.15784734009905688,
        -0.5953164001424586,
        0.1832891133425687,
        0.317442460391002,
        0.38548757574435055,
        0.08846276202939746,
        0.5071644699839745,
        -0.24257508796071625,
        -0.23393453935314792,
        0.8142190668718715,
        0.28601208230530756,
        -0.532954018247633,
        -1.1321024044694763,
        -1.393190924495486,
        -0.9695965090078945,
        -0.8745882897083107,
        -0.3446060901440108,
        0.3916471098020014,
        0.18176625310731978,
        -0.7977777565269558,
        -0.821756888561685,
        0.21527550649465602,
        0.6579172555395544,
        -1.3723052995420177,
        -0.24580055982065274,
        0.5739967453833578,
        0.7212650464806984,
        -0.08920223503286358,
        1.1934071812128435,
        -0.22137089217188044,
        -1.1387526872980709,
        0.8824102008859455,
        0.5284192462760623,
        0.5528912411306757,
        1.5013731153359935,
        -1.1831730567899137,
        1.052557033140414,
        -0.08774138481384933,
        0.44098956104086495,
        -1.080752309961844,
        0.8563653397415242,
        -0.33276373533265396,
        0.30626007746750783,
        1.0437953196074292,
        -1.399427944043238,
        0.6272547515339981,
        2.545396606314511,
        -0.05881459909827562,
        0.3978259785917477,
        -0.9610074255362056,
        0.8498768202992877,
        0.12298015633952189,
        -0.1508218420767852,
        0.06732470264158899,
        0.6624058681133345,
        -0.411881999983052,
        0.49958386041184233,
        0.507471190250976,
        1.244751572472603,
        0.6886889618950468,
        -0.7764953181815926,
        0.03039823955305808,
        0.043273263398172994,
        1.2531478502210127,
        0.3181106089893522,
        -0.20544459836234236,
        -0.18930953723034394,
        0.20641301500136178,
        -0.28677984866010336,
        -0.6448406594529729,
        0.28047643664978017,
        0.40019594353815535,
        -0.28620617522968705,
        0.024588451938054506,
        -0.07147443548899673,
        -0.9276402836280735,
        0.6318649324935138,
        1.2777649503426414,
        0.5790538979595419
    ]
}