{
    "idx": 703066,
    "fights": [
        {
            "enemy": 5,
            "fitness": 88.83480889721518,
            "player_life": 46.0000000000003,
            "enemy_life": 0,
            "time": 319
        },
        {
            "enemy": 6,
            "fitness": 85.73165549623893,
            "player_life": 13.00000000000023,
            "enemy_life": 0,
            "time": 262
        },
        {
            "enemy": 7,
            "fitness": 30.64341372532799,
            "player_life": 0,
            "enemy_life": 60.0,
            "time": 212
        },
        {
            "enemy": 8,
            "fitness": 90.07936107665805,
            "player_life": 55.60000000000032,
            "enemy_life": 0,
            "time": 240
        }
    ],
    "weights": [
        0.4161143254550542,
        1.063910379388993,
        1.213699278361061,
        -0.9840956678808115,
        -1.2609729655837212,
        0.1247766494391413,
        -1.5221879085998262,
        1.6055598409473562,
        -1.1311716458621701,
        1.567127998898322,
        -0.4366242478408418,
        -0.688564184127606,
        -1.4869426556680658,
        -0.3157975019126071,
        -1.0242790958542853,
        2.4334562278110097,
        1.133351118507325,
        0.5399357529004751,
        0.01175834170756683,
        2.5151132543921033,
        -1.4823630327709965,
        0.3919740401101075,
        1.542758357842774,
        1.1896103820938735,
        0.7690691448014607,
        2.3660614811685985,
        -1.4623011151299787,
        0.6669877839102204,
        0.9302707798166111,
        0.9665530924250844,
        -0.6065609232731163,
        -0.6632633130468859,
        -0.8186732543815773,
        -0.23101078492665736,
        0.8544928891987268,
        0.07992221725294171,
        0.1590636414911044,
        -0.7357353316077337,
        0.16610188356908065,
        0.5891272691114898,
        -0.18979022611986002,
        -0.938725766201155,
        1.4478204106645833,
        0.7905425695605969,
        0.0754218333205268,
        -0.20856245396100664,
        1.3966688889014538,
        -0.22057720968098904,
        0.23412257042304677,
        0.7672127448691974,
        -0.568276396168337,
        1.742958223305497,
        -1.6775007944773144,
        -1.1752485058602746,
        -0.5176724690050358,
        1.1018056145992472,
        0.37191049584959796,
        -0.19556182463841343,
        -2.172052535954636,
        0.80331131762576,
        0.9364496791240058,
        -0.663012714003476,
        -0.5132419058255769,
        0.34250040019987477,
        0.5827464166477511,
        0.47225833552471735,
        -1.218066329270385,
        1.309424337859506,
        -0.5138749490197334,
        -0.5217674702318876,
        0.4922057592551364,
        -0.5545067434196026,
        0.05290223611953912,
        -0.16753276957017232,
        -0.6094404137693448,
        -1.4575787208215853,
        -0.23806867651964692,
        0.0892731050163079,
        1.09581782749328,
        -0.24538650372027626,
        0.22858991136028106,
        0.051786441382468,
        0.321552707649927,
        2.4237584823720466,
        -0.25154437646820016,
        -0.7824994600968375,
        -0.4124869537996365,
        1.1268150375345876,
        0.4896337330568505,
        -1.1314582462308826,
        -0.7121085676594141,
        -0.39843428117589497,
        0.09370248564460368,
        -1.1218837723344832,
        0.8969083159276796,
        -0.5183195064797174,
        -1.0356979885644169,
        0.17135881075811762,
        1.5732651797013515,
        -0.7885970040595168,
        1.5236158104947353,
        -1.8641743007816085,
        0.5915512818429821,
        -0.8320762262095955,
        -0.043867913530392065,
        0.8260434301667103,
        0.20867772242396004,
        -0.7676399377422172,
        1.0484508235880237,
        -0.8470897440818808,
        -1.2929078873495516,
        -0.1995945812093368,
        0.959327510234067,
        0.38206877227634156,
        -1.8244338965617284,
        0.3877744383140361,
        -0.06522313777120584,
        -0.37829406672504207,
        -0.03957305227780486,
        0.3689004987050475,
        0.210204274498055,
        0.3594931178474023,
        0.42686374173785036,
        -1.0616692383168391,
        1.338366194742277,
        1.8827735500987526,
        0.790555205009231,
        -1.330203571120985,
        -0.12081696473320448,
        0.1778977512714569,
        -0.3222141110534462,
        0.8618718789829085,
        0.3990507027471929,
        -0.018226389842096735,
        0.507505389778151,
        1.023520306265734,
        0.10665226381772881,
        1.7043292953851787,
        0.24963752517162757,
        -0.8309432915762046,
        1.455716895206995,
        1.5895677121612408,
        -1.1062019128277778,
        -0.07198600257305851,
        0.6930125031522973,
        -0.589035257112259,
        1.1986492065342542,
        -1.7295055672144488,
        1.3635804320250464,
        0.3214350769444423,
        -0.1285547047962731,
        1.7240909069479031,
        1.48145485728134,
        0.4239491972792628,
        1.398686608939712,
        1.2435352023635458,
        0.27408448869093405,
        0.6152940838621574,
        0.6841271167187264,
        -0.1732034707605948,
        -0.8321371683624579,
        -0.11952273664787957,
        0.23602693426008703,
        -0.5930483167735253,
        0.5764829613778008,
        -0.32388287123268844,
        0.6535158922143323,
        0.494228394446746,
        0.4626951743232128,
        1.0350224217410682,
        -0.053641381453756236,
        0.512799170157701,
        0.49676284807015036,
        0.5869322928801546,
        0.5794641640035971,
        -0.7595199228250666,
        -0.4539826294405232,
        -0.796654992116718,
        0.262231987584562,
        -1.0000286681610662,
        0.04677085947831042,
        0.49046852654823,
        -0.5913874944163268,
        0.5286624363467186,
        0.2753100944465127,
        0.8358786745198297,
        0.6817331937300765,
        -0.7796284706438495,
        0.08616361789885438,
        0.8651201224851962,
        0.1849505386803415,
        -0.33139447094330166,
        0.03416846572658966,
        -0.21907268596256008,
        0.13247885800320547,
        0.9477596513160063,
        0.30092320637357894,
        0.3796706966335537,
        0.1575688539099538,
        -1.6254736608946705,
        -0.3152777886402752,
        -0.1618322519961154,
        -0.017525171072739088,
        2.0012318972626715,
        -0.48492479400003563,
        -0.9492069872057103,
        -1.3072660123023994,
        0.7314745011218253,
        0.9357784445340886,
        -1.7186240566026225,
        -0.14182748623020267,
        0.9595832946852463,
        0.5392464606106879,
        -0.4858827023169948,
        1.0384449209701707,
        -0.953219055602221,
        -1.255686559441009,
        0.25963179391991953,
        1.0051150923900807,
        -0.02242924713607984,
        1.4727673887156962,
        -0.9362366870170847,
        1.3205503737686615,
        0.6596920900961177,
        0.1640937600742656,
        -0.8939334297230191,
        0.7036012477366119,
        -0.7478175677619263,
        -0.17922591226972254,
        1.570762541479855,
        -1.2712027292556725,
        1.1105233430092878,
        1.2051019032148593,
        0.3742650253661106,
        0.47535627030281696,
        -0.5382419639318732,
        0.8262776667477933,
        0.6516660499924705,
        0.7218838657117874,
        -0.9589089930859154,
        0.5098846271654498,
        -0.022169480963348025,
        1.0929642915489224,
        0.9198966581716063,
        1.2109230854409454,
        0.7067773780676608,
        -0.8945063996511604,
        0.4665684345082326,
        0.9975385567156219,
        1.387635469667406,
        0.5191428953793689,
        -0.5793439177152512,
        -0.22805184470871942,
        -0.08505916813358966,
        0.8704243977435984,
        -1.3709498703454017,
        -0.15950142790339605,
        -0.22888560631020566,
        -0.08016386634883099,
        -0.43591862502749495,
        0.08273056260457443,
        -0.8416739207517914,
        0.6954244298279526,
        0.7124013890883434,
        0.38615278813363285
    ]
}