{
    "idx": 712476,
    "fights": [
        {
            "enemy": 5,
            "fitness": 85.13297711225776,
            "player_life": 12.40000000000023,
            "enemy_life": 0,
            "time": 449
        },
        {
            "enemy": 6,
            "fitness": 39.470570912488576,
            "player_life": 0,
            "enemy_life": 50.0,
            "time": 252
        },
        {
            "enemy": 7,
            "fitness": 90.01669509194096,
            "player_life": 53.200000000000315,
            "enemy_life": 0,
            "time": 201
        },
        {
            "enemy": 8,
            "fitness": 89.94322890233346,
            "player_life": 55.60000000000032,
            "enemy_life": 0,
            "time": 275
        }
    ],
    "weights": [
        1.1508578847120534,
        0.8844546522991931,
        0.5202855564713427,
        -1.0417656854088921,
        -0.6086548036959041,
        0.42782945297013797,
        -1.155281495497758,
        2.036170757361724,
        -1.1420112127590358,
        1.3000783733913792,
        -0.40635256370378314,
        -0.8373981815187872,
        -0.8580626353297667,
        -1.0548789631240907,
        -0.44865851302757487,
        2.8460199204802135,
        2.2362216792800518,
        2.4731743222352756,
        0.5727813912680209,
        2.0620366382303787,
        -1.2747313978271728,
        -0.2502039053501241,
        1.2472082665033148,
        2.1106182297068825,
        0.638407342728688,
        1.3222829822266393,
        -1.571502589465873,
        0.45476671786113104,
        1.3737708242981597,
        0.8329653849629768,
        -0.29927018373022934,
        -0.9832504218767613,
        -0.5694211301544239,
        -1.246997800151767,
        0.9631396748978136,
        -0.22787088848250536,
        0.7218608176944981,
        -1.1723098986304035,
        -0.34046933416331077,
        0.511200527817597,
        -0.6211845965375443,
        -0.6095006806842991,
        0.5544108449747669,
        1.1347616916157084,
        0.7080842303414162,
        -0.4395605984794794,
        1.0208234306574435,
        0.30433981181576575,
        1.0794948988440038,
        1.1591930212184336,
        -0.9098302029688012,
        1.5693081219100193,
        -1.6655252334577286,
        -1.5133214784117985,
        -0.7010407841101138,
        1.5831741396783792,
        0.41303935535388064,
        -0.4686544168110119,
        -2.308842167048559,
        -0.16624917710542836,
        0.41470683836558353,
        -0.934587308532673,
        -1.7327920741945095,
        0.6451704397443602,
        0.970624881452557,
        0.7728916714006034,
        -0.5991334683208146,
        1.2705832158543144,
        -0.4983126840869745,
        0.3654729471564243,
        0.918588240322581,
        -0.047602209446522416,
        -0.18286065483139355,
        -0.023404436310928686,
        0.33710123071257114,
        -1.0695510935889765,
        -1.0984407636619564,
        -0.3811408255569441,
        1.3229859124679724,
        -0.31838408519708744,
        0.9513539237704428,
        0.7093267629433652,
        -0.12503963595354098,
        2.664752631212798,
        -0.49438411202481886,
        0.1339493218934788,
        -0.009839901207128965,
        0.9609258996551241,
        0.3642503235799064,
        -1.6027238545104554,
        0.3674616366955866,
        -0.5577588981547043,
        -0.17419539305893122,
        -0.7136585876812865,
        0.3646034934300776,
        -0.629700243393988,
        -1.1590091313965345,
        -0.07798300862085439,
        1.5279198317356855,
        -0.584761316319321,
        1.553166038111379,
        -1.2142002376641217,
        0.4435658864781671,
        -0.34630358648540693,
        0.87211664990555,
        1.244905693254311,
        -0.17157827543984538,
        -1.2273312113586405,
        0.8906045412392556,
        -1.0375244676389443,
        -0.14200247292066487,
        -0.9236529557963951,
        1.084259231976945,
        1.0541643836524848,
        -0.608649029026321,
        -0.2699487429720028,
        0.07724803762224433,
        -0.718400366513296,
        0.3807737491870466,
        0.7311810636270593,
        0.48196721440963636,
        0.42293928140027304,
        0.3011199545824788,
        -1.9427276775588433,
        2.60322614950036,
        0.8620230402693818,
        0.3634428611763912,
        -0.4557373895608544,
        -0.668359584092054,
        -0.1794290906570123,
        -1.0097401719379213,
        1.019261674854582,
        0.959758008615306,
        0.6326038948731526,
        0.9333524180106372,
        0.8770954169399147,
        -0.1637279359315631,
        2.371643635241162,
        0.40627141439312064,
        -0.5088000517973574,
        1.1696415262160245,
        1.1889412886323747,
        -0.5448808589146795,
        1.3072301901959766,
        -0.09254629070057122,
        -0.7025033862238733,
        0.5518336055927189,
        -1.1445576583220287,
        1.3544674245294965,
        -0.002012008419283,
        -0.09565489629991934,
        1.6415481429329961,
        1.474881436347372,
        0.5056067303453428,
        1.6991239873293227,
        0.5184326748172666,
        -0.5098490136922373,
        1.7022722806656898,
        1.2713704219658244,
        -0.29439425870809793,
        -1.8958194291500654,
        -0.51925243300469,
        0.41769284950226215,
        -0.39279571712871497,
        0.2704431290602554,
        1.0392088409373923,
        0.2666147082903623,
        0.22747056727151443,
        0.7461955398693214,
        0.2118971103102237,
        0.5117695635863836,
        0.07863844977581722,
        0.6805026644830012,
        0.10653661056532143,
        0.3485266444354349,
        -0.6363172051538204,
        0.06757114691908167,
        -0.8777310410230322,
        0.7667464068521225,
        -1.4270758539827293,
        -0.3400700181528807,
        0.38660886733352556,
        -0.3741108597942273,
        0.4761768641669852,
        0.2160313250911527,
        0.40031688908940033,
        0.6123682998372404,
        -0.3173637044791506,
        -0.31164808236137315,
        0.7856132918151035,
        0.8075135458998661,
        -0.3946381266702077,
        0.3226762261233025,
        -0.8939724066118184,
        -0.7984821048103972,
        0.7617628338658351,
        -0.26278699468223166,
        -0.3348899887088602,
        -0.29958812381086336,
        -2.1986978092205827,
        -0.3642117521387641,
        -0.08123840114915559,
        -0.36592225730164357,
        2.2236731034067994,
        0.43050153512757905,
        -1.936663214818009,
        -1.3259501816472878,
        1.0789157919886752,
        1.3952846511686525,
        -1.5554424023960434,
        0.04006752364921653,
        0.586591224072822,
        1.680874609463073,
        -0.6348768672326542,
        0.9535581171675884,
        -0.9814481624291127,
        -1.1317249939138507,
        -0.3714594683915506,
        0.5158615499412157,
        -0.4087397420520608,
        1.3701132289428,
        -1.0139607929555783,
        0.7066070825465733,
        0.7081149727919445,
        0.3351904158054655,
        -1.287341433301645,
        0.7510313273782283,
        -1.106834882316095,
        0.16941379963902192,
        1.9668304738342137,
        -0.8999004382285567,
        1.440647154965128,
        0.9028564796847126,
        0.3039563489312555,
        1.1077686609167245,
        -1.1975082708774485,
        0.8504156799252124,
        1.1653566148003307,
        0.17000668364486085,
        -0.6173697669468161,
        1.0115806345343183,
        0.04783774866220374,
        -0.47610921444150994,
        0.7547754511183229,
        1.1507350340023152,
        0.944981021228918,
        -1.523619089379219,
        0.7662127365265547,
        1.2747692769514494,
        1.3209722239275423,
        0.4945629251274299,
        -0.5662530469983825,
        0.27213997028913384,
        0.09879739015238145,
        0.5814344416426159,
        -1.5079165414318918,
        0.2579675778629682,
        -0.16985410015281854,
        1.009037316014733,
        -0.03189077793233863,
        0.028493579363066082,
        -0.6552604394700223,
        0.4050806713481535,
        1.090241909343742,
        0.5040596611492064
    ]
}