{
    "idx": 703703,
    "fights": [
        {
            "enemy": 5,
            "fitness": 90.26661051127252,
            "player_life": 58.00000000000033,
            "enemy_life": 0,
            "time": 253
        },
        {
            "enemy": 6,
            "fitness": 48.81821644970792,
            "player_life": 0,
            "enemy_life": 40.0,
            "time": 178
        },
        {
            "enemy": 7,
            "fitness": 86.8438995977956,
            "player_life": 22.600000000000243,
            "enemy_life": 0,
            "time": 225
        },
        {
            "enemy": 8,
            "fitness": 89.78661051127251,
            "player_life": 53.200000000000315,
            "enemy_life": 0,
            "time": 253
        }
    ],
    "weights": [
        0.4823172768402387,
        1.2474954243239957,
        0.7964822801570144,
        -0.7488643081191438,
        -0.7084332493941463,
        0.1230321730363796,
        -1.331544269182858,
        1.1631271930023874,
        -0.46343546456753754,
        1.478979276004474,
        -0.1566420000473145,
        -0.6396491456775782,
        -1.4270527395939387,
        0.46651110603211177,
        -0.8634709383490102,
        2.067674455940151,
        3.5569821741344274,
        0.5459645469439504,
        0.4110736370078671,
        2.437275375282161,
        -2.0761407324880845,
        0.42886624734244017,
        1.487517640934316,
        1.4885473339493744,
        0.8771192867545381,
        1.770099629414995,
        -1.3488355617094934,
        0.15341854708832903,
        1.142827757629696,
        2.177244986704142,
        -0.5536393318881017,
        -0.733213780829213,
        -0.48671750181118856,
        -0.9971350300255708,
        0.573878887311991,
        -0.2023640034916633,
        -0.020547653261542592,
        -1.1502023655100826,
        0.022275086388340304,
        1.2516337424181363,
        -0.04517656248786929,
        -0.811403772954401,
        0.6640170054588068,
        0.8172483324109248,
        0.2534981530775996,
        -0.6812554286483219,
        0.9679240413599952,
        0.0755093888448665,
        2.0007471635851664,
        1.1594526808646721,
        -0.9088774492717708,
        1.9235643548635764,
        -1.6401408178339274,
        -1.2587963884309397,
        -0.7200586619722628,
        1.1372122539757838,
        0.21160434309783815,
        -0.03574078681398552,
        -2.079916111304618,
        -0.3209865824329249,
        1.1887623440059236,
        -0.8926750958360442,
        -0.55314836156946,
        0.9295994425491498,
        0.7476589915813445,
        1.091987595404093,
        -0.8864573978493261,
        1.4353967980461175,
        -0.7500114468645568,
        0.207699280737403,
        0.9902311310995453,
        -1.079294995999953,
        -0.1560574297919813,
        0.7286315562738073,
        -0.33909154121271656,
        -1.0442593380841036,
        -0.5468805360935238,
        -0.31543008767797154,
        1.2071020785430089,
        0.19397885572664922,
        0.9154177152772828,
        -0.10196831252637827,
        0.5959780764582413,
        2.9572764848071644,
        -0.44607420307841084,
        -0.4280168790287861,
        -0.08645836757549274,
        1.1924059464132268,
        0.20279015959808858,
        -1.5751297193855425,
        -0.6061086048637397,
        -0.28571811098460503,
        -0.07947186345309867,
        -0.7697173915767941,
        0.7695245341552712,
        -0.5202882298690447,
        -1.0364514161586,
        0.2791488344101664,
        2.322170026957671,
        -0.5920082533215829,
        0.7293849723023208,
        -1.8801699391295326,
        0.3720252599368643,
        -0.5148135313540769,
        -0.06990359523269009,
        0.6082672987529584,
        -0.27025517138119526,
        -0.7442861457931909,
        0.9895710217833251,
        -0.9154649871402516,
        -0.2953534265917184,
        -0.9461641584705128,
        1.0566114557587027,
        0.38586948174726377,
        -1.4985034923873806,
        -0.09235044566900982,
        -0.2389468628927103,
        -0.4537750354079195,
        0.026001560050236808,
        0.34508995171052437,
        0.386843953732977,
        0.028375996542980272,
        0.47569216107168,
        -1.2146369496975955,
        1.0058141347977472,
        1.8189184387220763,
        0.8758561093504891,
        -1.6841152043982752,
        -0.12524911814196038,
        0.22061041890483019,
        -0.790350510196387,
        0.3476217565972185,
        0.48044253727088426,
        0.2906188945666037,
        0.6457623886280143,
        0.7956806372667641,
        0.09806197478795245,
        2.151943560021374,
        0.3877965479214398,
        -0.7405467419915702,
        1.128889618028208,
        1.3279707135090355,
        -1.1071493657030287,
        0.2216089367509981,
        0.36380557204271163,
        -0.8630184144478334,
        0.7895416234993241,
        -1.6303454642471673,
        1.1767494688342612,
        0.22523301982361377,
        -0.15554245476125822,
        1.6096839848158986,
        1.5140394221826954,
        0.5304832915478919,
        1.420587198576398,
        1.2930729356699486,
        -0.06424920815428783,
        1.6959827073328821,
        1.3131569079174776,
        -0.7318078677170838,
        -0.6792265069931523,
        0.8400192052723001,
        -0.27195800290917593,
        0.47347785342227,
        0.40634197216258144,
        -0.3782904379946062,
        0.32109221940186516,
        0.5841177652762551,
        0.33959319592736203,
        0.6476323242521005,
        -1.244900967874024,
        0.6696665985432142,
        0.5477795814979505,
        0.8407746829940329,
        0.5566668115881238,
        -0.8854491125618937,
        -0.6496773796551099,
        -0.8012397687933736,
        0.13422089038517943,
        -1.3705805969160612,
        -0.25107019503257416,
        0.3136257521042771,
        -0.21057886107499318,
        0.42831753466208394,
        0.3524555554907814,
        0.9078324832182926,
        0.853270017252552,
        -0.7586265210536152,
        -0.06875957096312942,
        0.39746914493460317,
        0.14231329564596443,
        -0.5098378734367643,
        -0.4288519393404528,
        -0.4025059186065875,
        -0.35990836147375604,
        1.2153249316935526,
        0.236950905218074,
        -0.5859501446465422,
        -0.8812960156464967,
        -1.4019898273281126,
        -0.5563933203138968,
        -0.255799416462551,
        -0.08585471585819612,
        2.2270603154117232,
        -0.6739741356018012,
        -0.9409257248017248,
        -1.0941653892406895,
        0.47127879096970177,
        1.0539764197826509,
        -1.9042146935834579,
        -0.2918457589071085,
        0.5782855113431941,
        1.199684079164919,
        0.3431187482929988,
        1.1425527964628701,
        -0.8182186458124497,
        -1.4005422681470536,
        -0.04921696717580207,
        0.8679618514592902,
        -0.32699465738853406,
        1.2286803050026245,
        -1.4863230384091062,
        1.2018806763456658,
        0.805387729779768,
        0.31096330755219187,
        -1.3594929177707122,
        0.650572447166395,
        -1.3614762123358544,
        0.27946556478736057,
        1.9882128767423137,
        -0.8879941110094262,
        1.4125409552874564,
        1.180762704259496,
        0.43764027474678224,
        0.8709265182261687,
        -0.48743271980263997,
        0.5897097830131955,
        1.0617871460607102,
        0.40523254611862997,
        -0.9112653391690051,
        0.7471790770928075,
        0.15899645073786256,
        -0.2643664247995143,
        0.8014468465261699,
        1.0518151015602688,
        1.0346777484466756,
        -0.9291269149764264,
        0.7860073263861689,
        1.1468805595684255,
        0.4198168544639496,
        0.6703772235380138,
        -0.1530785103171765,
        -0.22986140412119693,
        0.2503061508419622,
        0.24684716968264284,
        -1.5486091316793964,
        -0.1880473914115558,
        0.23990532940902545,
        0.5244441796355224,
        -0.5075493502091306,
        -0.02546389007546944,
        -0.7848829114616696,
        0.6922481307187209,
        0.9093340195521736,
        0.5220335383615198
    ]
}