{
    "idx": 704695,
    "fights": [
        {
            "enemy": 5,
            "fitness": 89.36901301948917,
            "player_life": 49.60000000000031,
            "enemy_life": 0,
            "time": 268
        },
        {
            "enemy": 6,
            "fitness": 75.30964054567593,
            "player_life": 0,
            "enemy_life": 10.0,
            "time": 296
        },
        {
            "enemy": 7,
            "fitness": 90.15289246928256,
            "player_life": 55.00000000000032,
            "enemy_life": 0,
            "time": 210
        },
        {
            "enemy": 8,
            "fitness": 88.81968822339262,
            "player_life": 45.4000000000003,
            "enemy_life": 0,
            "time": 305
        }
    ],
    "weights": [
        0.11459870507540297,
        0.547571649504006,
        0.7344077208910007,
        0.0035043114814389403,
        -0.9426797662560413,
        0.45153718379539676,
        -0.6762114877901255,
        0.7137620843241436,
        -1.1975417999100644,
        0.7049831932135638,
        -1.239326356576125,
        0.777000234672869,
        -0.898575904932044,
        -0.6015390121177635,
        0.2723864230845203,
        1.6896988748517379,
        -0.22915539506503355,
        1.5419514780471404,
        0.7827560747640319,
        0.9201256332570331,
        -0.8716542758975339,
        -0.2520234929806201,
        1.5949071294314445,
        0.554973920662255,
        0.6586297594715745,
        1.081565544417967,
        -0.6371027489772257,
        -0.16650365608775236,
        0.12329011709835315,
        0.18673010321480976,
        -0.544702842098587,
        -1.0546988989018464,
        -1.1494042309584334,
        0.087889719221988,
        0.5621933469718345,
        -0.34160244221810854,
        0.449072364663693,
        -1.0762533403640362,
        0.3677485605885603,
        0.3840873978717289,
        -1.0492613194893872,
        -0.8901425376186932,
        0.567308128699663,
        0.5208942907203526,
        0.11940959878349619,
        -0.8006517847411624,
        1.03215840211431,
        -0.9805036843208992,
        0.5214267175916075,
        1.1814706457048534,
        -0.42181610379557627,
        1.413517308229822,
        -1.4091876777806889,
        -0.5888002100591466,
        -0.13889990189500193,
        1.427738821204981,
        0.7190146967957672,
        0.8974019585868995,
        -1.5363777456074468,
        0.6755370289259466,
        0.8616773248236399,
        -1.3151836220172923,
        -1.453785548647034,
        0.5715322953388393,
        0.15825936825293713,
        0.40670437619453603,
        -0.6221173891536209,
        2.8582044661535786,
        -0.22199165056625242,
        0.26566694463148877,
        1.910576848401412,
        -0.4809440898956646,
        -0.43452641116890134,
        1.0252673909890357,
        -0.7269235157365677,
        -0.8957014671165496,
        0.40411130540053175,
        0.08834835006848349,
        1.5518103809520838,
        0.9766040855460459,
        0.7479910513968326,
        0.371467523231959,
        0.4172897961576338,
        0.289820144498339,
        -0.4111264682679274,
        0.20239107145988933,
        -0.8121607955408423,
        0.6206273544119422,
        0.6270213971793425,
        -0.9019163975276646,
        -0.3722798423866627,
        -0.6298478461520259,
        -1.2979357706236876,
        0.11139457890682243,
        0.8735048047686411,
        -0.6751241307798855,
        -0.5908616864836324,
        -0.6123578261068744,
        1.425549584615638,
        -1.073146845313313,
        1.1571340101871235,
        -1.250110659019172,
        0.1383019561689543,
        0.15892072533436913,
        0.8271827458007804,
        -0.3968337893465879,
        -0.04671510436429563,
        -1.431137544323593,
        1.176903689690498,
        -0.38662034330179407,
        -1.0216348855818298,
        -0.0068101324541700314,
        1.104610757061008,
        0.3071945382715701,
        -1.247756038826115,
        -0.11583164989861791,
        0.415795168771393,
        -1.5823788142531252,
        0.3055864595821399,
        0.6599982251577716,
        0.4049434444171218,
        0.9138417470536406,
        0.31386723553110646,
        0.1614421588618204,
        1.894151551160707,
        0.6504429968033856,
        -0.6853143525119695,
        -1.033084388024531,
        0.8221889962094344,
        -0.6080773776520197,
        -0.049833951233386756,
        -0.40586699108428326,
        0.3336365804594599,
        0.1118460446112866,
        -0.08055016418325275,
        0.6389357764213798,
        0.042266446797220504,
        1.2116009107883294,
        -0.08787136657021324,
        0.23249720932245022,
        0.9077146926216851,
        1.3893211622782642,
        -0.5717857392922657,
        0.8912116234250295,
        0.4624572268420731,
        -1.0859445969080572,
        1.340943656269885,
        -0.6655700249946122,
        1.1779747838767762,
        -0.31618733868502125,
        -1.3903046604486682,
        0.9519378133479759,
        0.9488887999544297,
        -0.8129184833769152,
        1.1215019183667334,
        0.1882009766310199,
        0.924013032334374,
        0.4488433931163715,
        -0.13373836449015175,
        0.11617903431163776,
        -1.0540676176510777,
        0.31764402063212416,
        -0.12594739119452025,
        -0.6565868345015228,
        -1.1313638454411683,
        0.6253838665883673,
        0.9446470988639025,
        0.4567885231615866,
        0.5393605818027177,
        0.053023633434276435,
        0.47018113347316676,
        0.372591103952099,
        0.6084307349723515,
        0.11540886280954596,
        0.37781379892313793,
        0.40929742642412353,
        -0.04232353348840258,
        0.0484712418731808,
        0.3834315828358261,
        -0.7214893620604005,
        -0.7687189312792728,
        -0.41843878527100226,
        0.045946051020648575,
        0.08828199629667692,
        0.06635334744792562,
        0.6476950474276791,
        -0.30721551165432454,
        -0.10580972868913002,
        0.5862715731260923,
        -0.03311416110724229,
        0.6120723804581653,
        0.30232159344649945,
        0.19756963990909432,
        -0.002362469958953166,
        -0.6068970296446159,
        1.3746450597605269,
        0.4770632746204293,
        -0.6259846630554811,
        -0.16006870102559811,
        -1.2319098705059304,
        0.07515201830162248,
        -0.8012795603807679,
        -0.21198190098333902,
        0.9690104027791412,
        0.34602122112656747,
        -0.4879005180670564,
        -0.7887930542947569,
        -0.3643973700677999,
        0.6694498871068796,
        -0.6417910440104913,
        -0.38626914830256137,
        0.7536860337238626,
        0.5106166713770993,
        -0.45719475410203425,
        1.346097929966939,
        -0.6911781107399844,
        -0.36023608898480514,
        0.7032364652849139,
        0.340251406440679,
        0.3719061044366462,
        1.0864676777185205,
        -1.6668725191123468,
        0.9777930409122096,
        -0.31144630688404656,
        0.5696916131651066,
        -1.1205241523992293,
        0.6458589763811721,
        -0.8053854181649293,
        -0.3590951644252931,
        1.7726522562634062,
        -1.7033754556528613,
        0.4667602147937425,
        2.0467739645368614,
        0.05801426843727614,
        0.47579072013825696,
        -0.760374891983519,
        1.4592150029029334,
        0.24213583267472136,
        0.09986261897121057,
        0.09161086282267161,
        0.8519410473353299,
        -0.662674871777207,
        0.6003684210618722,
        1.277018829130472,
        1.6121842040162144,
        0.6597307751511137,
        -0.5541231782030023,
        0.28145884792718495,
        -0.15738568541746006,
        2.2812091193618684,
        0.6145488506874801,
        0.11961568641676956,
        -0.24249557547645,
        0.5737881666117934,
        -0.15560996051653708,
        -0.6046494571871232,
        0.16509226475433444,
        -0.0633705309941229,
        -0.34446432054632736,
        -0.6397307006764396,
        0.04524007466011584,
        -1.3489343208091062,
        0.3033429585554022,
        0.6279070179757478,
        0.7077042984394134
    ]
}