{
    "idx": 703762,
    "fights": [
        {
            "enemy": 5,
            "fitness": 89.5002701740138,
            "player_life": 50.80000000000031,
            "enemy_life": 0,
            "time": 265
        },
        {
            "enemy": 6,
            "fitness": 39.54041448585584,
            "player_life": 0,
            "enemy_life": 50.0,
            "time": 235
        },
        {
            "enemy": 7,
            "fitness": 89.7706543710456,
            "player_life": 52.00000000000031,
            "enemy_life": 0,
            "time": 228
        },
        {
            "enemy": 8,
            "fitness": 87.13935834262664,
            "player_life": 29.80000000000026,
            "enemy_life": 0,
            "time": 344
        }
    ],
    "weights": [
        0.45118986090201835,
        1.0286116196078572,
        1.7913338018526397,
        -0.929680409913601,
        -1.501785737563881,
        0.063752824885769,
        -1.6645069859643384,
        1.4472563528183144,
        -0.8095117023634205,
        1.4107155478420246,
        -0.03745915124008231,
        -1.0281840210465556,
        -1.0013246868524834,
        -0.032130925040893106,
        -0.8555640716189684,
        2.466597873508779,
        1.4160272177848447,
        0.6250015018271065,
        0.2642409250343228,
        2.764324332996627,
        -1.8991783944558438,
        0.1129248999358031,
        1.4299324127234825,
        1.6388612300500123,
        0.8226342424530462,
        1.9810316257638971,
        -1.3400135573696168,
        0.22510005683858209,
        1.0092057425661827,
        0.9823685396208526,
        -0.6726322169798494,
        -0.3918456947127872,
        -0.6487602415981719,
        -1.1472491035809207,
        0.7952031306706071,
        -0.0751177928438853,
        0.49539406023835464,
        -0.9615351541731176,
        -0.17871349772579714,
        0.30662364332937275,
        -0.028237620515895758,
        -0.9413115485978656,
        0.4826608376875054,
        1.1362236221030366,
        0.4980879228885108,
        -0.8051861057109612,
        1.263323994005399,
        -0.23584886153679652,
        0.25338667610441035,
        1.0011395937967547,
        -1.1602216867959934,
        1.4671500006289864,
        -1.660417702395894,
        -1.1712212786275031,
        -0.7349227779592048,
        2.4113234112290227,
        0.42314583365515696,
        -0.02551281877013883,
        -1.9479256870446606,
        -0.2881106725606102,
        1.1977843661228522,
        -0.9778711463220202,
        -0.2630395045511671,
        0.5375655075184436,
        1.103547303991883,
        1.2244919384989448,
        -1.1207554935622432,
        1.268739528450917,
        -0.5921441344971391,
        0.4545211710855332,
        0.9118034548682588,
        -0.9121043444956155,
        -0.0909305551946844,
        0.4553019394473101,
        -0.2014331097782326,
        -1.3221219909477298,
        -0.34579450779530835,
        -0.4010753943806573,
        1.248424490506275,
        -0.009468802950576014,
        0.8496274903423808,
        -0.027988696145494332,
        0.28846802938683846,
        3.1080144705938384,
        -0.5200174589403699,
        -0.5003253641419028,
        -0.16636549741134715,
        0.8868046025110123,
        0.533214031225558,
        -1.6903215968496847,
        -0.5947814575806004,
        -0.3657325175246977,
        -0.13083961529663735,
        -0.8452577734653073,
        0.7364973071648785,
        -0.7014783708545422,
        -1.307617627888006,
        0.15981453193094347,
        2.2095106039962076,
        -0.9810017836879116,
        0.8662262165368122,
        -1.7688239259631207,
        1.498744444330361,
        -0.5575029959011322,
        0.09369038801910648,
        0.60132852937776,
        -0.32053802170030266,
        -1.0941945407618783,
        1.0555884009367942,
        -0.7339286977523776,
        0.11574134114410567,
        -1.0425623391163894,
        0.9257887491098264,
        -0.29586014558862334,
        -0.8646034926869912,
        -0.48837991215929516,
        0.09202659815304422,
        -0.5274913867333827,
        -0.19328275769525619,
        0.46130680412110303,
        0.5795256611316968,
        0.41686146717669764,
        0.5127768938467113,
        -1.872406815717137,
        1.2664035786057495,
        2.3569411170628585,
        0.6585234149845395,
        -1.5980641116170151,
        -0.7585143775754573,
        0.49647379536859526,
        -0.9461369533255335,
        0.351799381934262,
        0.6203014164196335,
        0.3505110932790241,
        0.4765822875315942,
        0.7898076404411901,
        0.2112476297601191,
        2.1895059914590655,
        0.5465146146137985,
        -0.5593144308874989,
        1.293896425818554,
        1.4738685178646924,
        -1.1802774665315887,
        0.021085062905442167,
        0.42776134007936045,
        -0.9220884979402545,
        0.9463059547674763,
        -1.6191899485613728,
        1.552835006419647,
        0.5620100080359818,
        -0.20368370741279776,
        1.5253175001504127,
        1.5823853699947086,
        0.2507462653979573,
        1.3853975586366374,
        1.312672837440864,
        -0.18701165833780464,
        1.6176727112594864,
        0.8615505799970666,
        -0.7000999153057704,
        -1.1154679953292632,
        1.3718911470766941,
        0.12240772241754436,
        -0.26686147221663437,
        0.4065847633798086,
        -0.3337416280868159,
        0.3888022538578203,
        0.17973065289788542,
        0.2936492023469445,
        0.7510860559102479,
        -1.696848955364625,
        0.12789377681077557,
        0.5754935908470822,
        0.8302148953116213,
        0.60420576755354,
        -0.6528421941693568,
        -0.635381576490013,
        -0.8228238171025906,
        0.7681068976638857,
        -1.2751446214876494,
        -0.12802901879329967,
        0.5871293397918013,
        -0.6762724350096273,
        0.018586860673811025,
        0.35032479836435515,
        0.772618857937513,
        0.9989150886825683,
        -0.399548709173298,
        -0.2765549874587432,
        0.6790697274609806,
        -0.048261480396490725,
        -0.3225677852235146,
        -0.4557252842343034,
        -0.4344916938934478,
        -0.1856819194843108,
        1.2970687463644577,
        0.21889788126120668,
        0.023630966219935157,
        -0.8893852858556006,
        -1.822670386770223,
        -0.3827247026085928,
        -0.09334046893224687,
        -0.04685510762626822,
        1.9703272365552411,
        -0.5461435659293492,
        -0.984979047162581,
        -1.680703214427136,
        0.6968638094995382,
        0.8594880250297497,
        -1.8003498750643514,
        -0.15895548931961612,
        0.4727237856984843,
        0.7571284187956566,
        0.19271415951245718,
        1.0304473647034698,
        -0.9302606185511909,
        -1.2990516945902633,
        -0.03465470700573575,
        1.2301480138658345,
        -0.5250511199365434,
        1.4552421614164774,
        -0.875897595897175,
        1.2142663284721418,
        0.7179739738882125,
        0.1187393065826149,
        -1.4446498515825958,
        0.5985015378986488,
        -1.2926702780939119,
        -0.3084546376389761,
        1.3192829896049407,
        -0.8028013224089723,
        1.2740296342660995,
        1.0225724072536737,
        0.3983061051297685,
        0.41607057473399894,
        -0.4754534485773053,
        0.5783001839087252,
        0.8988483514432396,
        0.3109692186843588,
        -0.8873740334642893,
        0.5288994270667108,
        0.20263510286424402,
        -0.190429870208321,
        0.44579762241924314,
        1.1638699369910517,
        0.28245463918175084,
        -1.1380386381923482,
        1.2123580675585126,
        1.096430669078765,
        1.75280518998918,
        0.6979314157743804,
        -0.8972017208687839,
        -0.07579654212974095,
        -0.16736098532538388,
        0.34230676168765733,
        -1.4831909060120085,
        -0.0340028074659618,
        0.3087406281181202,
        -0.38326412649158453,
        -0.5252633619508822,
        0.14949316250867928,
        -0.9556629068736594,
        0.5797298069592882,
        0.8060952670747997,
        0.09454789304789583
    ]
}