{
    "idx": 714023,
    "fights": [
        {
            "enemy": 5,
            "fitness": 89.7587417894553,
            "player_life": 52.600000000000314,
            "enemy_life": 0,
            "time": 245
        },
        {
            "enemy": 6,
            "fitness": 39.7959933129232,
            "player_life": 0,
            "enemy_life": 50.0,
            "time": 182
        },
        {
            "enemy": 7,
            "fitness": 90.51289246928256,
            "player_life": 58.60000000000033,
            "enemy_life": 0,
            "time": 210
        },
        {
            "enemy": 8,
            "fitness": 88.81968822339262,
            "player_life": 45.4000000000003,
            "enemy_life": 0,
            "time": 305
        }
    ],
    "weights": [
        1.0977980230459021,
        0.7471893920272984,
        1.2292986813091669,
        -1.2081139452942304,
        -1.5227810095498746,
        0.664266374152881,
        -1.1214152190704638,
        1.2616651779961305,
        -0.5940071534400743,
        1.0762756015099066,
        -0.19149377485696883,
        -0.993486478517247,
        -0.9398538460117413,
        -0.6202157645154345,
        0.13165230527568497,
        2.6392988057935503,
        2.0020126056568204,
        1.9600380970537712,
        0.8016565098670689,
        1.9222707158868768,
        -1.2874972486906477,
        0.24231316700903502,
        0.9311605804326647,
        2.558119313663919,
        0.5935849073641413,
        1.6246722325975143,
        -1.8255358967275368,
        0.11432781676473643,
        2.751472754040204,
        -1.0791842713680557,
        0.0850231038307936,
        -0.6790157850871384,
        -0.41027800644509566,
        -1.7067457813617837,
        0.741252909194329,
        -0.7350343647211345,
        0.023479662613522773,
        -0.9137812211730838,
        -0.07894928239952081,
        0.6580435126369031,
        -0.5703459352420513,
        -0.5986733218638955,
        0.10332838425505747,
        1.0328431849632191,
        0.17180041172848187,
        -0.7679462395042482,
        1.0878207779218796,
        -0.2442394220016666,
        0.20755787366355605,
        0.9726164245106099,
        -0.7358489704573491,
        2.039110732261682,
        -1.9959624073487408,
        -0.9886302192687377,
        -0.8007188894948554,
        1.8074760873018514,
        0.3361788755004401,
        -0.2570424899052256,
        -1.8185442360824928,
        0.8548242556674935,
        1.3218324236925232,
        -0.6140780634479874,
        -1.168001793826356,
        0.5031130239364249,
        0.09730559128644053,
        0.45057320581541876,
        -1.435658194640572,
        1.0436361934104055,
        -0.08399082028465597,
        -0.1280172243600983,
        0.5036185869933455,
        -1.3095198246178215,
        -0.6258637850296223,
        0.6717686187902808,
        0.14850813860958273,
        -1.1423883126207883,
        -0.13154757308120218,
        0.3016114617451618,
        1.3328895075147618,
        1.331067612187772,
        0.49151683285160597,
        -0.20919759041056346,
        0.1512656929312458,
        2.709993250792852,
        -0.0022662028519603652,
        -0.4200566556976756,
        -0.2991406582031958,
        0.4216078764959785,
        0.7425854060943966,
        -1.3573314586485117,
        -0.6357046417422602,
        -0.6531510061692857,
        0.15524168777861205,
        -0.8402100482430104,
        0.07980786873039455,
        -0.6063989896808994,
        -1.1300837304069162,
        0.3466972687502278,
        1.9543667548687207,
        -0.6244921523138656,
        1.0345561019682634,
        -1.2940993576281918,
        -0.3536683113993043,
        -0.3905303435676702,
        0.35530949665945544,
        0.7566044430807835,
        0.36753844892694343,
        -0.9925309093576417,
        0.6765681802517891,
        -0.7071596110623621,
        -1.2249423332410614,
        0.25147888580547756,
        1.404611618768579,
        -0.2492867526740708,
        -1.0219328073317309,
        -0.4040216845641511,
        -0.3273373967504967,
        -0.3772644170554026,
        0.22558656026330384,
        0.2309294864767709,
        0.09238062212389182,
        0.7344765261486693,
        0.6758665787797677,
        -0.5331190739434055,
        1.4308332665350834,
        3.6029064737165273,
        0.6029470816254081,
        -0.8514612384239137,
        0.1813642755304884,
        -0.3464025780143568,
        -0.2197151816261541,
        1.3497738625812676,
        -0.13547935148784732,
        0.1513443794591633,
        0.31705307841901414,
        0.6298838779410425,
        0.24399631387450205,
        2.9896535209469604,
        0.14914194221100488,
        -0.4055577423347033,
        1.3589792650011312,
        1.6658110986301153,
        -0.39062237158829255,
        0.9459573297872074,
        -0.07664787677451465,
        -1.366591372090157,
        1.158848854520421,
        -1.715177941062601,
        1.3361861204871073,
        0.47527304766614004,
        0.07812677822999672,
        1.2764151806164623,
        0.9772881178607941,
        1.3635255164862976,
        1.6709321274305353,
        0.93347452197316,
        -0.1272307966742524,
        1.7261463010207916,
        2.040827401807003,
        -0.5596169923479838,
        -1.079082176059832,
        0.48326726118746743,
        0.4506502951060775,
        -0.23984015619221602,
        -0.05561616124541568,
        -0.07074270137918609,
        0.019486952686720002,
        -0.013299424521916361,
        0.7491087463499797,
        0.41858546355983534,
        -0.9020521646379154,
        0.27202096060044634,
        0.9701989803905129,
        0.032167757057017084,
        0.19810671897554796,
        -0.6544067457293531,
        -1.0252160998286755,
        -1.0191984682408561,
        0.2320848050965494,
        -1.384376811724835,
        0.20327347869138027,
        0.42265717301608746,
        0.8247923186603305,
        0.3266203983214416,
        0.34663619607377416,
        0.67662248760537,
        0.6924261681975662,
        -0.23579015204459214,
        0.3645224104827665,
        1.1334941978354507,
        -0.6386018802026958,
        0.10228355813571463,
        -0.9263727705763434,
        -0.7223084022767969,
        -0.5189788633396866,
        1.376673233961153,
        0.613696308934336,
        -0.6826809917023721,
        -0.5018366073320323,
        -1.6606175407618597,
        -0.6421076947906196,
        0.1612814107092514,
        -0.17630410633302968,
        1.2889303096384608,
        -0.53265019840364,
        -1.3893212748060502,
        -0.827066170987134,
        -0.23102470463661562,
        0.34977574997482896,
        -2.1105938393391233,
        -0.3951964933417316,
        0.8669522578488459,
        0.7151223168964582,
        -0.14085429425188561,
        0.8035024610561978,
        -0.9355955545106753,
        -1.49233218143922,
        -0.2839035709135282,
        1.3247882189086495,
        -0.8692086181606946,
        0.96833587544335,
        -1.6768278311016194,
        1.6304877804247422,
        1.1110206358797245,
        0.3170481457162302,
        -2.0460335334532833,
        0.07284880364255124,
        -1.1803654770220073,
        -0.3955255325512259,
        1.0156484289878398,
        -1.431602293732262,
        1.7667011059672721,
        1.4693576182384829,
        -0.3467075914405779,
        0.4947904855669989,
        -0.35014099059206244,
        0.587449164893976,
        0.9149570155460216,
        -0.009439661462919816,
        -0.8121753473521399,
        0.602848972657831,
        -0.1407136438598771,
        0.47215887257580996,
        0.34077807391380094,
        1.0966020198869353,
        1.3068122912040967,
        -1.121127968879322,
        0.4727615455954919,
        1.9861094948142766,
        1.7508905345479344,
        0.9124114939041862,
        -0.5174983745671902,
        -0.5154605854345838,
        -0.33788726501458277,
        -0.12853685098757392,
        -1.1299496777631324,
        0.22875200289643186,
        -0.36966021662976123,
        -0.6713712821132235,
        0.26837349078019845,
        0.5133711620814059,
        -0.7656048975196359,
        0.7676709863551583,
        0.44009553404795787,
        -0.028849480959420776
    ]
}