{
    "idx": 703106,
    "fights": [
        {
            "enemy": 5,
            "fitness": 90.56772932632856,
            "player_life": 60.40000000000033,
            "enemy_life": 0,
            "time": 238
        },
        {
            "enemy": 6,
            "fitness": 86.13289246928255,
            "player_life": 14.800000000000228,
            "enemy_life": 0,
            "time": 210
        },
        {
            "enemy": 7,
            "fitness": 30.65766574803519,
            "player_life": 0,
            "enemy_life": 60.0,
            "time": 209
        },
        {
            "enemy": 8,
            "fitness": 90.07936107665805,
            "player_life": 55.60000000000032,
            "enemy_life": 0,
            "time": 240
        }
    ],
    "weights": [
        0.03703685433795409,
        -0.326121971227027,
        0.7704891594454939,
        -1.163239522787256,
        -0.1943105842190712,
        1.3564420718337156,
        -1.3369575433883036,
        0.9931874523735812,
        -0.4743499043839595,
        0.6520581653776841,
        -0.19959558559859764,
        0.5318046387241662,
        -0.8357187299728881,
        0.33819458249730505,
        -0.6337248843181043,
        1.708918811700842,
        -0.2735760223535603,
        1.2673046481948735,
        -0.048993027843781,
        0.9298496905813503,
        -1.142079058005384,
        -0.18549552903943647,
        1.9314165843862956,
        -0.049561498214453825,
        0.902225792477008,
        1.6690882911538871,
        -1.255005477835561,
        0.12802330107762386,
        0.7668174588718387,
        0.5410974993846015,
        -0.24493623561036598,
        -0.7531142490757202,
        -1.3864372607256812,
        0.06124838519252861,
        1.0011270827855556,
        -0.5452113895681678,
        0.6426938185525439,
        -0.5881798819968045,
        0.33162348584190976,
        1.0237091321971643,
        -0.24402544089816297,
        -1.0770293351001872,
        1.0831740718285663,
        0.42735321263093035,
        -0.5711246638940064,
        0.33143183337633114,
        0.5701003072847945,
        -0.6656221499369828,
        0.2893773108859725,
        1.3741619894420614,
        -0.6852163685396344,
        1.0471519143419024,
        -1.575513703956407,
        -0.5424311470562736,
        -0.3205680664095021,
        1.929299035955664,
        1.0378511905703982,
        -0.056624587814019786,
        -1.4468503715924375,
        0.03835725135968162,
        0.7730658239652657,
        -1.4802919465142377,
        -0.10010521473212494,
        1.7578204075968307,
        0.7211471725456572,
        1.1697643043528072,
        -0.5528869386056655,
        0.9230889068258343,
        0.5095650094085931,
        -0.4452443636997901,
        1.2801907247226274,
        0.09255421183906239,
        -0.6679701626121766,
        1.413129344926176,
        -0.16053511065563472,
        -1.6573249609067928,
        1.3720126063122653,
        -0.4169408168981873,
        2.1478888411506514,
        0.5289180982373218,
        0.5164380345263442,
        -0.33537354451497775,
        1.060960376910718,
        0.3136059921434,
        0.22839899083552032,
        -0.8416980179664078,
        -0.3393531338203383,
        1.2116843827142803,
        -0.2923382242537232,
        0.5506941107238031,
        -0.5125047138880211,
        -1.4587765779230637,
        -0.15523905834627388,
        0.2348822218971312,
        0.3362721392615845,
        0.23194357962685044,
        -0.2928833431320229,
        0.527077075313762,
        2.6478780029805007,
        -0.4620718913214704,
        0.6367618118374077,
        -1.4613510432943833,
        0.5253908657746775,
        -0.8420304835042138,
        -0.34334272755381917,
        0.8205993583904382,
        0.6246834694505694,
        -1.4883437549930592,
        1.3816007345715047,
        -0.40702099811888875,
        -0.8008520953279469,
        0.15057507774405632,
        1.7969126479082582,
        0.0627571274401064,
        -2.6549626786301803,
        -0.3520760339610711,
        -0.17698110127347336,
        -0.9134899223345685,
        -0.09726490315521827,
        0.8391869969682961,
        0.48672452567481456,
        1.285973876569754,
        0.6824381488580795,
        -0.8942966594176909,
        1.154281550716337,
        1.2836210598690652,
        -0.24942307975066727,
        -0.30487806896364095,
        -0.35432707546846276,
        -0.777302661752254,
        -0.34007845744100507,
        0.2557571821559585,
        0.5815624513612446,
        -0.0509373734568368,
        -0.2988966492137909,
        0.19638145006556812,
        -0.7982750598000756,
        1.4967325941320575,
        0.7939168125622471,
        -0.17516941819423054,
        1.2942420799685042,
        1.0004768565041173,
        -0.75335580777642,
        0.5476226013454312,
        0.8810083160754034,
        -1.1313852042782908,
        0.9835115181422285,
        -0.5971620747140711,
        0.412608712602723,
        -0.4276757465228548,
        -0.5614526206896073,
        0.850630223105457,
        1.6493919812477655,
        -0.15715296114707292,
        1.397506308606521,
        0.0904124631348167,
        0.5136772411503135,
        1.2241114485235445,
        0.2951407326069265,
        -0.1486064564766895,
        -1.855608251712912,
        -0.004538363889293198,
        -0.515877499866799,
        -0.2273677766040225,
        -1.0831513616116457,
        0.7898781776927526,
        0.3847154076109486,
        -0.16440910350185572,
        1.1593145627169372,
        0.14303054338746732,
        0.8436499944356718,
        0.06135682841040109,
        0.4718867475067626,
        -0.15679362704007907,
        1.1608414295255103,
        0.42779666543415834,
        -0.12838063250292264,
        -0.09144307035184762,
        0.05648881552904442,
        0.4173715171700332,
        -1.1317705675460195,
        -0.8494748863337994,
        0.02345245073902774,
        0.5332365531096338,
        -0.26240886979474604,
        1.1623992901068547,
        -0.13552008063571996,
        -0.9193726419706365,
        0.5212299264234831,
        0.3844467791812686,
        -0.26315593160396494,
        -0.08393382388591977,
        -0.8858660348044137,
        0.07373128213063546,
        -0.4870731288225997,
        0.8777202718191024,
        0.0021995205056989653,
        -0.46923155942149863,
        -0.4989731167221713,
        -0.732564610469928,
        -0.8695966758528574,
        -0.5949363189475376,
        -0.7820738902062415,
        0.10517740179421112,
        -0.25715951193137354,
        -0.9064957243786601,
        -0.874185187463699,
        1.233354254965661,
        1.259961047431346,
        -1.1373101452420131,
        -0.6976253279766813,
        0.35648801708466543,
        2.500952920133727,
        -0.24337006298822228,
        1.134108690624657,
        -1.0268590813211143,
        -1.0972017563381242,
        1.42400128579405,
        0.02852345008036472,
        -0.3508401853277204,
        1.1743560447703707,
        -0.8977415936806681,
        1.00584315959595,
        -0.11458220423906819,
        0.070065702342818,
        -1.308330472618121,
        0.12234836791513419,
        0.36589959803651145,
        0.46688223589652095,
        0.3802441329296893,
        -1.135869925543219,
        1.1186796653927296,
        1.663363784288255,
        0.6369082990688711,
        0.8717583073623867,
        -0.38386595155933584,
        0.8370432769408187,
        0.9048119141073516,
        0.278652263770147,
        -0.2386950526995531,
        1.2546450088673242,
        0.17047437773431282,
        0.08540393873444405,
        1.19815522621313,
        0.40580043990852277,
        0.275511993090063,
        -1.3296956464467504,
        -0.11553330978374052,
        -0.10269704050545611,
        1.8362372527439652,
        0.8858352172054541,
        -1.0250746043992416,
        -0.22181051707900556,
        0.30205682928919214,
        -0.02115774444473298,
        -0.7747414933393505,
        0.40809837104799435,
        -0.7260592428986657,
        0.2252388992321664,
        0.10443177138157266,
        0.2480939730026458,
        -0.626785179022509,
        0.6613433817067922,
        1.6783784983101189,
        1.3986906183451384
    ]
}