{
    "idx": 710641,
    "fights": [
        {
            "enemy": 5,
            "fitness": 86.72226955283409,
            "player_life": 25.60000000000025,
            "enemy_life": 0,
            "time": 343
        },
        {
            "enemy": 6,
            "fitness": 84.4316554962389,
            "player_life": 0,
            "enemy_life": 0,
            "time": 262
        },
        {
            "enemy": 7,
            "fitness": 90.03679627126205,
            "player_life": 53.200000000000315,
            "enemy_life": 0,
            "time": 197
        },
        {
            "enemy": 8,
            "fitness": 90.07936107665805,
            "player_life": 55.60000000000032,
            "enemy_life": 0,
            "time": 240
        }
    ],
    "weights": [
        0.480962721831863,
        0.557778667633458,
        1.2547076411482658,
        -0.2793804521141512,
        -1.6068841566828145,
        0.19977166946432506,
        -1.3644891298598738,
        1.2299818010734898,
        -0.3965242405121328,
        0.6341142129999073,
        -0.3352199223944148,
        -0.6842385507990676,
        -1.4509774787453558,
        -1.4460614279220103,
        -0.901574259501816,
        2.6162284459587584,
        2.034400774176713,
        0.5274990699481024,
        0.14651075568736893,
        2.0355705318287303,
        -0.9082548191790651,
        0.03340271895309295,
        1.5109218069309687,
        2.2948814838167446,
        0.32903344199408713,
        1.9998672141539324,
        -1.199625380910839,
        -0.2196672467098527,
        0.8580431609962627,
        0.5730009091296459,
        -0.41258779104187837,
        -0.4483102473322115,
        -0.41489518917397716,
        -1.175638627047727,
        0.6857359164815059,
        0.03331830681234066,
        0.39682348959822716,
        -1.4203637609530706,
        -0.5190920540324422,
        0.48634272000105355,
        -0.5123720300224538,
        -1.4234229500837932,
        0.8471545525567727,
        1.467984850663984,
        0.18483056946819917,
        -0.9347082118029972,
        1.3586153875716123,
        -0.20369493185706267,
        2.097984424073027,
        1.786043404927416,
        -1.0529098584016412,
        1.4681837351645626,
        -1.9229554004444858,
        -1.2096666203345139,
        -0.7357221591400789,
        1.5873825314677423,
        0.6753279286379187,
        -0.5599357025760734,
        -1.8195793720528963,
        -0.23439771308815724,
        1.067955293388895,
        -1.4259613973462082,
        -0.570698510244769,
        0.45879955986283816,
        0.20056745532274353,
        0.8633900997835664,
        -0.28866122369924563,
        1.7887336775730824,
        -0.9024660329061425,
        0.21697742167621545,
        0.31822504877506064,
        -1.204244022759392,
        0.4591963588151985,
        -0.17803967480047314,
        -0.26039400382727124,
        -0.953734333349951,
        -0.7637001120491287,
        -0.3291742767614808,
        0.7703847085988774,
        0.10778976577236349,
        1.0102248919456263,
        -0.02420260812387859,
        0.5283874967538167,
        2.523838298923838,
        -0.37375758040766305,
        -0.9441862886786608,
        -0.6755625966299093,
        1.1460668022042464,
        1.7201848596132667,
        -1.356600911363403,
        -0.6762003023252692,
        -0.8393748242374156,
        -0.4712259089084747,
        -0.7349479233209848,
        1.0305338089866458,
        -0.19277212834422175,
        -1.4091522075291492,
        0.30159857026625053,
        1.7279711125823758,
        -0.5529167725730166,
        0.8574644310053455,
        -1.7927206023675122,
        0.10438416217542124,
        -0.4136799200791791,
        -0.013142406897378969,
        0.7834763876996927,
        0.2711967752664228,
        -1.3177587837192664,
        1.5139894377809273,
        -0.5802186720960866,
        0.10999095293356126,
        -1.2382058062547516,
        0.7697443609422289,
        0.09942290701326156,
        -1.3215842122605215,
        0.08993107541379786,
        0.5067238409242396,
        -0.46423238632672287,
        -0.22557250098529785,
        0.4900019278298592,
        -0.09553345171374869,
        0.060694106822234334,
        0.4328836482496282,
        -0.7089419130063125,
        0.5760187417939306,
        2.6405292706834227,
        0.4260804741377942,
        -1.861289118954737,
        -0.7066351538553522,
        0.552591096509347,
        -1.0150652708409458,
        0.8584974986573032,
        0.720930159383485,
        0.8124383110817314,
        -0.09041088911697949,
        1.3550336906831897,
        0.39071409506001437,
        2.6604987581824933,
        0.2050606910069171,
        -0.6446351181888759,
        0.9704638386057681,
        1.270018957100894,
        -0.7709506376618503,
        -0.1411850749285249,
        0.4852079042262338,
        -0.7559754672884081,
        1.4426129978322546,
        -2.277651173176644,
        1.0854128126105815,
        0.8302391683090355,
        0.08033788632327779,
        1.7621378170683666,
        1.5975535426062766,
        0.4067605533968207,
        1.4998658200588528,
        1.5021227558513308,
        -0.5673096778153475,
        1.6363601005515684,
        0.4516968611331852,
        -1.2639479046457458,
        -0.9224428139446832,
        1.0342741637432322,
        -0.187106741745139,
        -0.48239267942604347,
        0.6912004790228989,
        -0.252978825531919,
        0.41029871305755744,
        0.6274389281317194,
        0.9665117763902091,
        0.409107134426641,
        -1.3522371102251094,
        0.174864973174305,
        0.43766370368381935,
        0.7293638089511596,
        0.205275553337961,
        -0.035743947931942494,
        -0.9289341571387688,
        -1.1861656484224437,
        1.0550499593805849,
        -1.5689258784481908,
        0.0005454046179147465,
        -0.7580754882118551,
        -0.19182511618204845,
        0.3129035986615711,
        0.036861808796098045,
        0.6424299942314842,
        0.18513041943094785,
        -0.5005696804333926,
        -0.08295222743489969,
        1.120895516709537,
        -0.6021711930999145,
        -0.49157024807364363,
        -0.09271506656582217,
        -0.6147982539220974,
        0.30924590625741255,
        1.0474940160283437,
        0.08434215009590625,
        -0.55147184595052,
        0.046264820068159324,
        -2.17332910002549,
        -0.6716429445802676,
        0.36878711518978036,
        -1.6449501587827928,
        -0.27979695360957824,
        -0.7721801653381929,
        -1.4625937808210414,
        -1.4468654964088514,
        0.7051975791940414,
        0.9266623753069093,
        -1.9362859629843838,
        0.01575163115327327,
        0.5860034048932585,
        1.4349849503760468,
        0.24296451113771023,
        1.1036696918605902,
        -0.9690328589139159,
        -1.200698061522913,
        -0.07448087731183145,
        1.359519149551604,
        -0.328558689979207,
        1.0748645316589496,
        -1.896152852762865,
        1.2763401004862513,
        1.1756477695197365,
        -0.042017767013497416,
        -1.182394148211893,
        0.4834550180209668,
        -1.0345557988073626,
        0.07843668845468055,
        1.301877726139765,
        -0.8942521669412963,
        1.2999238328662135,
        1.655599498036057,
        0.02724099057540695,
        0.32738451772756116,
        -0.04840602145379606,
        0.2546277955095231,
        1.3393557540121286,
        0.27043160172110925,
        -0.37056663295333997,
        1.2228435377329672,
        0.005737183139311111,
        0.6770039365007794,
        0.5506689110751614,
        1.3920691241202376,
        0.12560396421209633,
        -0.7200596142171438,
        1.370968855386057,
        0.9004310146871333,
        1.878694607345352,
        0.7033712493826447,
        -0.954132599708753,
        -0.3643461317626864,
        -0.20556794680631696,
        0.3986380174259176,
        -1.7683605141361658,
        -0.10400395216855803,
        -0.5704870886189641,
        0.37425721388244926,
        0.1142943309365087,
        0.0747027902190501,
        -0.9520649416440871,
        0.6304124399567461,
        0.551116673598209,
        0.5276653717816283
    ]
}