{
    "idx": 703869,
    "fights": [
        {
            "enemy": 5,
            "fitness": 88.08379793739259,
            "player_life": 40.000000000000284,
            "enemy_life": 0,
            "time": 371
        },
        {
            "enemy": 6,
            "fitness": 21.431655496238903,
            "player_life": 0,
            "enemy_life": 70.0,
            "time": 262
        },
        {
            "enemy": 7,
            "fitness": 85.03703951986407,
            "player_life": 7.000000000000233,
            "enemy_life": 0,
            "time": 288
        },
        {
            "enemy": 8,
            "fitness": 88.8796882233926,
            "player_life": 46.0000000000003,
            "enemy_life": 0,
            "time": 305
        }
    ],
    "weights": [
        0.8752747210716356,
        0.29553575035236973,
        0.49985380490600384,
        -0.306325258161471,
        -0.3004645278206074,
        0.26704207259636437,
        -1.4354125734132002,
        0.38954266990378184,
        -0.6558225136106804,
        0.548950621111554,
        -0.7916741226670526,
        0.7737306395711119,
        -0.8987401069343874,
        -0.6794358933600033,
        -0.7586655885771993,
        1.5643600027657893,
        -0.5763869597061296,
        1.1827190093354982,
        0.3850289229654411,
        0.6891514164458061,
        -1.1982486993496733,
        -0.39305690132087223,
        1.6230681824821915,
        0.5539535935874752,
        0.34058923765512417,
        1.409596464688443,
        -1.123070415855978,
        -0.07718524554164145,
        0.5426644968604345,
        0.8404231309040767,
        -0.6629539221337691,
        0.051790006044246925,
        -1.1320248632358685,
        -0.008301079241466296,
        0.7707990236607922,
        -0.6572988685183728,
        0.46329143969383013,
        -0.6899012590796958,
        0.2535990573579383,
        0.6966734557451623,
        -0.236639725774015,
        -1.0377532829056235,
        0.7357296936035079,
        0.6500098882577534,
        -0.06549918113632444,
        -0.611307735801544,
        0.47842244245193793,
        -0.1567747499923739,
        0.31496856842155263,
        1.1089832777930833,
        0.052698880093788814,
        1.2235967658090434,
        -1.096097338238681,
        -0.7834626646859086,
        -0.18382395922063577,
        1.6265967011111708,
        0.046850588882498385,
        0.3865268297875273,
        -1.7950456835618522,
        0.751542675527118,
        0.7960405823328055,
        -1.0493521521660645,
        -1.1976641789034548,
        0.40228757544622706,
        0.2900403126294183,
        0.26404766452757544,
        -0.7345628560413866,
        1.2664355789475152,
        -0.4185454020878784,
        0.03921922017059558,
        1.1289931689678767,
        -0.2865538664734167,
        -1.0149572059689254,
        0.003771937192754052,
        -0.35682633820539233,
        -2.040523689317288,
        0.13245138247975788,
        -0.5250085430005588,
        1.1081238982176922,
        0.6149006269295225,
        0.25450840086060467,
        0.15028125674764747,
        0.6450315289010784,
        0.8524738020316956,
        0.2956087869025806,
        -0.6606987696267853,
        0.024358775892837067,
        0.7500235145319153,
        -0.2779772623997738,
        -0.4394686730522767,
        -0.10747711574984159,
        -0.6140747717995753,
        0.31126814069518727,
        -0.2043819232548284,
        0.6880686350818142,
        -0.04683450251115348,
        -0.49970663867066667,
        -0.10122904927224366,
        2.083496204115617,
        -0.9420300973837021,
        0.897278897506391,
        -1.5525895425388185,
        -0.44433510172516144,
        -0.17649122309978918,
        0.6431141395760885,
        0.47577245843322974,
        0.5173248261673282,
        -1.5676837770700327,
        0.4006258970175111,
        -0.8096630313582025,
        -1.0787611405956834,
        -0.1127240453203524,
        0.6688067497289277,
        -0.22919132143560117,
        -0.7831297853403196,
        0.23283007144170176,
        0.1742137188719981,
        -1.0636921512702615,
        0.0582031591427436,
        0.3554026457741488,
        0.025693574588281975,
        1.3713707086198608,
        0.7429747090132449,
        -0.5373757737683642,
        1.9352462377427753,
        1.3241413726043312,
        0.04656125053785817,
        -0.7516106908794218,
        0.008412390556282678,
        -0.9995146221426443,
        -0.022935022886589683,
        0.29994417916378735,
        -0.4272614506598201,
        0.3825267623076029,
        0.07126303631832652,
        0.40588759844277056,
        -0.4261210865707255,
        1.0360123177625387,
        -0.10062771935702063,
        0.2562923527209357,
        1.5004559460615399,
        1.2903677231687023,
        -0.194764411532288,
        0.21791428578154878,
        0.5576355838727803,
        -0.6257055061234296,
        1.2291541803054016,
        -0.801655593238119,
        0.366707380755108,
        -0.13862878716054944,
        -0.23861880276850195,
        0.9855326070226111,
        1.933823213076816,
        -0.35444391707704265,
        0.9370046465724261,
        0.3778513437546109,
        0.09609190329264543,
        0.259246971948959,
        0.28508200874712075,
        -0.5851402490376593,
        -0.9888233472062108,
        -0.11174619253178701,
        -0.020936877009764324,
        -0.6674113420827381,
        -0.31047278956297775,
        0.7076111214031167,
        0.3002568321163107,
        0.14266420022564485,
        0.5532279483182864,
        0.27395459955359636,
        -0.18686357542475943,
        0.3067643880239674,
        0.05428900451947142,
        -0.006996110945213976,
        0.4966810382091953,
        0.14709350932791196,
        0.13023252894012377,
        -1.1914205839438792,
        0.24629325323347073,
        -0.4605393640351535,
        -0.7300801891877927,
        -0.49184816401026943,
        0.3540262348285744,
        0.9357962118019524,
        0.022221789053783435,
        1.0278362036049378,
        0.1503518271504118,
        -0.7467496834176268,
        0.38645266022566843,
        0.7204585625358344,
        0.3558995523682935,
        0.08276681339599536,
        0.27805714317953595,
        -0.31464446949570296,
        -0.17672405059104468,
        1.3606892432129793,
        -0.11496773461772639,
        -0.4809529819794579,
        -0.41018153713526384,
        -1.2908400556313597,
        -0.8711997241453304,
        -0.7424165826805156,
        -0.2358067712711115,
        0.15968627443009914,
        -0.011305475786406893,
        -0.7404909227503207,
        -0.8848399796395653,
        0.15371751383581753,
        0.2242191302444994,
        -1.3211851663579395,
        -0.37077194823711435,
        0.5620152906827426,
        1.310967280138876,
        -0.39877812691295605,
        1.055543232877978,
        -0.1822557127687609,
        -0.9801147883247137,
        0.6046893745730467,
        0.5679065994224183,
        -0.024670828617662434,
        1.2023331685503744,
        -0.49109393323456546,
        1.2484573530640866,
        0.17618380972242959,
        0.07845679091246173,
        -0.8510831845716973,
        1.2991116497609505,
        0.2579766545621548,
        0.7197719175770183,
        0.3236353280875971,
        -1.0073063748016184,
        0.8490498299888422,
        1.555949673884917,
        0.12388370593556036,
        0.5670692963921662,
        -0.6760180793048892,
        1.1933955346934157,
        0.45398606219210524,
        0.5787738900681336,
        0.10520888852004795,
        0.74369824624302,
        -0.028003771382634157,
        0.1653920952934263,
        0.7719341449650162,
        0.47695501448531186,
        0.3714830116123065,
        -1.0463076731067735,
        -0.050767662329592726,
        -0.11200023951976813,
        0.8946790218528444,
        0.6541346492833218,
        -0.4451782107736739,
        -0.15046997022701597,
        -0.16244306324099297,
        -0.5527285054351212,
        -1.3094327956569916,
        -0.15772178782489002,
        -0.2817763269141965,
        -0.3667745494652932,
        -0.10146725780297232,
        -0.0040257832279492305,
        -1.4194707816790164,
        0.34691386883291164,
        0.7291486907823859,
        -0.05360653935977525
    ]
}