{
    "idx": 703881,
    "fights": [
        {
            "enemy": 5,
            "fitness": 88.69788117912033,
            "player_life": 43.00000000000029,
            "enemy_life": 0,
            "time": 271
        },
        {
            "enemy": 6,
            "fitness": 86.00835394814497,
            "player_life": 14.200000000000228,
            "enemy_life": 0,
            "time": 224
        },
        {
            "enemy": 7,
            "fitness": 66.5446788846423,
            "player_life": 0,
            "enemy_life": 20.0,
            "time": 234
        },
        {
            "enemy": 8,
            "fitness": 88.17288973525115,
            "player_life": 38.80000000000028,
            "enemy_life": 0,
            "time": 301
        }
    ],
    "weights": [
        0.4737014477577593,
        0.3910781646918927,
        1.3080290965638774,
        -0.05125643118351729,
        -0.3920328922920754,
        0.2710318321845104,
        -1.364161866152589,
        0.4904768186913445,
        -0.7866153108251207,
        0.7407807918637135,
        -0.952872903768401,
        0.6897300704481913,
        -0.8368648097695526,
        -0.6172181854510623,
        -1.047890987057984,
        1.4162842711124424,
        -0.4566584960428535,
        0.9789050969948886,
        0.3684208310506478,
        -0.3010506245803687,
        -1.1217813862799013,
        0.1819538292041627,
        1.527454198649904,
        0.5195569306942536,
        0.3370279709840005,
        1.1948289714002673,
        -0.8919154523166013,
        0.07360311890805324,
        0.4213177410452461,
        0.4166395576593956,
        -0.5431986822431791,
        -0.32372790473202656,
        -1.13099903685034,
        0.022099841292433593,
        0.982837953650266,
        -0.5102509781204388,
        0.5738300459452065,
        -0.6734336639704931,
        0.4866053407739013,
        0.262262338950047,
        -0.13168601169153,
        -0.8341115946548642,
        0.9549352729297194,
        0.27282869721509373,
        -0.23571660750109366,
        -0.42602460960531574,
        0.6799107296778726,
        1.373504629772887,
        0.30424436298698987,
        0.5648767172470223,
        0.1742675275560327,
        1.4011719944027967,
        -1.4016261065192404,
        -0.4416120772711075,
        -0.07710600478385538,
        1.67255870766295,
        0.08897943259027867,
        0.10165597599201598,
        -1.7306651127274806,
        1.226494272675803,
        0.625505511173563,
        -1.0434915610556494,
        -1.0383989359302292,
        -0.08906290701628944,
        0.5555402056436419,
        0.8517204893877385,
        -0.4019311688405469,
        1.058890274960624,
        -0.5459729297388943,
        -0.1783498358952138,
        1.1341086546491808,
        -0.3937935841191277,
        -0.8471537242427931,
        0.12393759185847068,
        -0.4833303118688871,
        -1.7976427623460156,
        -0.16079243975473048,
        -0.6978407729083345,
        1.1643779356513178,
        0.680784609591353,
        0.055303936523166494,
        0.29384644006111205,
        0.8399997936803604,
        0.7864597993924842,
        0.06965563786229437,
        -0.6307139147540292,
        -0.14354881320019713,
        0.6239208427456273,
        -0.09072623388783888,
        -0.4366226087101663,
        -0.24766732833697494,
        -0.7109354682162221,
        -0.3265879273437165,
        -0.3745329348930872,
        0.6537343415270747,
        -0.146874668884212,
        -0.27237931820606565,
        0.11277437200179868,
        2.175914208241181,
        -0.8213715506196804,
        1.0325838618899974,
        -1.3158091138237442,
        -0.4967790768062233,
        -0.5243876244374791,
        0.2296934344226437,
        0.4343937870806525,
        0.5260243424195434,
        -1.1617018434491995,
        1.2165003737254998,
        -0.7276304618324578,
        -1.3223734002910423,
        -0.02990608094827104,
        0.608029001744356,
        -0.4643414421163732,
        -1.2824287436973842,
        -0.3125430690692399,
        -0.048662647735046236,
        -1.0343356231894476,
        0.014446579086512062,
        0.5437091727540128,
        0.2201755867902236,
        1.2697254354326302,
        0.7403921393290236,
        -1.1691615015196757,
        2.005935090508618,
        0.920861753953974,
        -0.016983524460262165,
        -1.0379677078612135,
        -0.7288701246717246,
        -0.8207754640287159,
        0.13302307993725562,
        0.2662553698429772,
        -0.23130440782752415,
        0.08456810670499011,
        -0.03631393338049231,
        0.602391347114774,
        -0.488644068684532,
        0.9350806301007881,
        0.29686521292917245,
        0.29329441661722083,
        1.187192728442993,
        1.3974754904831928,
        -0.1425504403000501,
        0.4362859261719866,
        0.32167405651088066,
        -0.6185228201044418,
        1.1009322800619121,
        -0.47842344887832916,
        0.13553814491135718,
        -0.4372955870973274,
        -0.21112049564966742,
        1.0290547814692586,
        1.8162332277502264,
        -0.49968958157870574,
        1.110614139974253,
        0.49491551670889433,
        0.21934443754920735,
        0.6022814622388124,
        0.9488358828101835,
        -0.5447644421493921,
        -0.8550375681251834,
        0.5820091285215417,
        -0.09492864695957073,
        -0.7284651497200527,
        0.25791485563912625,
        0.36913228505055407,
        0.2226125114290463,
        0.7023485025789196,
        0.4434660752119628,
        0.3516470828741929,
        0.14868889867007723,
        0.1805787545211608,
        0.282508645273134,
        -0.12196597510822935,
        0.5942457493409815,
        0.15337028409391454,
        0.015765310045316158,
        -0.999384027750959,
        0.39604414734160215,
        0.07468951889651607,
        -0.8468289907032021,
        -0.1704412011753847,
        -0.07551861744228684,
        0.5439422158055444,
        0.2261066077100852,
        1.0614764560243475,
        -0.1792501938665906,
        -0.8040135905336703,
        0.4767461405673916,
        1.1900376312536687,
        0.4211697190534919,
        0.3307348218802487,
        0.5562521811451145,
        -0.2487453366743493,
        -0.15351778059031876,
        1.3215095678738171,
        0.539507631175133,
        -0.8081597554834146,
        -1.1214998826196887,
        -1.5250405583021105,
        -0.8429575552693472,
        -0.246381595294785,
        -0.5350055525511432,
        1.538960879706428,
        0.5623100871042678,
        -0.8789708853059728,
        -0.85147335180901,
        0.028771568709257136,
        1.0934653143228683,
        -1.041165723793645,
        -0.18645024843780322,
        0.2173733055233133,
        1.2079788366017712,
        -0.7167250086476318,
        0.8169231252179256,
        -0.4433832152828126,
        -1.134514080951765,
        0.8557443825569866,
        1.2098677824933217,
        0.34671880441573827,
        1.6483648134267477,
        -0.7894671477490598,
        1.217638973749947,
        0.39991341738493763,
        0.021321494117029823,
        -1.159784661504993,
        0.7240437360004142,
        -0.47401750469864146,
        0.2521920200607004,
        0.4158404906679526,
        -0.5830333988305038,
        0.6943608838129472,
        1.8624981978969686,
        -0.3396695927505824,
        0.1968546559212674,
        -0.5165232150409419,
        1.2405549037757313,
        0.2052731384959108,
        0.6689340202906511,
        0.10596236453383959,
        0.982705418750137,
        -0.14760267003366667,
        0.603895599628209,
        0.9421456684334923,
        0.39711694222470695,
        0.34631070342520315,
        -0.954573079356162,
        0.1053760779625351,
        -0.06385767354567362,
        0.9416451267192529,
        0.9577918245474082,
        -0.4238644722414659,
        -0.047430495102418355,
        0.3002805098747886,
        -0.3964196795960193,
        -1.443312471669766,
        0.0015302073115878306,
        -0.5763713595714485,
        -0.2058812343923352,
        -0.19517212877853418,
        -0.1448932985966263,
        -1.494423526661071,
        0.49595467893109635,
        0.4349328309430034,
        0.06696988881344115
    ]
}