{
    "idx": 704005,
    "fights": [
        {
            "enemy": 5,
            "fitness": 88.5252886203982,
            "player_life": 41.20000000000029,
            "enemy_life": 0,
            "time": 269
        },
        {
            "enemy": 6,
            "fitness": 48.23167900420623,
            "player_life": 0,
            "enemy_life": 40.0,
            "time": 320
        },
        {
            "enemy": 7,
            "fitness": 89.12814186652396,
            "player_life": 44.800000000000296,
            "enemy_life": 0,
            "time": 211
        },
        {
            "enemy": 8,
            "fitness": 87.53788162462297,
            "player_life": 33.40000000000027,
            "enemy_life": 0,
            "time": 331
        }
    ],
    "weights": [
        0.5561327126810033,
        1.4425270583554466,
        1.156607110861466,
        -0.7491439756337026,
        -1.0633165950258623,
        0.14220037074839412,
        -1.4622807517536816,
        1.0500505854680773,
        -0.6648784650071732,
        1.2254827192139752,
        -0.735584303884406,
        1.2839171690959306,
        -1.0989297268974059,
        0.04301913960949601,
        -0.7573424025379901,
        2.636555788154912,
        1.0059167726660314,
        0.6964127277362472,
        0.31421744973772053,
        2.424817035327325,
        -1.866097650082434,
        -0.09240260093054177,
        1.6161368098734352,
        1.1207589844971724,
        0.9706481890798382,
        1.5727374773587923,
        -1.815459397956072,
        -0.009583215319775337,
        1.3049629512135068,
        1.0562254512015699,
        -0.6112544809064595,
        -0.27160799622175336,
        -0.8892310775157555,
        -0.7926137005470627,
        2.1805385980436274,
        -0.10362903352340158,
        0.7227862774851733,
        -1.1834618562417258,
        0.06748140880903977,
        -0.0815982221391261,
        -0.18456914823069942,
        -0.6785608821966087,
        0.6504250291217752,
        0.704931153404864,
        0.16303625198116806,
        -0.8340793738517942,
        1.5506137251913388,
        -0.3303037364614827,
        1.7318676324204763,
        1.5586290151934439,
        -0.9845155037798696,
        1.3819263535052217,
        -1.5274486887503733,
        -1.0188175518753597,
        -0.6682759427976985,
        3.089114466474202,
        0.21091914325274147,
        0.2821037466900815,
        -2.151876564470246,
        -0.09256853131548692,
        1.1611328296406302,
        -1.0457003294109044,
        -0.42900305023849605,
        0.6578520273468552,
        1.1812736028132673,
        1.3430631555260428,
        -1.1872233172056377,
        1.8407791355482293,
        -0.6093018158705097,
        0.35967408005304013,
        0.8228031070488622,
        -0.821816084127056,
        0.3017277631320858,
        -0.06648576239556948,
        -0.4956260570252983,
        -1.1595644120424435,
        -0.3861126328386273,
        -0.4748706603514914,
        1.0716508115927323,
        0.019475249175241155,
        0.9329779381482556,
        0.13751958724695929,
        0.8123552455309007,
        2.9397178406266145,
        -0.1104814684498645,
        -0.23800300247449704,
        -0.5364163161188702,
        1.1040323564754129,
        0.4791611827742704,
        -1.8298705807052222,
        -0.809064111388527,
        -0.20157950751458065,
        0.10839687280219333,
        -0.7003446756880937,
        0.6743004393513062,
        0.021994774363958098,
        -1.029354812854953,
        0.35039927896912193,
        2.0283083895532155,
        -0.8991346692347167,
        0.7929008791687522,
        -1.713540520304002,
        0.15353856772138286,
        -0.8482184989274105,
        0.1450709350049954,
        0.5764458409354326,
        -0.25835403779436134,
        -1.1594130906853353,
        1.2747638989025527,
        -0.8991768909720912,
        0.695684327776291,
        -1.1358396691318648,
        0.8886954429630838,
        0.017577677595600263,
        -1.0876941262113642,
        -0.41675172539453914,
        -0.40843307883409463,
        -0.716982273208007,
        -0.09568844188849962,
        0.44097879809673524,
        0.4365359531631965,
        0.024194973781595457,
        0.44008580633042776,
        -1.5889694571383763,
        0.9494801162324521,
        2.729905589582271,
        0.6482952491887263,
        -1.0279671410664557,
        -0.14726699937561058,
        0.14310552270788512,
        -1.3563248358917526,
        1.5086096961779967,
        -0.19409167875469582,
        0.18034663126561026,
        0.9438522498672958,
        0.8776546663526908,
        0.4285888292632061,
        2.2018820790317433,
        0.6467856261039664,
        -1.0975322825813707,
        1.4834724505205845,
        1.7104891609144701,
        -1.2361409362829001,
        0.17852749039749627,
        0.7480322682877196,
        -0.7384993591843115,
        1.0963237101044732,
        -1.9250651086625867,
        1.5903540951061805,
        0.15433610162355882,
        -0.18527319759387517,
        1.4403191852425026,
        1.5104008551751824,
        0.2296117039105523,
        1.3759242826078324,
        1.2891719431116202,
        0.11149412976698661,
        0.9484964828863406,
        1.0414875490920275,
        -0.6599511423247341,
        -0.06122741050280296,
        1.2343190129572092,
        -0.28265376684274957,
        -0.3537418196154754,
        0.4850339910300441,
        -0.059086699016947825,
        0.3378479993601353,
        1.050833576037241,
        0.42468038194642915,
        0.37855890754980237,
        -1.6548816806283149,
        0.10636961230638084,
        0.8408101358718009,
        0.7257703329812338,
        0.8028701118320855,
        -1.0395809794577955,
        -0.7324241458543042,
        -0.5488246632610723,
        0.6719177597371567,
        -1.507499185682718,
        -0.2480053673791769,
        0.6290991250736072,
        -0.22502518451683284,
        0.4182819865406576,
        0.2849760253556288,
        1.085157610158267,
        0.14469254399438855,
        -0.6405279306659457,
        -0.07854080731488766,
        0.8372399490445418,
        -0.08889400603515818,
        -0.29816106775028195,
        -0.6077812740262973,
        -0.4358551703752169,
        -0.1522080310391397,
        0.5115483307771908,
        0.02447165168080729,
        0.5906069451091861,
        -0.25239432182522936,
        -1.8209961999058957,
        -0.6554486196011254,
        -0.07928741721487405,
        -0.630709771139821,
        2.0893617710608807,
        -0.6419072182518674,
        -1.3950146728289208,
        -1.1829600991748754,
        0.15189170313452682,
        0.8775210662107014,
        -2.0413327817899476,
        -0.46606457742481855,
        0.2732630046440593,
        1.0808491728481662,
        0.28432270956863825,
        1.1441607120930335,
        -0.7457271201168634,
        -1.3851977114085963,
        -0.054257538839525,
        0.9978354511527534,
        -0.4783807547698664,
        1.2471596002841927,
        -1.5217905202600397,
        0.9719270358918007,
        0.7724203049547145,
        0.565605852625986,
        -1.0566089633031064,
        0.6759456478754822,
        -1.168539822021388,
        -0.0007269475610102855,
        1.742976323993577,
        -0.8645882145046302,
        1.2117336178802123,
        1.9128283019329557,
        0.03528106363518458,
        0.5777786784444123,
        -0.31986794071112234,
        0.6849068465128153,
        1.375833406673555,
        -0.11305587177205462,
        -0.7992218595715588,
        0.6190086418281495,
        0.2843409907743494,
        -0.35144215215092883,
        0.9708670536719999,
        0.9646263398480024,
        0.34680815218500116,
        -1.022678395200199,
        1.2671438157239203,
        1.4653038436783392,
        1.2389367958526116,
        0.607746477480233,
        -1.0403461630063653,
        0.21043958111169372,
        0.16313356380585442,
        0.4915736594854056,
        -1.4628170579891615,
        0.022732463832812883,
        -0.0804324802454296,
        0.24362326575619503,
        -0.49132343617635316,
        0.037854319507482276,
        -1.3034217848216383,
        0.9954785355570702,
        0.527741794325383,
        0.34365832396955087
    ]
}