{
    "idx": 708197,
    "fights": [
        {
            "enemy": 5,
            "fitness": 74.6318128136495,
            "player_life": 0,
            "enemy_life": 10.0,
            "time": 583
        },
        {
            "enemy": 6,
            "fitness": 86.22322890233345,
            "player_life": 18.400000000000233,
            "enemy_life": 0,
            "time": 275
        },
        {
            "enemy": 7,
            "fitness": 90.01504998251862,
            "player_life": 54.40000000000032,
            "enemy_life": 0,
            "time": 227
        },
        {
            "enemy": 8,
            "fitness": 86.99788162462296,
            "player_life": 28.000000000000256,
            "enemy_life": 0,
            "time": 331
        }
    ],
    "weights": [
        0.8214634893084695,
        0.6329053775818768,
        1.3773688627554959,
        0.314485488259484,
        -1.4616068724031204,
        0.939968581517223,
        -1.8262028462640505,
        2.395373244709702,
        -0.3676730180455912,
        1.2763595824339369,
        -0.46642084438952336,
        -1.303739261552119,
        -1.4928808122445818,
        -0.5944877138297843,
        -0.9099880263080747,
        2.373773200527449,
        1.0294356079339977,
        0.8565224596564928,
        0.015979242481743622,
        2.395430637472286,
        -1.3611598240585556,
        -0.0015450709780052488,
        1.5632005505356332,
        1.4676688086396505,
        0.2972417831275568,
        1.8462355456917343,
        -1.7658872201633362,
        -0.3025901578877195,
        0.009305567683255106,
        0.3205473348715884,
        -0.38589912396244735,
        -0.7823843534335113,
        -1.296702985215164,
        -0.3438823913726227,
        1.0933079186094437,
        0.34801853088710766,
        0.09618605795047457,
        -0.9753345508637973,
        0.5877543997339725,
        0.4798877398318335,
        -0.20473269960556717,
        -0.43987952472877656,
        0.7958578336505046,
        1.9652978507827292,
        0.514798843143094,
        -1.19412003055079,
        2.1563645106226845,
        -0.034902312105339076,
        0.8759366964392563,
        1.4650708156750805,
        -0.37797104710002244,
        1.9452018898016599,
        -2.408112045017887,
        -1.1818123292002685,
        -0.12065182907119562,
        2.509008115228108,
        0.5349851847989769,
        0.2967055304493584,
        -2.794087171689917,
        0.3364383411771286,
        0.8114524472710545,
        -1.3674400121584307,
        -0.47635488391485376,
        0.6372924486428762,
        2.29635376315678,
        -0.05053000666028311,
        -0.39776491696197813,
        2.110266217795537,
        1.2589078873294712,
        -0.21780989175879736,
        0.989702739452075,
        -0.7678297207600695,
        0.009078784430908121,
        0.13991678914433298,
        -0.1420340034301833,
        -1.453705697497917,
        -0.8329907997254516,
        -0.1594527816255682,
        0.47484953294241,
        0.33980087784433144,
        0.10291504080924506,
        -0.5602674511142824,
        0.9617591354817958,
        2.6143442645107586,
        -0.21424905339326838,
        0.05015058810760148,
        -0.8203034818667124,
        2.208559075561486,
        -0.6183191501335369,
        -0.8260833694850414,
        -0.6616357118988778,
        -0.8399759409321927,
        -0.10720080955086264,
        -0.40352322185242606,
        1.0980703298816104,
        -1.1319857001893712,
        -0.19341750419996162,
        -0.6042760762912436,
        1.6644343165005895,
        -0.9321348493900222,
        0.15017887681012845,
        -1.9696383451925976,
        0.20582312207666598,
        -1.0251584816759456,
        0.1174798667905394,
        -0.033473125613189894,
        0.45491546377373765,
        -1.4391015274897632,
        0.9525724497283632,
        -0.19303583025188314,
        -1.8018911541120461,
        1.1341930143340686,
        1.7278176090512591,
        0.5193323297148273,
        -1.019528363010805,
        -0.6937896395848284,
        0.34456175833880437,
        0.21130641057754782,
        1.0641233118249653,
        0.46789957298817264,
        0.8384492465830671,
        0.172197844501376,
        0.27395221361950706,
        -0.7239487804888807,
        0.8455098263603297,
        1.6778703971667934,
        1.3578655670511874,
        -1.1494347162505043,
        -1.3291161095229023,
        0.7285179137253547,
        0.5325671310015554,
        -0.19354824498098844,
        -0.1368815352144733,
        0.7506691357970563,
        0.39173361372721893,
        1.1593947017186714,
        0.1521286960030292,
        1.4546910482659081,
        -0.08654718615639304,
        -0.04845429808495463,
        0.7266848008022271,
        1.971326710327868,
        -1.19074363509801,
        0.3701319417882466,
        0.48128893304110687,
        -1.1131900075658632,
        1.0773685253002099,
        -0.4347764952156252,
        1.9906442626813643,
        -0.8344679199791778,
        0.5690150128998552,
        1.1164416694300767,
        1.9980204457535549,
        0.842590972206689,
        1.6085130046269513,
        0.5183895879200082,
        0.5513795889963831,
        1.8149796562343326,
        0.8828231866845532,
        -0.40971649035961033,
        -0.31550134380089656,
        -0.2669220211902082,
        0.8426020115153463,
        -0.24696580037262605,
        0.867678718506905,
        0.9930036729806659,
        0.18320122385194818,
        1.1152134257575756,
        0.39477105258068823,
        -0.14565234439891156,
        -0.40100957183865626,
        0.7490452389954259,
        0.7133287261899419,
        0.18495873049477113,
        0.6854865569119518,
        -0.4811300484827858,
        -1.2202588177431166,
        -0.5653564254533312,
        0.40814099354685707,
        0.10105869123680467,
        -0.6196503250177873,
        0.37826706724169507,
        0.043419523916749636,
        0.2202484047576588,
        -0.36041168344323804,
        1.203608482416306,
        0.49960836757878385,
        -0.3848913507917531,
        3.4797056668347874,
        0.5404055328958882,
        -0.040303943615814755,
        0.5499652329842087,
        0.6813727390549507,
        0.5253187065332288,
        -0.03464742367526101,
        0.20833633020876727,
        -0.27270299225950284,
        0.22267503389606388,
        -0.426549014265454,
        -1.7156769243937378,
        -0.7972417363795967,
        0.16941436703017315,
        -1.4809667791100871,
        0.0021040875609856374,
        -0.25249558927591664,
        -1.2358297828573523,
        -1.4858334543279736,
        1.0083711239634832,
        0.44931554065100926,
        -1.786619090832303,
        -0.27255272682048104,
        0.9240895490278903,
        0.21957983823332874,
        -0.8686663036311822,
        2.143653748472727,
        -1.2450691324075325,
        -1.7283507906245452,
        0.24760718415532434,
        2.3494806554477283,
        0.21797488367883724,
        1.6989230814456884,
        -1.0822679611591428,
        0.9875414796707497,
        0.9321395193011551,
        0.5844120766362433,
        -1.2761335631450996,
        0.1618359292518233,
        -0.5236554053058192,
        -0.005484607494595957,
        1.573632858096063,
        -0.8333858180249134,
        1.6563636943467055,
        2.106738413371472,
        0.3380791193330856,
        1.363707792876142,
        -1.0876255948908953,
        1.1959018915092579,
        0.6898808579983197,
        0.5769891507687529,
        0.11357516033985537,
        0.9804785079646746,
        -0.36387115202720544,
        -0.31016943770966193,
        1.040536220449493,
        1.4942897358691656,
        1.6236006656608515,
        -1.2287606862274625,
        1.1098936165042965,
        1.284202654265251,
        0.5312469156606984,
        0.42915190763193933,
        -0.993605496448348,
        0.22073364080519545,
        -0.17341965560478156,
        0.551857683448644,
        -1.2395648251559317,
        -0.09607653298945676,
        1.2756150573436014,
        0.6099455666758411,
        -0.11878226999479388,
        0.056094388245831336,
        -0.8185307573761154,
        0.9403387013038597,
        0.9260715696553897,
        2.0621144504354487
    ]
}