{
    "idx": 700591,
    "fights": [
        {
            "enemy": 5,
            "fitness": 88.40901301948917,
            "player_life": 40.000000000000284,
            "enemy_life": 0,
            "time": 268
        },
        {
            "enemy": 6,
            "fitness": 57.570654371045556,
            "player_life": 0,
            "enemy_life": 30.0,
            "time": 228
        },
        {
            "enemy": 7,
            "fitness": 90.08814186652396,
            "player_life": 54.40000000000032,
            "enemy_life": 0,
            "time": 211
        },
        {
            "enemy": 8,
            "fitness": 88.81968822339262,
            "player_life": 45.4000000000003,
            "enemy_life": 0,
            "time": 305
        }
    ],
    "weights": [
        1.372324543356402,
        0.34702618943160823,
        0.23928415261709554,
        -1.0570562882621548,
        -0.9193991254563273,
        0.18243612684537736,
        -1.3414655443743162,
        0.2756605259884077,
        -0.5611084369530835,
        1.0561273276113656,
        -0.6349441092509377,
        0.7936763758700657,
        -0.047426439560976974,
        -0.2501070928254653,
        -0.18645828414517168,
        2.047476383781914,
        -0.46944002482686165,
        1.0680743236536263,
        1.3408916382670655,
        1.9055101216128303,
        -0.24475952483830965,
        -1.2275194305922899,
        1.9635395584379165,
        0.7059970317103746,
        0.7199281227366137,
        1.6962563835388227,
        -0.17174215016341848,
        -0.16565078544513376,
        0.18084542075102766,
        0.41865450230143464,
        -0.32381135486609247,
        -0.2514787649035683,
        -1.4190308052739602,
        -0.10407581824960224,
        0.8650681871262904,
        -0.07487360717823041,
        0.15419018764806794,
        -0.9516191784736774,
        0.17815962030025578,
        0.9320760261426416,
        0.18527311161347876,
        -1.4596443612062486,
        0.6083208310221853,
        0.6894574415571795,
        -0.35125353096295875,
        -0.7516604227354737,
        2.231957648450265,
        0.19459213208574508,
        0.8142784191570276,
        0.9136966551062261,
        -0.3746923269242173,
        1.3859670866896039,
        -1.3235085400848723,
        -1.0022144737831835,
        -0.26688073115793215,
        1.7409253820838413,
        0.23228021752248895,
        0.08848485961631855,
        -1.506653223583913,
        0.24091603816847887,
        1.0253392987277157,
        -1.0145371369019984,
        -1.376049535598692,
        0.5410399088157185,
        0.1857021120461362,
        0.9024419716484195,
        -0.1672566060929745,
        2.5344009898128013,
        -0.14215876925851775,
        -0.1628713483277159,
        0.37250793332107857,
        -0.45669740264312497,
        -0.3732488953963571,
        0.0863030653560981,
        -0.15036378005149545,
        -1.1897828143948543,
        0.7897865876332809,
        -0.2590535355148455,
        0.5001770952102356,
        0.8747428807194915,
        0.16120193978575353,
        -0.22235171932650327,
        0.13950728863381442,
        1.4998773100390996,
        -0.4350641553301234,
        -0.9543053434950799,
        0.8777035220070922,
        0.46581695258463585,
        0.8027367586620717,
        -0.3557026583379199,
        -0.1416845165222525,
        -1.0248990659676611,
        0.5624424665383236,
        -0.45552710557032666,
        1.457373551969428,
        -0.26864520201619935,
        -0.03575827082700546,
        -0.1190499249221866,
        1.6158819787922445,
        -0.6074496455722952,
        0.775594523031896,
        -1.6992652669519137,
        -0.6828925840982835,
        -0.6530862124911845,
        -0.1902918061291069,
        0.45971794737033345,
        0.9793189725158725,
        -1.2210210464925384,
        1.4946090354264583,
        -0.9880023554637587,
        -1.1593086500100929,
        -0.03806705352634614,
        0.8415424603753362,
        0.06566438577049322,
        -1.5919963837028845,
        -0.7579698611457609,
        -0.03888777035823992,
        -0.8958996765531974,
        0.028214390944775198,
        0.7096506463915015,
        0.46536528456058557,
        0.6034381702331506,
        0.672679286011811,
        -0.8373797911731169,
        1.2109626979264017,
        1.6195352987473637,
        -0.3740522936364453,
        -0.7940276714991726,
        -0.25984834236988485,
        -1.227603503310263,
        -0.08450563625876853,
        0.14936610843719314,
        -0.2872151710522161,
        0.916457350522645,
        0.8481543142924116,
        1.1500260493871601,
        0.05765439841563229,
        1.9103313288674149,
        -0.023963856553203884,
        -0.44549212357370227,
        1.3038406615980862,
        0.6603081733146968,
        -0.7905944230220571,
        0.33606160231976756,
        0.48047979801423474,
        -1.1667384924914979,
        0.7983133152820552,
        -0.8399383989692958,
        1.313763435332572,
        -0.5272226286265436,
        -1.0114038179941183,
        0.9576834088401878,
        1.4526056607240592,
        -1.1922949427857883,
        0.8441390346280576,
        1.3597933274331155,
        0.2110268650726838,
        0.09445385847042055,
        0.6905130413358658,
        -0.4968187887052867,
        -1.1038472149595084,
        -0.1399177748358516,
        0.12168942784368024,
        -0.7933093648299778,
        0.14229455027111526,
        0.6137489944389052,
        0.00409453983567179,
        0.7980299904352556,
        0.44556431116021683,
        0.8150987307320666,
        -0.17422661839516468,
        -0.23527166938291888,
        0.5432375941089641,
        0.012013199828442483,
        0.7294715331917908,
        -0.02391086703467809,
        0.009146188575281572,
        -1.0329604442163618,
        0.19902722970035705,
        -0.14050445253213073,
        -0.36325079164202806,
        0.533669871784442,
        -0.050319117454029325,
        0.43492053851841134,
        -0.15560578936362301,
        0.8775105719389148,
        0.39938914127128533,
        -0.41336835572221414,
        0.010127618452650403,
        0.686718790070194,
        0.5239600684099969,
        -0.5358397771026788,
        0.6636929890710279,
        0.11254596936981294,
        -0.011273860745743852,
        1.380762859252434,
        0.4125123102254249,
        -0.2014642779021499,
        -0.6194314250240498,
        -2.0041582910872915,
        -0.601091272697424,
        -1.1400660403108276,
        -0.5953484021596244,
        0.8478297661399551,
        0.03974003027985154,
        -0.9083870730476918,
        -0.9786442104023434,
        0.538862870889382,
        0.5366559443404061,
        -1.277207461900912,
        -0.1535100155055597,
        -0.04590582258896548,
        1.1328239410078542,
        -0.6389212128036824,
        0.9708330504365871,
        -0.9782431606576799,
        -0.6500536796316968,
        0.5009570298336771,
        0.3394043279048786,
        0.2504579578060725,
        1.0425461986826061,
        -1.0171581095199627,
        1.2714948588342085,
        0.3682097970393833,
        0.06157839239398959,
        -0.9495629611235101,
        1.075147281094479,
        -0.49544061925513244,
        -0.7675863027397503,
        0.4703343983201802,
        -0.8731958565194995,
        1.3135315302454031,
        1.9450022325664764,
        -0.20600172125752308,
        0.3842804773511142,
        -0.6556562962314759,
        1.0875165019833193,
        0.8494897222563564,
        1.3156177114174152,
        0.2940812581659494,
        0.9867136289330333,
        -0.47260801384141515,
        0.8816795941585681,
        0.769982611774084,
        0.2869693333611223,
        0.2159504363886888,
        -0.5041466981261914,
        0.16872307163511227,
        0.6577336259751203,
        1.5090033980038193,
        0.7528576591678526,
        -0.9395599422432639,
        0.1768456415825169,
        -0.12475637553578467,
        0.051867544793355626,
        -0.7327372284274382,
        0.3527187732772022,
        -0.28239628186407395,
        0.4248806810777247,
        -0.32489947163984123,
        -0.03601996386444918,
        -1.1396410206247116,
        0.2379095214000399,
        0.6528665531896269,
        -0.04499564895161793
    ]
}