{
    "idx": 701772,
    "fights": [
        {
            "enemy": 5,
            "fitness": 89.03466846406768,
            "player_life": 45.4000000000003,
            "enemy_life": 0,
            "time": 246
        },
        {
            "enemy": 6,
            "fitness": 30.648141866523932,
            "player_life": 0,
            "enemy_life": 60.0,
            "time": 211
        },
        {
            "enemy": 7,
            "fitness": 90.55402398497817,
            "player_life": 59.20000000000033,
            "enemy_life": 0,
            "time": 214
        },
        {
            "enemy": 8,
            "fitness": 88.81968822339262,
            "player_life": 45.4000000000003,
            "enemy_life": 0,
            "time": 305
        }
    ],
    "weights": [
        0.5924900030560669,
        -0.11064807775509938,
        1.574738299056616,
        -0.09391864622212165,
        -0.875809236149437,
        0.664516779230974,
        -0.8234858644651338,
        0.984468746002121,
        -0.4916361039143978,
        1.0923067289455457,
        -0.5480964805439946,
        0.9581569941520506,
        -0.6432343524425517,
        -1.3894305702654637,
        -1.2035932757934589,
        1.8648263429559446,
        -0.34887130373155756,
        1.5721881961762543,
        0.4855130750757146,
        0.494360848951416,
        -0.6729041610503887,
        -0.13339765942122606,
        1.544598418236411,
        0.9031144402937197,
        0.07195626151847784,
        1.164372505021742,
        -0.4234661763518085,
        0.15955416707838654,
        0.36663324448912293,
        0.35561838150532465,
        -0.5278799897291334,
        -0.03769508445068741,
        -1.1267654683330046,
        -0.09334106261098514,
        1.559535150939185,
        0.09476376586065029,
        0.45193636300441453,
        -0.6852281372912556,
        0.41407902753443154,
        0.04210672613729469,
        -0.48501760390074816,
        -0.8697831586288713,
        0.890675704554439,
        0.35815629626774764,
        -0.3523304618180313,
        -0.4518418398107295,
        0.7300266466459109,
        -0.2851688243043935,
        0.7036362542065558,
        1.1048233753038665,
        -0.7476501954313679,
        0.9408127435920277,
        -1.232439077515599,
        -0.19720840172321574,
        -0.33457913566339004,
        1.4927455215320846,
        0.6292647289282008,
        -0.32273537941216246,
        -1.3531592530019807,
        1.232361545568603,
        0.9656444238892278,
        -0.7005529521345016,
        -1.0325469588895182,
        0.7838497462859594,
        1.0867217735321753,
        0.33734173488597885,
        -0.7814106953317862,
        0.8637614637876234,
        -0.22280984243365065,
        -0.4779788818440198,
        0.8812278017103823,
        -0.5320056496444764,
        -0.9274343483465123,
        0.5189203889624476,
        -0.6140056886069234,
        -1.9034205590787525,
        -0.2910304820063366,
        -0.3176066692047861,
        1.2003619227882736,
        0.8753244913763926,
        0.67780795889792,
        0.05051396326087928,
        0.4093322610316298,
        0.4439080572462043,
        0.061971645991570574,
        -0.8017369581253221,
        -0.47169185768164484,
        1.7444157991107416,
        -0.3621426875570398,
        -0.06464778438926451,
        -0.5668438909836686,
        -0.8772397591262404,
        0.09649796580950519,
        -0.08224788995865487,
        0.409473710734665,
        -0.18081398505155793,
        0.03239291312862713,
        0.12446758368308414,
        1.996057406210417,
        -0.8144831819760968,
        1.1810044285931514,
        -1.4577921122049147,
        -0.3022763610997359,
        -0.06813184729751529,
        -0.3265609929355936,
        0.66971350197954,
        -0.009246718259640546,
        -1.5424282520858226,
        0.6080667933665027,
        -0.7898697408315793,
        -1.569954931655812,
        -0.08536984881688997,
        1.7677557293674477,
        -0.039482476932854754,
        -1.571123791489984,
        -0.3575394999593944,
        0.8732118119118006,
        -0.9131625888221993,
        -0.23590487030623597,
        0.08695027105698998,
        0.578866462965683,
        1.3793737006998312,
        0.2008846563748478,
        -1.111133856666462,
        1.8696091974690594,
        0.695146107932395,
        0.06380662154714084,
        -0.8763793653683799,
        -0.14426442286533608,
        -0.48488878692452364,
        0.19287599244933415,
        0.03955346459034193,
        -0.08761073528838324,
        0.33748185466568953,
        0.16245695958909098,
        1.023918364383337,
        -0.16220863700856125,
        1.1983671530973703,
        0.08758233152249995,
        0.8261419699507491,
        0.6313093057056538,
        0.7880158223007045,
        -0.5239027338039617,
        0.05911444663974176,
        0.495443875275513,
        -1.3948430840989012,
        0.7199802678999521,
        -0.5596916863723573,
        0.2587902205682144,
        -0.12457088814563516,
        -0.5940148540134073,
        0.2099113395699091,
        0.8694821812089704,
        -0.475141692123305,
        0.65678918541405,
        0.9182586595417273,
        0.32300606629351614,
        0.6150249048015356,
        0.5372829546799469,
        -0.39141495494683576,
        -1.591114158522956,
        0.0663159023543432,
        0.23593660684415874,
        -0.9457687763840391,
        -0.12591323793514686,
        0.5293504095118176,
        -0.07453432238183652,
        -0.2935843648348623,
        0.6584626016836026,
        -0.3742848307127422,
        0.3136830217303447,
        0.2616946685881932,
        -0.2763159455286429,
        0.2396234120818671,
        0.892591585470361,
        0.1912717605515648,
        0.21510627505056729,
        -1.1428493058023586,
        0.6560744809743956,
        -0.19058698951870867,
        -1.1219851176773057,
        -0.6674035288511632,
        -0.21574681031492776,
        0.7312709658967281,
        0.23379757349824137,
        0.7936082392948278,
        -0.1966589411707963,
        -0.8681926897302388,
        0.02945326115346416,
        1.0339313165402573,
        0.4269190677846194,
        -0.1818610471329778,
        -0.13137165524642308,
        0.16283116826034408,
        -0.23807787625993673,
        0.940339746588707,
        0.024132745628656072,
        -0.011194826295047436,
        -0.9981924608395505,
        -0.9773059187811581,
        -0.9987025581738063,
        -0.4856059994840719,
        -0.8339090274909375,
        -0.0887983210201054,
        -0.1489061547952375,
        -0.5875751722749782,
        -0.9691994339000294,
        0.5917899647993055,
        0.8950962541546372,
        -1.4154959693653761,
        -0.4648859165511886,
        0.42323828958922444,
        0.8626410789266571,
        -0.6899042940722087,
        0.9337973119090667,
        -0.46279962145043063,
        -0.9682933784533105,
        0.6044834011239824,
        0.8000864964894441,
        0.08119667163878908,
        1.4561179905977242,
        -0.49866763792558055,
        1.6703985223961046,
        0.007579330530869122,
        -0.038778839839230014,
        -1.2788334623058355,
        1.5030880695142836,
        0.15994990984944193,
        -0.22416646833755538,
        0.5111572180716455,
        -1.5576849907544323,
        0.23853544345959476,
        1.6079926432519671,
        -0.5231699327269898,
        0.5759247324869242,
        -0.41697837277171723,
        1.374509147590314,
        0.6654569312917596,
        -0.07193990304261738,
        -0.14149144448449924,
        1.0902295211712556,
        -0.2038216824425065,
        0.8174044895113622,
        0.8460810174626383,
        0.5388810421338834,
        0.7022563420136223,
        -1.4956501563580427,
        0.16357219260980976,
        0.3688504463799259,
        1.3590937807098977,
        0.9719172358586895,
        -0.6640820044273058,
        -0.1639688830964414,
        0.6255365043852934,
        -0.46731160428233126,
        -2.000657017258107,
        -0.12332095028865783,
        -0.28741303762234305,
        -0.26787383845059526,
        -0.2579915756255978,
        0.013224763750855262,
        -1.2460217085975918,
        0.5752464633580616,
        1.0540857041192166,
        0.5063145638719626
    ]
}