{
    "idx": 700226,
    "fights": [
        {
            "enemy": 5,
            "fitness": 90.12283177470682,
            "player_life": 56.20000000000032,
            "enemy_life": 0,
            "time": 244
        },
        {
            "enemy": 6,
            "fitness": 75.5361681949744,
            "player_life": 0,
            "enemy_life": 10.0,
            "time": 236
        },
        {
            "enemy": 7,
            "fitness": 91.10669517527555,
            "player_life": 64.00000000000034,
            "enemy_life": 0,
            "time": 199
        },
        {
            "enemy": 8,
            "fitness": 89.1866105112725,
            "player_life": 47.2000000000003,
            "enemy_life": 0,
            "time": 253
        }
    ],
    "weights": [
        0.6712558869677157,
        0.31716217219184106,
        0.6408230572182637,
        -1.1607364120333257,
        -0.8174801489801474,
        0.32285934794457266,
        -0.9752245159552575,
        0.836224331724578,
        -0.40084795593276107,
        0.5507677151631022,
        -0.5754166497076071,
        0.03737094977632853,
        -0.6885087513538091,
        -0.6922584362725557,
        -0.4091391377931297,
        2.005530970535116,
        0.03532109698118591,
        1.277635406099234,
        0.21234394113306432,
        0.6419568947016603,
        -0.9062672296144726,
        -0.43037841952589007,
        2.0868245726507384,
        0.6097974637029261,
        0.26064086361241945,
        1.2587926966084906,
        -0.9342837276791783,
        0.10964986156254786,
        -0.0002562216163595754,
        0.4198070951818415,
        -0.6052421282829331,
        -0.25232439923963274,
        -1.0084363138067203,
        -0.07321148185755985,
        0.7306037004322333,
        -0.3668567963932332,
        0.2105482408919292,
        -0.8908091454435352,
        0.3760400122468346,
        0.6559826268133295,
        -0.43831839733556244,
        -1.2040187831783502,
        0.6557121822416719,
        0.6400422329051367,
        -0.5272982789773666,
        -0.7293874372317405,
        0.8536827394057285,
        -0.5171083345131138,
        0.18099307525118175,
        0.8104863431760967,
        0.047380864573548606,
        1.2540616856906652,
        -1.077188375328929,
        -1.4879872057619261,
        -0.21843020853588693,
        1.9951241570750475,
        0.5114064309513224,
        0.13318619069935628,
        -1.6395997006026857,
        0.7663395857448695,
        0.683036987457062,
        -0.977981396638836,
        -1.1130515633190967,
        0.15152354282126648,
        0.23154227789460152,
        0.6453396470815584,
        -0.1616284816306779,
        1.8755872759503376,
        -0.025872881236315176,
        -0.21859238763529334,
        1.1472810972728427,
        -0.1769965030134801,
        -0.7869167611559899,
        0.11038966386598253,
        -0.3130342403542602,
        -1.5135795633871651,
        0.07425634976712962,
        -0.916445219461193,
        0.8107695543770663,
        0.68580363383892,
        0.4277254652942312,
        -0.14998268856146296,
        0.35425524764951716,
        0.8241325369461837,
        0.5085764981631138,
        -0.734012811638149,
        -0.3813881293908712,
        1.2966548302125878,
        -0.19612030341057218,
        -0.3669515517753295,
        -0.10682459349936085,
        -0.6925355767087942,
        -0.18254946407148484,
        -0.6860601599399183,
        1.20648216548155,
        -0.4126174692447205,
        -0.17546278820939243,
        0.22134226772251472,
        1.3777252835882285,
        -0.8203801406779596,
        1.0995338769902,
        -1.2386417681404072,
        -0.4744548892920777,
        -0.15274451637935277,
        0.04465370426076222,
        0.3685920544722925,
        0.7841805189869197,
        -1.6360895271587077,
        1.1111299689317893,
        -0.8148609432552143,
        -1.3195853930206765,
        0.07829101978614844,
        0.9451946031425247,
        -0.22068528031322934,
        -1.4699319567093696,
        0.08200694662766553,
        0.31862494047346074,
        -0.9742023395701727,
        0.44678170047423243,
        0.2511451974555749,
        0.3002927577626055,
        1.0246369723781248,
        0.879056620911566,
        -0.8607829573252962,
        1.6137242806253191,
        1.3021724415777531,
        0.1879108142966264,
        -0.5340019493818297,
        -0.518290156061742,
        -0.48423949772219094,
        -0.029336925250218887,
        0.27297596883940956,
        -0.3378082641538251,
        0.3745903766837916,
        0.19940206677105307,
        0.703960707572671,
        0.2875765786983252,
        1.6136126778438857,
        0.055525282013494166,
        0.005460973948597971,
        1.079707488563609,
        1.6519115611095807,
        -0.9554798086549734,
        -0.2891839628025649,
        0.7590231136082468,
        -0.8989197580906465,
        1.1766104393230665,
        -0.845569210484361,
        0.6128540264576967,
        -0.551590715208162,
        -0.368656664283354,
        1.4256919877000944,
        1.1433808609851768,
        0.12620358051629343,
        1.322778134213248,
        0.6665262111721306,
        0.3157749864662231,
        1.0489588882252956,
        0.11230701499539006,
        -0.7427333253851895,
        -1.3306523641970438,
        -0.4110590010706663,
        0.2262880984514528,
        -0.9554962242829383,
        -0.30458041450105267,
        0.21432908780784193,
        0.12434179424023045,
        0.5880277259305989,
        0.5684947546472118,
        0.3791740392101476,
        -0.4193286221732617,
        0.08699293414014414,
        0.04861032609120887,
        -0.1473465497138155,
        0.41241057257736335,
        -0.08578372914841334,
        -0.0025375522366881537,
        -0.5951004720156673,
        0.10768791347462715,
        -0.4877513799301375,
        -1.061882105127947,
        -0.4464392355884012,
        -0.03177305599853311,
        0.829361698222836,
        0.18715634044114798,
        0.35209229671776543,
        -0.056630487729922935,
        -0.45610417507976553,
        0.4177113762467246,
        0.25460511684683357,
        -0.1476561205584125,
        -0.19529810210696966,
        0.4086581365468769,
        -0.0814209287254192,
        0.206474045352464,
        1.3499962950763993,
        0.46235168802011994,
        -0.514545862089076,
        -0.1679026896041565,
        -1.524703404511965,
        -0.8706422837263339,
        -0.4641335791880326,
        -0.2174477127522585,
        0.7794476188330719,
        0.6876127367669745,
        -0.5608455807456887,
        -0.3041245955959909,
        0.6940162747409733,
        0.9536311065960336,
        -1.7358886156255244,
        -0.0948139692839066,
        0.617610269663285,
        0.9526673203641979,
        -0.18806981554752775,
        1.0850686096821427,
        -0.711806240860987,
        -1.1275262721515746,
        0.39498926313748633,
        1.309269658071698,
        0.48398857522070216,
        0.8817829201684242,
        -1.2141421888293584,
        1.3109671392442184,
        0.5618852968848945,
        0.016196187709771805,
        -1.146580276083364,
        1.3265213331777972,
        -0.6537140911910848,
        -0.3378289287609935,
        0.2815384561321352,
        -1.2971465643731066,
        0.37578322462991043,
        1.4691875293315813,
        -0.1600967472023055,
        0.49103664070004527,
        -0.5418733228049661,
        1.229389268551655,
        1.0962239612251476,
        0.40116047201100424,
        0.025801692191597538,
        0.8020319388995124,
        -0.053142663504244236,
        0.5484193527789442,
        0.9706753819536316,
        0.6619380238682048,
        0.2100510919258453,
        -0.8926870223398204,
        -0.09057265161782976,
        0.8468214108766406,
        1.2755403429210657,
        0.9801996535945983,
        -0.7579282041258117,
        0.019202220427191323,
        0.03278051416330087,
        -0.09610515878652015,
        -1.1633060698428017,
        0.10804194697996763,
        -0.2930263872288604,
        0.12613510082542065,
        0.8310775954477776,
        0.1743750203353494,
        -0.7655450948755125,
        0.4161637955601961,
        1.0194512388160082,
        0.15234301423233626
    ]
}