{
    "idx": 707666,
    "fights": [
        {
            "enemy": 5,
            "fitness": 84.06140592179683,
            "player_life": 4.0000000000002345,
            "enemy_life": 0,
            "time": 566
        },
        {
            "enemy": 6,
            "fitness": 85.11853908213779,
            "player_life": 6.400000000000233,
            "enemy_life": 0,
            "time": 250
        },
        {
            "enemy": 7,
            "fitness": 90.07504998251862,
            "player_life": 55.00000000000032,
            "enemy_life": 0,
            "time": 227
        },
        {
            "enemy": 8,
            "fitness": 86.33574420258549,
            "player_life": 22.600000000000243,
            "enemy_life": 0,
            "time": 374
        }
    ],
    "weights": [
        0.5676756553997673,
        0.5821834962340264,
        0.9535612479664248,
        -0.23326597009557445,
        -1.7367065690174988,
        1.0686323110826452,
        -1.3490773641543465,
        1.0846654890823042,
        -0.724571257404816,
        0.6702323426489499,
        0.2462934440586311,
        -0.6842337509389567,
        -1.1477183239863598,
        -0.7304624620225822,
        -0.12874445098287204,
        2.553823860092917,
        1.1026599379862057,
        0.4831650930354222,
        -0.3191602982765916,
        2.227313445324114,
        -1.4309420060491955,
        0.24269170251143254,
        1.5610836912183828,
        1.350668205706691,
        0.40793838751781397,
        2.163440504044034,
        -0.8061203540109445,
        0.024044006258448963,
        -0.18858063939475422,
        0.4020190567350939,
        -0.5584685518545368,
        -0.6802587316980577,
        -1.0197455561445283,
        -0.7677028686262621,
        0.7197548350012202,
        0.3212856454675037,
        0.5909313694751397,
        -0.6939371132113558,
        0.3924373835027551,
        0.6608190394848871,
        -0.4162098149309641,
        -0.9589396919315691,
        0.7247866922381371,
        2.7800697370959164,
        0.7765966841355008,
        -0.6833626654876711,
        1.3336501965796053,
        0.1956041161461704,
        0.8466289034315275,
        1.2062636654604613,
        -0.6289632702669009,
        1.0269551669657901,
        -1.7365681467919751,
        -0.5321319426386346,
        -0.7552578287962538,
        1.8846265347210904,
        0.6043785991224064,
        0.0324335895769604,
        -1.9093617713398712,
        0.797069598770971,
        0.8654456865615409,
        -1.1536492604721114,
        -1.001672505535415,
        0.633540513717726,
        0.5556479739357925,
        -0.21493791194330863,
        -1.3591959325168166,
        1.474834235861255,
        0.9180930411160761,
        0.09236697751097699,
        0.7534143940505605,
        -0.7766573457150143,
        -0.4458674459395872,
        -0.07069905447166283,
        -0.3855241712832173,
        -1.6577470159555532,
        -0.8588835665395875,
        0.044990377062770176,
        0.4626364864349646,
        -0.15323429658454663,
        -0.015583937374676338,
        -0.22059305882239755,
        0.5560559036923166,
        2.140859664062673,
        0.7377658655537975,
        -0.6304533335558633,
        -0.8882394576594257,
        2.35303084302498,
        -0.5562972777040477,
        -0.3487408443133177,
        -0.4494008313494141,
        -0.7819368156387063,
        0.3258952176344805,
        -0.844200702681801,
        1.016985068682883,
        -0.8274645008178445,
        0.035346503159216475,
        0.5445072596422447,
        1.2920106816396693,
        -0.963016832563497,
        1.1547516814215695,
        -1.3326504112804434,
        0.6072707783936327,
        -0.8787004322653277,
        0.5026986938114079,
        0.42917859032907957,
        0.3616206022365988,
        -1.6015591354752958,
        0.9018326112290159,
        0.1965802775523509,
        -1.5038765945229484,
        0.9235902022763777,
        1.5493797933406275,
        0.09770821205267266,
        -1.0064721888365702,
        -1.168277813396977,
        0.24469287208785914,
        -0.304675488177931,
        -0.06557189648448139,
        0.58647603193163,
        0.38607603284547026,
        0.2829230303936955,
        0.36145509992742314,
        -0.9245116613088048,
        1.1802576314497941,
        1.5631777092188555,
        1.1290524539373727,
        -1.1607767380820289,
        -1.1145778131774828,
        0.5368467462511647,
        0.2514549418328773,
        -0.3473041191458458,
        -0.288620511312661,
        0.8152274133291564,
        0.5173522681855921,
        1.084366336167067,
        0.1926102422801645,
        2.0278320498210087,
        1.1562606619714177,
        -0.7129100897425342,
        0.7288070818941117,
        1.4888144970287722,
        -0.8818269058527344,
        1.1536692340951733,
        0.0619217536000074,
        0.028382643217368803,
        1.264365375943049,
        -0.9541444872022355,
        1.236315467383259,
        -0.6331739118794529,
        0.6055355500823146,
        1.4677138352471955,
        1.2587887288835937,
        0.6252485795268327,
        1.3275578877805267,
        0.27699650680538596,
        0.4024731637348597,
        1.9658789469719247,
        1.2251185524266202,
        -1.0050501218131207,
        -0.8958495830664008,
        -0.2418081551796127,
        0.7807346154443408,
        -0.2566584979743405,
        0.033637949686634444,
        0.32744039850498685,
        -0.38249511836000216,
        0.5613570449650416,
        0.4445696075212565,
        0.38847160098240746,
        -0.08854016824660402,
        0.5875567962080764,
        0.7758687978306857,
        1.654286631142126,
        -0.041304378871812084,
        0.031167320365501752,
        -0.5202419124325705,
        -0.3225456385430444,
        0.5659968697988284,
        -0.1734273855281018,
        -1.2059015561685886,
        0.05097374704667158,
        -0.5743674205466366,
        0.2164310192940525,
        0.4808018101077535,
        0.8716882396228833,
        0.6957669007002834,
        -0.5730391324313497,
        -0.521158290289567,
        1.274607333396618,
        0.04931966426406739,
        0.15900518898057148,
        0.30023142528266417,
        0.11469576073329982,
        -0.33617525615665,
        0.5308013586457763,
        0.7259098427960535,
        -0.25257542545855893,
        -0.6298412329743692,
        -2.0652432250781727,
        -0.9425372018458872,
        0.43449206135761587,
        -0.25014786755175683,
        0.10890246056231957,
        0.06859196592157309,
        -1.8381099409281272,
        -1.567462722123281,
        1.337716244613605,
        1.1368258335459296,
        -1.6694306371403087,
        -1.0050054134931121,
        0.7282569201492275,
        0.6522635726625133,
        -0.8611636676873956,
        1.9120775841107116,
        -0.713271108797269,
        -1.7544124117683104,
        0.07991473916940275,
        2.3133634315868603,
        0.3734296546167846,
        1.4174598216364784,
        -1.6899011327395013,
        0.7586778420884502,
        0.7838816256996687,
        -0.1884526830459339,
        -1.3569752818245326,
        0.4340903543789284,
        -1.2643268038148519,
        0.4655347300289813,
        1.6506725615464488,
        -1.0779717382625753,
        1.66557662938549,
        2.0181111215036585,
        0.07192367078461914,
        0.7811325102488575,
        -0.6244781261675948,
        0.9869296225230019,
        1.3783190482546397,
        0.3297113472674205,
        -0.03173703312526374,
        0.6648776986753369,
        -0.2129734005046337,
        -0.09990856644604747,
        0.46966187488302646,
        1.5603894135353804,
        1.0356733267902443,
        -0.5438970220930931,
        1.037395037975188,
        0.7636767021598075,
        0.34222217020157375,
        0.5169178498673501,
        -1.0341025692355679,
        0.5604278377167906,
        -0.016297891569451863,
        0.36115249818674017,
        -1.2795765374140267,
        -0.4332782331391353,
        -0.5297774082986804,
        0.33924282874672046,
        -0.08605218023173679,
        0.45575514266484884,
        -0.3346258699833957,
        0.7098498542701845,
        0.6948913806617217,
        0.35049100569339636
    ]
}