{
    "idx": 706571,
    "fights": [
        {
            "enemy": 5,
            "fitness": 90.19703951986408,
            "player_life": 58.60000000000033,
            "enemy_life": 0,
            "time": 288
        },
        {
            "enemy": 6,
            "fitness": 66.34400818918014,
            "player_life": 0,
            "enemy_life": 20.0,
            "time": 286
        },
        {
            "enemy": 7,
            "fitness": 89.2438995977956,
            "player_life": 46.6000000000003,
            "enemy_life": 0,
            "time": 225
        },
        {
            "enemy": 8,
            "fitness": 86.33574420258549,
            "player_life": 22.600000000000243,
            "enemy_life": 0,
            "time": 374
        }
    ],
    "weights": [
        0.6102617750515144,
        0.6020780405059193,
        1.482511316247658,
        -0.48909413981493055,
        -2.061962628446733,
        0.5324640152210727,
        -1.3896038513055053,
        2.2807142289566404,
        0.23745817320747797,
        1.167677312941685,
        -0.17080727836165885,
        -0.7749146364085859,
        -1.4557349405262685,
        -0.16069171623979622,
        -0.7824435602044038,
        2.6672802154690483,
        1.575522194271764,
        0.9880919291806745,
        0.4252446861586069,
        2.229061098313243,
        -1.3431321580020754,
        -0.17207175337752603,
        1.3935956496778417,
        1.1996527282716847,
        1.1233828157248427,
        1.9393392096875748,
        -1.651034484527953,
        0.034709867028385966,
        0.522348697151551,
        1.4665459373582497,
        0.2457825997964664,
        -0.6671991995348121,
        -0.6854166140128588,
        -0.7794281776490855,
        1.0915854087467445,
        1.4472045630345698,
        0.03464433360824527,
        -1.0825152905637645,
        0.2877105287121071,
        -0.20897879812153897,
        -0.3815672517630637,
        -0.9249740068470799,
        -0.19382740367131363,
        1.6122700669526973,
        1.2467759464426078,
        -0.08344720532095218,
        1.5888708856007259,
        -0.036569365918357896,
        1.8412670050088231,
        0.7007367515118686,
        -0.43676516727778725,
        1.31521957893234,
        -1.9452099266030212,
        -1.4769945395247241,
        -0.49187077880559404,
        2.2437108030512447,
        0.5241312837989085,
        0.14293586286492393,
        -2.5824496028865505,
        0.33874565705485715,
        0.33978938313883794,
        -1.349017504386666,
        0.7386165295141504,
        0.7247577344504473,
        -0.07888307268678836,
        0.8520755289749365,
        -0.9241047448372781,
        2.3277782884277984,
        -0.8845532432436408,
        -0.6348216870060134,
        1.3948362414319904,
        -0.13331539705947418,
        -0.667704949785103,
        0.9792829716021096,
        -0.6573052769062617,
        -1.2646903862587784,
        -0.9159713546703279,
        -0.24958376449665537,
        0.7142298601333444,
        0.3430057138971103,
        0.008564577112748176,
        0.09235837789198471,
        0.460276530933802,
        2.9103480988194588,
        -0.7240547171207846,
        -0.34919534871478264,
        -0.7275456457305821,
        -0.2800605840817506,
        -0.6126623248732941,
        -2.6229605851994795,
        -1.2558211681672795,
        -0.34451361605212016,
        0.05641176367772552,
        -1.8818663994159932,
        0.3591554674141363,
        -0.87633417908708,
        -1.0796497268935417,
        0.07199844825647089,
        2.204738143378631,
        -0.8742104191283667,
        1.5903893010380874,
        -1.8950860960034097,
        0.41340619602138723,
        0.34854447279683587,
        -0.3743956222260598,
        0.31028759228840264,
        -0.9716678520376446,
        -1.2602939934791322,
        1.402097464329154,
        0.6913078964752298,
        0.0474503533974011,
        -0.0738394192795592,
        0.9843648317060945,
        0.870103879377732,
        -1.2680836133559386,
        -0.35989091059850253,
        0.6275872036081049,
        0.22091897671948085,
        -0.3565387869454992,
        0.38292947549662293,
        -0.31575619054479975,
        1.2228443346105664,
        1.003967014675236,
        -2.0204024768224973,
        1.2718839112975713,
        3.6704350294287513,
        1.954836043930071,
        -0.5616694579764621,
        -0.8439816086688844,
        0.28509527824122816,
        0.3848194274700005,
        0.26991752283481607,
        -0.476641068364387,
        0.2933903878227564,
        0.4720033632866863,
        0.9269700334121487,
        0.521794434599332,
        1.665612540358837,
        0.3013324459348643,
        -0.2727792952391091,
        1.1058491907141232,
        1.7590143478584972,
        -1.4072863617326217,
        -0.05940440050845405,
        0.14183386503999262,
        1.2048183844094882,
        0.8815623493518621,
        -1.038884060787565,
        -0.07047982179104446,
        0.16010350635650994,
        0.25010668219276905,
        1.1066857032904167,
        1.6180089993934492,
        0.13635408391114712,
        0.4130729102609819,
        1.5904869545529061,
        -0.9290345055329828,
        1.3325576561341899,
        0.8546211500799982,
        1.3625966196012838,
        -0.8041393525647117,
        0.06523325230599654,
        -0.20787449501257102,
        -0.9280166180044733,
        0.09434640346113253,
        -0.21440013572248168,
        1.2135154852918957,
        -0.2860812911947186,
        0.1608481750671905,
        0.4860602203436352,
        -1.3906133898512927,
        -0.10759594149489402,
        0.20712082206642024,
        -0.146033070960058,
        0.9340500553110959,
        -0.578669685592181,
        -0.9457871587486955,
        -0.19578829958367866,
        0.5861453878245999,
        -1.2651756314702367,
        -0.22267187554875548,
        0.19619696502454678,
        -0.9136574752569607,
        0.29938806678693775,
        -0.09533029552144513,
        0.8730399470825635,
        0.9333148076030235,
        -0.19325266049057896,
        0.583869605081007,
        1.117281638204234,
        1.3912344181731524,
        -0.5704092011733525,
        0.25783277729566423,
        -0.4769645552078229,
        -0.03437020457943706,
        0.28469173316128726,
        0.3398621820963808,
        -0.8326305172583542,
        -0.09131048232305554,
        -1.9938931628060128,
        -0.9577827791368783,
        -0.6296471325771952,
        -0.5106972978713346,
        2.073133045087615,
        0.5883418680602432,
        -1.6799874601552867,
        -3.136014635656022,
        0.6045160637601962,
        1.2356555565085827,
        -1.9242475537373451,
        0.4496793971133979,
        0.3980875205967465,
        0.9150253759892617,
        -0.33922493646970175,
        1.0681017597289482,
        -0.8974927344844956,
        -1.7156397291049477,
        -0.04440304398246972,
        0.5155429015150529,
        -0.603076391918145,
        1.640067653031006,
        -1.1400292841143589,
        1.1678538615314864,
        1.0208430192492528,
        0.34388708594611445,
        -1.6572274086575147,
        0.66749160333493,
        -0.7014536557844234,
        0.5743639657324029,
        2.1106333118496896,
        -1.36286570318133,
        0.8446929920699483,
        1.0488164667122903,
        -0.3869469421175106,
        0.5899796921250126,
        -0.45136303306135156,
        0.9135321231115586,
        1.2080811499328303,
        1.1185523113385123,
        -0.901572315217064,
        0.5238512359677321,
        0.8688413117359158,
        0.3491012675691668,
        -0.08001253134134266,
        1.309958718815335,
        0.2279137184913877,
        -0.8896225806382464,
        1.0651952178277155,
        1.2629334901772205,
        0.3126473977299215,
        -0.23865333436112696,
        -0.49145493120040135,
        0.3552037408499094,
        0.5591759362961184,
        0.29706204139219156,
        -1.4951566663180171,
        -0.8726647518862262,
        0.5342754775647179,
        -0.612543052994697,
        -0.13837541764395736,
        0.19871955494674592,
        -0.8648813154519644,
        0.0008251294337272667,
        0.7665463263552934,
        0.04277308856417134
    ]
}