{
    "idx": 700408,
    "fights": [
        {
            "enemy": 5,
            "fitness": 89.30901301948917,
            "player_life": 49.000000000000306,
            "enemy_life": 0,
            "time": 268
        },
        {
            "enemy": 6,
            "fitness": 30.59732261812772,
            "player_life": 0,
            "enemy_life": 60.0,
            "time": 222
        },
        {
            "enemy": 7,
            "fitness": 89.35504998251862,
            "player_life": 47.8000000000003,
            "enemy_life": 0,
            "time": 227
        },
        {
            "enemy": 8,
            "fitness": 87.13935834262664,
            "player_life": 29.80000000000026,
            "enemy_life": 0,
            "time": 344
        }
    ],
    "weights": [
        0.5924157228908917,
        0.5040035947499862,
        0.40080433799064974,
        0.3345168394453629,
        -0.852964080641881,
        0.3926311088266981,
        -0.9302841557729831,
        0.7644437299040632,
        -0.21136849209042577,
        0.5600513817071358,
        -0.7444467533023397,
        -0.3152634175319466,
        -0.49655967442890103,
        -0.44064732814544805,
        -0.47844371070838343,
        1.8266291507544723,
        -0.2385695142295744,
        1.126326994758613,
        0.643606766540316,
        1.1642960386043362,
        -0.22062898090222796,
        -0.47405155444576186,
        1.8650875437734098,
        1.0987380643593017,
        0.788900513984503,
        1.1781533884325943,
        -1.297676547020972,
        0.06362097456256496,
        0.031196765326580438,
        0.3280105224057781,
        -0.10297854873147762,
        -0.10682413436826976,
        -1.304152032828513,
        -0.08888932380611757,
        0.5478406332540178,
        0.028022293993079525,
        0.618775646607926,
        -0.8235213142759623,
        0.12650999369659346,
        0.5500581044212339,
        -0.6877569034257931,
        -0.8216220543594739,
        0.956034183228237,
        0.6917058588020404,
        -0.5013687566155095,
        -0.6641331641634367,
        1.4728617425501849,
        -0.12552843000202338,
        0.5237858018124653,
        1.0729632903477249,
        -0.27849186144092714,
        1.264231808793994,
        -1.9632750600561268,
        -0.9160996632093702,
        -0.3221220734095203,
        1.9859621568682089,
        0.4900955045542253,
        -0.39814551407324517,
        -1.4514350701183059,
        0.6847243384728422,
        1.3494803086562779,
        -0.839413209669871,
        -1.2559953081306683,
        0.7002261600049335,
        0.43493073092601575,
        0.465127513882082,
        -0.5035264067396623,
        2.1557792428955977,
        0.06038614763651265,
        -0.2676847390140004,
        0.48294052949085026,
        0.12071930938821468,
        -0.6790805456932102,
        0.1127026482563889,
        -0.25194114729677425,
        -1.4980518413765798,
        0.4922874262228673,
        -0.6802658236061965,
        0.5281427378948332,
        0.9433327586820723,
        0.04467118579423691,
        -0.25856030899598703,
        0.5612418598621991,
        1.3021114817713682,
        0.7835680381171212,
        -0.9361469021191277,
        1.1212483209994357,
        0.46968292555797525,
        -0.31358230508240664,
        -0.042159652626189315,
        -0.08056571058799677,
        -0.5265240125583579,
        -0.2579505119775803,
        -0.8485825783086445,
        0.8518106323915386,
        -0.23735141498683168,
        -0.2292795846491682,
        0.017648485565584647,
        1.3993980813594895,
        -0.518586470255974,
        0.7851683095891125,
        -1.3135922237153717,
        -0.41102906977171827,
        -0.5120259310051725,
        0.647030637023604,
        0.3830140275116981,
        0.9567137063329386,
        -1.7700589688735668,
        1.4627181199482182,
        -0.18686121875274084,
        -1.2996537687052463,
        -0.33843857317924925,
        1.0382514482337646,
        -0.1359226286398448,
        -0.8613216684847598,
        -0.5890827288450763,
        0.23628221595390814,
        -0.5780176419160279,
        0.06353975090787106,
        -0.0033435615263132986,
        0.20068533252804896,
        1.0374418664054763,
        0.685623003866785,
        -0.840384132851751,
        1.1840733437025428,
        1.4849932104906123,
        -0.2649662776599156,
        -0.6179153685098465,
        -0.7129833755738821,
        -0.7846724798601379,
        -0.1440600033929601,
        0.37456136843041576,
        -0.39931379197767886,
        -0.2514583716010661,
        0.3395785091140726,
        0.8799445723280064,
        -0.14449403920862708,
        1.60777950426021,
        -0.011990492202997652,
        0.5459133986887542,
        1.246424573684334,
        0.8913323781969206,
        -0.5068655251881362,
        0.7820650331346434,
        0.49352982490263586,
        -0.6891667422170478,
        1.0304809438561462,
        -0.8397948835000038,
        1.7018663772158886,
        -0.45699612471608086,
        -0.04836701434363705,
        1.496345868312905,
        1.591889161341242,
        -0.2603211303613787,
        0.9642155311128139,
        0.757284437142884,
        0.27164841645541793,
        0.07957884995854309,
        1.134536011860998,
        -0.9544473454372814,
        -1.1743079007907573,
        -0.004124141899647842,
        0.12428750683217864,
        -0.5967409878859707,
        0.23433845973739123,
        0.576813774873305,
        -0.23023881380368208,
        1.1690378541494513,
        0.9670097030481465,
        0.506206211792898,
        -0.3471853328185064,
        -0.049063891495971346,
        0.6736960712895114,
        -0.6303674559653338,
        0.9890262670452961,
        -0.12403496491244992,
        0.1086840685169721,
        -0.8800082018897165,
        0.37421593016664945,
        -0.4505184072630942,
        -0.5833729268097491,
        -0.2809077802939604,
        -0.04335759733550354,
        0.6779258233419778,
        -0.30996231294310894,
        0.7517371659131705,
        0.44665228505499244,
        -0.36883871474396007,
        -0.005838708408599864,
        0.13054564768069515,
        0.08757826754147102,
        -0.3647258400682005,
        0.34228242436541745,
        -0.08570325138712859,
        0.5182046747430141,
        1.3313314980779765,
        0.3758526720204953,
        -0.22141673844295093,
        -0.5900146889216391,
        -1.4428594235217342,
        -0.8195305789090482,
        -1.2416223132903261,
        -0.15637811730766707,
        0.6167921374999126,
        0.036073049946839575,
        -0.06501935318164742,
        -0.2672750271940838,
        0.834907199126845,
        0.5763291699252634,
        -1.5342511382323787,
        0.02232800646953447,
        -0.03200606707331182,
        0.7663327023754278,
        -0.5816241904901166,
        1.057685324057517,
        -0.711947494277256,
        -0.9599231023159605,
        0.6221341321868835,
        1.2172972309198244,
        0.37961474965125136,
        0.8804592669716327,
        -1.0385230396354042,
        1.0926557083808188,
        0.2553539872551503,
        -0.02114989882138546,
        -1.2505195798172666,
        0.9174045909267559,
        -0.7904271816549162,
        -0.47633694684223016,
        0.4533461380107446,
        -0.7829541819364816,
        1.3296458265358952,
        1.9180295958315396,
        -0.020136508901417646,
        0.565575984276871,
        -0.7250728630167309,
        1.1611184056715735,
        0.9940923565218169,
        0.211094974550661,
        0.2203223391038978,
        0.9316351841095025,
        -0.10394882812223293,
        0.7466722935399585,
        1.0894766439566679,
        0.910947905863536,
        0.3634706884362279,
        -0.7702043600509688,
        0.6274594025517058,
        0.9902216928201418,
        1.095793751018511,
        0.939754941514382,
        -0.8871416270512873,
        0.012187044552831289,
        0.008135445088753843,
        0.16625591914123833,
        -1.0735438558920956,
        0.04291928080216989,
        -0.36332493922689535,
        0.201428388354113,
        -0.22669942879282354,
        -0.36926757667656046,
        -1.2199593320459015,
        0.46018197848694364,
        0.9486614464732428,
        -0.247463646858443
    ]
}