{
    "idx": 703163,
    "fights": [
        {
            "enemy": 5,
            "fitness": 88.50394224923465,
            "player_life": 43.00000000000029,
            "enemy_life": 0,
            "time": 329
        },
        {
            "enemy": 6,
            "fitness": 84.75289246928256,
            "player_life": 1.000000000000234,
            "enemy_life": 0,
            "time": 210
        },
        {
            "enemy": 7,
            "fitness": 66.35455310235676,
            "player_life": 0,
            "enemy_life": 20.0,
            "time": 283
        },
        {
            "enemy": 8,
            "fitness": 90.14661051127251,
            "player_life": 56.800000000000324,
            "enemy_life": 0,
            "time": 253
        }
    ],
    "weights": [
        0.39377177763065174,
        0.7316494984074292,
        1.287601327606895,
        -0.9713283074819669,
        -1.1027739034418296,
        0.27254857549706085,
        -1.4656257571307199,
        1.1781708391907768,
        -1.2522263941445133,
        1.3642183945936976,
        -0.3949880445371792,
        0.5464491830391037,
        -1.5771805530932386,
        -0.040029797480688786,
        -0.46615373885803324,
        2.4108150425739754,
        0.9293248012570827,
        0.8124270615450699,
        -0.37504172814932957,
        1.9117217075572526,
        -1.8646387220817446,
        0.38331977531437067,
        1.4890043190383153,
        1.30076792137949,
        0.6327344615428061,
        1.478001421868575,
        -2.0589972192299784,
        0.4554139861398349,
        1.0006757414127814,
        0.933301630967379,
        -0.31505359511228165,
        -0.6083762741486934,
        -0.7608231327752643,
        -0.6076927722899026,
        0.830373962608665,
        -0.32269405301782933,
        0.4710084532343086,
        -0.18022831274479298,
        0.04296174392409094,
        1.0253149724896928,
        -0.08960848718880811,
        -0.5378104586269362,
        0.8661669238926468,
        0.936112074137821,
        0.49801339198890576,
        -0.3648246230985127,
        1.3198884135602476,
        -0.37282964276714586,
        0.2985506471988967,
        1.1751641371647168,
        -0.9191750030165193,
        1.6508986330249587,
        -1.6335371209858933,
        -0.988154320064549,
        -0.8102116169925863,
        1.024289370130738,
        -0.1709275750972268,
        -0.5319165805503135,
        -2.3315592953906874,
        0.8862746860465152,
        0.6149114381429965,
        -0.4994301388387673,
        -0.2974892491392197,
        0.6623909219732784,
        0.9517298980778792,
        0.8823774247982173,
        -1.0864040429540827,
        1.2985607713866896,
        -0.49943655370485485,
        -0.6102666287633794,
        0.679525654517457,
        -0.7137111201823673,
        -0.3512447538456538,
        0.15773881401393014,
        -0.22599122102700156,
        -1.4347640898970375,
        0.3624641774294203,
        -0.38521891103326755,
        1.0078123951860911,
        0.1544796651240492,
        0.3678904892062825,
        0.11536913073348778,
        0.48879312736087716,
        2.366447744178045,
        -0.4228925444162843,
        -0.7524021923771242,
        -0.4811270521447868,
        0.9402629112697551,
        0.04846253260433318,
        -1.500975262716361,
        -0.45811017229078027,
        -0.44728145592335095,
        0.048811249624228836,
        -1.1691763001425872,
        0.9758529454746109,
        -0.6328434466346226,
        -1.3426615562079758,
        0.2535487153471752,
        1.394962723818603,
        -0.6170096669399296,
        1.0212216998984152,
        -1.692465755538416,
        0.6043890617361665,
        -0.6467906156394853,
        -0.3072435824150446,
        0.6475353262054183,
        0.05418986097324589,
        -1.033504385127023,
        0.9803009134238427,
        -0.8993623886314231,
        -0.9794261848847132,
        -0.9962482712232033,
        0.8200077227504242,
        0.14506275657694123,
        -1.183191170125637,
        -0.1213245484677897,
        -0.06416240450633254,
        -0.16180627558361876,
        -0.09886907246069601,
        0.48360943325245054,
        0.37145446956868283,
        0.2247163258685481,
        0.6670544469104335,
        -0.8398913631147025,
        1.5140714687005052,
        1.880600540777809,
        0.4695370819689247,
        -1.322179304011879,
        -0.07598005364355852,
        -0.03868472493398835,
        -0.7241454718717799,
        0.12457788020323637,
        -0.10314942112460374,
        0.9455459775358006,
        0.4350859398229561,
        1.1206566127029034,
        -0.31913918787748163,
        1.7604195883708973,
        0.6491513977130513,
        -0.9116618817881093,
        1.4948979916031577,
        0.4414692636713685,
        -1.0421589062103531,
        -0.7555012503099953,
        0.1623945521063377,
        -0.8327572577048542,
        1.171156726756274,
        -0.6333226890914431,
        1.25049581729949,
        0.6270651531352085,
        0.012838577165209551,
        1.788373589428392,
        1.6245949660560601,
        0.3778505226451214,
        1.3218368059629948,
        1.522345513230544,
        0.170069006979228,
        1.2249379490071353,
        0.8339877790128882,
        0.07333763813085481,
        -0.5280204435823986,
        1.116613344063956,
        0.11415120057188313,
        -0.3485476124059844,
        0.6134549479041052,
        0.2796805094190612,
        0.12032407974776926,
        1.1711620179124504,
        0.5326324461113343,
        0.6586012856149835,
        -0.06058720181797772,
        0.29262266232607026,
        0.07036920854251302,
        0.6746062366956436,
        0.4116425484094733,
        -0.6681218653575153,
        -0.7595244656067052,
        -0.6393691790228555,
        0.3080158251713511,
        -1.0978970097074843,
        -0.15455894904526996,
        0.2860148627873124,
        -0.5939410115335961,
        0.8114702544694984,
        0.4058489722500431,
        0.8179793713904652,
        0.14981590524676475,
        -0.5123876802345375,
        0.35054530130631306,
        0.847516607343156,
        -0.07590573611630975,
        0.09716894130591837,
        -0.2373465383338962,
        -0.20548414556300731,
        -0.2941980128226977,
        0.681785247732151,
        0.22271504582436039,
        0.31491870519389825,
        -0.34481771672135625,
        -2.018791425467238,
        -0.33942344265066315,
        -0.13778684343660946,
        0.1217063650208033,
        1.888901464914933,
        -0.6802683560243995,
        -1.031752220292097,
        -1.320538902855268,
        0.31089103247573474,
        0.7134618387432157,
        -1.6925440278582948,
        -0.32735396522379506,
        0.5078283889307917,
        0.47862744612652475,
        0.27607727618748923,
        1.088919904866868,
        -0.9992574067993161,
        -1.4214943220044962,
        0.17740716111304425,
        1.1928238145216763,
        -0.4971931708051119,
        1.2151960966957789,
        -1.1986498193911568,
        0.9167186629767965,
        0.9718400937424554,
        0.3422406920478427,
        -1.1625835336732113,
        0.7308329437057027,
        -1.131121331979166,
        -0.36403063467808316,
        1.5505695222586806,
        -1.30480093798343,
        1.297095348208312,
        1.5271794872698474,
        0.14367650925723563,
        0.44865530971803746,
        -0.12183508002119206,
        0.7730749196239514,
        1.5860604324625445,
        0.303328395630578,
        -0.892058489989787,
        1.2476542302646172,
        0.03658698869682807,
        0.6245222915283,
        0.5068515617346954,
        1.0692086418562283,
        0.30845904411596187,
        -0.8757623773511244,
        0.5832985097857608,
        1.0479026805153921,
        -0.008073938272801076,
        0.8349636790704613,
        -0.7085236789774558,
        -0.1603997034642855,
        -0.04398020890452972,
        0.42295615662654024,
        -1.212241404324539,
        0.10363726277420396,
        -0.15447691350581608,
        0.011738118984154198,
        -0.28599739958535453,
        -0.33620230573387716,
        -0.8740684199703173,
        0.5357008315558287,
        0.6755193272602564,
        0.23970729731880752
    ]
}