{
    "idx": 708558,
    "fights": [
        {
            "enemy": 5,
            "fitness": 90.10027017401381,
            "player_life": 56.800000000000324,
            "enemy_life": 0,
            "time": 265
        },
        {
            "enemy": 6,
            "fitness": 75.6769900208616,
            "player_life": 0,
            "enemy_life": 10.0,
            "time": 205
        },
        {
            "enemy": 7,
            "fitness": 89.59946500072775,
            "player_life": 50.20000000000031,
            "enemy_life": 0,
            "time": 226
        },
        {
            "enemy": 8,
            "fitness": 87.13935834262664,
            "player_life": 29.80000000000026,
            "enemy_life": 0,
            "time": 344
        }
    ],
    "weights": [
        0.6209924620819995,
        0.9559762138614497,
        1.1256451654475308,
        -1.0781996640965903,
        -1.5524368210449566,
        0.13524767723023878,
        -1.4449863058162855,
        1.0180783076662894,
        -0.06651150236562417,
        1.303782178953568,
        -0.3380209417300777,
        -1.066665976569312,
        -1.2878895821664804,
        -0.9662583367270268,
        -1.0049913947327098,
        2.380466131228412,
        -0.7357770897204247,
        0.4354716780646102,
        0.06886360837155286,
        3.160408361846594,
        -1.211134130774914,
        -0.2684394123473049,
        1.3527103247851002,
        0.284691219654858,
        0.216361112135474,
        1.490549218493679,
        -1.3222490049204347,
        -0.0496306027284082,
        0.06857300716685738,
        0.45427795728100673,
        -0.6279152583068541,
        -0.4088074580682177,
        -0.27148747428757347,
        -0.32047663090904976,
        1.3706021028030544,
        0.3232074275985645,
        0.4447817702070128,
        -0.9021886499674951,
        -0.04558927880296252,
        0.4967807775426102,
        -0.47582132181431347,
        -0.4679469042696596,
        0.7712522740863155,
        0.7462491308941631,
        -0.03582617707182964,
        -0.737251945645825,
        2.1356451482790626,
        -0.2116932559717502,
        0.8367568318821934,
        1.410107505821129,
        -0.17560307982263296,
        1.7143816246128865,
        -1.7096092175823427,
        -0.9945958592356896,
        -0.6097298003957685,
        1.8631181526138543,
        0.4356605967681398,
        -0.33928802839377314,
        -2.046052889528132,
        0.496714501987044,
        1.2508049718410046,
        -0.8335738796311024,
        -1.2783328322197407,
        0.6425822404196875,
        0.1422739272263187,
        0.5273732110085302,
        -0.8274253874462282,
        1.3315670858895357,
        0.49194591155444867,
        -0.3695323641001315,
        0.4940960437484521,
        -0.605568262584799,
        0.05045248563179973,
        -0.32395359141952434,
        -0.4089157457896334,
        -1.7644468499264767,
        -0.475518532031148,
        -0.1143525573509705,
        1.5571498323707003,
        0.4123285603089737,
        -0.12817322943212017,
        0.23619066585883747,
        0.3949813426528474,
        2.7812446093665786,
        0.35492290491930756,
        -0.2123951859478571,
        -0.649325482335114,
        0.9079007874936202,
        0.4306900092473041,
        -0.38274922969509256,
        -0.5352120197540321,
        -0.9020392449683293,
        -0.21807019960218416,
        -0.7778692405651072,
        1.2107718106638747,
        -1.130753993341635,
        -0.9225490486069216,
        0.2507742718571132,
        2.0935740667843104,
        -0.5823484657404282,
        1.0591640746509379,
        -2.0656894082112793,
        0.5051557735028771,
        -0.5427392914780811,
        0.21273198012052497,
        0.8334199847760787,
        -0.1896759238391772,
        -1.3385445385710597,
        1.1277927114874362,
        -1.0472909856623025,
        -1.4270563863672405,
        -0.9881187583573954,
        1.0863032467845286,
        0.3504397024270257,
        -1.512038350099481,
        -0.18314900895057812,
        0.058815318774897256,
        -0.5199084927637228,
        -0.5465683694561475,
        0.5457913074966538,
        0.26605308508438164,
        0.2614677150687705,
        0.4792110289116297,
        -1.052842194579915,
        1.1824194605325125,
        1.429231861499715,
        0.5038765982568537,
        -1.35605911833948,
        -1.392319941901483,
        0.403577569079525,
        -0.45960385220875993,
        0.6160725521301044,
        -0.15037149058678664,
        1.1366710659591084,
        0.7935646765015547,
        0.8185633989930567,
        0.3988243541104274,
        1.4738808744996792,
        -0.11633879959343013,
        -0.6209723439401118,
        1.434692179699976,
        2.1972238832293614,
        -0.5035631280223479,
        -0.27394071803300263,
        0.07130113888740801,
        -0.8116526438075435,
        1.8786277595913277,
        -0.8589393838534676,
        1.017718557858099,
        -0.5116600188809158,
        0.001553705548841558,
        1.1950211638614685,
        1.854625205918773,
        -0.1363129015883016,
        1.099875246749785,
        1.4883420907632456,
        0.06260705345537895,
        1.8342212884563478,
        0.963324731040169,
        -0.55696535438283,
        -0.31857342835759295,
        0.5177486315060457,
        0.8514819795636308,
        -0.007491400322135126,
        0.6298702455405669,
        0.4586758516703579,
        0.29111145717902565,
        0.47826643014989173,
        0.5783931145981182,
        0.893584743014902,
        -0.44007108509232856,
        0.3577010528111578,
        0.6350710071449827,
        0.5137972118219752,
        0.9711971771850003,
        -0.9160076139794894,
        -0.48094916011720007,
        -0.8359504419674758,
        0.6895510616291012,
        -0.037149359195718934,
        -0.9509030194658125,
        0.7230408234640595,
        -0.3902183905081217,
        0.7334059168522302,
        0.14984041029588874,
        0.8813614830610728,
        0.7201737814893092,
        -0.41862519387309727,
        0.11458428009537741,
        0.5799823944455926,
        0.07393980697767051,
        -0.3872603969016395,
        0.1808111161698981,
        -0.24945429716023107,
        -0.4199884707225749,
        1.7590243162342487,
        0.4321106104349353,
        0.2056292657130639,
        -0.46160996107681734,
        -1.4700734057068283,
        -0.6758502842285544,
        -0.6699000753685493,
        -0.9811036124308147,
        0.06757585016157644,
        -0.47349341650426563,
        -1.0369500867517663,
        -1.3569339992786114,
        0.5968334529914779,
        0.6753981420629157,
        -1.5984733511182616,
        -0.1267127327009965,
        0.5987023387991275,
        1.0332215756668814,
        -0.8629257542659701,
        0.7311890951079265,
        -1.0080165126019403,
        -1.2151492299582451,
        0.05357206657099818,
        0.8024554059050393,
        0.40079927934150145,
        1.416019754027967,
        -0.976638674275929,
        1.1160411099119216,
        0.1322054430907268,
        0.3345119624146727,
        -1.1595788845724704,
        1.270218748306666,
        0.824837826206543,
        0.0689213372707005,
        0.972626289891064,
        -0.5632514996365663,
        1.2473729591907514,
        1.4824573350633787,
        0.05816081115574023,
        -0.00943501711704009,
        -0.8776718944296065,
        1.0547256161891958,
        0.9705605070232737,
        0.3953436357860237,
        -0.9213928551306256,
        0.958230402924891,
        -0.56388167679999,
        0.7490291575249783,
        0.6543671610071312,
        0.4530274829608173,
        1.2050340183705035,
        -1.2797597962148421,
        1.121469122591531,
        1.0043549002508136,
        0.3430305805856275,
        0.8273064246035473,
        -0.1962217104362734,
        0.6425272969348925,
        -0.08332365888503096,
        0.2500537254556259,
        -1.7754759490834537,
        -0.20228990692992369,
        -0.82778619400131,
        0.09729823234905317,
        -0.5205846811496315,
        -0.4905007488988494,
        -1.3292706704172188,
        0.49010966639113485,
        0.8026954097624066,
        0.5133780184199543
    ]
}