{
    "idx": 711782,
    "fights": [
        {
            "enemy": 5,
            "fitness": 89.73275134159978,
            "player_life": 53.200000000000315,
            "enemy_life": 0,
            "time": 267
        },
        {
            "enemy": 6,
            "fitness": 48.882006187583244,
            "player_life": 0,
            "enemy_life": 40.0,
            "time": 167
        },
        {
            "enemy": 7,
            "fitness": 90.621682633452,
            "player_life": 59.20000000000033,
            "enemy_life": 0,
            "time": 200
        },
        {
            "enemy": 8,
            "fitness": 88.86324619773175,
            "player_life": 45.4000000000003,
            "enemy_life": 0,
            "time": 292
        }
    ],
    "weights": [
        0.6438746245597615,
        0.6551516312700463,
        2.0306633526630335,
        -1.1580563061355436,
        -1.6161857459314577,
        0.4623626975900855,
        -1.6310313173815294,
        1.19871840308602,
        -0.6750274310026323,
        1.1000620968370174,
        -0.2552684893356353,
        -1.1006850622943696,
        -1.1773707524700194,
        -1.1347955217213554,
        -0.8781767540418709,
        2.5323270638267643,
        2.3885247978050956,
        1.5533242347582183,
        0.625719634149267,
        2.453037641926832,
        -2.013705418432514,
        0.3964365136828257,
        1.2127400189896387,
        2.0495886542344253,
        0.2264022409452739,
        1.4340346302094458,
        -1.6371580968783925,
        -0.1984636361148969,
        1.179951071686859,
        0.6362007866918783,
        -0.20628691076390537,
        -0.8835390091428637,
        -0.7876198408722164,
        -1.387547790790536,
        0.6959606712541693,
        0.0678874976894435,
        0.2011893017535475,
        -1.1480782868715522,
        -0.44343539143023053,
        0.23952203775401437,
        -0.08437899644859749,
        -0.31672691686941795,
        0.7159444380884094,
        1.0541371287488843,
        0.009091879599477132,
        -0.6525665470763348,
        0.9609968493794319,
        -0.19333554070690026,
        0.34099949391352374,
        0.9898415208295515,
        -0.8169877270822359,
        1.559387792097534,
        -1.499429655274882,
        -1.5303736807647326,
        -0.7907980780493452,
        1.2798249350798776,
        0.3912168623281329,
        -0.5082171085658268,
        -2.1248702018943852,
        0.20973239872753258,
        0.910683424622604,
        -0.8832533241892923,
        -1.253352043785558,
        0.4931160032196437,
        0.16936255089175517,
        0.9309067517707487,
        -1.1869743978544058,
        2.5362325261071765,
        -0.8232906505272622,
        -0.1492750082964449,
        0.8618557222196264,
        -1.0782490643273084,
        -0.06932556533145265,
        0.08405963579067642,
        -0.34830511014238863,
        -1.52142146727515,
        -0.4699506971660029,
        -0.0007142003816861531,
        1.2821161465867632,
        0.9114528229898103,
        1.0400622382821514,
        0.12796896305115188,
        0.5351034377591363,
        3.242787224206986,
        -0.7133973135778817,
        -0.9708261089367268,
        -0.5804924783748303,
        1.0990846442530902,
        0.7531328467334115,
        -1.7444538034678254,
        -0.12362946937856656,
        -0.6713447283616775,
        -0.22623358486112238,
        -0.3582447405278016,
        1.1835584330036422,
        -0.8757334551687254,
        -0.9629273647452443,
        0.3412452885099829,
        1.390999300564321,
        -0.913839264023808,
        1.059448372183184,
        -1.7735646353103423,
        0.08753772261801601,
        -0.8670043689867944,
        0.10787051121574052,
        0.7347545263762878,
        -0.648174342912413,
        -1.0363213639121418,
        0.9061008805040811,
        -0.6509235955273626,
        -0.27398362359151895,
        -1.147878448250509,
        0.7807388315354655,
        0.8638693198191482,
        -1.1233448028991389,
        -0.25023072428522375,
        -0.13016504054560687,
        -0.5200839355491764,
        -0.47332800920729984,
        0.23478312477078497,
        0.4568286749823623,
        0.5701752868407755,
        0.685112869419826,
        -0.8379762258267797,
        1.7380237426961866,
        2.8313956065500223,
        0.5334839469802461,
        -0.6384523246984919,
        -0.26328164503463225,
        -0.18445909093255225,
        -0.8315329851106406,
        0.2983553781802802,
        0.5413452078271052,
        0.3957118889518355,
        0.39230366633267394,
        0.38482535745985014,
        0.030183098873982052,
        1.8401030362644821,
        0.4640915615713019,
        -0.7252890591593999,
        1.3565499453752794,
        1.3104546747421102,
        -0.7290453629002084,
        -0.05450100922715806,
        0.0997745771925278,
        -0.8771113902326791,
        0.7577670224572657,
        -1.8864980405286262,
        1.5889192177062603,
        0.08771299584494738,
        -0.009480832351836757,
        1.765827153679918,
        1.7830536791973115,
        0.23183888868489466,
        1.5164572951155448,
        0.8323865727417408,
        0.04757853732567697,
        1.6518058694720479,
        1.068584563777798,
        -0.605756139547638,
        -1.0569665463101356,
        -0.3986623560891681,
        0.09272338635802013,
        -0.5102211886816652,
        -0.10498171891460996,
        0.36437704333011167,
        0.2271159672138799,
        0.9588529951657278,
        0.1453803170668579,
        0.3396468289694149,
        0.3397742564173131,
        0.3247862813271575,
        0.5689394257952469,
        0.21696816277397524,
        0.29327432000797615,
        -0.6234398254151085,
        -0.09354913560903817,
        -0.9269214115008729,
        0.5502162566864955,
        -1.2524294477704394,
        -0.30533138540019167,
        0.762841870371696,
        -0.46622990045307083,
        0.2118328420445068,
        0.4464486809990268,
        0.9305903070058228,
        0.6713232359210237,
        -0.5990899558805648,
        0.1716464733865143,
        0.923018395217206,
        0.5347885954947503,
        -0.46986949049205246,
        0.02220124927159331,
        -0.6636169454947215,
        -0.3475296826937568,
        0.8344939693349618,
        0.2201851865055713,
        -0.26174598116204384,
        -0.9651809369370348,
        -1.3229394793074598,
        -0.2253894850360251,
        0.016728311787559916,
        -0.6800636647863612,
        2.1584955926960614,
        0.16238499921406074,
        -1.5537524488839287,
        -1.4592652576761311,
        0.6990017339167998,
        1.139433060094136,
        -1.4461236393755448,
        -0.09777679417563528,
        0.7010482394759594,
        0.8221047532827472,
        -0.035410754644280576,
        1.5888110102528314,
        -1.0219595646684667,
        -1.2135130887202292,
        0.014641184816662267,
        1.115283313482659,
        -0.4729413665410815,
        1.1272475567520164,
        -1.1286562614155768,
        1.468307542398032,
        0.27966713814401883,
        0.09157161417616344,
        -1.2829966210737351,
        0.98787665665155,
        -1.1179588563733287,
        -0.10432306582917525,
        1.6554895644347252,
        -0.6684067408597574,
        1.1532454548788709,
        1.2620320674944425,
        -0.2213204392444332,
        0.624810863177603,
        -0.8105272556409024,
        0.3168062615131737,
        1.0050626641929508,
        0.5592031301779149,
        -0.8721242268071012,
        0.7869153020775839,
        0.1665771736897477,
        -0.003439955864022959,
        1.0703874314161825,
        1.1440026728633494,
        1.1764534672100255,
        -1.2601804915908728,
        0.8657351916724865,
        1.0811429148904934,
        1.871293136991767,
        0.8765447393527974,
        -0.6188132146408096,
        -0.27542056430295275,
        -0.17348563099868952,
        0.36737896743938503,
        -1.2953493453647207,
        0.28440877373151924,
        -0.38071512349915504,
        0.45717827112788834,
        -0.12746095490389098,
        -0.08412881171749582,
        -1.0668427670235099,
        0.6579139639225409,
        0.6011475050556396,
        0.31013813101974574
    ]
}