{
    "idx": 709117,
    "fights": [
        {
            "enemy": 5,
            "fitness": 90.55936107665805,
            "player_life": 60.40000000000033,
            "enemy_life": 0,
            "time": 240
        },
        {
            "enemy": 6,
            "fitness": 57.46661051127248,
            "player_life": 0,
            "enemy_life": 30.0,
            "time": 253
        },
        {
            "enemy": 7,
            "fitness": 87.6238995977956,
            "player_life": 30.40000000000026,
            "enemy_life": 0,
            "time": 225
        },
        {
            "enemy": 8,
            "fitness": 88.81968822339262,
            "player_life": 45.4000000000003,
            "enemy_life": 0,
            "time": 305
        }
    ],
    "weights": [
        0.5563233930404184,
        1.2021278744445545,
        1.2137567744383706,
        -1.334344119463322,
        -1.2868258347017196,
        1.3079698780160767,
        -0.5425408057679919,
        1.5790816404254577,
        -0.8454832652782833,
        2.058425750211322,
        -0.5722934910602282,
        -1.0695765135856334,
        -0.4274017037274135,
        -1.1494125141193414,
        0.12389095949672269,
        2.265560164164578,
        1.8784221197283586,
        0.9869086490158365,
        0.25554777871735723,
        2.53207882943082,
        -1.7468728962138977,
        -0.22223350229831357,
        2.0170124245939807,
        1.1888989913245445,
        1.2313430058701689,
        2.1706351249686717,
        -1.2423758695023899,
        0.30100923787427053,
        0.7226654870234919,
        0.6854376311094129,
        -0.7171805231587727,
        -0.4060745196810456,
        -0.6153461100432341,
        -1.4835071648779072,
        0.9244422845091235,
        0.4849520054040529,
        0.33260252471956653,
        -1.2844885563087909,
        -0.38728161250368887,
        0.7389960709008696,
        -0.23055264871378267,
        -0.29902534857683505,
        0.46254588391871343,
        0.7635682668610064,
        0.3623195464843232,
        -0.08870896776071016,
        1.9013810297055511,
        -0.14907564233090365,
        0.29270094274399644,
        0.7867641534830082,
        0.021746513635305942,
        1.4850341162476512,
        -1.7961047812018223,
        -0.8694983869169598,
        -0.8426748439961055,
        1.3822530206619443,
        0.5045448218766095,
        -0.73910018419259,
        -1.5239614349924808,
        0.2829212295447594,
        1.1537254872626286,
        -0.9343207041532462,
        -1.3189360523349642,
        0.23798032023043925,
        0.20671156329953133,
        -0.2288182158297553,
        -0.5143639843199432,
        1.3935112637219529,
        0.8373897146055842,
        -0.553124933396574,
        0.4114287692706256,
        -0.27713694871052286,
        0.011851236248894587,
        9.542982096905073e-06,
        -0.4574552364001999,
        -1.1956102522379841,
        -0.1155239312609308,
        -0.02712114235909703,
        1.2008304749714716,
        0.631175524641219,
        0.06740541711206804,
        0.36463698970212655,
        0.038486804357540566,
        2.675507425388257,
        -0.024800475124808014,
        -0.8821728922408583,
        -0.626527393321852,
        1.049048367533649,
        0.333886259812444,
        -0.053530375776156505,
        -0.5820861902133593,
        -0.7397133220554858,
        -0.26409942452167007,
        0.6032852880739812,
        1.125005294641839,
        0.02222780791422148,
        0.017855884052519214,
        0.10065507320088446,
        2.0757725690103332,
        -0.44354550809384713,
        1.1458447856423166,
        -2.0555004204555853,
        0.16462878965187078,
        0.2832083008778424,
        0.5730481070213587,
        0.20765017240395234,
        0.10312788302535243,
        -1.2865981429348468,
        0.31789957755317777,
        -0.4082808808421476,
        -1.4844812778196765,
        -0.25716338361170066,
        1.2481861500443319,
        -0.28605295602112896,
        -1.3474895825728312,
        0.3893547531307865,
        0.3445891827200458,
        -0.40489325057762354,
        0.016174178144557155,
        0.20840788682067446,
        0.023064100794282158,
        0.17841019553509813,
        0.41195420049598985,
        -1.0194057875942228,
        0.8485425653555894,
        1.148052445540574,
        0.1521943221051973,
        -0.5283077570266295,
        -0.9105834943762845,
        0.26179700387143123,
        -0.2622443249762742,
        0.5320350456842386,
        0.010258299184000133,
        0.5473590708760382,
        0.5320324973186983,
        0.9493566679314779,
        0.18756074332632247,
        1.2222099691695247,
        -0.057716586082911824,
        -0.4341425892827159,
        1.3941524705328516,
        1.3462391283560475,
        -0.7346494297958146,
        0.5824898060159602,
        0.35596028766243715,
        -1.2500382286888299,
        1.2296202492314576,
        -1.2511217210074215,
        1.6241266630384013,
        -0.5610931509153917,
        -0.12003742829027042,
        0.9254944879269272,
        1.5282487032449272,
        0.3221413563235631,
        1.2134806683428672,
        0.9746161241500833,
        -0.1591364806546321,
        1.514300877454134,
        1.9774641258365036,
        -0.5384510734919304,
        -1.0776241088881136,
        0.288697137906658,
        0.2775226493974005,
        -0.47093493264988884,
        0.46084242971959,
        0.1454189654882675,
        -0.09726167855777956,
        0.9701829728909304,
        0.2668092821217889,
        0.15069704000895645,
        -0.10125501602258474,
        -0.15691040189513342,
        1.0778991561987599,
        0.4523746045867765,
        0.15705445872282175,
        0.021406409218322764,
        -0.1704546079044298,
        -1.2785226610096327,
        0.4463941326239743,
        -0.41233298563468934,
        -0.8125263962000487,
        0.7585784826970092,
        -0.38774497029665933,
        0.5005941356105605,
        -0.18729074218655622,
        1.6883872475326238,
        0.7338386838880087,
        -0.6549314702948134,
        0.026054660175719634,
        1.2724529253523245,
        0.27580214564130906,
        -0.2705623367191494,
        0.372284700649798,
        -0.590406659234012,
        -0.10580548027465891,
        1.5453789725884284,
        0.3978081512272783,
        -0.2076785468260631,
        -0.3552806308454617,
        -1.6996665240457611,
        -0.8319428702357293,
        -0.5151176286276281,
        -0.9752024130560644,
        0.38495425666427907,
        -0.5799071143777618,
        -1.0368264223022658,
        -1.672891376109523,
        0.3923865607993199,
        -0.12978606435348738,
        -2.047185152230113,
        -0.2717840212020177,
        0.34274080136190077,
        1.1721106507036652,
        -1.0709080776144462,
        0.693812463911286,
        -1.0675571453528083,
        -0.9020667830194394,
        -0.2072748150802647,
        1.192495779854482,
        0.3216817710292979,
        1.473797538947105,
        -1.15748562740619,
        1.3168586724145572,
        0.6754286394212297,
        0.2736721957659248,
        -1.1443955633395566,
        0.679682449526078,
        0.6772392075156245,
        0.06914406681069138,
        0.020740729145277637,
        -1.5442089392352236,
        1.4846532248218194,
        1.7799079940066935,
        -0.11842845080616432,
        0.22116954744478123,
        -1.2080805411268134,
        0.7862428739583879,
        1.1406589729209167,
        1.2452865068781902,
        0.3340029153466264,
        1.1367270650790198,
        -0.1437494039773263,
        1.0588679588366428,
        0.9043796226647542,
        0.6600198873445559,
        0.19233698872359833,
        -0.7206080704264244,
        0.8295031458841338,
        0.33779212177883305,
        0.2453355155356558,
        0.7879501991143693,
        -0.1692658001823258,
        0.08938417535814078,
        -0.2970367095797365,
        0.4958536670173371,
        -1.5014661601842123,
        0.06793551448515522,
        -0.6241487839591435,
        -0.6675226744871333,
        -0.4023046419040012,
        0.06434601506367069,
        -1.5888905745523203,
        0.4900117062431208,
        0.47307377538177303,
        0.48918336775077087
    ]
}