{
    "idx": 712113,
    "fights": [
        {
            "enemy": 5,
            "fitness": 89.83106227384334,
            "player_life": 53.200000000000315,
            "enemy_life": 0,
            "time": 242
        },
        {
            "enemy": 6,
            "fitness": 48.340517784240376,
            "player_life": 0,
            "enemy_life": 40.0,
            "time": 287
        },
        {
            "enemy": 7,
            "fitness": 89.71065437104559,
            "player_life": 51.40000000000031,
            "enemy_life": 0,
            "time": 228
        },
        {
            "enemy": 8,
            "fitness": 86.33574420258549,
            "player_life": 22.600000000000243,
            "enemy_life": 0,
            "time": 374
        }
    ],
    "weights": [
        1.083440731022467,
        0.4255957415291477,
        0.8385491053535664,
        -0.9045708265404258,
        -0.987814857585454,
        0.1625065563524382,
        -1.6306450173386142,
        1.7681748435250255,
        -0.7994755246161542,
        1.0645231323674038,
        -0.02814894106226081,
        -1.1850333901307792,
        -0.8939158653621164,
        0.13376668429779434,
        -0.8501905532406252,
        3.0304007387165166,
        2.3157080262571137,
        1.8585612710284842,
        0.513311655384824,
        2.3107480100530933,
        -2.068790038345882,
        0.8558807768031218,
        1.3301738351552115,
        2.972184939497531,
        0.0020072858391604123,
        1.5483964593255881,
        -1.7665995527409828,
        0.2882187820457891,
        1.2632760710973132,
        0.6556748370879053,
        -0.06758673828725807,
        -0.7444707557879293,
        -0.1324989383178908,
        -0.47292607859404584,
        0.7351111977781554,
        -0.4268783822698103,
        0.5211139370568308,
        -1.1449325861457753,
        -0.24233344629140086,
        0.4000317754900528,
        -0.252105216176848,
        -1.0276278139353021,
        0.10368268384062547,
        1.0353026938165852,
        0.7354905283853216,
        -0.5491239485667874,
        0.9540687622914957,
        0.2803429229557873,
        1.1684367827629714,
        0.8770366257554142,
        -0.8592852360517674,
        1.847628678332427,
        -1.7991658667514763,
        -0.8329990760613506,
        -0.8995942743794214,
        1.3608556383556407,
        0.24706199867353595,
        -0.771630677928612,
        -1.835228119444979,
        -0.004645274366786523,
        1.071281512056736,
        -0.9742284156815625,
        -1.2807989150260914,
        0.8225938074758599,
        0.4873221048227325,
        0.9925025065171076,
        -0.639729112545672,
        1.3315953698405085,
        -0.07455396983122331,
        0.334380613217759,
        1.1050947689499255,
        -0.1900366910729123,
        0.13206532583614344,
        -0.05332295058546504,
        0.37200042251035137,
        -1.735122864058727,
        -0.8457445474023904,
        -1.1081925887210142,
        1.415789796530146,
        -0.08731829823457199,
        1.3352395535196397,
        -0.0008817433605547518,
        0.6614344792799662,
        3.290068142297015,
        -0.4593483005462713,
        -0.7604784580297944,
        -0.30519881116782716,
        0.763492463152811,
        0.26831687421867473,
        -2.0232215404270515,
        0.16365771860418754,
        -0.5754255675068857,
        -0.4392706643500237,
        -0.6671296374058113,
        0.529362018871033,
        -0.9320373965087625,
        -0.9967418072657882,
        0.17463948616163927,
        1.4138926179150015,
        -0.2546106436839036,
        1.1896386272519954,
        -1.3893239900194276,
        0.22545216645835398,
        -0.5825637524198862,
        0.17821811610156124,
        0.7295849048510028,
        -0.6736671382768973,
        -1.5303011543785248,
        0.8646768201435298,
        -0.6371115316266671,
        -0.2738795834509305,
        -0.8177663478099125,
        1.0095649953128487,
        0.10097295500820583,
        -1.3842922799510224,
        -0.2434295623527466,
        -0.2497592932708613,
        -0.5441377435677349,
        -0.16574007250305256,
        0.8653947682743153,
        0.5034030002777962,
        0.4834389605379136,
        0.7450477628884812,
        -1.9843129625949705,
        1.8212313635073965,
        1.3281697859537496,
        0.7647778795829802,
        -1.3250095923622798,
        -0.881266902546135,
        -0.029915379844214093,
        -0.8812092162610401,
        0.9156373831974829,
        0.8743229783795112,
        0.607452119456497,
        0.8798618214979508,
        1.1135430218912323,
        -0.12335387925399782,
        1.9433349466853165,
        0.25389067667712933,
        -0.301122004414476,
        1.364077488500647,
        1.4411552527995766,
        -0.9494876281150868,
        0.1397859907635977,
        -0.042577681005843096,
        -1.1022439982894163,
        0.7083422283283366,
        -1.1987704447358003,
        1.3740774349042533,
        -0.07575267416936167,
        -0.039349143579457624,
        1.3775120514485897,
        1.9656518860828136,
        0.31111051676211815,
        1.6664489928510715,
        0.9411531161668518,
        -0.5462644737544564,
        1.4754026019122404,
        1.2921038578316566,
        -0.5263569024824805,
        -1.465542329907811,
        -0.14672044122163502,
        0.2993040742190718,
        -0.6671555589394371,
        0.12926421576933936,
        0.9574149959838943,
        0.18137532266811437,
        1.0357782485169595,
        0.21268233334825243,
        0.2992192905804127,
        0.39579987827714874,
        0.438556506090627,
        0.8174903144034721,
        0.06505839749211277,
        0.014151025689015946,
        -0.32823374672842165,
        0.3951024907786421,
        -0.9123431702524574,
        0.4696674588558275,
        -1.2383308937939075,
        -0.4075346648012255,
        0.5665541376184678,
        -0.5999624746048188,
        0.6655333835216579,
        0.0245485762988081,
        0.5101791170379976,
        0.5106674566959805,
        -0.27793943035795926,
        -0.31929502510451196,
        0.3196558903491552,
        0.772790298723566,
        -0.3015181365349396,
        -0.05029599524427803,
        -0.44211079057251235,
        -0.6384794179449195,
        0.9794533342151615,
        0.2867958601020269,
        -0.317159834741669,
        -0.4273278171685433,
        -1.9408001786968359,
        -0.5282815329432777,
        -0.0004181382076813519,
        -0.9043381679066271,
        2.294950886971379,
        0.38689299565380314,
        -1.0844764568998244,
        -1.6021647802950023,
        0.7040742608562995,
        1.3021681701189491,
        -1.3317494536820027,
        -0.16128642067299626,
        0.580117081828194,
        0.8847783590700892,
        -0.6459069618172549,
        1.0101987008495754,
        -0.8802924947090984,
        -1.121582844331465,
        0.07454304408410309,
        1.07749945091989,
        -0.6262754680128358,
        1.1806960525807462,
        -1.0073070024676958,
        1.5472202893057094,
        0.384838790853093,
        0.14702190021843603,
        -1.5397986957609862,
        0.789609340179288,
        -1.169877735034269,
        -0.4345950122623877,
        0.5084767142883506,
        -0.8675087927902566,
        1.2704663231726447,
        1.0272313935929307,
        -0.24535490885379496,
        1.0309628321324464,
        -0.6734052254778595,
        0.7967336849576416,
        0.8304315095843807,
        0.6581422723852026,
        -0.8629409342564849,
        1.0800436410898053,
        -0.23654364523458615,
        -0.016922229373056735,
        0.4860924291574134,
        1.263559933881206,
        1.2625761181949542,
        -1.2518686780468768,
        0.7220584426181562,
        1.321923336129115,
        1.6734098252099978,
        0.3903691195566378,
        -0.6592374360557078,
        0.4186825243024471,
        0.07362622750088628,
        -0.031264858092633185,
        -1.5353368604704973,
        -0.010961895170918855,
        -0.08416027014813385,
        0.39626713396558894,
        0.037329998108774555,
        -0.10331968238615427,
        -0.7953677565672705,
        0.6818197015516899,
        1.0290252848736756,
        0.6541292298419346
    ]
}