{
    "idx": 709271,
    "fights": [
        {
            "enemy": 5,
            "fitness": 90.89758228947824,
            "player_life": 63.40000000000034,
            "enemy_life": 0,
            "time": 231
        },
        {
            "enemy": 6,
            "fitness": 21.84094470078547,
            "player_life": 0,
            "enemy_life": 70.0,
            "time": 174
        },
        {
            "enemy": 7,
            "fitness": 88.69946500072774,
            "player_life": 41.20000000000029,
            "enemy_life": 0,
            "time": 226
        },
        {
            "enemy": 8,
            "fitness": 88.86324619773175,
            "player_life": 45.4000000000003,
            "enemy_life": 0,
            "time": 292
        }
    ],
    "weights": [
        0.5275664428538723,
        0.8512383255644274,
        1.1388166653261118,
        -0.13514746525026197,
        -1.5206239577390424,
        0.29374279022659966,
        -1.0824502790094284,
        1.0127379771701222,
        -0.8910156327057593,
        0.8899829228504283,
        -0.08842276656480763,
        -0.6827878241794636,
        -1.2483728269680257,
        -1.1116066703321483,
        -1.0373368445755913,
        2.4207953946721874,
        1.8863225238334869,
        0.899890767547495,
        0.47487296664232226,
        2.7115395055102054,
        -1.470787232155891,
        -0.013491262951512942,
        1.4423441341703074,
        1.2571148935523628,
        0.814163647677675,
        1.8058699065988162,
        -1.1237428214475997,
        0.4425213856001444,
        0.9132640505067502,
        0.5834118593618973,
        -0.6534987021987552,
        -0.8985450316509032,
        -1.2881773028990493,
        -1.4530008678070687,
        1.2540938807523376,
        0.34989401740449017,
        0.6572517270111231,
        -1.0601722590181897,
        -0.2546586901016032,
        0.613514472609805,
        -0.5204755019279208,
        0.41931592560178627,
        1.0417701642091708,
        0.6779267171924321,
        0.18745263903025544,
        -1.0655553940851934,
        1.6741957108985461,
        -0.07350845375656953,
        0.09754998535295348,
        0.7298657615856038,
        -0.22788578709609036,
        1.8093528227849214,
        -0.9283704932447541,
        -0.7029525189232604,
        -1.007201908433152,
        1.5934406058520239,
        0.9657211395122844,
        -0.9249637616184331,
        -1.7142248029490341,
        0.37985760531184354,
        1.1801305858746904,
        -1.0975098830942562,
        -1.1816654772729802,
        0.1984271928163729,
        -0.09594097382686334,
        0.43671549199334636,
        -0.8930352206436711,
        1.0170042384985842,
        0.22512172948753573,
        -0.5012363849637175,
        0.5038699858051736,
        -0.9292506224859757,
        0.17499963736799662,
        0.32535858033471765,
        -0.42128574769075827,
        -0.9610437553234287,
        -0.21777061135654807,
        0.5502702980661173,
        1.505573808938608,
        0.8235370486660563,
        -0.00650525225730509,
        0.45930258968900495,
        0.4351358346551889,
        2.6859940223483934,
        0.6221284064849436,
        -0.7209094864226232,
        0.10106273873490029,
        0.6862802765266285,
        0.819245332489845,
        0.06693078311775318,
        -0.1715020511020255,
        -0.19857131123038538,
        0.3173188977751472,
        -0.3858524470368765,
        1.2183088778010336,
        -0.838605112059323,
        -1.222365138729304,
        -0.03705846887059637,
        0.9675721818599472,
        -0.16673847427158117,
        0.9737567662645011,
        -2.00565250104184,
        0.26458459240567433,
        0.4770258807145204,
        0.4672414170304134,
        0.5037954881694158,
        0.11438957327614048,
        -0.7899868281354594,
        0.5988190375319274,
        -0.19293127817228078,
        -1.8665596102918154,
        -0.6279737628036313,
        1.0509980509540549,
        -0.13305099059946707,
        -1.2273584991529736,
        -0.583573475871822,
        -0.7463731133909086,
        -1.1717013276644155,
        0.032152181226605556,
        0.08445501516208617,
        0.33370257804314535,
        0.5151525457655398,
        0.05436219473723034,
        -1.6268858122104424,
        0.5221440482935322,
        1.4963535274422928,
        0.8947921247196391,
        -1.2930201185484502,
        0.0476034202099912,
        0.045395507860198525,
        -0.5446990987626155,
        0.48115042709885963,
        0.20619390357552897,
        1.1405071661752815,
        0.6538886449818566,
        0.9059557537331011,
        0.23192557730075455,
        1.5573378738791153,
        -0.4665491147924734,
        0.005772853507644199,
        1.4146264676122977,
        1.9315088171497672,
        -0.3876630394234722,
        -0.5714334925681901,
        0.21635715720447488,
        -1.1033974463404175,
        2.8147956715026994,
        -1.3230151343300196,
        1.6756968413141142,
        -0.5697081202451169,
        -0.5239619010547099,
        1.299602506858738,
        1.2408902278681682,
        0.27836607365536375,
        1.0776221783154198,
        0.6439594355674705,
        -0.30371194029886955,
        1.4516803758200623,
        0.8652562703823774,
        -0.6324250857875661,
        -0.22840481228170345,
        0.3906740047879098,
        0.09484548460667325,
        -0.1236401699014683,
        0.710673900160134,
        0.313559064641791,
        0.49493567365926866,
        0.6791519375369758,
        0.28390665483131605,
        0.053250368561527026,
        -0.32333479832027034,
        -0.07797986587806228,
        0.5527041954581231,
        -0.06029644313431953,
        0.7149405844172426,
        -0.9376780701719863,
        -0.6420394463092044,
        -1.2835483157864025,
        0.7193162778187779,
        -0.3410529602909279,
        -0.6932039903353737,
        0.7021225779680944,
        -0.3170188735025303,
        0.5259652718707305,
        0.3836233243360926,
        0.018993118623957292,
        1.0014874429058844,
        -0.5471647292687908,
        -0.24548553517167043,
        1.139043789657586,
        0.0331598954214916,
        0.3313747597494318,
        0.431821510298249,
        -0.6400978680521651,
        -0.5479956806405158,
        1.6329702031660926,
        0.2505902248093062,
        -0.2801593808070164,
        0.07711483921117278,
        -1.6868384111798669,
        0.36476031963370353,
        0.4194993608927365,
        0.3040616862049045,
        0.16270344606404424,
        -0.4215759299394335,
        -0.6968867641606774,
        -1.608027201055097,
        0.5418953332659963,
        0.20405577547464493,
        -2.1003019108448764,
        -0.31704267257462737,
        0.5510287682710564,
        0.5879287016379723,
        -1.177472808911156,
        1.7198777091186896,
        -0.8800237516789527,
        -0.7194596457760819,
        -0.2507498224136566,
        1.1301719027196646,
        0.24681568736364684,
        1.3249235124754732,
        -0.37458907599645663,
        0.9135831495187128,
        -0.06673943427629983,
        0.15578512819321663,
        -1.0515922846526622,
        0.35266578371188273,
        0.5564186399402045,
        0.008278539272070333,
        0.6896074948670168,
        -1.3095582752510593,
        1.3037546185661635,
        1.5480429483398797,
        0.10864408131566021,
        0.393049572611928,
        -0.6209763064544186,
        0.8993878418834672,
        0.7045193583574788,
        0.2665199757797053,
        0.7213531571287961,
        1.1234486644675281,
        -0.33838243945068885,
        0.830597556949133,
        0.780444354789152,
        0.48584569429091434,
        0.2907225357799961,
        -1.466032975023809,
        0.6190637858138168,
        2.0776517610630174,
        1.5983894613815885,
        0.40784691057276734,
        -0.09123923405885724,
        -0.05116194111663296,
        0.1409622597177091,
        0.721446878625777,
        -1.6623376131722891,
        0.06655162257665828,
        -0.6452631245196573,
        -0.8050566238668428,
        -0.2080530233629006,
        0.14198245720966038,
        -1.0070431471646255,
        0.5757180566510642,
        0.8704772709458627,
        0.061040213872250546
    ]
}