{
    "idx": 700852,
    "fights": [
        {
            "enemy": 5,
            "fitness": 87.262357756651,
            "player_life": 33.40000000000027,
            "enemy_life": 0,
            "time": 436
        },
        {
            "enemy": 6,
            "fitness": 75.25379680945984,
            "player_life": 0,
            "enemy_life": 10.0,
            "time": 313
        },
        {
            "enemy": 7,
            "fitness": 90.99679627126204,
            "player_life": 62.80000000000034,
            "enemy_life": 0,
            "time": 197
        },
        {
            "enemy": 8,
            "fitness": 90.02661051127251,
            "player_life": 55.60000000000032,
            "enemy_life": 0,
            "time": 253
        }
    ],
    "weights": [
        0.45361709585112253,
        -0.6941525067739507,
        0.7149100945820654,
        -1.3063457396671354,
        -2.463857076889547,
        0.10538414482143595,
        0.8620594662581376,
        1.195404177005458,
        -0.8640209220616202,
        0.3023212429363205,
        -0.49291468841973585,
        0.06501875746530594,
        -0.5022603014774386,
        -0.7215440318184014,
        -1.452600422165677,
        1.1800950926844467,
        0.373955808119545,
        1.0609246717566123,
        -0.3540243841577352,
        0.4791925691146429,
        -0.7807542516028076,
        -0.4304155895031737,
        2.017158552642683,
        1.187778651146586,
        -0.027276741177895816,
        1.3366422292328242,
        -0.8975273168190312,
        -0.148652538433988,
        0.40195991085446015,
        0.11081442093303664,
        -0.9483511636899307,
        -0.6437716015268612,
        -2.2955838223041978,
        1.0227011842033795,
        0.16075321749023275,
        -0.7197290315005296,
        0.46483189059375063,
        -1.1329839531806227,
        0.1693837637664798,
        0.02001112014659038,
        0.19173869295602658,
        -0.311414250159189,
        0.8089888596394063,
        0.34854583196451233,
        -0.2758246787490313,
        -0.5889277181846176,
        1.6496854953203015,
        0.9567691480688842,
        0.7543922414938703,
        1.1616097691471896,
        0.8041964453158739,
        1.5321703533379698,
        -1.2318429070201784,
        -0.19416011766968644,
        -0.5928863017367867,
        2.1612782785334783,
        -0.36955583072654946,
        1.5271302453656057,
        -1.9670891549743672,
        0.28300852474638566,
        0.9061006810891596,
        -1.3329176124880182,
        -0.13760495275015333,
        0.4982120510330059,
        1.2558361832640803,
        0.6998197336267505,
        -1.3030612661168954,
        0.42181349375877164,
        0.18289846877354735,
        -0.7194951001270328,
        1.6889342296567367,
        -0.3252741684678132,
        1.4212801460516542,
        0.7248025539130711,
        -0.05220600345552642,
        -2.3080496466097746,
        0.40214606734846714,
        -0.8172180966395852,
        0.8929122653026907,
        0.3654148187556171,
        -0.3073814991194427,
        0.06159015475684025,
        -0.025159243436604584,
        0.15547693542591326,
        -0.22319985665408407,
        -1.2815697339065057,
        -1.3466385803826393,
        1.5553875138435773,
        -0.9111886757753324,
        -1.2580975544148438,
        -0.9058780745776807,
        -0.7173588066028916,
        -0.03802029398060472,
        0.26078824900089603,
        0.6073537029537458,
        -1.3678050126275088,
        -0.32971757732168516,
        0.2521796373247383,
        1.4965864318807038,
        -1.4311709666583798,
        1.0272778877738482,
        -1.1281396523378322,
        -1.1976284137973459,
        0.7922984221830474,
        0.1433219871317609,
        -0.627181358800518,
        0.16845099379731543,
        -1.2413249316832822,
        0.6151954368388611,
        -0.5116312115220314,
        -0.6736810008228942,
        -0.09251376767378344,
        1.2108448670528777,
        0.3309424836547834,
        -1.0571985711153582,
        -0.1627261965887086,
        -0.41562816660028395,
        -1.0795282404157274,
        -0.12286205395882505,
        0.3651637373674063,
        1.1041530863600175,
        0.758263833415129,
        0.36071236197541895,
        -0.5735372190488359,
        1.7831324182178627,
        0.10277855487298815,
        -0.47401419202103456,
        -1.2600483897647479,
        -0.11411152744270048,
        0.13971936767028742,
        -1.0971665929305698,
        -0.3659451432086343,
        0.34929956894713476,
        0.3041851514351577,
        -0.35452086877059075,
        -0.12648174811978255,
        -0.647057794553597,
        1.2823507826627998,
        1.437355796952537,
        0.44971822506148107,
        1.422780334620476,
        0.32566998736843933,
        -0.7396315865687597,
        0.5162021216637075,
        0.48237435378862337,
        -0.708836255385245,
        1.4093645513723139,
        -0.5857797614516485,
        0.981187205370186,
        0.14444008245520606,
        0.29816359928044744,
        1.0394972354776915,
        1.1321388474969438,
        0.15544502547494554,
        1.3945415823036529,
        0.8833316709752874,
        0.33642190944285444,
        0.7225026865739376,
        0.8016983428615498,
        -0.3683266038399578,
        -2.1453292469042102,
        0.22227356939292942,
        0.373487038536971,
        -0.6095337701911901,
        -0.26631921603239656,
        0.37402993208215934,
        -0.06359200279410848,
        0.7922896172453592,
        1.4544289675079578,
        -0.8005329211434026,
        -0.8962238645122347,
        -0.007195012345233063,
        0.4727581499410529,
        -0.5231215151434438,
        0.821977271580343,
        0.6906994856392046,
        -0.9577947659200193,
        -1.3853025414331743,
        0.7174686294852813,
        0.22650872189270296,
        -0.7894411088482222,
        -0.6294751749602789,
        -0.37877040840234477,
        0.18707854046574005,
        0.42585899762329443,
        0.7981261784101896,
        -0.07191028842374986,
        -0.4607456343319621,
        -0.17027587876917483,
        1.5608419265055464,
        0.789248471052963,
        0.33073574156468744,
        0.38407263934300406,
        -0.47475509255434256,
        -0.4385929100272587,
        0.6454851100743841,
        -0.13062188187913312,
        -0.09971937008292794,
        -0.4490833789605418,
        -1.4680280401831485,
        -0.7315314750801759,
        -0.32664543001397695,
        -0.6796488452296872,
        0.4721393802437481,
        0.03185104919590037,
        -0.5080719860823624,
        -1.2339757082261067,
        1.7175272026644715,
        1.067731020231319,
        -0.7409388629051441,
        -0.6291228368896921,
        0.25318742452732756,
        0.8802324417020833,
        0.2198468731725793,
        0.17212592219869202,
        -0.3126628251699392,
        -0.8269928161341387,
        0.5950184416806743,
        0.9271761722871733,
        2.445469381340496,
        1.3348733385644704,
        -0.7382742424667018,
        -0.10243584333772926,
        -0.41662237050902756,
        0.05922781368150033,
        -1.4412439071571006,
        1.022645435852986,
        -0.8986081386549633,
        -0.29171181289830406,
        0.3915223900938585,
        -2.272770606589607,
        -0.08721208879190365,
        1.7722437713031156,
        -0.035994094627335715,
        0.8872500690214067,
        -0.8200270398218887,
        1.2111883416813911,
        0.73488033295438,
        0.08917549269038201,
        0.14926675015109755,
        1.1202585826179958,
        -0.2424299518877939,
        0.6667378902095219,
        0.9258709815113714,
        0.38305665369111275,
        1.101825006859043,
        -1.5646332483426328,
        0.5345875401533826,
        -0.3248994828232544,
        2.4088323183899156,
        0.7340162333356209,
        -0.8517081434046635,
        0.025296498500716136,
        2.1995738817173263,
        -0.22679098479579424,
        -2.0786388027568057,
        0.9490795501002882,
        -0.6491931109230195,
        0.15453271985005665,
        -0.8217244908844452,
        0.6087883125391658,
        -1.6020060296244512,
        0.4743859628954555,
        3.2970911276458996,
        0.45134723934487775
    ]
}