{
    "idx": 711018,
    "fights": [
        {
            "enemy": 5,
            "fitness": 86.06968459414688,
            "player_life": 22.600000000000243,
            "enemy_life": 0,
            "time": 488
        },
        {
            "enemy": 6,
            "fitness": 57.344008189180144,
            "player_life": 0,
            "enemy_life": 30.0,
            "time": 286
        },
        {
            "enemy": 7,
            "fitness": 90.27173296930549,
            "player_life": 55.60000000000032,
            "enemy_life": 0,
            "time": 198
        },
        {
            "enemy": 8,
            "fitness": 88.00878821817867,
            "player_life": 36.400000000000276,
            "enemy_life": 0,
            "time": 279
        }
    ],
    "weights": [
        0.7690965244806257,
        0.5357249628313825,
        1.1207093897988067,
        -0.008349487581241988,
        -1.864933869899525,
        0.18022711431827204,
        -1.3244369692958935,
        0.8818606550529914,
        -0.5299483802870748,
        0.7194743742746872,
        -0.5846193462217706,
        -0.6958860112601616,
        -1.3988350379204313,
        -1.3179879269019743,
        -0.30214249471123006,
        2.195958859972676,
        1.8742420098782424,
        1.0127318677233486,
        1.9265416736195053,
        1.955091683130567,
        -1.1362428610896853,
        -0.06242084248573885,
        1.9779305279687163,
        1.9989447419987973,
        0.4129257415761802,
        1.2354928195420105,
        -0.6222557233086905,
        -0.47304301380355745,
        0.8232526507454851,
        0.8449549475137043,
        -0.6645051952341401,
        0.3177291055222575,
        -0.7120727881221842,
        -0.6560440483218657,
        0.7731264831261958,
        0.1338966984016207,
        0.13455988176512815,
        -1.33632601681184,
        -0.2036039778422375,
        -0.3000041151283623,
        -0.8632682568729044,
        -1.5319275539217847,
        0.8284997485159379,
        0.5414994208664389,
        0.17283071634338082,
        -0.5071093699534485,
        1.641473581650442,
        -0.20600350472697673,
        0.6766989702904049,
        1.711412957903382,
        -0.296270743605235,
        1.5214800125468644,
        -1.4252437507364017,
        -1.3332983147160522,
        -0.7525370665478397,
        1.8228473224869282,
        0.6924526431340655,
        -0.767299854673074,
        -2.189677586350537,
        -0.07810031658464607,
        1.2144008248295433,
        -1.4559599947885358,
        -0.48416379952950955,
        -0.4015239874208101,
        0.03290707702117553,
        0.8882151341231809,
        -0.47755210297298234,
        1.6466359408318123,
        -0.7708088059515029,
        0.5436828575617989,
        0.9205877191078308,
        -0.9182743493168566,
        -0.4006139017946732,
        -0.38777967685070197,
        0.00975626393855411,
        -1.3973196433437545,
        -0.6498558248612832,
        -0.5202788794104511,
        0.6057577872575826,
        0.4308502838821962,
        0.9691285275970097,
        0.7287057961286052,
        0.8129816782707887,
        1.8917398396661478,
        -0.4361205985974569,
        -0.4936748021038849,
        -0.42623240517385497,
        1.1702282563135507,
        0.7648740099315222,
        -1.7192723746680065,
        -0.8307211142336277,
        -1.050625178910895,
        -0.6997556379136788,
        -1.1858075970006983,
        1.0716064158058405,
        -0.24435572030628538,
        -1.1282154358321976,
        0.33074471893339985,
        1.739176833416276,
        -0.7633838803701963,
        1.123098381573578,
        -2.153532296350807,
        -0.08453731041873083,
        -0.5296847283276397,
        -0.0226237208091263,
        0.7830478821461986,
        0.22914972107118953,
        -0.7159045667147215,
        1.2676872261833252,
        -1.0917187914302162,
        0.8450902032140037,
        -1.5738046716360314,
        0.5668348784477708,
        0.30475433620552045,
        -1.2087631345786232,
        0.038509205484148046,
        0.6649650549376146,
        -0.38521855383654163,
        0.29399522073056056,
        0.12850034051751558,
        -0.0011147869004188224,
        -0.4187453280576027,
        0.8099788047606886,
        -0.23219949583758911,
        1.1931573185589528,
        2.518406120679304,
        0.37376105756588546,
        -1.1967721041714698,
        -0.6214451315835418,
        0.2493900131960807,
        -0.8795851406896387,
        0.32040068080141465,
        0.24985832948594966,
        0.9215319478860737,
        -0.3430880972625751,
        0.7754479395813452,
        0.1850984744450262,
        2.792729902887962,
        1.3093318144980322,
        -0.6589154007373959,
        1.7435980707137035,
        1.077210026699443,
        -1.8409093161872556,
        0.05783431496318725,
        0.5847321169146225,
        -0.3110218152699652,
        1.900235497885197,
        -1.8654076407634683,
        0.8841973945550692,
        0.9065413251583845,
        -0.03519410421329771,
        2.0913678859843956,
        1.756058171861784,
        0.5863238027841058,
        1.318645106722852,
        1.376906203746251,
        -0.5746062828950188,
        1.4823277781556312,
        0.7320931321068799,
        -0.33426386868120084,
        -1.283310334327625,
        0.9119548680949046,
        -0.16048628989085129,
        -0.19231515823904455,
        0.5356402048503188,
        -0.21733755896411916,
        0.06783261590892573,
        2.1613459321576682,
        0.5607905001564433,
        0.1208611254592592,
        -1.5572946751958496,
        0.6768657198074175,
        0.5192869081114744,
        0.716385193716689,
        1.0078655738096103,
        -0.5548089221580581,
        -1.0965697176120073,
        -1.0338463138817287,
        0.5236426352245376,
        -1.6862554051254994,
        -0.6358306890565383,
        -0.17682744495826208,
        -0.20580433676513332,
        0.99726081487332,
        -0.36085911229716616,
        0.5817207603668041,
        0.060812353321663196,
        -0.5725129123828135,
        -0.08458383382204798,
        0.8401513348453105,
        0.5644542588535495,
        0.019492393799075573,
        0.5513069092980056,
        -0.6597331510473097,
        -0.019759232803247567,
        0.864121030810163,
        0.33127635001203737,
        -0.10388703862382721,
        0.07934074099138609,
        -2.130237124237121,
        -0.501435066716852,
        0.05459270761324072,
        -0.8804805808022579,
        0.27412477305790905,
        -1.18219173465194,
        -0.9597584764046241,
        -1.6652217288039988,
        0.2539547791357968,
        0.5422670746498484,
        -2.1173439419573725,
        0.15120142259217353,
        0.626436264878388,
        1.5572779082009258,
        -0.23407344174284833,
        0.5899974846812522,
        -1.0260345191360234,
        -1.159834254413733,
        0.15174286395827508,
        1.4533984687743005,
        -0.7030070236976941,
        1.7314222005131767,
        -2.0321182833699583,
        1.6636875437107408,
        0.7583435426917068,
        -0.281874491741746,
        -1.067866209726543,
        0.3629387662963103,
        -1.4845151149963267,
        -0.597637120593086,
        1.4156820670582335,
        -1.3968029894579979,
        1.041765731150682,
        1.3998184598833074,
        -0.683177183977506,
        0.7798868076518388,
        -0.9565530349048008,
        0.30190327250214805,
        1.2968800171619472,
        0.40218545042292186,
        0.31318569623703635,
        1.4841799542368974,
        0.3645168768994676,
        0.6982266538362745,
        0.7131741227800259,
        1.3182327360658173,
        0.5004885801515084,
        -0.8368302432841395,
        1.463343649193192,
        0.9590984609500732,
        1.70732026669321,
        1.0308431003971399,
        -1.0277548698693852,
        -0.561407305341409,
        0.8626879369287874,
        0.8605746494066515,
        -1.92393827494573,
        0.395619763396008,
        -0.279082482855817,
        0.6688819736769551,
        -0.03995738659524484,
        -0.1816095978395187,
        -0.9368769910093264,
        0.6630892703608575,
        0.18019629484969638,
        0.9730331146703857
    ]
}