{
    "idx": 703466,
    "fights": [
        {
            "enemy": 5,
            "fitness": 85.31297711225776,
            "player_life": 14.200000000000228,
            "enemy_life": 0,
            "time": 449
        },
        {
            "enemy": 6,
            "fitness": 48.51520306650934,
            "player_life": 0,
            "enemy_life": 40.0,
            "time": 241
        },
        {
            "enemy": 7,
            "fitness": 90.15173296930548,
            "player_life": 54.40000000000032,
            "enemy_life": 0,
            "time": 198
        },
        {
            "enemy": 8,
            "fitness": 89.23936107665804,
            "player_life": 47.2000000000003,
            "enemy_life": 0,
            "time": 240
        }
    ],
    "weights": [
        0.49290566715833206,
        1.0454612340213958,
        1.2574768760117294,
        -1.1793415734294022,
        -1.353440691890696,
        0.13081231796424722,
        -1.4548328473705283,
        1.2429645913623535,
        -0.13923050175585228,
        1.7101914766330146,
        0.28710594393803657,
        0.6953163513612701,
        -1.114494137944931,
        -0.04070286362782421,
        -0.8385898038607429,
        2.2337961199239293,
        1.7127201119952458,
        1.0308989798565835,
        0.3010200683689774,
        2.535095588094793,
        -1.9764874735628273,
        0.5898539224645964,
        1.4036391007356257,
        1.3946702290135702,
        0.7904716357769352,
        1.5380917408029084,
        -1.250623728116163,
        0.30929320866756094,
        1.1269742796904505,
        2.419791663100281,
        -0.9427126038511512,
        -0.8985627377318006,
        -0.5194306953972262,
        -0.8469978678190008,
        0.6140322174391004,
        -0.1646733445944879,
        0.5647473661215457,
        -0.5507994010035346,
        0.002364775129295848,
        1.12817003021704,
        -0.032016070580569045,
        -0.7860004125520346,
        0.6420952009358789,
        0.6931640832252332,
        0.07685682807849885,
        -0.3617767603248188,
        1.3311610910614318,
        -0.024009257265737792,
        0.08146104836275653,
        1.2093971600477345,
        -0.892225331628081,
        1.4792977994868282,
        -1.6357402304587536,
        -1.1473820614010923,
        -0.4623562832776084,
        1.2294695042792043,
        0.4000280634238851,
        -0.26840843910101614,
        -2.1139647253337346,
        0.5501177587994658,
        1.1210082969707884,
        -0.7157414256462329,
        -0.5987854214813417,
        0.8955228682163894,
        1.2059436139625568,
        1.7027819453603255,
        -0.9568694187658086,
        1.5412507238894249,
        -0.6947184310067178,
        -0.8707972933574708,
        0.7346930441483943,
        -0.8503326846364676,
        -0.026870257588952312,
        0.9743486433077937,
        -0.25249407621434117,
        -1.635987712424622,
        -0.32197749101644857,
        -0.42714013030950077,
        1.0616349572594024,
        -0.40480155620217007,
        0.21785572825887342,
        0.07002439806275809,
        0.7645891051631191,
        3.1456798429662722,
        -0.28972144597926425,
        -0.6692358868886047,
        -0.7585884896299661,
        1.3149197106692405,
        0.36894593512977597,
        -1.6004142046212109,
        -0.7480883199544427,
        -0.4230870702957168,
        -0.14267301469316773,
        -0.8584599435180975,
        0.5419250478940024,
        -0.6074147177881315,
        -1.1360443095227133,
        -0.2588722038900215,
        2.0242961000657234,
        -0.9493065138592812,
        1.002066449115662,
        -1.7474734373643412,
        0.6210829389292911,
        -0.664283566588307,
        -0.2038113945100825,
        1.7249232869627937,
        -0.1252935060767996,
        -1.110625927474516,
        1.1578917500395154,
        -0.6938523126159366,
        0.1936984384060691,
        -0.8769599468947723,
        0.9212261505706756,
        0.15499810106883075,
        -1.2660973647806857,
        -0.20486079827562537,
        0.10861867583690751,
        -0.8262284775801475,
        -0.31027124063913586,
        0.37242972752811304,
        0.1857873155536955,
        0.27199862280304415,
        0.8825238536440551,
        -1.4889069019660781,
        1.2947647490455825,
        2.114399002754073,
        0.5563049018398554,
        -1.38422322733154,
        0.21828255296206572,
        0.3540554773119307,
        -0.8677210924586266,
        0.862317864127619,
        0.4060648093922758,
        0.27283422368887306,
        0.3899809615613695,
        0.33225977835040804,
        -0.19435406531000785,
        1.8266793806734085,
        0.35382279840496966,
        -0.7360036958187899,
        1.385375345919556,
        1.0601418562042506,
        -1.2292956112831208,
        0.19528485241015694,
        -0.010384948276984676,
        -0.8372606435489569,
        1.1053789930355926,
        -1.1541329361299106,
        1.5889300225452831,
        0.7861374007618664,
        -0.1005641877030208,
        1.6017250461728265,
        1.6230835893662399,
        0.0713451582962253,
        1.1883635367314676,
        1.2085428700862866,
        0.03782792098345775,
        1.7923600111232056,
        0.5281699924780738,
        -0.5993443349579167,
        -1.0173371799287076,
        1.2194942781926728,
        -0.01598779263335833,
        -0.16051468419986364,
        1.1444933783077977,
        -0.412587236912814,
        0.0278368288092441,
        1.2458876509228125,
        0.2602585329652863,
        1.0307126470217558,
        -1.2217122634562916,
        0.27459050296712795,
        0.6907744460840147,
        0.4811581567056906,
        0.3012496239080664,
        -0.6555498849677798,
        -0.7346426664833229,
        -0.8417185415878226,
        0.737691119388123,
        -1.5572452309827696,
        -0.10227702355250655,
        0.48788065778227174,
        -0.35912351992889474,
        0.32232570985795206,
        0.3684209553181497,
        0.943243651093892,
        0.20167021184384173,
        -0.6682870266276757,
        -0.21422318990197617,
        1.3063156701649459,
        0.23694235447376194,
        -0.33548363359075417,
        -0.45249292021707577,
        -0.24796807967040857,
        -0.33524484025388607,
        0.9678923584162177,
        0.10183416368720143,
        0.1747325616847379,
        -0.3496096489954802,
        -1.9026196868239724,
        -0.7412710522650748,
        0.20088186783609505,
        -0.33871659012530914,
        1.5933396245474805,
        -0.3519833761917668,
        -1.6797203580859474,
        -1.4576174881967627,
        0.5433549779329426,
        0.8915765891130306,
        -1.7528661365727976,
        -0.2962474508994879,
        0.8681310766213575,
        0.6059318394047458,
        0.4839288800570939,
        1.1034261945703094,
        -0.7708942097973063,
        -1.0503573125486336,
        -0.08418468386145905,
        0.8509051713168211,
        0.14795079436087155,
        1.2921108189285146,
        -1.4230954112432186,
        1.3093957878207587,
        0.6616256831045446,
        0.22959056799283978,
        -1.314670018428742,
        0.9057648494961978,
        -1.5896341905293188,
        -0.1468083458231947,
        1.2475167349595127,
        -0.8553858164585705,
        1.2884921332364914,
        1.5829630320110541,
        0.24887082320471093,
        0.5703743550606395,
        -0.44516813453091847,
        1.093249661236849,
        1.2608989135059734,
        1.1179506186017505,
        -0.7499094434834311,
        0.589088700222236,
        0.2396701423695154,
        0.40954779440247446,
        0.6945269000434012,
        1.003218030946277,
        0.8021179006299536,
        -1.1156211026443583,
        0.6006902681852584,
        1.2109451675573804,
        -0.11285860081215841,
        0.6165023182197016,
        -0.5281134830662125,
        -0.13757709183167988,
        0.03159980672194128,
        0.39879551261047064,
        -1.2559898494281994,
        -0.09045335921633424,
        -0.012757466610598312,
        -0.032654421371493644,
        -0.13855799609408004,
        0.24877320084923216,
        -1.1790526293543278,
        0.40954920360807034,
        0.6674140007363065,
        0.30887347834708667
    ]
}