{
    "idx": 707489,
    "fights": [
        {
            "enemy": 5,
            "fitness": 90.42693855665948,
            "player_life": 59.20000000000033,
            "enemy_life": 0,
            "time": 243
        },
        {
            "enemy": 6,
            "fitness": 48.629361971872335,
            "player_life": 0,
            "enemy_life": 40.0,
            "time": 215
        },
        {
            "enemy": 7,
            "fitness": 89.72814186652396,
            "player_life": 50.80000000000031,
            "enemy_life": 0,
            "time": 211
        },
        {
            "enemy": 8,
            "fitness": 88.81968822339262,
            "player_life": 45.4000000000003,
            "enemy_life": 0,
            "time": 305
        }
    ],
    "weights": [
        0.5647737210481134,
        0.844952627182704,
        0.9177197087903557,
        -0.3567331776423283,
        -1.6067200128519645,
        0.8580777846051744,
        -1.696402585411549,
        1.8553409786509678,
        -0.04455288665419914,
        1.7114260839536937,
        -0.7032797962012161,
        -0.8057410866743266,
        -1.4441240457561717,
        -0.5942938509973648,
        -0.7942548776578823,
        2.0594040703390615,
        0.8768696911174421,
        0.6955175879785209,
        -0.4189464304153446,
        2.2158259208185167,
        -1.5993656892014487,
        -0.009788179359134633,
        1.5522944064997921,
        1.6142641509537312,
        0.5600869613765115,
        1.8671775459194988,
        -1.5486343760670649,
        -0.1553833315495758,
        0.3697070462790655,
        0.04210792892668852,
        -0.5461944884939175,
        -0.20370032785088582,
        -0.7400257121180381,
        -0.1896793762883105,
        0.895936849090658,
        0.35579932871827835,
        0.5690009997476612,
        -1.1268819826315015,
        -0.3515267626540881,
        0.18413763077730635,
        -0.3657600053892903,
        -0.3697430632047562,
        0.5905624616776406,
        1.258424448115368,
        0.4947216114379846,
        -0.2154308927319842,
        2.6448600871773857,
        0.06266620714299095,
        1.0757847028208274,
        0.8720992402632687,
        -0.4819342979071639,
        1.2746960894052393,
        -1.4797542073345988,
        -0.5322373090117982,
        -0.7544805156487835,
        1.823087568838701,
        0.4632020596502947,
        -0.1879028187571459,
        -1.910440615586387,
        0.9855219090072883,
        0.9438288554620848,
        -1.1740924319847073,
        -1.1710505149789725,
        0.4552783691929766,
        0.4947668508247131,
        0.21020157219006938,
        -1.36858244539331,
        1.193650440627642,
        -0.4131368961182788,
        0.0635394199044746,
        0.5243106818759276,
        -0.1317486284892988,
        0.1361336893728444,
        0.038757713711145336,
        -0.3466489210014302,
        -1.6213533921543,
        -1.1655823143396606,
        -0.16437014111300047,
        0.5281157080273345,
        -0.21717007028363386,
        -0.4157897188918153,
        -0.2969069663624295,
        0.17691309501733846,
        2.9439033223581332,
        0.24956320221050612,
        -0.22649161229799114,
        -0.5528895222501194,
        1.7996539667024485,
        1.3558971588610977,
        -0.6315076969190504,
        -0.5642388954771135,
        -0.650848145609226,
        0.2951165097838818,
        -0.8612171432646045,
        0.7509750761116692,
        -0.8803308283415572,
        0.03739227699587719,
        0.5462019740800405,
        1.211778957650747,
        -0.6378691922766643,
        1.2311036850572643,
        -1.9218820954578766,
        0.19279135177207785,
        -0.62466932770882,
        0.32599765213623133,
        -0.16681172367510877,
        0.012146784852241937,
        -1.3501962418582734,
        1.1554198180767605,
        -0.3822022636446505,
        -1.2167500868403962,
        -0.4356637528126611,
        1.331044526687797,
        0.15019965335650876,
        -0.7758927370517994,
        -0.6456621755192437,
        0.008349836726080306,
        -0.7115877225138353,
        0.1470554877771156,
        0.74360128313834,
        0.4027222891918496,
        0.26317609777147855,
        0.42291751507199543,
        -0.6045153655423218,
        1.3596706084526167,
        1.5784325907137824,
        1.0392053178341503,
        -1.3250978167204104,
        -0.5483773715028533,
        0.4981046045527511,
        0.15097787287059894,
        0.09481363974687113,
        0.155843847326201,
        0.7791648988798054,
        0.537201180244242,
        0.7471931480684185,
        0.48270860923068876,
        1.5092671262192512,
        0.8962537982567923,
        0.12104637160074891,
        0.931994790010428,
        1.8039043868610383,
        -0.7769426076897392,
        0.3496314948012433,
        -0.047437439922954905,
        -1.0177495933191019,
        1.0467672309409186,
        -0.6727508285516784,
        0.6455044889809376,
        -0.37132802424036415,
        0.24822402354787695,
        1.509566268849562,
        0.9608597039397311,
        1.1766355122398018,
        2.040500474932173,
        0.1930758693687583,
        -0.2656106132959631,
        1.2168098524948776,
        1.2751957128574922,
        -0.8246926714898398,
        -1.0218849811345194,
        -0.3840327811638731,
        0.33175234231081374,
        -0.7019616122833865,
        0.4440418501860622,
        0.4927760007596151,
        -0.32171075442384195,
        1.0097137832981855,
        0.3526832068517647,
        0.7716993072793104,
        0.07258451738085668,
        0.425599378838314,
        0.5445240975386341,
        0.1934126305256792,
        0.56182103528587,
        -0.3648738718370368,
        -1.1738399029348678,
        -0.5457247742974871,
        0.3315613039786472,
        -1.4050910309678244,
        -0.23022757491190698,
        0.26201736481995436,
        -0.1392347755273793,
        0.2572911920900012,
        0.2555372744498375,
        1.0441118800863898,
        0.4307010050676968,
        -0.734194225497585,
        -1.0196598769334637,
        1.049872313107574,
        0.026737013111390096,
        0.2456877293444284,
        0.1631791193257874,
        0.15163270207073037,
        -0.07756345681588611,
        0.6362809336640293,
        0.24242216699813648,
        -0.06752190546534367,
        -0.29959225631199937,
        -1.828378845693305,
        -0.8284603478841381,
        -0.1471508390728376,
        -0.5037955433211295,
        0.2085586631682231,
        -0.39212289435656483,
        -1.361723007875225,
        -1.651292018700996,
        1.434263003772199,
        0.06866663464564983,
        -1.9675741650174596,
        -0.8506459409872995,
        0.6641247173171461,
        1.123516269248729,
        -0.9166449908634111,
        1.2736890614042775,
        -0.6288596405126338,
        -1.492138242149411,
        0.5794001764720076,
        1.7364486925952594,
        0.16507161576849633,
        1.3876544141881062,
        -1.523080647143541,
        0.8684081187302521,
        0.5629651906816912,
        0.23831278530354777,
        -1.3158893555905524,
        0.5829993133909147,
        -0.7086445852546408,
        0.21861632453175497,
        1.1187977612622364,
        -1.2129755831903979,
        1.1787222500663528,
        1.6612438326939618,
        0.3398018536347477,
        0.8307603054922396,
        -0.6620216611079169,
        1.183588639610527,
        2.0029727556989365,
        0.3724706454063797,
        0.37634386116349355,
        0.5816928603719069,
        0.020191298779601408,
        -0.06708913915200831,
        0.03589960522195389,
        1.1798041203927347,
        0.7382907371696781,
        -0.6074725113695253,
        1.1542838102388155,
        1.1855106294353293,
        0.30336320273062556,
        0.9224099287730104,
        -0.8099554435109731,
        -0.23775879248679424,
        -0.02830884144769283,
        0.5666452401513902,
        -0.7698210866497575,
        -0.06010378631202262,
        0.786138075241282,
        0.41177626969831854,
        0.11581097291098022,
        0.10731561248284704,
        -0.7960025131998695,
        0.7830994546983057,
        0.9638010055213126,
        0.4990349492154143
    ]
}