{
    "idx": 707494,
    "fights": [
        {
            "enemy": 5,
            "fitness": 85.82628484395721,
            "player_life": 18.400000000000233,
            "enemy_life": 0,
            "time": 409
        },
        {
            "enemy": 6,
            "fitness": 66.54041448585585,
            "player_life": 0,
            "enemy_life": 20.0,
            "time": 235
        },
        {
            "enemy": 7,
            "fitness": 89.37289246928256,
            "player_life": 47.2000000000003,
            "enemy_life": 0,
            "time": 210
        },
        {
            "enemy": 8,
            "fitness": 88.81968822339262,
            "player_life": 45.4000000000003,
            "enemy_life": 0,
            "time": 305
        }
    ],
    "weights": [
        0.8411330873759312,
        0.3582380105926809,
        0.7051327816725466,
        0.016514456010445527,
        -1.6329681210543918,
        0.4995277238593141,
        -1.6656404655173462,
        1.7991412483981752,
        -0.19135092073014903,
        1.0843779992702087,
        -0.3365601118721302,
        -0.6742600085306283,
        -1.0633255922158544,
        -0.6789897907396398,
        -0.5506485474060955,
        2.3055253998868164,
        -0.998696085399224,
        0.8021830720223284,
        -0.07543560442167746,
        2.2438210814176065,
        -0.23535707503245462,
        -0.21020994764627834,
        1.5729250944634106,
        1.3963350043570097,
        0.4003028214444183,
        2.065395920786136,
        -1.529805970557982,
        -0.31002297330163575,
        1.2996364410466579,
        0.025365806388655897,
        -0.5572761994486173,
        -0.40946154072096586,
        -0.28022954509162507,
        -0.2723893987648299,
        0.8842293361909978,
        0.003763837588834515,
        0.694137943608668,
        -0.9843939348548116,
        0.379478215567812,
        0.32894351381355436,
        -0.6289774374545695,
        -1.2116843575239244,
        0.7504187757472418,
        2.0800943381438124,
        0.4265028541997775,
        -0.14838966776930262,
        1.6572039438118908,
        0.05714255478424757,
        1.1082337890900174,
        1.1581114587275456,
        -0.6753262940304098,
        1.8042357338285024,
        -1.4704524865159951,
        -0.9663134677125046,
        -0.6591932667638807,
        1.8285652473244225,
        0.20410213394499904,
        -0.15821273181214715,
        -2.1617043898864825,
        0.47342048523191255,
        0.6082592744691959,
        -1.0821034499175917,
        -0.6207087399908979,
        0.30721146911935415,
        1.0705896396405776,
        0.09171101195355295,
        -1.3028488482356149,
        1.4203329886412448,
        -0.5711338727191304,
        0.025252823813684357,
        0.5892562381183077,
        -0.08595533523507551,
        -0.4711609023764552,
        -0.24714023318077769,
        -0.3298315933997711,
        -1.6465724581059473,
        -0.7437543430246504,
        -0.22696426029214584,
        0.5125468350338361,
        -0.2756426869067504,
        -0.27338142405352023,
        0.5538152715439404,
        0.3199903899881813,
        2.4776799252160533,
        0.31835466160202114,
        -0.34097747270056994,
        -0.6787042678481907,
        1.2191791434981498,
        1.2204004256831362,
        -0.5481679258410965,
        -0.9618148152484207,
        -0.7662796036288083,
        0.08922281445695648,
        -0.5877236167663161,
        1.0962896431691473,
        -1.1546865310922938,
        -0.31958734167029784,
        0.17681573255648148,
        1.3931824632602026,
        -0.9174704628597152,
        0.8767994607052604,
        -1.1839323751068858,
        0.08186251245065945,
        0.46831291288024085,
        0.232095325441033,
        0.5702316840314848,
        -0.2195667600972351,
        -1.5382035227874473,
        1.0233386439953327,
        -0.27948520422229073,
        -1.2517623728367684,
        -0.2437412196499167,
        1.2070757081377326,
        -0.3761949237329531,
        -0.9817634215412459,
        -0.6698376936571397,
        -0.11244285414705235,
        -0.17058278735190477,
        -0.07646211393399469,
        0.7390384294432608,
        -0.37508200804974723,
        0.765345425682256,
        0.3888588538727587,
        -0.7087371081190998,
        1.208810993926958,
        1.5743192145321616,
        0.7683917728453215,
        -1.1941786287147333,
        -0.24484001480626294,
        -0.6201786886308209,
        -0.1100418833986225,
        -0.12835306600797203,
        -0.1295330605685643,
        0.37633236803669484,
        0.9746154129867949,
        0.6530211384059053,
        0.22346445865010833,
        1.306135307542744,
        -0.20855439042087148,
        -0.7886327738152108,
        1.060928370253437,
        1.1822844379791557,
        -1.134730338479828,
        -0.02392772270334118,
        -0.15635396749790867,
        -0.24345959680588425,
        1.6257315025559411,
        -0.5839519821563327,
        0.36951721128673126,
        -0.606575963850572,
        -0.045454151049639846,
        2.287191788160861,
        1.4959530255434517,
        1.0680989887233387,
        1.4972490099303244,
        1.339842766156301,
        -0.4020360040614095,
        2.4684884594113394,
        1.1909466090246132,
        -0.7932574030619989,
        -0.6039702022248332,
        -0.4534332896380187,
        0.7211140356514708,
        -0.10792064483028793,
        -0.13302817999180622,
        0.13286389438489932,
        0.3244135609705465,
        1.11932736039174,
        0.45126492952121755,
        0.5709689222510675,
        -0.24117243326019333,
        0.48510305377314783,
        0.5066973980557066,
        0.09509763721565814,
        0.691319255449652,
        -0.33450909261991524,
        -1.1494521239257223,
        -0.04933053819413746,
        0.4871600207758025,
        -0.14139518002557105,
        -0.9886883270537066,
        -0.15672053989749574,
        -0.24119698877688972,
        -0.06169266669228295,
        -0.6527247315917082,
        1.0513468292424766,
        0.3082127843430822,
        -0.8248354112553861,
        0.7383968630450278,
        1.1064919046237132,
        0.3814678789038305,
        0.22367902725920585,
        0.4724700430700811,
        0.10156928802140985,
        0.34865498743405704,
        0.6729544484893245,
        0.6519727803789085,
        0.19284271840980216,
        -0.14847000972384827,
        -1.8099069805223185,
        -1.068002859572664,
        -0.6602996391894228,
        -0.576539644279695,
        0.2887975847639119,
        -0.06552940334911567,
        -1.5277444893398964,
        -1.0423105237952606,
        1.4114117159027553,
        0.11132329164381871,
        -0.9444245786109774,
        -0.4086370042866016,
        0.5478543837741785,
        1.2145918106174611,
        -0.8006609763485079,
        1.4131768879893587,
        -0.5909198712374053,
        -1.2947590320610658,
        0.2705747349316092,
        1.4617580884723844,
        -0.008171744863894756,
        1.2102716096893946,
        -0.7682935562099134,
        1.2263376305539442,
        0.7726716372221797,
        -0.06651566728555493,
        -1.0410918804319647,
        0.44532642998006194,
        -0.05968517788958001,
        0.21641127877932814,
        0.781450134781396,
        -1.1408318631750485,
        1.6543478921250243,
        1.7323341653614235,
        0.09222559366458094,
        0.46822818872479,
        -1.1108077020562248,
        1.127653345596834,
        1.0626365797386288,
        0.2566938092264559,
        0.6536510860039695,
        1.1660768433893536,
        -0.763135830811823,
        0.12720838271294457,
        0.6202032261754065,
        0.956545425912475,
        1.569329890143435,
        -0.8222554561936918,
        0.94189123674187,
        1.4131215084533266,
        0.32169297887334836,
        0.5679616616641634,
        -0.7681983934414165,
        0.6370856397210533,
        0.10795970153694714,
        0.38236939584013985,
        -1.0416546282384131,
        -0.5486106396152257,
        -0.7632467290526347,
        -0.28674676340036176,
        -0.29586768558356313,
        0.3387980501339323,
        -0.6489064571777052,
        0.6904445410661052,
        0.9975578872896308,
        0.45214383237953315
    ]
}