{
    "idx": 707493,
    "fights": [
        {
            "enemy": 5,
            "fitness": 90.74772932632855,
            "player_life": 62.20000000000034,
            "enemy_life": 0,
            "time": 238
        },
        {
            "enemy": 6,
            "fitness": 57.45873645484157,
            "player_life": 0,
            "enemy_life": 30.0,
            "time": 255
        },
        {
            "enemy": 7,
            "fitness": 89.33326262833371,
            "player_life": 47.8000000000003,
            "enemy_life": 0,
            "time": 232
        },
        {
            "enemy": 8,
            "fitness": 86.33574420258549,
            "player_life": 22.600000000000243,
            "enemy_life": 0,
            "time": 374
        }
    ],
    "weights": [
        0.500354126546002,
        0.03084573886757682,
        1.0304759735784836,
        -0.3707572354943064,
        -1.6092392034199619,
        1.3597506324529236,
        -1.6856772993976106,
        2.1310696946485836,
        -0.5461677483716872,
        1.529991878393876,
        -0.3852668482741744,
        -0.6186870563053933,
        -0.9805444145028442,
        -0.7025601771530775,
        -0.7044311314647139,
        2.5218568150384453,
        1.2316134065936568,
        0.6777562594869028,
        -0.39335777023371055,
        2.3091263517014564,
        -1.3294384278258087,
        0.09483491052539111,
        1.2116680830173938,
        1.5919699941063805,
        0.5053979926226474,
        1.8812084301435839,
        -1.5677813243177283,
        -0.3889695952023074,
        0.9552557808270186,
        -0.03495316309572342,
        -0.5868572591199241,
        -0.21581344275606215,
        -0.3519777515393421,
        -0.893928368784077,
        0.8796948963667842,
        0.5436281195105184,
        0.6458990249581716,
        -1.0748648979707272,
        0.4699495256752605,
        0.15972338043243828,
        -0.618185943310828,
        -0.6584317137065305,
        0.4855151559964628,
        0.29897629206231935,
        0.5630305826739914,
        0.9048564863716475,
        1.842465622208734,
        -0.16607422220347912,
        0.962925280733864,
        0.927230226516965,
        -0.8128273517307171,
        1.4870849450921264,
        -1.569518927557989,
        -0.40725236593974334,
        -1.0802174658240415,
        1.8248748307714053,
        -0.41952360495185076,
        -0.043790569866434925,
        -1.9397168027180416,
        0.8546357544567836,
        0.6964250418997334,
        -1.3039815572461568,
        -0.9060600367552339,
        0.6721260888393787,
        0.45158849831568665,
        0.14863342982807634,
        -1.3016610076218882,
        1.2595129318023257,
        0.8967110722863363,
        -0.08799273237170785,
        0.9445388656072207,
        -0.7397007906161892,
        0.13908856439475473,
        -0.12577435361922182,
        -0.23687646425441428,
        -1.6370387066996959,
        -0.6870701960418781,
        -0.008763970842593435,
        0.48457168658864913,
        -0.1550500385827393,
        -0.32496674866129993,
        0.08319298197431367,
        -0.16802717172077541,
        2.4297980889217867,
        0.77188082575436,
        -0.42339951953524924,
        -1.0775789641204105,
        2.42135062568186,
        -0.20450803582428562,
        -0.5191884656028309,
        -0.4904082481667356,
        -0.955101235683919,
        0.39238187140938247,
        -0.8350156861624938,
        0.9781995560099915,
        -0.9728413382384108,
        0.13799578606455892,
        0.8435894530836427,
        1.441101052661941,
        -0.5659945883907054,
        0.8036359261590788,
        -2.155942792161766,
        0.22270380746483992,
        -0.7299656423122269,
        0.5824927222535933,
        -0.02327368534203913,
        0.46660665333907236,
        -1.275278396205439,
        1.1293071706748943,
        -0.6528130020180105,
        -1.3009769438009842,
        1.118182229244932,
        1.294055865601187,
        0.41265629523622405,
        -1.1752081956272933,
        -0.40499999169096446,
        0.3403103331628943,
        -0.4513177605537166,
        -0.09348609225890876,
        0.7686269293244226,
        -0.012848219483169644,
        0.34497596932119423,
        0.46009966047117623,
        -1.8854031480957005,
        2.268694231480156,
        1.4042115073815509,
        0.7611731817138053,
        -1.273255655456173,
        -0.39360637207613924,
        0.5904366190171906,
        -0.18879363502853963,
        0.036445446968274404,
        0.14409441770045572,
        0.7346860183746213,
        0.21328369183990004,
        0.9252340985289303,
        0.20403007891268946,
        1.551861723174515,
        0.6603643615113068,
        -0.37241068493280755,
        0.7262445474867049,
        1.7654568237468615,
        -1.2495569656337069,
        0.3984632762627445,
        -0.0028758033607415856,
        -0.3809927575199257,
        1.5112226703323577,
        -0.681449695750918,
        1.7450212390542,
        -0.47013885963630536,
        0.2178361084219412,
        2.2163755619576073,
        1.4731091908222236,
        0.6803266892540459,
        0.7175871055023526,
        1.1447055201439682,
        -0.12353822503146453,
        1.8677164056914937,
        1.257827846273235,
        0.07441520047896412,
        -0.7296220560220558,
        -0.3731564992281921,
        0.1875017095092702,
        -0.3365097441704423,
        0.037194875416369885,
        0.3570760709252842,
        -0.683740879343686,
        0.8775012604568075,
        0.2907879006318014,
        0.6028932327554252,
        0.1304542370239007,
        0.45791372772934014,
        0.4715202335356701,
        1.1140562904697848,
        0.6466238765711936,
        -0.3215032282526147,
        -1.119644796493199,
        -0.6263631555842445,
        0.6128776321407718,
        -1.691575802287851,
        -0.10549528523977683,
        0.08660729928034727,
        -0.49384298456486736,
        -0.0894628405651138,
        0.16914472802407593,
        0.7003881618431531,
        0.6306146369181451,
        -0.8646129741055874,
        0.300568445567469,
        1.2755017939631161,
        0.2978003085612556,
        0.0784746050929664,
        0.5445266057942726,
        -0.012325705744001228,
        -0.15107176556335594,
        0.9233226605097936,
        0.2162760470049767,
        0.1891038485769552,
        -0.42946213652574844,
        -1.774531491405028,
        -0.7685018140582396,
        -0.0296032583354726,
        -0.5836059078966949,
        0.19895508235125273,
        -0.4082112461899447,
        -1.328474205792639,
        -1.537975322878602,
        1.1477937245744696,
        -0.3248982064689326,
        -1.901570849625668,
        -0.5991983609052046,
        1.1489409686274652,
        0.7203494903865365,
        -0.7095393528081827,
        0.9514266268883199,
        -0.951164294247283,
        -1.3096105668859506,
        0.229935405229999,
        1.264603885551633,
        0.06414650089542563,
        1.559089546882811,
        -0.777674571535655,
        1.3572298768510225,
        0.6988762414734229,
        0.2391394461727496,
        -1.2737026998458485,
        0.5076233900909164,
        0.09961209082284611,
        -0.2464899695602331,
        1.5152127766305898,
        -1.130012976664704,
        1.4835050056712535,
        1.7231954145113406,
        -0.07664382535742598,
        0.5591828168785528,
        -1.1270498766088393,
        0.9983332274572823,
        1.8674100406023075,
        0.7049999449109896,
        0.18211548128224878,
        0.6173301234422036,
        -0.3680947800785148,
        0.4836771261472116,
        0.37041124422990535,
        0.7480616353822637,
        -0.08804238824254836,
        -0.49978459844023554,
        0.7978328857067323,
        1.27051423749371,
        1.063074360013484,
        0.49926278998028534,
        -0.7426784817641849,
        0.4714181319314227,
        -0.03615873470075669,
        0.5318973649893624,
        -1.090108932854819,
        -0.5233791975952334,
        0.7564659525517995,
        -0.049543666154357735,
        -0.06839722369714094,
        0.2197607409549699,
        -0.3735120060278973,
        0.6507225434928585,
        0.9652224746052497,
        0.2522277727512645
    ]
}