{
    "idx": 713090,
    "fights": [
        {
            "enemy": 5,
            "fitness": 74.65611956587367,
            "player_life": 0,
            "enemy_life": 10.0,
            "time": 569
        },
        {
            "enemy": 6,
            "fitness": 84.59165549623893,
            "player_life": 1.6000000000002341,
            "enemy_life": 0,
            "time": 262
        },
        {
            "enemy": 7,
            "fitness": 90.5587078342906,
            "player_life": 59.20000000000033,
            "enemy_life": 0,
            "time": 213
        },
        {
            "enemy": 8,
            "fitness": 86.99788162462296,
            "player_life": 28.000000000000256,
            "enemy_life": 0,
            "time": 331
        }
    ],
    "weights": [
        0.6551868147715819,
        0.726116362903388,
        1.032240719528663,
        -0.843915829842831,
        -1.4104340751064055,
        0.24236192658050423,
        -1.433776121736126,
        1.4228212026439888,
        -0.588768913835068,
        0.9339246440999552,
        -0.2863263373625755,
        -0.48913784861511356,
        -1.1303949423335526,
        0.019325216173585423,
        -0.0016210328166877432,
        2.233385394333482,
        1.194505877568914,
        1.78373549836364,
        0.819731538340365,
        2.1083776251477926,
        -1.9665477903731592,
        0.0937105771284521,
        1.1945721015816604,
        0.8740126264985145,
        0.677957691830035,
        2.00194852576148,
        -1.7808081342628925,
        -0.21111561277366606,
        1.0453873228205428,
        0.22086350141266273,
        -0.2637022403918373,
        -0.554376954740181,
        -0.32387255563845546,
        -0.9112578606942773,
        0.9948401664247173,
        0.6773579854277005,
        0.7921822597780678,
        -1.357257522606576,
        0.264115899599347,
        0.5184024019526412,
        -0.19286587833495278,
        -0.570438406646553,
        0.12437425518075018,
        1.0864237316272627,
        0.7879362592523256,
        -0.14637685410670215,
        1.0921952738931866,
        -0.4601060453011624,
        0.4931682644054806,
        1.0696834261225918,
        -0.5418132119180845,
        1.73316442280315,
        -1.8597390940479888,
        -0.7631425298261016,
        -0.6544032048073057,
        1.4704793620038905,
        0.09127688309174892,
        -0.29787958818845006,
        -1.6498780541109044,
        0.6286813424452428,
        0.9399910813088826,
        -0.7762083635928514,
        -0.642728574149674,
        0.6591329662480103,
        0.04407237347919993,
        1.1347383882820636,
        -1.1953542095081677,
        2.596849640814619,
        -0.11869689811556561,
        0.3348297067339775,
        1.2547498297610356,
        -0.8682421381982588,
        -0.1003735524967395,
        -0.24007765665741293,
        -0.16713460656222484,
        -1.3883974765216684,
        -0.5236895733173667,
        -0.2550786490320503,
        0.6029168849140738,
        0.3377337131618293,
        -0.17291620076821573,
        0.044811959743028,
        0.46797555330006907,
        3.2886182315229155,
        -0.5521881845359654,
        -0.7296549383037593,
        -0.46588075041758525,
        0.6315402024723001,
        -0.2948895541620966,
        -1.455717939854495,
        -0.6827401612352728,
        -0.22105315541754494,
        -0.09834693119089732,
        -1.7198267357328405,
        0.6037285179788376,
        -0.9239703069411882,
        -1.2146962842203706,
        0.08681699844330926,
        2.1710618286971273,
        -0.6913644849159487,
        1.160967159861124,
        -1.8770717672763797,
        0.2570053218495854,
        -0.516572576090157,
        0.6680773340768577,
        0.4957991464988077,
        -0.012847171954521855,
        -1.3219785318985797,
        0.5505172086987868,
        -0.5395599006391364,
        -1.1153744877031027,
        -0.4302594707360565,
        1.0789511372373781,
        0.18847113439998825,
        -0.9085274333165198,
        -0.6820411675034947,
        0.10405064474835876,
        -0.7518646386500917,
        -0.05484741583202563,
        0.519124016642994,
        -0.08519534093097214,
        -0.19881080695821368,
        0.8970322075933125,
        -0.9839712956015798,
        1.4952902864978865,
        2.392013774895802,
        0.6000790829656173,
        -1.0764171178452855,
        -0.1253464954696666,
        0.41896728936539035,
        -0.014915515619229373,
        0.8083841635406614,
        0.665354470353046,
        1.0050518583497867,
        0.6611874975027972,
        0.7631049601438322,
        0.020439392854159587,
        1.9955950210355904,
        0.08467609887510624,
        -0.7876805548820351,
        1.520870711058187,
        2.0080799412111796,
        -1.0982073074480942,
        0.21930069090084378,
        0.05870532967218352,
        -0.7836838659527454,
        1.389576098559148,
        -1.1798517460843674,
        1.577061049491317,
        -0.4634121152203723,
        -0.02696447426584367,
        1.5036839791269023,
        1.3170296336049583,
        0.2853066848059158,
        1.72413453348868,
        0.5247215065054615,
        0.028633250619387776,
        1.8375702850850022,
        1.2483149183931121,
        -1.0096988913797453,
        -0.7803029021094321,
        -0.21601971689412705,
        0.1588322263287025,
        -0.39345885712941736,
        0.6228022216338965,
        0.018753201941949793,
        0.009413820044551754,
        0.9019648372805118,
        0.478627636352631,
        0.5269811780628594,
        0.0371780007581681,
        0.2613871976546613,
        0.7619257828004025,
        0.9686202054031507,
        0.6065087716539127,
        -0.25982293125553363,
        -1.0018750291854561,
        -0.9046536093765329,
        0.5231579295991187,
        -1.5481842052400492,
        -0.02880997143096037,
        0.5951201067527148,
        0.3140762811962079,
        0.6901149777039799,
        0.08356290949973051,
        0.809229978148601,
        0.7499384693327457,
        -0.08334541418742414,
        -0.19198831173253583,
        0.9325669503670064,
        0.26983446449389464,
        -0.41964169867879325,
        0.010018056952796645,
        -0.553442099490967,
        0.49068825171810393,
        1.4755864847672122,
        0.22852079931921473,
        -0.4998537496592863,
        -0.35132799176564655,
        -1.8077682392466288,
        -0.47767842953110795,
        0.10122489015872134,
        -0.6468373832698007,
        0.7244209732595572,
        -0.5291144130667483,
        -1.0479835381527418,
        -1.3169632615330067,
        0.4361985691768643,
        0.6315887798563495,
        -1.933560892305462,
        -0.2739020983051367,
        0.4905092054991576,
        0.8133964676354003,
        -0.3028566024401985,
        1.1677585258152705,
        -0.8803418437923795,
        -1.4089199156495469,
        -0.4112976112193576,
        1.2327136362394975,
        -0.701876121002005,
        1.5248167445028824,
        -0.7394642075640577,
        1.1467969350927207,
        -0.020690365802261083,
        0.04380304851144351,
        -1.8757559558998482,
        0.5857764840358588,
        -0.8730542401374383,
        0.19413690438889594,
        0.9121890020835989,
        -0.9523596535807486,
        1.3852499341488083,
        1.3026310903668228,
        0.09536143127589314,
        0.8776808974738791,
        -0.15148864978036378,
        0.7233980033415875,
        1.3592534795353202,
        0.4209815442591416,
        -0.7033080446161798,
        0.45193313955128056,
        -0.29103126933192114,
        0.4876981823332918,
        0.40647270342591,
        1.1012837759486291,
        0.7223373753669068,
        -1.0832606394802575,
        0.8661614754041691,
        1.146055227597973,
        1.8946147151700723,
        0.7877331700057988,
        -0.5745591997039241,
        -0.3882909469099729,
        -0.3127297220230312,
        -0.19284788934327254,
        -0.9430188682907273,
        0.13644701254269737,
        -0.2056194681970827,
        0.1404604443267513,
        -0.05523184349292892,
        0.28357908541112803,
        -0.9221166695711209,
        0.7437383518550391,
        0.629427374183468,
        0.24225372555765812
    ]
}