{
    "idx": 700372,
    "fights": [
        {
            "enemy": 5,
            "fitness": 89.17520306650937,
            "player_life": 46.6000000000003,
            "enemy_life": 0,
            "time": 241
        },
        {
            "enemy": 6,
            "fitness": 85.19165549623892,
            "player_life": 7.600000000000232,
            "enemy_life": 0,
            "time": 262
        },
        {
            "enemy": 7,
            "fitness": 75.36164533066625,
            "player_life": 0,
            "enemy_life": 10.0,
            "time": 281
        },
        {
            "enemy": 8,
            "fitness": 88.32324619773175,
            "player_life": 40.000000000000284,
            "enemy_life": 0,
            "time": 292
        }
    ],
    "weights": [
        0.48924820821030746,
        0.5405988982581604,
        0.7541641769215708,
        -0.8634609385808785,
        -1.0507818520303636,
        0.48209238067220617,
        -1.2310097434374967,
        0.34429977650919585,
        -1.016792442774103,
        0.7391134510414918,
        -0.6215390812575127,
        -0.3562645368766248,
        -1.1118441046952123,
        -0.384777777480405,
        -0.02105730549238652,
        2.110711529808056,
        -0.3044990146509384,
        1.2459455429963562,
        0.7129274098734295,
        0.9503029182040161,
        -0.43420412896863636,
        -0.3963433769436052,
        1.529528473284212,
        0.28557491601209417,
        0.7138255579136754,
        1.36881073758364,
        -0.7949301915037341,
        0.3249275604042299,
        -0.45400216880444855,
        0.17530226237557472,
        -0.7257012557830093,
        -0.370227515034472,
        -0.9125747116355661,
        -0.08225942738433101,
        1.340763991285132,
        -0.4509238750268516,
        0.5097043967494663,
        -0.8839460130991629,
        0.648168490619869,
        0.8052843204603453,
        -0.6835846388158456,
        -1.2014165992654071,
        0.5513003923614911,
        0.758905607226236,
        -0.4489835725087516,
        -0.585251841539894,
        0.698053512395591,
        -0.03141744069621216,
        0.20271782428693397,
        0.8347765703768911,
        -0.40535919418669,
        1.35397590552357,
        -1.6976477489831407,
        -0.8914671852606967,
        -0.8321253644900314,
        1.9757423930960967,
        0.4022217314228949,
        -0.09802412971748214,
        -1.7652025472452024,
        0.5213838795419259,
        0.9973486179509156,
        -0.9942578085438488,
        -1.3080416419764032,
        0.5720833875715983,
        0.1882853057338825,
        0.29500599728587135,
        -0.5844552864369023,
        0.9618746472083413,
        -0.2699869479584285,
        -0.05896885400315782,
        0.4795164752129142,
        -0.03426160771200964,
        -0.5530516402536351,
        -0.045946963389543266,
        -0.2354506978444372,
        -2.179410600842544,
        0.07837485792286727,
        -0.9075343822910338,
        0.8776770296375855,
        0.6278188751477278,
        0.5239730198584854,
        -0.3482259368606055,
        0.031960414881246915,
        0.7081660088093361,
        0.8087621015941882,
        -0.9558325967297685,
        -0.4521639364017441,
        0.7029910475280275,
        0.5246465071934477,
        -0.6722314121378752,
        -0.0896492863371342,
        -0.9618385924521817,
        0.04136101427288248,
        -0.5102158542222972,
        0.3338330130137319,
        -0.15593822939497948,
        0.030875928399160132,
        0.1632335748036546,
        1.2050848933215352,
        0.5672946247697821,
        1.0898148484290033,
        -1.522303088818994,
        -0.3242392882068217,
        -0.6696379572887532,
        -0.03633059418111458,
        0.15328647488338082,
        0.10933472374895348,
        -1.7953611282299775,
        1.705573837328134,
        -0.10478938677134128,
        -1.2595782513735856,
        -0.28721774234996544,
        0.44737694852679727,
        0.08050981695103962,
        -0.9871098905097152,
        -0.35211879367556664,
        0.36575205430932634,
        -0.43418168951561986,
        0.35789069909184795,
        1.0254976150338357,
        0.3458154366712289,
        0.5483640040720138,
        0.34201033547387866,
        -0.694816934160891,
        1.6887975883736117,
        1.417053943038891,
        0.27263044949892035,
        -0.6858262398357663,
        -0.3106749767939047,
        -0.39530028516352367,
        -0.35664684828686866,
        0.286725157304723,
        -0.44941950579000783,
        0.04606274672789423,
        0.7980487896253792,
        0.8681406104181651,
        -0.5796095378625609,
        1.6555265388710692,
        -0.15984543244989244,
        -0.31928050113180056,
        1.4303893720859504,
        1.7653543229448478,
        -0.5042432970964292,
        -0.13206098901117957,
        0.34794414800691265,
        -1.0469823517088979,
        1.3765587282579164,
        -1.1470399360260117,
        1.7324134086577816,
        -0.3832837361910375,
        -0.3714509127801847,
        1.2472326309970678,
        1.5033497130380007,
        -0.23708792087540273,
        1.031820799033485,
        0.9806801214286651,
        -0.22071424907766604,
        0.5009851334069918,
        0.7607257930749823,
        -0.5034042109376335,
        -1.0777143202887456,
        0.2900283223185129,
        0.04623648906354781,
        -0.5918800103918573,
        -0.21423545619844067,
        0.5311895929065471,
        -0.1189697341038029,
        0.837406144993631,
        0.43631774702751275,
        0.7916944926586891,
        -0.1545213763905381,
        0.10960230090758173,
        0.5593004148976234,
        1.4265123458299465,
        0.5038901138972812,
        -0.18221729021730815,
        0.11369281202559606,
        -0.8478553501136803,
        -0.0017600375528100884,
        -0.505920628906841,
        -0.4487026461340274,
        0.38875391793896064,
        -0.3183513378191918,
        0.66009470869884,
        0.18615971884179167,
        0.4530339094096852,
        0.42993762858855017,
        -0.5424359316158003,
        0.04983742928497137,
        0.06919806363568567,
        0.22267554674426865,
        -0.2167315546488513,
        0.3460597721936886,
        -0.24607416245808472,
        0.5856370238149015,
        1.2101362778198617,
        0.5877097993112838,
        0.0043447104461217245,
        -0.40946194102226124,
        -1.6244420755018638,
        -0.641098139430235,
        -0.9845332171132296,
        -0.47278073060464315,
        0.8058470782076778,
        0.0293329191173083,
        -0.7427024587681652,
        -1.114204814530947,
        0.5628701558698229,
        1.3060311793741728,
        -1.790527885444664,
        -0.10220559354020994,
        0.33888859442840713,
        0.8172401735313942,
        -0.6579725270489392,
        1.0456006650186156,
        -0.7229596033186962,
        -1.4524183536104942,
        0.6764085747918618,
        1.1558271737344532,
        0.3123072922556851,
        1.2423608866608042,
        -1.0551609528925523,
        0.5595747847754378,
        0.09716002580640887,
        0.13972374038905377,
        -1.4112654573614098,
        0.686610062042634,
        -0.3238845108687641,
        0.051501001590398096,
        0.3735886788285962,
        -1.2057477751670345,
        0.35323576977842014,
        1.842711590050707,
        -0.09609531517916471,
        0.7457090092663983,
        -0.7241732384278224,
        1.099528789538617,
        0.8286992065222839,
        0.46350164483940726,
        0.012675063759584652,
        0.2825925429867553,
        -0.2077548821937816,
        0.8056716389157134,
        0.69320857288223,
        0.7566724813910763,
        0.48590237683158677,
        -0.8184667952017535,
        0.24637894403334165,
        0.9845213821114069,
        1.4490376807186494,
        1.0264735906777258,
        -0.9400636264787531,
        0.2884514470112104,
        -0.047912640472373536,
        0.19349853683710933,
        -0.2864981395654622,
        0.3890895461362691,
        -0.5714198375394212,
        0.13312772441378082,
        -0.3495886299968735,
        -0.1284668509435697,
        -0.9894875222086625,
        0.3683864352584587,
        0.8532162353895579,
        -0.05834277447893671
    ]
}