{
    "idx": 706252,
    "fights": [
        {
            "enemy": 5,
            "fitness": 88.37874178945529,
            "player_life": 38.80000000000028,
            "enemy_life": 0,
            "time": 245
        },
        {
            "enemy": 6,
            "fitness": 66.26020708782076,
            "player_life": 0,
            "enemy_life": 20.0,
            "time": 311
        },
        {
            "enemy": 7,
            "fitness": 88.99946500072774,
            "player_life": 44.200000000000294,
            "enemy_life": 0,
            "time": 226
        },
        {
            "enemy": 8,
            "fitness": 87.13935834262664,
            "player_life": 29.80000000000026,
            "enemy_life": 0,
            "time": 344
        }
    ],
    "weights": [
        0.8377990153458791,
        0.21042282157684344,
        1.7994014901475417,
        -0.7263284684827511,
        -1.9029215740896364,
        0.5613455357311196,
        -1.693660161092943,
        2.1328769763375357,
        -0.6736562298624843,
        1.2163333830561092,
        -0.1974099553121373,
        -1.099674562456759,
        -1.5215920804201815,
        -0.3913892474471156,
        -1.1632080442572497,
        2.131678599017845,
        1.585643314641391,
        0.39726211313186366,
        -0.13372906841926338,
        3.072395257147641,
        -1.0269220498789846,
        0.5849105348977374,
        1.5337567579323783,
        1.0272934294755296,
        0.8561852946160295,
        2.0472312605570138,
        -2.1201840472826516,
        0.2551759786735704,
        1.032106340436679,
        1.7022345706278406,
        0.18841363858706747,
        0.16278679346883024,
        -0.9306140742635862,
        -1.0115220916323522,
        0.6308691218261836,
        0.5928177040575371,
        0.2891312976571054,
        -1.0335860929120506,
        -0.19092053318184643,
        0.08385079813001023,
        -0.7136631792416007,
        -0.44884224413330426,
        0.6466473212539283,
        0.6399375181381248,
        0.6234057169565237,
        0.050021161244457185,
        2.2696869902870156,
        -0.0015423655482679627,
        1.7926744304235585,
        1.6304945413359733,
        -1.0153118129843113,
        1.9062786126639681,
        -1.6580614359466863,
        -1.3725977921394332,
        -0.6659932631857173,
        2.2184261519911637,
        0.7240406612920196,
        0.05323601241913563,
        -2.16765044336622,
        0.09149094220731026,
        1.6729517643727039,
        -1.3499999779811855,
        -0.3126227720700416,
        0.7991571874242311,
        0.1664468167487946,
        0.3483010960580508,
        -1.5039528810379053,
        2.414339353548929,
        -0.7283258924132853,
        0.1320560814261367,
        0.5987688311374779,
        -0.7287321149947935,
        -0.4384540677433862,
        0.8993613787263426,
        -0.09316008471090215,
        -1.1991541333727846,
        -1.7317943825050388,
        -0.6756508907991636,
        1.8278451323578253,
        -0.3038217028970345,
        -0.22720297862116534,
        0.38381260858026295,
        0.6122810567498544,
        2.9281659713596158,
        -0.5038876411797608,
        -0.16442846608665704,
        1.4415235968385924,
        -0.09708436144058999,
        0.15477813180276218,
        -1.8029616527726617,
        -0.3981108031102945,
        -0.8545415731839322,
        0.5307022365879739,
        -0.8662074372891034,
        1.6544282111374378,
        -1.0877450019665413,
        -0.997905724071656,
        0.16846330916197647,
        2.1923533788132747,
        -0.9244463771853856,
        1.6272670999574135,
        -1.0119995118873948,
        0.5427249161808851,
        -0.6615254306675775,
        -0.8629978800040313,
        0.09550418054348304,
        -0.641362178455362,
        -1.3552508656055158,
        2.1406135797277486,
        -0.06808230598620046,
        -0.20053532908924104,
        -0.7601970347113646,
        0.5247361603242789,
        1.1306004597334292,
        -1.266340856876555,
        -0.23258143874425866,
        0.09730908730962556,
        0.11314260664690567,
        0.5450978395365595,
        1.7007052359096397,
        -0.33750346523745745,
        0.5626727904242341,
        0.8918583915555116,
        -1.1967745124474096,
        1.2140050113661705,
        2.6254275994966516,
        0.27234599069802845,
        -1.6756566180771584,
        -0.17695223258142126,
        0.09700863762574911,
        -0.011574152775069728,
        0.12087980669359037,
        -0.5687489060765241,
        0.21633537606448958,
        0.9001037259115128,
        0.7460788157727668,
        0.8095366875166635,
        1.689677370891452,
        1.2435905679965118,
        -0.8002783426670417,
        0.9207710888623308,
        1.4318288290175527,
        -1.5757502483100367,
        0.7494457563577623,
        0.25514791557626665,
        -0.7503547789458094,
        1.1098315475505074,
        -1.0856788030967899,
        0.38656845681886753,
        0.34535605443203254,
        0.9948129333920691,
        1.6174334465069393,
        1.6492771512039972,
        0.08263440127351951,
        1.5588201805535093,
        1.8600411802793533,
        -0.2756127482790469,
        0.8710795812272587,
        1.1742907631108876,
        0.22467971431949246,
        -1.18794720864014,
        0.04851719260190711,
        0.09143589682956227,
        -0.6114144247997405,
        -0.13713208694607837,
        0.5790332103546091,
        1.296215492386594,
        -0.3684018667253967,
        0.0954422597326734,
        0.896446780552236,
        -1.2424985288404042,
        0.1333612168248329,
        0.5722789561678198,
        1.0152125835595964,
        0.32549684421858305,
        -0.9284796552275315,
        -0.7142493382854468,
        -0.6405533227815512,
        0.6706267579252988,
        -1.1788248589326833,
        -0.49842177289463263,
        0.19697965425618896,
        -1.0622719576160946,
        0.15801916417091694,
        0.13932688318860814,
        0.5245520670836674,
        0.9391437018802617,
        -0.1564139954129411,
        0.15814332628013728,
        0.8827194521456931,
        -0.22235065247665511,
        -0.3344536109999321,
        -0.5458280436729545,
        -0.5721703954425852,
        0.008031444436844615,
        1.005505497365518,
        0.3921125606406645,
        -0.3212447613398495,
        -0.7980525301310928,
        -2.1991551757733707,
        -0.38166220491028013,
        -0.5609503018486455,
        -0.15965444931012596,
        2.0561401647857713,
        1.3232316327799707,
        -1.3799774306599049,
        -1.4921580015799183,
        0.4849699975261791,
        0.9366995768410384,
        -1.8281322754080969,
        0.2148800777962001,
        0.5808340450276184,
        0.9653592428824045,
        -0.1866574112494608,
        1.2587719418626206,
        -0.5988253597621165,
        -1.9494575637315963,
        -0.24560554789575384,
        0.995042703488529,
        -0.7940073607120215,
        1.118581028375693,
        -1.312172922414328,
        1.4830570459203887,
        1.332752567663205,
        0.3262202347794613,
        -1.4921722516887974,
        0.6060782009663002,
        -0.9025263930280587,
        0.6752937237417145,
        1.7106194407385926,
        -0.3703104222706845,
        1.284434902709997,
        1.15024661065523,
        -0.6003005617295466,
        0.5933680771130614,
        -0.5889004467301694,
        1.1438877189525278,
        1.1490904724853372,
        1.8588907575334923,
        -0.7942817049559546,
        0.38944196874496095,
        0.6200126868370947,
        0.21889756840837718,
        0.223589536166658,
        1.4937654050488827,
        -0.015745009724386826,
        -1.066626241965583,
        1.2117562411050147,
        0.9790684775114044,
        0.33378959391731394,
        0.5259150491019366,
        -0.5066660736549506,
        0.051178105119205994,
        0.462553428251056,
        0.1596264818000429,
        -1.2472934394715034,
        -0.8399651650056679,
        -0.45143053230359753,
        -0.2115360528011065,
        -0.6022621881979903,
        0.365008295653512,
        -1.1945680885060437,
        0.4665700289222528,
        0.6436699146633567,
        0.6685377469515473
    ]
}