{
    "idx": 709155,
    "fights": [
        {
            "enemy": 5,
            "fitness": 90.63650369121832,
            "player_life": 62.20000000000034,
            "enemy_life": 0,
            "time": 266
        },
        {
            "enemy": 6,
            "fitness": 3.4745470608682165,
            "player_life": 0,
            "enemy_life": 90.0,
            "time": 251
        },
        {
            "enemy": 7,
            "fitness": 90.80669517527555,
            "player_life": 61.000000000000334,
            "enemy_life": 0,
            "time": 199
        },
        {
            "enemy": 8,
            "fitness": 89.26878821817867,
            "player_life": 49.000000000000306,
            "enemy_life": 0,
            "time": 279
        }
    ],
    "weights": [
        0.33722411047567996,
        0.573567436913235,
        1.0824968184448889,
        -0.6513577923650438,
        -1.3746005921064286,
        0.22240227278134533,
        -1.1735373155672164,
        1.5178685661501297,
        -0.8288159904258322,
        1.1280016804592934,
        -0.10415327430705548,
        -0.7691455770295653,
        -0.6151355574066615,
        -0.7239373810962162,
        -0.885680592310967,
        2.0918283582388977,
        1.8697986528548458,
        0.37263041407491404,
        -0.035901743831539976,
        1.6422870651376076,
        -1.450236914961118,
        -0.08892028552725068,
        1.492232815118889,
        1.2070188425709973,
        0.5503730530764012,
        0.701198410511187,
        -1.2844809827580064,
        -0.06930900119207566,
        1.0628348173704636,
        0.8626034766715716,
        -0.37648771777349305,
        -0.8030826639184068,
        -0.7628914928525337,
        -1.296982058258203,
        1.177557628715884,
        0.22483430247854447,
        0.29953949365369004,
        -1.3199303167122525,
        0.16163584083533591,
        0.5826165518782135,
        -0.274545527766198,
        -0.11273996526499544,
        0.547228122202611,
        0.39228790918003875,
        0.33654690761995276,
        -0.45104104543270696,
        1.7056195926437392,
        -0.029306337438879518,
        0.5366584422699944,
        0.6144780008989426,
        -0.1660023512027386,
        1.7551768992999783,
        -1.1469723417152609,
        -0.628721816640824,
        -1.101928719541428,
        1.7775503337739442,
        0.839109385273531,
        -0.6491752585805243,
        -1.7665470833139572,
        0.4655687917378508,
        1.742034413622523,
        -0.655692642662804,
        -1.028735662721926,
        0.5302258605943442,
        0.03741978462196986,
        0.7131403715238,
        -0.9351585489540215,
        1.4922443460637576,
        0.6706740321842872,
        -0.6063804482924627,
        0.476105097896962,
        -0.12675201611453157,
        -0.44104342662782553,
        0.2836450092081711,
        -0.5163643180426695,
        -0.9882561490741009,
        -0.6144200537092752,
        -0.23650583313221135,
        1.4111625693061338,
        0.6757549855511792,
        1.1182464910731942,
        0.39042438055330836,
        0.15871915744989123,
        2.6310181263070977,
        0.4096045896727119,
        -0.46642956527226836,
        -0.03587763781661941,
        1.022166927610103,
        0.21805556880621485,
        -0.023574653062013562,
        -0.47023015503699084,
        -0.5258252034579295,
        0.04820474200415583,
        -0.41305620239027363,
        1.2460256995849037,
        -0.7243869748724823,
        -0.7297834707648232,
        0.01575327774039747,
        2.1232425012824945,
        -1.1918425442330376,
        0.9803639426172639,
        -1.9937122743066311,
        -0.08584901746804421,
        0.484916265923956,
        0.15951932387245654,
        0.7259404931781207,
        0.5974383744738723,
        -1.148327630244811,
        0.6863826243796616,
        -0.6244254532972514,
        -1.015676064688554,
        -0.45521660670744474,
        0.9980757495862299,
        -0.508520318631125,
        -1.3428791909143805,
        -0.4606842108431739,
        -0.8559552649100934,
        -0.425791782019929,
        0.1384847667658486,
        0.10009733750961523,
        0.4387329764558893,
        0.6090238450452775,
        -0.09622214198469276,
        -1.4813096713521339,
        0.5260328509628045,
        1.2153359458415784,
        0.9991864204308931,
        -0.7452604691914964,
        0.26106714353684946,
        0.053420106203140166,
        -0.5344970908300548,
        -0.6774390652202239,
        0.11797227617228051,
        1.1743819001095954,
        0.46183232336642627,
        0.8959804714551011,
        0.1696229158450954,
        1.414329641287809,
        -0.17894615149418752,
        -0.20053006748889,
        1.112771522097853,
        1.9953474261630268,
        -0.5227650317506579,
        -0.4713659023814858,
        -0.07967018425312015,
        -1.1660579912726332,
        2.468003153482113,
        -0.76918697640965,
        1.2295035647061092,
        -0.8752576794461304,
        -0.41974360378146214,
        1.6368463627857512,
        1.3692236723788396,
        0.8317897311303594,
        1.1649356903217345,
        1.0630115320198106,
        -0.409836569653324,
        1.850461288746162,
        1.5313994717886334,
        -0.5930557934507813,
        -0.18058766393076556,
        0.2723381638166706,
        0.19835747054355687,
        -0.2727202278365203,
        0.5195942783553394,
        0.2538335012269173,
        0.2980774258994734,
        0.400997157334158,
        0.28771475475384367,
        0.2709177821189494,
        -0.05375893471511031,
        -0.2451259105940506,
        0.1971809570812326,
        0.8781847624202882,
        0.21722802684252845,
        -0.8746882254775689,
        -0.481585049334211,
        -1.1138147556937834,
        0.7572351642750532,
        -0.320860562405027,
        -0.7941189474874398,
        0.5290279362305337,
        -0.32952700301304355,
        0.2136481635672906,
        -0.15491552706004558,
        0.9964968505048998,
        0.7859786997622055,
        -0.5444944127262924,
        0.08181739042655847,
        0.7503900773190154,
        0.1747977966631085,
        -0.05983095242782485,
        0.3346482528211514,
        -0.36246302651900875,
        -0.5567182706657737,
        1.5163357709329477,
        0.2331657139303743,
        -0.12261741801491702,
        -0.17619396642182938,
        -1.4203113785989636,
        -0.5659285901807306,
        -0.41857726399518747,
        -0.24457379789159195,
        0.5030312748000961,
        0.10089998382495897,
        -1.1180979638717432,
        -1.6893167052786942,
        0.43122602060961845,
        0.3937119206485502,
        -2.170732625780247,
        -0.3251247307579849,
        0.42420132479357486,
        1.3059249858271103,
        -0.2685391072058323,
        1.0121625884994334,
        -0.7523654833313714,
        -0.9046667668527619,
        0.07604866396326976,
        0.9458731301000277,
        0.3063686316002657,
        1.3040938642949123,
        -0.8861406758067364,
        1.278905389034759,
        0.38858440102233666,
        0.4250562217478734,
        -0.6485596612489932,
        0.6065726281525596,
        0.6679654421996207,
        0.04954547237887193,
        0.23915702056067134,
        -1.3126717100290441,
        1.2404206289296846,
        1.6724231078265197,
        -0.03507297767218299,
        -0.07581639644148472,
        -0.6191553135568608,
        0.889226303410082,
        0.9734615249923616,
        0.9385885804760397,
        0.608612208168815,
        1.3042158271488655,
        0.03870584669908764,
        0.7468293539823773,
        0.9056429484528745,
        0.4417878175364941,
        0.21864417464335495,
        -0.7888064219725454,
        1.154557286482021,
        0.5552595999792942,
        1.092351256172173,
        0.22421020021944077,
        -0.1262550226823846,
        -0.8643004960867371,
        -0.24884427824014843,
        -0.12626410597198212,
        -1.7716081744850025,
        0.14648839827355148,
        -0.7535559588172731,
        -0.8795667181501459,
        -0.4098291607934798,
        0.5958722550087678,
        -1.1662105170703332,
        0.7153665580838166,
        0.9144825310815217,
        0.620489793364085
    ]
}