{
    "idx": 700676,
    "fights": [
        {
            "enemy": 5,
            "fitness": 89.5002701740138,
            "player_life": 50.80000000000031,
            "enemy_life": 0,
            "time": 265
        },
        {
            "enemy": 6,
            "fitness": 22.195978955266742,
            "player_life": 0,
            "enemy_life": 70.0,
            "time": 122
        },
        {
            "enemy": 7,
            "fitness": 87.91946500072774,
            "player_life": 33.40000000000027,
            "enemy_life": 0,
            "time": 226
        },
        {
            "enemy": 8,
            "fitness": 86.33574420258549,
            "player_life": 22.600000000000243,
            "enemy_life": 0,
            "time": 374
        }
    ],
    "weights": [
        2.5286143955829616,
        1.225072044914534,
        0.2051624264639323,
        0.09252857406114531,
        -1.1733449614050504,
        0.3597566315266047,
        -1.971826832922558,
        0.8569488745136282,
        -0.38739761475131634,
        0.7286729983329094,
        -0.27433252692762244,
        0.5261882380360795,
        -0.6609632302334714,
        -0.4716456131003082,
        -0.8040231062004788,
        2.0713353083097403,
        -0.6434838849639213,
        1.1696810542589322,
        0.7603473966016959,
        0.5993134729724118,
        -0.9899167978413072,
        -0.7943109767787097,
        1.9341594887347098,
        0.33013999639307223,
        0.500783679674887,
        1.214605177090932,
        -0.11429332429544894,
        0.0867016379720549,
        0.5738313181559234,
        0.3846008800532711,
        -0.597394565853028,
        -0.3046431141056305,
        -1.3304219395089343,
        -1.3492303600011906,
        1.2536920998051733,
        -0.11424424461539912,
        0.5116930324902297,
        -0.9356844992716535,
        -0.060466244447915485,
        0.27242123045064537,
        0.1533128673696071,
        -1.3759713290879785,
        0.7994763688039831,
        1.5531562435507709,
        -0.3220450903410911,
        -0.6964034015547783,
        1.6172103922538938,
        -0.04859262340755141,
        -0.5752525993929304,
        1.4239692667858115,
        -0.6583297739728997,
        1.299418236893806,
        -1.0863140896632464,
        -1.0129028643222135,
        -0.2399547250327449,
        1.7990296914566422,
        0.5789856225091187,
        -0.35206930009618664,
        -1.9252448105601991,
        0.7240671101361963,
        0.6638056069051681,
        -1.330173601955586,
        -1.3454710309470077,
        0.4625641022695623,
        0.44602637974211107,
        0.597744031397768,
        -0.13589586646909307,
        1.3963217493510718,
        -0.6666258659105776,
        -0.24939311280187645,
        0.5874358863580152,
        -0.044027701314893475,
        0.006378806910410871,
        -0.05955996109497344,
        -0.19947633287771976,
        -2.4216230381059978,
        0.4952466980635858,
        -0.7406981811135268,
        1.3051276322462457,
        0.8846102397982251,
        -1.0421605932937,
        -0.39956622250377144,
        0.1352533443917462,
        0.5279193652637261,
        1.0823567284060276,
        -0.9424473574401269,
        1.2132997896180673,
        0.9190830520852276,
        1.0394020380688036,
        -0.023234081008263345,
        -0.2310457599124277,
        -0.2566839588592772,
        0.10600444792682644,
        -0.4585474578905488,
        1.3906454382141538,
        -0.13342217998291572,
        0.04057554662401766,
        -0.3608647599001531,
        1.1353117908520558,
        -0.19025956754506962,
        0.8281212828335354,
        -1.5566006984634988,
        0.3944725936436754,
        -0.9929174994812408,
        0.07240854484888673,
        0.13462346242548517,
        0.34171264944933916,
        -2.147401970647939,
        1.2731200134109408,
        -1.1924996634028886,
        -1.2002650231936087,
        -0.6550352804772528,
        0.8014139656154122,
        0.03837879713166484,
        -1.74032292492412,
        -1.5076368365140285,
        0.4098564946677603,
        0.29992603420799235,
        0.1702292481247295,
        0.06801941448612676,
        0.6123874318240489,
        0.7760210171291089,
        0.9029373815047279,
        -0.7796755564156403,
        1.508072578524715,
        1.6951592285483483,
        0.220479918992592,
        -0.8938021049014246,
        -0.6622901075751316,
        -0.5475991063596618,
        -0.1603442884572538,
        0.08071282976028689,
        -0.25803059322021427,
        1.1539772077834014,
        1.8188039651290624,
        0.8849245452533748,
        0.5695305144734195,
        1.3324838165794322,
        0.5451014371300247,
        0.0554074122124209,
        1.1173712487993097,
        1.9810084350203812,
        -0.5298391456024477,
        0.14772623083018815,
        0.15041725326045124,
        -0.4747472425207433,
        0.8782578514897408,
        -1.2567063713128301,
        1.527667494554344,
        -0.07623254658429646,
        -0.6162882107160954,
        1.9856168139713253,
        1.340894915174952,
        -0.4998885873480355,
        0.8701614825383093,
        0.8474588947374078,
        -0.6703767740808748,
        -0.007960947416598446,
        0.7458163327319975,
        -0.43929495947604913,
        -0.6966723276022224,
        0.40869682630837684,
        0.4430639968420535,
        -0.2574453257331179,
        -0.5548744604315003,
        -0.10175885447468673,
        -0.2179108879638547,
        0.7412274846976924,
        0.3755511328488624,
        0.655847345916765,
        -0.4620453337159443,
        0.029396796570387754,
        0.47166669140681855,
        -0.15066077937590405,
        0.9839406206963617,
        -0.0650816022820181,
        -0.20891412136220464,
        -0.30436480641222685,
        0.23740539142593725,
        -0.17811605465715213,
        -1.137874092333323,
        0.38783089860828945,
        -0.2691688687427244,
        0.44840528982848693,
        0.27343721825066075,
        0.9613230497950277,
        -0.0771132045165512,
        0.03006373409004165,
        0.33525304769311826,
        0.7353479643232005,
        0.15284766640720843,
        0.01960110088903759,
        0.7624597304724898,
        -0.2894581014788401,
        -0.18617321187475655,
        1.543148849091493,
        0.34861123084262563,
        0.27953161362749207,
        -0.5148465871764615,
        -1.6870419958783125,
        -0.5457329727900566,
        -1.324101120178045,
        -0.24958240571440177,
        0.7392908587222886,
        0.07188790330480074,
        -0.957254901523233,
        -0.9128120881675282,
        0.43126634772441186,
        0.5394265943923668,
        -2.037918225327406,
        -0.1268582140586637,
        0.04758388353706762,
        0.7903165275593714,
        -0.8465984225494461,
        1.2017205686364412,
        -0.9515718507353218,
        -1.1022023047811194,
        0.6770106439515337,
        0.7072697592117554,
        0.28970792112780563,
        1.4528021202747656,
        -0.7556029860116642,
        1.5152185628538977,
        -0.028997684468632406,
        -0.06797779776624632,
        -1.430369066248137,
        0.17540657188570194,
        -0.9332741395392576,
        -1.1502673394299998,
        0.19510228775920369,
        -1.0261423672920416,
        1.0372601532759098,
        1.719133688577273,
        0.1712600848203611,
        0.5993707210151764,
        -0.6537234576609218,
        1.5809578331394882,
        0.6403921352837026,
        0.29622426141011093,
        0.0040346908302126006,
        0.989957086918654,
        -0.5351114297366604,
        0.5840682708676457,
        0.6575236306293981,
        0.34769928249007814,
        0.7381655558581969,
        -0.27867911687811153,
        0.015388771334124078,
        1.0731061279547212,
        0.6897515567221646,
        0.6346706346053941,
        -0.9817527243494656,
        0.4528536525783917,
        -0.3058772919098133,
        0.47149306069333763,
        -1.3704835593127123,
        0.10565216054957682,
        -0.16431412224321096,
        0.27634207206877687,
        -0.18477003605072828,
        0.06983051731917152,
        -0.8391444942870194,
        0.5710837092361449,
        1.1580465670400264,
        0.5176396600373214
    ]
}