{
    "idx": 714283,
    "fights": [
        {
            "enemy": 5,
            "fitness": 86.93297711225776,
            "player_life": 30.40000000000026,
            "enemy_life": 0,
            "time": 449
        },
        {
            "enemy": 6,
            "fitness": 39.752975927839515,
            "player_life": 0,
            "enemy_life": 50.0,
            "time": 190
        },
        {
            "enemy": 7,
            "fitness": 86.60957298262515,
            "player_life": 23.200000000000244,
            "enemy_life": 0,
            "time": 302
        },
        {
            "enemy": 8,
            "fitness": 88.81968822339262,
            "player_life": 45.4000000000003,
            "enemy_life": 0,
            "time": 305
        }
    ],
    "weights": [
        0.798700524832017,
        0.7499490999093678,
        1.093237078710997,
        -0.9043061106089656,
        -1.328645956277501,
        0.6752836385722226,
        -0.9682524667157891,
        1.5481363098325924,
        -0.34821993966300274,
        0.9699963164444272,
        -0.14390995318089794,
        -1.0984636565735102,
        -0.8712438202206209,
        -0.7463387628279363,
        0.3992980535477139,
        2.1395978778229208,
        2.3589208189665154,
        1.8653679390094915,
        0.7226987855934439,
        2.0112178822858415,
        -0.8179031927868803,
        0.04758451184691183,
        0.8397389414876083,
        2.4776493290909696,
        0.4189856330669599,
        1.5444072877188517,
        -1.8012810105448411,
        0.23339539111216723,
        3.1208621902565197,
        0.5096500948797338,
        -0.031966769711811685,
        -0.7434006679394479,
        -0.12461817906596859,
        -0.9616352848969074,
        1.0694228276536035,
        0.16944263079942926,
        0.18574530869687494,
        -1.3496581686084925,
        -0.006646415868459864,
        0.6499538874190608,
        -0.5975303362240603,
        -0.7953848854834965,
        -0.021561675250962642,
        1.123295863464335,
        0.09141523602709115,
        -0.5527227757058267,
        0.8907170982020237,
        -0.20741987755966784,
        0.18796941257384564,
        1.4738754988658416,
        -0.7068043129767206,
        1.6676475529424384,
        -1.9117606654374673,
        -0.7686195065732927,
        -0.9973374890878243,
        1.785788082274259,
        0.3706267618535075,
        -0.19851314810572973,
        -1.9621561989465774,
        0.7009325821587289,
        0.9734870794544659,
        -0.6544479793862203,
        -1.0762687829534967,
        0.4324209283781102,
        0.019020596351235333,
        0.32702433785427615,
        -1.6880470340157256,
        0.7724858902500588,
        -0.37791337350045373,
        -0.4827135891790035,
        0.6201576810468624,
        -1.0236699605506345,
        -0.6247408836436995,
        0.7134305420943804,
        0.2905822343923077,
        -1.5059347994766497,
        -0.3930330446289081,
        0.2318812330489366,
        1.1252104030221357,
        1.0358185751920121,
        1.2005698681987127,
        -0.1885220282768949,
        0.18396835188083907,
        3.0853021170945234,
        -0.03601130198160539,
        -0.40573206310291254,
        0.15959225177054254,
        0.35479643006126255,
        1.026119892167764,
        -1.4872867467988686,
        0.09582604077528878,
        -0.848124986532365,
        0.18503481387716933,
        -1.1273665492577243,
        0.6079893360798562,
        0.6858281351622367,
        -1.6202982823219334,
        0.5375427078587826,
        1.9707270157984065,
        -0.632416368363777,
        1.0068938927201965,
        -0.5912125920809423,
        0.08328262896540088,
        -0.4136394858079357,
        -0.2219412050780766,
        1.1729403488661025,
        0.8862034401797164,
        -1.37388954744255,
        0.32093965357102267,
        0.6440593219226035,
        -0.9522928560143118,
        -1.75813885008635,
        1.5970389179742988,
        -0.10666789660957046,
        -0.7956757926640148,
        -1.2898672618036198,
        -0.12449405555883981,
        -0.20201418338379795,
        0.2871106841492319,
        0.03440113013872778,
        -0.04765040459406327,
        0.1358736034242693,
        0.6548780411459046,
        -0.183652072677024,
        1.2301675356609025,
        4.006865533509745,
        0.8924013006606101,
        -0.8644840712738185,
        -0.05329433630016715,
        -0.410559533030277,
        -0.0886953477010459,
        0.7931779417315573,
        -0.14196490525474664,
        -0.0012882673211061912,
        0.33923526974485413,
        0.6718173056993607,
        0.4801708169842629,
        3.5119657078407736,
        0.7217434208908154,
        -0.7172079420808412,
        0.9471354670659704,
        1.7373867701255763,
        -0.8001033378177959,
        1.2030172967117154,
        -0.10351122857533608,
        -0.99892380667873,
        1.2270988211214302,
        -1.515035904207204,
        1.5854863200218225,
        0.38907870986552867,
        -0.06644628663291988,
        1.8418168277637963,
        1.694478644994806,
        0.06795124237663965,
        1.454331642121157,
        0.7989421150343454,
        -0.03221168870855559,
        1.2259405733410693,
        2.224524870306755,
        -0.29431045377654463,
        -1.0574560772081734,
        1.7026336734740417,
        0.3320716994559655,
        -0.2663124433424747,
        0.10378560079744212,
        -1.06066150224683,
        0.09900301806896122,
        0.8322190998379262,
        0.43960271865571166,
        0.532539465592682,
        -1.1534332512655534,
        0.21135461079309786,
        1.0131390589453066,
        -0.3814983218728263,
        0.4991912786247763,
        -1.0819564953866314,
        -1.161952555409044,
        -0.7753446425327747,
        0.3284398969694369,
        -1.2094882470900283,
        -0.223402756898071,
        0.9875479470945636,
        0.7645573446171569,
        0.8868532197498034,
        0.44610412254717724,
        0.5991264840129031,
        1.1448080891405354,
        -0.3310135862969226,
        0.04792290910047736,
        1.0998622791567096,
        -0.40031037953841325,
        -0.04171477619442303,
        -1.1011949710136892,
        -0.4764146919134164,
        -0.7510613712819376,
        1.2515184912081287,
        0.46210563550527384,
        -0.7373290027689609,
        -0.8295643848119598,
        -1.6421624299616984,
        -0.43195419853946826,
        0.4019369768719282,
        -0.059279084730537425,
        1.0134627928503268,
        -0.4394258806295601,
        -1.5672165740942088,
        -1.5277928545326658,
        -0.3151632972541354,
        0.6326789238280943,
        -1.6298521126702008,
        0.11821083345464953,
        0.8840146991919217,
        0.6345825272380696,
        0.14678085532539495,
        0.9164857978776169,
        -1.1030392978194319,
        -1.3427997664075888,
        -0.5213218723264618,
        0.9803613994604987,
        -1.1504255604035967,
        1.1320403617548949,
        -1.4038419523017893,
        1.344998109671214,
        1.756076761432382,
        0.31850223163496955,
        -1.8820714960052773,
        0.2521920064211244,
        -1.48779503418583,
        -0.5215445660828361,
        1.0183435757157095,
        -1.343100724074035,
        1.427949733137036,
        1.6251042654844512,
        -0.3017359414317117,
        0.4467805956992904,
        -0.5418554326978602,
        0.6298666773380094,
        0.2172258778526974,
        0.16367268511220603,
        -0.6954183804967853,
        0.5700201544701786,
        0.212419690677624,
        0.7802706518332272,
        0.3601503754026813,
        1.7497891969588715,
        1.296881052739616,
        -1.0488861381672543,
        0.5397369129139257,
        1.4209715427858545,
        2.125152373171089,
        0.9600569459565166,
        -0.3275053223037252,
        -0.4262243455584543,
        -0.005837066962609093,
        -0.3500336010068008,
        -1.4112541373948506,
        0.4116783257833318,
        -0.5582541086911903,
        -0.6570243634098452,
        0.09279091687478286,
        0.2388901146316741,
        -0.7952894981474901,
        0.7390735792130656,
        0.5958533136800498,
        0.2193884919551018
    ]
}