{
    "idx": 700940,
    "fights": [
        {
            "enemy": 5,
            "fitness": 86.12628484395722,
            "player_life": 21.40000000000024,
            "enemy_life": 0,
            "time": 409
        },
        {
            "enemy": 6,
            "fitness": 66.64814186652393,
            "player_life": 0,
            "enemy_life": 20.0,
            "time": 211
        },
        {
            "enemy": 7,
            "fitness": 90.93679627126204,
            "player_life": 62.20000000000034,
            "enemy_life": 0,
            "time": 197
        },
        {
            "enemy": 8,
            "fitness": 88.8796882233926,
            "player_life": 46.0000000000003,
            "enemy_life": 0,
            "time": 305
        }
    ],
    "weights": [
        1.6723342468903257,
        -0.9553599445200717,
        0.7332647970249941,
        -0.624112736924075,
        -2.503885754224665,
        0.43636490267601435,
        -0.09189222410965098,
        -0.09327803976057059,
        -0.8000458245392856,
        0.08586575524380652,
        -0.5956746619459602,
        0.7173983937975321,
        -0.6940195185966088,
        -1.040128014236455,
        -1.4366406094398563,
        1.7546887144753562,
        0.4284933011340704,
        0.7644021597098961,
        -0.5382240498169841,
        0.22189231418159922,
        -0.7508907494555884,
        0.47954574345844025,
        2.1816332415910282,
        0.6957829949656994,
        0.8942881637252151,
        1.5640524031759269,
        -1.633287879284401,
        0.19605900401402837,
        0.6692585161502749,
        -0.07844971978900622,
        -0.6053695751347754,
        -0.5758616100041117,
        -2.8314844093966665,
        0.7015710733177265,
        0.18911683042888106,
        -0.8154952325736998,
        0.2233272690692807,
        -1.4934061473200397,
        0.5736200443534663,
        0.16178287332239905,
        -0.5135733966496,
        -0.6564896800806344,
        0.7134274649933753,
        0.5513431424950569,
        0.4927743403994289,
        -0.14667069427698046,
        0.8622085491367215,
        0.7337164908628415,
        -0.13930635840415312,
        1.1829154843670482,
        1.069976036020408,
        1.1630413666651436,
        -1.1252928587729445,
        -1.4333252139420427,
        0.10103472088163892,
        1.8882805147049144,
        -0.26050193130139776,
        1.7820794080735847,
        -1.9616736008924889,
        0.4734866553354902,
        1.1571548215686582,
        -1.502811001394277,
        -0.8725214628443273,
        0.3095204566111996,
        1.498607099993552,
        0.8818879438290671,
        -0.7225377763996739,
        1.1131671483001297,
        0.2761652786706992,
        -0.18249601086557232,
        1.7602012500856257,
        -0.4098679378245497,
        1.3052648078040472,
        -0.16795996861517826,
        0.2493232865523734,
        -2.305212925582238,
        0.47237051545309994,
        -1.282252537820711,
        0.5593689766943483,
        0.6384167492201495,
        -0.03494862798458326,
        -0.20998724472970076,
        -0.10710834224078242,
        0.01099804780174804,
        -0.22690012499008963,
        -1.1147489087061255,
        -1.0153966985078893,
        1.4702474366487153,
        -1.2385464082463042,
        -0.9511952838021187,
        -1.8317340113741143,
        -0.6931927785619433,
        -0.0981574465826607,
        -0.1785531546863789,
        0.2562406621148128,
        -1.9451023570373622,
        -0.38038377697949904,
        0.9926200465372453,
        1.7267199832561504,
        -0.5239896277051233,
        0.9747823378827368,
        -0.6574715852214439,
        -0.9458193436403343,
        -0.17135270953545956,
        0.5293924516071469,
        -0.9842438240170044,
        0.21786489850374857,
        -1.3005323650593776,
        0.5199512497775578,
        -0.6410284527651607,
        -1.3438460751000576,
        -0.5201619132149422,
        1.9978014499169747,
        -0.1545856114687822,
        -1.3308963723812564,
        -0.37267490483121873,
        -0.6353079628133826,
        -0.9948007051731355,
        -0.3606209932324812,
        0.5974361213736467,
        1.3428457718175297,
        0.30874080914559643,
        0.9727605248751516,
        0.8681385544416408,
        2.246550863326291,
        -0.6569184146079431,
        -0.5442122555174042,
        -0.9751111811281367,
        -0.16445182431646893,
        -0.8018653330639034,
        -0.6821722297097514,
        0.14561605927681764,
        0.23769285320335015,
        0.25651226499358104,
        0.39332552582131547,
        -0.32038011067380245,
        -0.46358420746216306,
        0.9336032745344317,
        0.4904773261212642,
        0.23015520179794716,
        1.8181036195424776,
        1.0783023453594298,
        -1.317528668049725,
        0.489398331991022,
        0.5507892923893251,
        -0.7356628380426392,
        1.4179534121900625,
        -0.4181242214133877,
        -0.44227709351687683,
        0.12684925025956226,
        0.026843563567231665,
        1.2195186470001047,
        1.4877802315442588,
        -0.2825245667815278,
        1.5379254138870948,
        1.5420208160250835,
        0.7432096181624839,
        0.8051223705383227,
        1.041460362315677,
        -0.694598871037309,
        -1.9831948588578934,
        0.288960511964709,
        -0.21353634267401278,
        0.19937484343346018,
        -0.3828290233461227,
        0.24057987125029354,
        0.29591336749469166,
        1.0036242503045576,
        1.7033243393506323,
        -0.7901638964696103,
        -0.8105567028122385,
        0.0059370602810308315,
        0.8022252992278329,
        -0.04768621812032753,
        -0.23685824318626858,
        0.7924125641343832,
        -0.8100580649184552,
        -1.104012249208539,
        1.9707224136594543,
        0.13326503842708,
        -0.2892003606083427,
        0.3008399129781344,
        -0.31823078315734943,
        -0.13735934074676814,
        0.324388445592213,
        0.8837218861600495,
        -0.3988698253788192,
        -0.49445990572066084,
        -0.04452016128149508,
        1.0175675431276974,
        3.18463252299644,
        1.7029291711520456,
        0.9166016200082125,
        -0.3571703732355418,
        -0.2979526833975179,
        0.8039524579814287,
        0.2598103831536391,
        0.2615877909151665,
        -0.844178308684461,
        -1.1858970709041887,
        -1.0437709013068501,
        -0.26206103512564327,
        -1.0776001212578206,
        0.00029176941598245756,
        0.5249874783866458,
        -0.2814174940745887,
        -0.8217463025600035,
        1.511711013015266,
        0.594994533463039,
        -1.385964153437339,
        -0.29627933783295474,
        -0.23330219363626475,
        0.74234785118936,
        0.17268936672997565,
        0.7970782582529103,
        0.08454060251245399,
        -1.1576208301221829,
        0.9316436249609671,
        1.1495402390578475,
        0.3778833488182522,
        1.4731793669716828,
        -0.13672665709029413,
        0.13828501271731014,
        -0.5327976170749623,
        0.061515899279855166,
        -1.5977763659851985,
        0.9910518123242182,
        -0.9622860219710585,
        -0.3353186900686173,
        0.7360051766809417,
        -2.4996195412721067,
        0.9218474210313017,
        1.164266874301653,
        -0.6399031101094863,
        0.5131678194765712,
        -0.7388805789524939,
        1.2711430168114854,
        0.8379347825334373,
        0.9677503510866349,
        0.20449284903747872,
        0.4218035313494147,
        -0.24536537115385326,
        -0.1268927261651701,
        0.35787827095258484,
        0.6259299866951389,
        0.8914647279266544,
        -1.0095227433845209,
        0.05435780163409781,
        0.3972467459574807,
        2.1393305911309626,
        0.9490170307104517,
        -0.7827907545326257,
        0.41493503113949415,
        1.6813392776246932,
        -0.44763242123322733,
        -2.2578221692862956,
        1.0200309043912592,
        -0.6648866198108623,
        0.16469283172645963,
        -0.1302545412672479,
        0.8442019962261543,
        -1.432704072422561,
        0.05628141717451146,
        4.299466326755916,
        0.4697493352954871
    ]
}