{
    "idx": 700828,
    "fights": [
        {
            "enemy": 5,
            "fitness": 88.52901301948917,
            "player_life": 41.20000000000029,
            "enemy_life": 0,
            "time": 268
        },
        {
            "enemy": 6,
            "fitness": 85.99065437104558,
            "player_life": 14.200000000000228,
            "enemy_life": 0,
            "time": 228
        },
        {
            "enemy": 7,
            "fitness": 66.63870783429057,
            "player_life": 0,
            "enemy_life": 20.0,
            "time": 213
        },
        {
            "enemy": 8,
            "fitness": 90.01936107665804,
            "player_life": 55.00000000000032,
            "enemy_life": 0,
            "time": 240
        }
    ],
    "weights": [
        0.2789384044494977,
        0.8637465967287847,
        0.8413967124371969,
        -0.7438425819329275,
        -2.10466570317944,
        0.14107206882510473,
        0.11750471457546616,
        0.43099143557736236,
        -0.7907949043248821,
        0.06856966263002152,
        -0.41182078852068205,
        0.49313124747541576,
        -0.4659459542034533,
        -0.1742076444681632,
        -1.2192759143563794,
        1.079807115875373,
        0.07000608199491662,
        1.135403097521005,
        1.2204749322429504,
        0.40937687599666006,
        -0.786319177183336,
        -0.16234441203011898,
        1.9932964344224897,
        1.2585091538626738,
        0.0768130946680774,
        0.7315747402439869,
        -0.9633366431012441,
        -0.24601931754130404,
        1.19776542894054,
        0.4300701178475742,
        -0.5655956108643172,
        -0.26142074256573544,
        -1.5385665695217272,
        0.7946666755335328,
        0.22301585995213014,
        -0.35362551459481967,
        0.5110026620670111,
        -0.2910822827261828,
        -0.9033240982637053,
        0.05998680027892392,
        -0.7636824294786775,
        -0.26943437853295327,
        1.3133386166065941,
        0.3367967811848596,
        -0.10541977261674398,
        -1.440849115609898,
        1.330669280787679,
        0.19545343765036122,
        0.15462180974901885,
        0.4091952874222594,
        0.6775739874062698,
        1.662221097778692,
        -1.3229853264272926,
        -1.0168300757396236,
        -0.40917051171938185,
        2.5424195771198965,
        -0.275565007039845,
        0.3581526418144635,
        -1.8143566545246255,
        0.3334352892395506,
        1.2893476731455331,
        -1.1407884167971334,
        -1.2161414356603688,
        0.6187338403317543,
        0.843210912392617,
        0.8364035584878067,
        -1.0965327297318763,
        0.4834580555557557,
        0.24606315263522738,
        -0.2367160497569767,
        2.0019772311907467,
        -0.38824329418461573,
        -1.1168064654809102,
        0.06933919112985945,
        -0.35694944091947595,
        -2.4803626576783913,
        0.9478765935582989,
        -0.879870303053766,
        0.6434192946208118,
        0.4445122240495071,
        0.49429064437854175,
        0.020122775696430728,
        0.8807948621124817,
        0.2138132580605571,
        -0.17367896484374085,
        -0.7686953913875486,
        -1.3158366464235158,
        1.5355744435816698,
        -0.5375057815973694,
        -0.7789765346594487,
        -0.06884523176571476,
        -0.5885169602882212,
        0.24793654708051754,
        0.1616441822052866,
        0.4535945708947835,
        -1.5085739433828957,
        0.3991038928175949,
        -0.8150473723636329,
        1.233544594891683,
        -0.7632978578102307,
        1.0688028927229087,
        -1.0427883631980226,
        -0.8995586503822028,
        0.932222049825713,
        0.04574661731489754,
        -0.8149573650596389,
        0.4215011622609739,
        -1.3936471960502241,
        0.7262924801025799,
        -0.49325916511282586,
        -1.5209248373926494,
        -0.5869077233563094,
        1.9521031591358116,
        0.09931148502930481,
        -1.1635531395083087,
        -0.2289126787793869,
        -0.39555830669130443,
        -0.8792867213065704,
        -0.24065106165568345,
        0.7446005099652072,
        0.3839304781254515,
        0.7279304785440491,
        1.7042575418787247,
        -0.6237141995493529,
        1.9966793190488994,
        0.5878764825329679,
        -0.7334490997029726,
        -1.0271864675179576,
        -0.49385389224119997,
        -0.0396134805485473,
        -1.004390014637437,
        -0.07235137969326372,
        0.2410767500731473,
        -0.18356150876390487,
        0.24869974481771842,
        -0.37919588908118035,
        -0.601840148108212,
        1.4589100366145307,
        -0.02576104415257885,
        0.33298242518415705,
        0.8160248076883705,
        0.7301341732308815,
        -1.1817018336548322,
        0.5791675363933964,
        0.6720266343831225,
        -0.5772686728275185,
        1.1585882462733879,
        -0.7163561631396607,
        -0.13200069958945493,
        0.06756518414454925,
        0.08940925385475398,
        1.3183330185913769,
        1.5881626965064297,
        -0.12070261025389045,
        1.7613333859078968,
        0.6289590718297787,
        -0.09312151889538435,
        0.3784136170817288,
        1.0073226105162978,
        -0.2241529926381284,
        -1.8221246522243197,
        0.7236230774332324,
        -0.2715429740132938,
        -0.2943882759980363,
        -0.3354339214600445,
        0.4959061494219153,
        -0.008290233036785666,
        0.8686950980504538,
        0.8476859858508459,
        -0.3424366343192665,
        -1.1571900686817116,
        0.2564813780515659,
        1.7103743241265983,
        -0.2606811203067965,
        0.42178466187884683,
        0.2926277562709203,
        -0.7210726239684783,
        -1.4684666268795585,
        0.6982251033009554,
        0.14221486154679827,
        -0.672152277425269,
        -0.35947131805992827,
        -0.13940978348889504,
        0.16105094987353205,
        0.17860002468766406,
        1.0170148658908689,
        -0.3024340427829048,
        -0.7467340819183557,
        0.2975468307851945,
        1.6014090537589405,
        1.5839313574342868,
        -0.6445431683853755,
        0.062063043111264815,
        -0.5466721741524692,
        -0.31786493810659294,
        0.6921028259103844,
        -0.03757011980840497,
        -0.15693142352788025,
        -0.4913802327947525,
        -1.4369743772138828,
        -1.228438099854188,
        -0.6710562691441921,
        -0.6115784639418405,
        0.5063337094799474,
        0.24541376002987247,
        -0.49839879315929264,
        -1.079421089149713,
        0.7036999164909473,
        1.1480991512048258,
        -1.4029552478702931,
        -0.06896114809411591,
        0.11117266741361456,
        2.7351616189214916,
        -0.35279725208474055,
        0.7524533272757404,
        -0.20977526834666574,
        -1.0492048875808846,
        0.7058528550657747,
        1.3019216154014783,
        4.801297382817404,
        1.330311667436042,
        -0.2993770587462409,
        0.6109250919071187,
        0.7537731108709872,
        -0.012363227888791985,
        -0.78127433388091,
        0.7272755600048215,
        -0.8818913557806598,
        -0.5937515646443294,
        0.43672375101586236,
        -1.8517654064184852,
        0.21021010788946484,
        1.0576305970680693,
        -0.48481198268360537,
        1.1495065290479511,
        -0.8517881286249018,
        1.1818557413908335,
        0.9156061220647136,
        0.4052404648646467,
        -0.25883394735131715,
        0.788450153316787,
        -0.3606334104569613,
        0.18034516609542064,
        0.6421563751319056,
        0.3442921301616274,
        0.8992291824109122,
        -1.491808945895798,
        0.4299691746147042,
        -0.32578541929930593,
        1.7604384543635794,
        0.786425091593878,
        -0.8656894209171905,
        0.4946603371979228,
        1.1822634209934408,
        0.518601712078605,
        -1.9601152101347306,
        1.4605046836031343,
        -0.48762237384192847,
        0.2214991817423641,
        0.30140765058670477,
        0.48362762903856676,
        -1.6165904773966155,
        0.30367342142047643,
        1.1154311139980853,
        0.40649348924916073
    ]
}