{
    "idx": 704057,
    "fights": [
        {
            "enemy": 5,
            "fitness": 89.81486503108354,
            "player_life": 56.20000000000032,
            "enemy_life": 0,
            "time": 332
        },
        {
            "enemy": 6,
            "fitness": 30.337039519864053,
            "player_life": 0,
            "enemy_life": 60.0,
            "time": 288
        },
        {
            "enemy": 7,
            "fitness": 86.59703951986407,
            "player_life": 22.600000000000243,
            "enemy_life": 0,
            "time": 288
        },
        {
            "enemy": 8,
            "fitness": 86.95935834262663,
            "player_life": 28.000000000000256,
            "enemy_life": 0,
            "time": 344
        }
    ],
    "weights": [
        0.06308966143967067,
        0.1193284151698826,
        1.1372253080452803,
        -0.4721334001217739,
        -0.648439244232,
        0.2308345026297638,
        -1.4059780154671064,
        1.3625476043944797,
        -0.5860417874874836,
        0.3286854674688667,
        -0.6772723122157591,
        0.7886251533917904,
        -0.8681852182093175,
        -0.6193399290954207,
        -0.6150942713251717,
        2.0941521889379913,
        -0.3466033983648193,
        1.3845857929275298,
        0.465597371702101,
        -0.02560699086339453,
        -1.085756372517874,
        0.24902894773999631,
        1.9006697643106367,
        1.0382825775333686,
        0.3364128498967966,
        1.5851619070719765,
        -0.9312879548552746,
        0.2646253329485163,
        0.7023747488558869,
        0.24369648296219074,
        -0.7201166340477532,
        -0.2649071801315596,
        -1.3249301775942108,
        0.2586293633639704,
        0.9511468531919192,
        -0.24823163780218704,
        0.21079946676333397,
        -1.4727041013678,
        -0.07786953176108855,
        -0.06322110539298824,
        0.25388244998252946,
        -0.6099269088172061,
        0.9165375420502581,
        -0.46695070090914187,
        -0.4044040281876838,
        -0.7977222904205912,
        0.7121949937884325,
        0.9232881453784297,
        -0.3279741580289175,
        0.31663519372563237,
        -0.33950786933274063,
        1.0061304306699472,
        -0.9004514732147549,
        -0.9893024063809517,
        0.3532375954758155,
        0.6800216598483696,
        0.5460156070668538,
        0.10590915931642671,
        -1.99954078060787,
        0.312704063532672,
        1.7556748268286972,
        -1.4601281702883586,
        -0.9572913428581994,
        -0.06361314289343352,
        0.8954871448579591,
        0.4679464447393111,
        -0.42665943404332873,
        1.2004520258342937,
        -0.3058520135922312,
        0.06003704490913647,
        0.8359138231832932,
        -0.3709991022960883,
        -0.9552839838651999,
        -0.19238398157069392,
        -0.6916843601048185,
        -0.9402122238803855,
        -0.300920488939387,
        -0.6592086491272096,
        1.0297093748126998,
        0.4010061160762902,
        -0.05817128423672502,
        -0.026865845981721342,
        0.6280661517621149,
        0.06414568932885482,
        0.22560014319386418,
        -0.8964124151460662,
        -0.10699053709146157,
        1.537002842497703,
        -0.4779735078676063,
        0.22238600210984155,
        -0.4780940637172659,
        -0.8899035408724371,
        -0.21823081589585902,
        -0.13717192651236065,
        0.5268482629646012,
        -0.2514089291000946,
        0.570844716754989,
        0.9343328066518553,
        1.9316076047835755,
        -0.9600123043260337,
        0.7661038585455116,
        -1.7206307006184844,
        -0.4909837140521222,
        -0.8182501300651569,
        0.10461835742751818,
        -0.25651204768338093,
        0.3704186088369928,
        -1.9217494130065376,
        -0.022949047197225514,
        -0.6850048536563051,
        -1.286493600055823,
        0.001155574687443513,
        0.5244253084202771,
        0.3191037833166114,
        -1.5084578068863415,
        0.5703223724854387,
        -0.4227193110617067,
        -0.9188809163444719,
        0.2211436570969838,
        0.5992098929611741,
        0.28394960059925767,
        1.3502489550075696,
        0.4974721242675487,
        -1.131755294705005,
        1.0477726995679113,
        1.1262788446438603,
        -0.09398297065550623,
        -0.712398930734023,
        -0.6930796656204221,
        -1.38999871681329,
        0.14256711255672322,
        -0.05318304538376319,
        -0.7061905570731345,
        0.34945222750018967,
        0.2982176749554595,
        0.5745676310685989,
        -0.40015586929481856,
        1.2321962442151548,
        0.320238125023776,
        0.4158863946968918,
        1.4049210270116932,
        0.8204092906192977,
        -0.31591308776338456,
        0.3511848708872197,
        0.4691042531778546,
        -1.3928247598448669,
        1.1905981444882638,
        -0.9911244158695257,
        0.6698357420099552,
        -0.3678826772351764,
        -0.5358489807469643,
        0.7975605630200573,
        1.5735928329062017,
        -0.5892570604661534,
        0.851706927565691,
        0.5625159650058128,
        0.3835255563401294,
        0.49410389599482557,
        0.5055857612620324,
        -0.6740871286073087,
        -1.0121678679490904,
        0.6882845173474283,
        0.5583683777388078,
        -0.845949328630566,
        0.03221520823302369,
        0.4045551056993245,
        -0.06706943766715245,
        0.535466675406188,
        0.7579502788620373,
        0.20531919606872306,
        0.4623397494031836,
        -0.2722638652896666,
        0.23910324169410385,
        0.29583599759045937,
        0.3544283851040052,
        0.15394629533653653,
        -0.3959424236147665,
        -0.9770707126037826,
        0.2992706962960992,
        -0.30856559645257986,
        -1.09618173902031,
        -0.735541083779824,
        -1.3239538748801554,
        0.5013436287778743,
        0.02884933431703362,
        1.1536055219276822,
        0.013078757448596628,
        -0.736757978181854,
        -0.05678560989289333,
        1.5553933477237845,
        0.24253252810137435,
        0.023855613260141365,
        0.32113100787954635,
        -0.3358402511101458,
        -0.3744617349579515,
        1.4465982748000845,
        -0.026593529948361595,
        -0.8803590379707724,
        -0.4347159028870883,
        -0.9909190207808527,
        -1.2433791272569732,
        -1.3055725815789903,
        -0.8592740313824856,
        0.5011685719773938,
        0.11391466509039222,
        -0.8719663614102343,
        -0.5582956834111108,
        0.06027157814442466,
        0.2628301641194538,
        -1.3400148421737699,
        0.18447056657634373,
        0.8349708290461043,
        0.8799702589596269,
        -0.7500219645775514,
        0.7189469579522695,
        -0.6159023546440097,
        -1.2010968062747363,
        0.5545695034461771,
        0.17016017060587046,
        -0.24056112244315775,
        0.8772586988552473,
        -0.6611709985025517,
        0.8431534210239793,
        0.5801126785834989,
        0.22996700791126845,
        -1.4318973043413554,
        1.0451616428866572,
        0.07883391866867417,
        -0.13080210678634385,
        0.4819250552179966,
        -0.7428152562679621,
        0.6786876832611747,
        2.340111829130722,
        -0.015882998779611274,
        0.39775299761897553,
        -0.8469863935275037,
        1.444755208142807,
        1.3780117981174254,
        0.9210871426716075,
        0.20274562497858106,
        0.6475972168209448,
        -0.3447695395054147,
        0.33287420330905004,
        1.2228923729081402,
        0.6255946382747274,
        0.5934202224471855,
        -0.8261063385306118,
        0.5050660822737023,
        -0.21718275114214447,
        0.7148126540618015,
        0.9513673714333917,
        -0.9251110047210382,
        0.0346818324696468,
        0.16156683462600582,
        -0.33641561970302536,
        -1.7479201097178407,
        0.12510990937732566,
        -0.10039016470323711,
        -0.3304561946672979,
        -0.3665374695955185,
        -0.3237784678480911,
        -0.6607241536186468,
        0.5828475696638135,
        0.4024788975521158,
        0.43323064104190956
    ]
}