{
    "idx": 702043,
    "fights": [
        {
            "enemy": 5,
            "fitness": 85.76443510891828,
            "player_life": 19.000000000000234,
            "enemy_life": 0,
            "time": 462
        },
        {
            "enemy": 6,
            "fitness": 12.706695175275508,
            "player_life": 0,
            "enemy_life": 80.0,
            "time": 199
        },
        {
            "enemy": 7,
            "fitness": 89.71065437104559,
            "player_life": 51.40000000000031,
            "enemy_life": 0,
            "time": 228
        },
        {
            "enemy": 8,
            "fitness": 86.33574420258549,
            "player_life": 22.600000000000243,
            "enemy_life": 0,
            "time": 374
        }
    ],
    "weights": [
        0.7217518805634282,
        0.47192585472361004,
        0.7526439840859132,
        -1.2549381529981547,
        -1.8679660559827376,
        2.0872227544875566,
        -1.228608144652097,
        1.7124959398795834,
        -0.5580121446519489,
        0.42754159253178836,
        -0.3521806941135377,
        -0.7423192734679019,
        -1.1298662652180052,
        -0.23353607207903135,
        -0.5183917258870763,
        2.1546046588416035,
        -0.8890875310648974,
        0.5588078929586677,
        0.2914908211118047,
        2.344715951752079,
        -1.013661143756761,
        0.6723354255526452,
        1.4106779333379265,
        0.9020162240843688,
        0.38956371169553433,
        1.393490170118601,
        -1.5476181269388922,
        0.45023671552555056,
        0.30958062602844166,
        0.11108020955502453,
        -0.14383592646726384,
        -0.5162494675018674,
        -1.0397997074552823,
        -0.6314494067883103,
        0.8918203661874904,
        -0.654851436141454,
        0.24703919644737488,
        -1.2928769255767052,
        0.11864063383080437,
        1.2771885986646012,
        -0.036682558717862045,
        -1.6251709458717647,
        0.42701097566019597,
        1.0544933049153389,
        -0.4345544009711848,
        -0.7429021977816226,
        1.8068495351341454,
        -0.2756565276625157,
        0.08471503796109735,
        1.1861115311039385,
        -0.838336280104508,
        1.654090129362151,
        -1.7688489649409584,
        -1.1718351432116016,
        -0.025238262944916344,
        1.681274409465269,
        0.5146919595790646,
        0.24682692140238752,
        -1.7260723131024869,
        0.44033400408934126,
        -0.7019271068486109,
        -0.8056327404450974,
        -0.8835811916466679,
        0.5225248240651401,
        0.7413509299172135,
        -0.11336733097513409,
        -0.19550909949527398,
        1.9593702646716484,
        1.0353109465941004,
        -0.5297334571975586,
        -0.03838575176989743,
        -0.018750813946824707,
        -0.6325107377192764,
        -0.016403566294364402,
        0.14056275918477976,
        -1.56896507813832,
        -0.1538062814638486,
        -0.4507134006074562,
        0.35489498965920496,
        -0.027325720730520003,
        -0.3882319836460631,
        -0.009986775281623797,
        0.6290673331492574,
        2.5315163727312813,
        0.12931822524256614,
        -1.4140528962032597,
        -0.8321383022004303,
        1.2418978156336897,
        2.100951083247641,
        -0.2853320253770179,
        -0.3491146052980483,
        -0.6004002103660794,
        -0.2930831906996717,
        -0.8744104161563552,
        1.2645338591686335,
        -0.9708785734282145,
        -0.575245555556131,
        -0.1986480760536672,
        1.6733052218672624,
        -0.8364611143011935,
        1.2180602296128857,
        -2.0801920372828127,
        0.95351073285515,
        -1.062260010544029,
        -0.04582934724532962,
        0.8678017741726084,
        0.1214540112144117,
        -2.504656563400348,
        1.1695626512958561,
        -0.9861177174310105,
        -0.9619984315411155,
        0.23097538829449618,
        0.8076628442324861,
        -0.07134656638930925,
        -1.4288734958587344,
        -0.38599866054115967,
        -0.5102894266075391,
        -0.49105190486912054,
        0.6475286928465042,
        0.9825842854261321,
        -0.07300131255931905,
        -0.04513797260714312,
        1.1855584618273545,
        -0.3052272494486285,
        1.161574593216163,
        1.7440968719950565,
        0.46984878533838853,
        -1.2664845197356065,
        0.059962532195137086,
        -0.08541667362399635,
        -0.39518495638026496,
        0.764543082623127,
        -0.4858458738227255,
        0.4123657468327174,
        0.2007660653754718,
        1.0805706447298609,
        0.1461106571236777,
        1.4251709441639895,
        0.206569607239478,
        -0.6939690213308715,
        0.9365553153606025,
        0.6073243342519918,
        -0.6968043943577288,
        -0.343927924210638,
        -0.01370714076467023,
        -1.022904793252327,
        1.378454312976277,
        -0.9096178959831217,
        0.5264245292108516,
        -0.39986436495748645,
        -0.27863849276043917,
        1.2266053877558147,
        1.1456893965960595,
        0.18191434766652992,
        0.9378005057655384,
        0.5121524551759903,
        0.42835412627443203,
        0.619403471745482,
        1.3017636596128852,
        -0.8281632339464511,
        -1.5164548250383347,
        0.13522252541986657,
        -0.2903168624492386,
        -1.5282618755548094,
        -0.018867847822779987,
        0.04254713986428625,
        0.29304106431222193,
        0.8994169638663888,
        0.9104968898390561,
        0.6383372591092189,
        -0.30812610974765975,
        -0.49125302056945375,
        0.5624124804318963,
        2.165811257333295,
        0.3137622782153619,
        0.4921349498912197,
        -0.1390512212108415,
        -0.9421053995503432,
        0.4971701345238841,
        -0.3169129253028299,
        -0.3628848291033068,
        -0.9651614328529268,
        -0.12097001768715707,
        0.5268278210581693,
        0.2490255639528421,
        1.270246429751406,
        0.6471682402524395,
        -0.5680149192201499,
        0.2436469577432236,
        0.5160197280500095,
        0.8112283677114552,
        -0.134301015195264,
        -0.319762410053492,
        -0.10151718826295214,
        -0.121427144119038,
        1.001805626523846,
        0.7312453899510957,
        -0.054772340640438566,
        -1.4319879837399732,
        -0.9972706948114619,
        -0.8651613727059841,
        -0.455189478083927,
        -1.0158417663482775,
        0.2600368099756236,
        -0.3534153375800017,
        -1.35813723729428,
        -1.2841942632727088,
        1.0972925816802475,
        -0.02295306643397816,
        -1.9309836661448025,
        0.06735114553208692,
        0.873615903618431,
        0.5045228900851491,
        -0.42864157684466153,
        1.1388182881333513,
        -1.3973151261789911,
        -2.058124341506573,
        0.09582255711165256,
        0.5364351546092372,
        0.07781079381334668,
        1.1825187594212847,
        -0.8541342939671747,
        1.4404783998660442,
        0.37972967869455887,
        -0.18766924002217553,
        -1.3593557834134662,
        0.9899637105108684,
        -0.8699688971835567,
        0.044347725487071936,
        3.3018714947273877,
        -1.089253902811663,
        0.8461673732804543,
        1.7132137421359706,
        -0.03503852915115502,
        0.1751485321533044,
        -1.057622544187712,
        0.9835074439422321,
        0.8501632185380088,
        0.4017666370576001,
        -0.8366042372415029,
        0.7393260065025627,
        -0.5006218915920978,
        1.114967914118183,
        0.4640741705181745,
        2.905340512793166,
        0.5838343063617764,
        -1.3143813513856983,
        0.3868738408564871,
        1.088904020947737,
        1.6570055045560186,
        0.7267369773422164,
        -0.19010803138247928,
        -0.1760812896590199,
        -0.3677205169657752,
        0.9675212041256058,
        -1.2680268371693846,
        0.0194554934453307,
        -0.10688836236911191,
        0.19324819295419077,
        0.17654568575279683,
        -0.22564964556859146,
        -1.0011393259082608,
        0.674200304679959,
        0.5958579873955995,
        -0.09624816034556016
    ]
}