{
    "idx": 706507,
    "fights": [
        {
            "enemy": 5,
            "fitness": 84.98006680490442,
            "player_life": 10.60000000000023,
            "enemy_life": 0,
            "time": 437
        },
        {
            "enemy": 6,
            "fitness": 57.28957298262513,
            "player_life": 0,
            "enemy_life": 30.0,
            "time": 302
        },
        {
            "enemy": 7,
            "fitness": 87.79703951986407,
            "player_life": 34.60000000000027,
            "enemy_life": 0,
            "time": 288
        },
        {
            "enemy": 8,
            "fitness": 86.33574420258549,
            "player_life": 22.600000000000243,
            "enemy_life": 0,
            "time": 374
        }
    ],
    "weights": [
        0.45258579378281333,
        -0.0544148260540567,
        1.709428048077023,
        -0.7881762571915787,
        -1.5152412564627844,
        0.7664118119165303,
        -1.3926546896883012,
        1.455019517232246,
        -0.8470698304645297,
        0.984393207666265,
        -0.24608366651231478,
        -1.0112562091799653,
        -1.5530103411131022,
        -0.006618261789057077,
        -0.4404928000057727,
        2.553345637679264,
        1.6271252695684262,
        0.3206373561440722,
        0.2612049173059182,
        2.480103617556977,
        -1.332459639758063,
        0.803602964930856,
        1.335010417649978,
        1.6776080926192165,
        0.4680611534821825,
        1.9353943882981328,
        -1.8134216323647407,
        0.040316244273697704,
        0.1909241497071837,
        2.0230425768433458,
        0.5797805708234046,
        -0.30802358754121156,
        -0.5133678680069047,
        -1.208169276878971,
        0.9881901577308743,
        1.5335503554884973,
        0.012748115681890965,
        -0.8918766654617203,
        0.37231614755769493,
        0.091517088895148,
        -0.35931785419918894,
        -0.937277142863504,
        -0.16452386774685435,
        0.8895918803590612,
        0.18930873615878935,
        -0.2603165454249466,
        1.4262103363836678,
        -0.33520504001628754,
        1.688488852222572,
        0.908318916140294,
        -0.9160647596651852,
        2.50377380967289,
        -1.682002980189595,
        -0.9870638902126992,
        -0.6599044109768218,
        1.9026129171469726,
        0.6103186478227156,
        0.3870550021093137,
        -2.224660258953984,
        0.23815339544950928,
        0.9180013643733876,
        -1.2912159207022473,
        -0.6321797302404101,
        1.0999602055407132,
        0.09893287000222684,
        0.19670120966011423,
        -0.7293713483239713,
        2.0842941817357783,
        -0.5843475757914743,
        -0.26413164578482556,
        0.741781432656223,
        -0.7943972231948709,
        -0.6746117497438454,
        0.9398640107480195,
        -0.5859181345233557,
        -0.8724155663618297,
        -1.9521753429406787,
        -0.33918449924493205,
        1.0834479624691087,
        0.5361089641529093,
        0.13825293386637477,
        0.36980854131318364,
        0.3952998476264694,
        3.473200409700455,
        -1.111634803447233,
        -0.6274187383915923,
        -0.6971226941800043,
        0.19986100952164762,
        -1.0122458114563542,
        -1.2414410212730258,
        -0.41119935108154776,
        -0.33846707812911614,
        0.3502876080860021,
        -1.7706355577067785,
        1.8863287354260323,
        -1.0728422060108687,
        -1.3188391827868695,
        0.13036492462896151,
        2.1828524248282712,
        -0.6104493421656104,
        1.50936743555513,
        -1.1090900137868043,
        0.4417244233408162,
        0.6750664069460095,
        -0.876014048740018,
        0.33772114955334775,
        -0.949123788070195,
        -0.6399921152579919,
        1.0598480578529241,
        0.5030645034803825,
        -0.5779900589412789,
        -0.4863776775112091,
        0.9999711946822639,
        0.5250652625831407,
        -1.0566147178765473,
        0.30025900100315506,
        0.6327495311414703,
        0.07011897538746698,
        -0.27582071587222395,
        0.5169094845961917,
        -0.11706588964855033,
        0.8075290213064696,
        0.9332297782243048,
        -1.9138616814234106,
        1.0531150666431635,
        3.226082548200967,
        1.1531384840421304,
        -1.664026083962927,
        -0.3594730111232267,
        0.407721908399687,
        -0.15942040073165045,
        0.5217956988141286,
        -0.38365855956232064,
        0.3473622360659343,
        0.5367293777791793,
        0.9887993476644217,
        0.6875250993822508,
        1.496417344625793,
        0.23862946283566144,
        -0.31217483146486047,
        2.1323196129992366,
        1.8238590568312603,
        -1.1098563118547362,
        -0.17126002934664428,
        0.5678550997136216,
        -0.9590423420880572,
        0.7921949728210502,
        -1.0790691967503692,
        -0.07186770413408444,
        -0.058561556328571296,
        0.1100834786363474,
        1.3632592025592793,
        1.9923284496017126,
        0.24079977025211763,
        0.8785341282189412,
        1.3770024516864823,
        -0.577632990024458,
        0.8002100945474375,
        0.7120688420392562,
        2.060948852043298,
        -1.590473365629175,
        0.25557826718895355,
        -0.382179062170661,
        -0.9420269202024172,
        -0.048232129683773245,
        -0.3116410341284567,
        0.31533426837648915,
        -0.11388106024395986,
        0.29674754756999344,
        0.5201367354524213,
        -1.8085627634647001,
        0.18270964717524885,
        0.5058866798644174,
        -0.009614979496603629,
        1.160986040870496,
        -0.5290097205092931,
        -1.04453121186999,
        -0.5693005646772733,
        0.7797283296088414,
        -1.7845227110755193,
        -0.3119116806600547,
        0.24361935458193648,
        -0.8830006487658912,
        -0.08615986877301088,
        0.12773037768572493,
        0.4214803138525396,
        0.9528810024843822,
        0.16880811571651536,
        -0.16669182112566483,
        0.8914578074893607,
        1.2442644036824175,
        -0.5158439548881503,
        0.17981709633116605,
        -0.2556694782315082,
        -0.25266339168675833,
        1.0973763692627356,
        0.7089451120311984,
        -0.45996737002226457,
        -0.808861251648482,
        -2.2162521164626305,
        -1.178039803850798,
        -0.19061033500016153,
        -0.3544003716527721,
        2.398588983105633,
        0.8416779112993737,
        -1.6085016281733238,
        -2.8980556552276857,
        0.6397196478323705,
        0.9701302529832081,
        -1.8572307335493738,
        0.4127926370264306,
        0.6741859821980278,
        0.7149118207761644,
        0.0030734820570312085,
        0.3161866885882344,
        -0.7313612212955491,
        -1.645527018123362,
        -0.02921385776982465,
        1.0662406281869181,
        -0.5555579973287582,
        2.027921030738343,
        -0.9875596588456464,
        1.5825524918801641,
        1.5839369291665235,
        0.4972774759272549,
        -1.3759427644923985,
        0.3093044547699396,
        -0.9124260226234012,
        0.949869699387565,
        3.0532299470815905,
        -1.1618407550525438,
        0.9453133240343026,
        1.0821379118803325,
        1.1183666665927199,
        0.9568538997119007,
        -0.1782065434486347,
        0.7672998502450417,
        1.1888522029655708,
        1.5896677285466358,
        -0.8476984427592795,
        0.17610199089010192,
        0.6963309171318299,
        -0.4186126737750298,
        0.8596898716172913,
        1.6920732017488511,
        0.0868515188696331,
        -0.8298403703863285,
        1.5066954485741275,
        0.8872350416800244,
        0.17475027310315208,
        -0.23830206327017797,
        -0.26176060095435194,
        0.11965950828158095,
        -0.11588776954537627,
        0.13561017050003693,
        -1.465825954042093,
        0.10322269590009388,
        0.3813570061858248,
        -0.13123162552012652,
        -0.2304132758448112,
        0.2570631563071168,
        -1.3779688375484558,
        0.32695090139067207,
        0.819845265750673,
        -0.1273217577110917
    ]
}