{
    "idx": 707863,
    "fights": [
        {
            "enemy": 5,
            "fitness": 90.34027017401381,
            "player_life": 59.20000000000033,
            "enemy_life": 0,
            "time": 265
        },
        {
            "enemy": 6,
            "fitness": 57.629361971872335,
            "player_life": 0,
            "enemy_life": 30.0,
            "time": 215
        },
        {
            "enemy": 7,
            "fitness": 88.69946500072774,
            "player_life": 41.20000000000029,
            "enemy_life": 0,
            "time": 226
        },
        {
            "enemy": 8,
            "fitness": 86.33574420258549,
            "player_life": 22.600000000000243,
            "enemy_life": 0,
            "time": 374
        }
    ],
    "weights": [
        0.830794438118494,
        0.8624057865795971,
        0.9451300758171025,
        0.22721406636908872,
        -1.393090068425319,
        1.4044861774792727,
        -1.659557129580296,
        1.9959451015692038,
        -0.22098079504514434,
        1.2314543856865736,
        -0.2052977173277007,
        -0.6879317383315218,
        -1.0785896553597052,
        -0.4305445688456315,
        -0.7906062884662011,
        2.320657694000347,
        0.6683563207176553,
        0.9648873224805837,
        -0.11902408269574255,
        2.166804485803254,
        -1.35808638970112,
        0.05640230405055985,
        1.3886272617936806,
        1.482080991964277,
        0.21885471646997048,
        1.8412895119394914,
        -1.599212091869084,
        -0.04033097176740303,
        0.017260289659834505,
        0.3678278489340522,
        -0.659365532500107,
        -1.4750237539395754,
        -0.8179389644779214,
        -0.8554134664064984,
        1.145440544083424,
        0.3963156483010067,
        0.24447330924227942,
        -0.802378628470009,
        0.30723304294566117,
        0.4094479735630149,
        -0.5235547746485141,
        -0.9184028797407804,
        0.6338704639106157,
        1.8187320870508403,
        0.6839470748938531,
        1.047050970037415,
        1.824427105859258,
        -0.028919411817583736,
        1.1050690456615875,
        1.1739655931803779,
        -0.4489979787111936,
        1.0401698707391103,
        -1.4656881744439185,
        -1.0880130717844387,
        -0.785298214340135,
        1.8659808055055505,
        0.7225294446204007,
        0.15892539241297354,
        -2.179544711169919,
        0.26435744397820715,
        0.6449791359317828,
        -1.5814053696570844,
        -0.6964020963561574,
        0.24804780551365774,
        0.284910229417594,
        0.024730098626358762,
        -0.7103390838623918,
        1.7917197345679514,
        1.5438287239951953,
        0.22300846930849183,
        0.7019997195786118,
        -0.3968149753138752,
        -0.3691034614120951,
        -0.23613974293819312,
        -0.4311247863292907,
        -1.3992663271999342,
        -0.8747618809218585,
        -0.23798390260954283,
        0.6900303414734605,
        0.3846380132805934,
        0.1663504745016665,
        0.35072988486972456,
        0.5894818120546637,
        4.482228968680209,
        0.8770980774660982,
        -0.6905315025183053,
        -0.9370720168638711,
        1.9002950274802402,
        -0.5596442803920343,
        -1.4445149334112688,
        -0.4230051731352581,
        -0.6898229975632371,
        -0.07610557542318364,
        -0.34246785271872143,
        1.3061198565199876,
        -1.0363336312708313,
        0.6998942376892572,
        -0.39578510792660626,
        1.5153927238585068,
        -1.0265822411052792,
        0.6370521816148584,
        -0.9226690645086834,
        0.35283485753023064,
        -1.1458905697175037,
        0.17948222250498957,
        0.3798804858571442,
        0.8797065713682577,
        -1.2160233724852558,
        0.8995025462512748,
        -0.42421593905643673,
        -1.620590645516829,
        0.7398243232560213,
        1.6337695742598568,
        0.50429412396582,
        -1.102203367181473,
        -1.1737443448131437,
        0.16908757573609867,
        -0.13171576651234027,
        0.7584815374310369,
        0.7063566008677722,
        -0.13243810407160175,
        -0.4002127100051361,
        0.15867058231423511,
        -0.6304861073439062,
        1.1040960236184036,
        1.561062157183269,
        0.4743236616007363,
        -1.083258054800385,
        -0.9668748956175665,
        0.7508537558945744,
        0.29247504698327,
        -0.4024909996889629,
        -0.011150164678219963,
        0.688407680243918,
        0.20922183511550435,
        0.7489609661703683,
        0.12181715765879726,
        1.867666126563908,
        1.0481890737004451,
        -0.5668131737643113,
        0.9851332882835832,
        1.7494900081249314,
        -0.6711240841275601,
        0.6040414677154247,
        0.0888863257613669,
        -0.7986173951618009,
        1.1182972520240557,
        -0.4555618635888471,
        1.3774320516407614,
        -0.3695858681665725,
        0.36160492082851253,
        0.9192677279481515,
        1.5272363757521665,
        0.4591506232924208,
        1.1417428823955118,
        0.4899622209653317,
        0.3087994513342791,
        2.1422565040922823,
        1.615886291251462,
        -0.8328897819176032,
        -1.0723389081124455,
        -0.3248629591835538,
        0.3658804183464834,
        -0.04258630809613383,
        0.38310218321578926,
        0.3429347165487236,
        -0.25243252310535236,
        0.6982835363032072,
        0.4142252974371147,
        0.23019689177827363,
        -0.29876589869326425,
        0.75904433574429,
        1.1580736034431645,
        0.12352197426088628,
        0.470961642173782,
        -0.44670859253084494,
        -1.3075224719460647,
        -0.6174395487375184,
        0.12199137943465344,
        -0.17101102354171746,
        -1.0142281802201853,
        0.23975650121460096,
        -1.0164750486650032,
        0.3602670031358808,
        -0.6562446310255797,
        1.2672866680228076,
        0.3149878438133214,
        -0.9661287412347369,
        0.10584899251773339,
        1.6532364137694797,
        0.3885367731956294,
        0.33014834677932836,
        0.8580679015418563,
        0.2912615841460108,
        -0.49081809870252935,
        0.07817921371811115,
        0.21699470430812076,
        0.0636712635967629,
        0.21282920127905053,
        -1.5120847685437715,
        -0.9612617168814177,
        0.45922391425752984,
        -1.5969795449314326,
        0.2206780833893887,
        -0.3440740334326867,
        -1.848372256898811,
        -1.50366060919576,
        1.2488903313283741,
        0.3806045135765081,
        -2.1470575559206697,
        -0.6800940196698729,
        0.9378786813351684,
        0.3687967145290126,
        -0.5280108349685031,
        2.083396639561971,
        -1.3468891021243572,
        -1.3592578245815512,
        0.23543252923665375,
        1.6517770798228635,
        0.2080425738269283,
        2.144024897880512,
        -1.6731068254259804,
        1.5186411156438002,
        0.7608252810234696,
        -0.1747887237306067,
        -1.5274890935770415,
        0.362917652295562,
        -0.3424614766558321,
        1.0479476995594956,
        0.9184677521210041,
        -1.0687584733734545,
        0.9978697206834448,
        2.574438443271637,
        0.084281984591204,
        0.9948045362735314,
        -0.9162913738410406,
        1.0796708880425898,
        1.1663144631364353,
        0.49801843033228377,
        0.12929702436602222,
        0.5161128378906251,
        -0.37211384838215184,
        -0.2502073203269203,
        0.07983726932499209,
        1.1470941571327662,
        1.8711292463171543,
        -0.8504529839542625,
        0.8649288053026126,
        0.6950516385483227,
        0.7535337916323038,
        0.4422568690303144,
        -0.868324495359476,
        0.29982756750529904,
        -0.13036817985365406,
        0.39606270881087174,
        -1.3548203013645166,
        -0.3771188578389653,
        0.7848199596996198,
        1.3061407955573616,
        -0.5072102314514616,
        -0.35369259762821226,
        -0.6453861791659523,
        0.4577339801993881,
        0.9482262006723247,
        0.6667121147133749
    ]
}