{
    "idx": 703443,
    "fights": [
        {
            "enemy": 5,
            "fitness": 90.2052886203982,
            "player_life": 58.00000000000033,
            "enemy_life": 0,
            "time": 269
        },
        {
            "enemy": 6,
            "fitness": 85.47853908213779,
            "player_life": 10.000000000000231,
            "enemy_life": 0,
            "time": 250
        },
        {
            "enemy": 7,
            "fitness": 48.49466846406764,
            "player_life": 0,
            "enemy_life": 40.0,
            "time": 246
        },
        {
            "enemy": 8,
            "fitness": 86.33574420258549,
            "player_life": 22.600000000000243,
            "enemy_life": 0,
            "time": 374
        }
    ],
    "weights": [
        0.5676090399587057,
        1.2389508832823912,
        1.1566298882064077,
        -0.7928920669313725,
        -0.8590993408147386,
        0.0441056529854124,
        -1.4278383803122705,
        1.1978625859376844,
        -0.5436942873449209,
        1.297735458110573,
        0.1511564713847846,
        -0.6470516745695083,
        -1.5185703857669122,
        0.700207337947155,
        -0.8225838470429496,
        2.4120041706173847,
        2.495691172213815,
        0.5477997670088692,
        0.23747421695879983,
        2.554215948684268,
        -2.0004582554092334,
        0.11437219997092894,
        1.4745043543670686,
        1.3909755873711374,
        0.8137703059788706,
        1.8428508786728042,
        -1.7392511477647783,
        0.30470192096911486,
        0.8847208403317446,
        2.835134702527867,
        -0.9657042906923853,
        -0.4540894722628992,
        -0.7948259689055495,
        -0.896747047113175,
        0.9152325885320326,
        -0.06132681957353112,
        0.5997415270888521,
        -0.8942846350703847,
        0.10301300392466542,
        1.2330726973953339,
        -0.4295156613914107,
        -0.8128828883804449,
        0.9581061806369584,
        0.9579918814219314,
        0.016689442826782877,
        -0.4545098659662403,
        1.2117287194522406,
        -0.3012230444022954,
        0.07342344368928003,
        1.0165254212704593,
        -0.954670207907516,
        1.4108558367881343,
        -1.5775845709269296,
        -1.1062909807414631,
        -0.554146130357499,
        1.027353283052759,
        0.2674599579380234,
        -0.3963231085632857,
        -2.2496307035882923,
        0.5956049548156831,
        1.0009604918327346,
        -0.5987740604729327,
        -0.37180378396919134,
        0.4762217144194425,
        0.3724986362026897,
        1.4553704962249585,
        -1.0880765450896988,
        1.4422617964310231,
        -0.6327960013804917,
        -0.8543903007070536,
        0.9789623862807942,
        -0.7325842536857505,
        -0.16664741401405017,
        0.02834979721136845,
        -0.5402057188260485,
        -1.3737792889024285,
        -0.4912761909356358,
        -0.3546440152045704,
        0.7964810222114111,
        0.1007616266011328,
        0.4802968244928153,
        0.2648995137697323,
        0.3625129698499014,
        3.0174575417691916,
        -0.583260897391797,
        -0.8005364132207644,
        -0.3310012739129409,
        1.3806084484647383,
        0.47220188988880657,
        -1.7082459431544252,
        -0.742119148637461,
        -0.4329085211074144,
        -0.25368723706777513,
        -0.8912800322949975,
        0.8166628202030262,
        -1.0400483692191913,
        -0.896282196499657,
        0.10530987992251552,
        2.142971741495586,
        -0.4467980336469533,
        1.0302794096016357,
        -1.811392349826412,
        0.48360667704792326,
        -0.6489909681111536,
        0.0989082613106485,
        1.6596966270693894,
        -0.23632113825988982,
        -1.253587262557269,
        0.9056052538708348,
        -0.8138611489452724,
        0.07745295840026163,
        -0.971126653671106,
        0.4044512920364346,
        0.45349250358521803,
        -1.3863732100122317,
        -0.2108928719821817,
        -0.14546743425076106,
        -0.23238953219308295,
        -0.045507151219584194,
        0.6486588587274607,
        0.5160882447212659,
        0.7003431173619381,
        1.3402982150375207,
        -1.7594226124795664,
        1.101417946155143,
        2.116721101403451,
        0.5073942649547337,
        -0.6833238060601464,
        0.18604331139129482,
        0.10448225461625449,
        -1.2287515960146496,
        0.6946854835865243,
        -0.2436994819511147,
        0.0009619862111502342,
        0.5911643552825432,
        0.7229717381879103,
        -0.011916363466027452,
        2.2494140212267744,
        0.25601907102506527,
        -1.226768051150449,
        1.1393807101247966,
        1.5224704930730535,
        -1.341582945983186,
        -0.03291797606653947,
        0.5109242805929467,
        -0.8759870949805567,
        1.8831399721478455,
        -2.092972570323244,
        1.400656371090842,
        0.31219589395745395,
        -0.2238939708130835,
        1.531062538011908,
        1.5767513882808892,
        0.7524310586430585,
        0.6637186924674756,
        1.3313416333166685,
        0.34238512812683597,
        1.4883603257726232,
        0.6538559647301073,
        -0.7786858533178278,
        -0.9893583790515891,
        0.9233194251116619,
        -0.04143922211425259,
        -0.7324546839025575,
        0.4697276740566918,
        -0.005069839697595623,
        0.25100647217769473,
        0.6548235206115122,
        0.8475852776037275,
        1.1267650899934405,
        -1.5179387173789969,
        0.03582255529934204,
        0.8471333016155131,
        0.014117712486787573,
        0.25807652742949044,
        -0.6683638785764591,
        -0.6694569382585631,
        -0.6026528837919445,
        0.5248931271012388,
        -1.2244056385391433,
        0.037775576016655835,
        0.40776797897995776,
        -0.3081145044485286,
        0.39945210437406486,
        -0.14254812327102634,
        0.7671977872924498,
        -0.3019397324466305,
        -0.8248195319375241,
        0.013813382246584537,
        0.8119470795674195,
        0.0022777975627780115,
        0.14027143872185677,
        -0.3967208603735469,
        -0.24403468873228842,
        -0.2857773138841789,
        1.084771765785373,
        0.34853039280579984,
        0.2958366641983511,
        -0.4704084536187707,
        -1.7718013465102678,
        -0.7683580886313994,
        -0.03832735830643842,
        -0.04693946075575197,
        1.975517574787332,
        -0.593675475480806,
        -0.8725849344172937,
        -1.243303469849921,
        0.5365752350209398,
        0.8394588853500726,
        -1.7360758157650236,
        -0.21107139621982549,
        0.9251465664756495,
        0.8427332887995251,
        0.5912570980133278,
        1.0779749953703537,
        -0.8991142905398806,
        -1.334424917467207,
        0.24814787379022205,
        1.077335810250744,
        -0.43533320038447504,
        1.1764970864125093,
        -0.9210599314062394,
        0.6954527698692692,
        0.759620643854646,
        0.2604805677398979,
        -1.3323198998514707,
        0.6432208472711618,
        -1.4438186627661083,
        -0.02805406535548878,
        1.650380960485325,
        -0.7590019950588613,
        1.1019811362315837,
        1.3306440067334488,
        0.13694257187571307,
        0.3269062870191438,
        -0.5942166575729497,
        0.7443942641565076,
        0.885923418327892,
        0.0474574350721477,
        -0.6687660063491976,
        0.44765066931823183,
        -0.16703509781529777,
        0.6757973337875476,
        0.7868312593504174,
        1.1038947282111045,
        0.3954422034327545,
        -0.9633886595833889,
        0.7484689591391225,
        1.2803786825847996,
        0.27549915812869763,
        0.7056759636701221,
        -0.4877784333760047,
        0.0755934427444568,
        -0.4679580087592124,
        0.33941507384387914,
        -1.2338013996710533,
        -0.06210773580769752,
        0.3326893670180019,
        -0.12090815272412991,
        -0.49311895244902193,
        0.1358523814786613,
        -0.9392024548355736,
        0.4283671543306195,
        0.8384633952422551,
        0.29078369273542287
    ]
}