{
    "idx": 1376,
    "fights": [
        {
            "enemy": 1,
            "fitness": 21.956574883080755,
            "player_life": 0,
            "enemy_life": 70.0,
            "time": 155
        },
        {
            "enemy": 2,
            "fitness": 91.93357331188756,
            "player_life": 76,
            "enemy_life": 0,
            "time": 289
        },
        {
            "enemy": 3,
            "fitness": 75.20090734553948,
            "player_life": 0,
            "enemy_life": 10.0,
            "time": 330
        },
        {
            "enemy": 4,
            "fitness": 30.38687189361193,
            "player_life": 0,
            "enemy_life": 60.0,
            "time": 274
        },
        {
            "enemy": 5,
            "fitness": 88.94518926293742,
            "player_life": 47.8000000000003,
            "enemy_life": 0,
            "time": 342
        },
        {
            "enemy": 6,
            "fitness": -4.897839799950911,
            "player_life": 0,
            "enemy_life": 100,
            "time": 134
        },
        {
            "enemy": 7,
            "fitness": 66.27641489804762,
            "player_life": 0,
            "enemy_life": 20.0,
            "time": 306
        },
        {
            "enemy": 8,
            "fitness": 3.7167962712620115,
            "player_life": 0,
            "enemy_life": 90.0,
            "time": 197
        }
    ],
    "weights": [
        0.700392074454507,
        0.8758138223656455,
        -0.4431112948021982,
        0.8871807654243674,
        -0.966945768113629,
        -0.9785592416428035,
        -0.5831110448147212,
        -0.7178780066536345,
        -0.7640403708337549,
        -0.12691663684165547,
        0.9325948413392892,
        -0.6204990245790885,
        -0.64653328293317,
        0.7470515628948025,
        -0.17097558949958142,
        -0.7950705288346687,
        -0.10630569509734948,
        -0.4720762463211222,
        0.7256980013138093,
        -0.9589603850537054,
        0.05135587058976735,
        -0.5838158895483943,
        -0.6248719163248809,
        0.5593351093390861,
        -0.34350357277046994,
        -0.3058092650935615,
        0.027602788545705602,
        0.4254984791055048,
        0.8013443549782469,
        0.832515924507313,
        -0.8624611762751329,
        0.9816575093905187,
        -0.7315081267814199,
        0.6158841183326017,
        0.6932924792191815,
        0.24374100722426906,
        0.21084069031579358,
        0.1448006022935145,
        -0.7661265379621582,
        1.0931006415737046,
        1.0914317670911555,
        0.3955744357762207,
        -0.49719053498756205,
        -0.7895168366797333,
        -0.7460706783033662,
        -0.007036022962053006,
        -5.6394765108200295e-05,
        -0.9759239907401004,
        -0.22408059485164908,
        0.7160226293971661,
        0.16899757679670996,
        -0.28559555382285184,
        -0.39050026613804534,
        -0.06515436775533542,
        0.6458361985784854,
        0.8580824576909017,
        -0.36165545256184306,
        0.3274797878686325,
        -0.16549149675281508,
        0.594438701214716,
        0.587775695392069,
        -0.8494140857244624,
        0.0412301547943936,
        -0.6804981621093931,
        0.12858483606235951,
        -0.027455791040310602,
        -0.05045084309229154,
        -0.8437569316392416,
        0.09162463573805099,
        0.7958291381657734,
        0.4060186935823893,
        0.9327096042412268,
        -0.9093596942493479,
        0.1010500510839751,
        -0.1948929231982025,
        -0.7162328798149116,
        -0.3679889957874316,
        -0.14655998772210024,
        -0.7063728429284206,
        -0.26575243859141195,
        0.27951162488586717,
        0.7008395978366125,
        0.3814581888673253,
        -0.9542342915008873,
        0.03624043472872111,
        0.6805057582552119,
        0.5303313632153339,
        0.1570414395307094,
        0.11959872176380221,
        -0.23427417205411288,
        0.5757398386655694,
        -0.9407956198827788,
        -0.44551044723588984,
        -0.42218741912826624,
        -0.449965414337986,
        -0.6776289295950405,
        0.6353894103983958,
        -0.018152222884719824,
        0.8586125994926282,
        0.21016888551648324,
        0.042298560245079865,
        -0.3993414010924729,
        0.8362026542106176,
        0.5130391826717124,
        -0.3256070831650664,
        0.6823437318208548,
        0.640833993802108,
        0.6991417444113013,
        -0.24278174090278182,
        0.592074138593642,
        -0.11387714084754569,
        0.7589276098255805,
        -0.33697402453872877,
        -0.8335186350787547,
        -0.6342147872005311,
        0.10663217724326714,
        0.49445816040429047,
        0.6472451892863237,
        0.10273883624299186,
        -0.896196234705038,
        -0.7286085700575606,
        -0.05095430099852334,
        -0.7848033701518065,
        -0.7225739849700773,
        0.689148664932918,
        -0.5489657819758115,
        -0.5109639750636839,
        0.3022754453214051,
        0.6067878118128276,
        -0.5391277180207995,
        0.20364581930538697,
        0.6434822093481215,
        -0.8327216106715677,
        -0.8860522235842829,
        -1.0535696535711432,
        0.6856804960401639,
        0.30413519143311996,
        -0.3440076205571587,
        -0.46430471764816394,
        0.6488781766539398,
        -0.41476197911359297,
        -0.13029843684448283,
        -0.5809160699068991,
        0.4156153198501465,
        -0.5368344230300808,
        0.16295366775639797,
        -0.3851142527911596,
        -0.8852399835425241,
        -0.7093092055942551,
        -0.013860471081074757,
        -0.3197025527250274,
        0.09314545710419768,
        0.7156684573548254,
        -0.15960841175845147,
        1.1482287815576642,
        -0.26827069015476424,
        -0.020514978295372806,
        0.8085528240730743,
        1.0011709109358105,
        -0.2221998298666643,
        -0.4220925995362798,
        -0.8212803343386593,
        -0.07546356064200635,
        0.8690957184556403,
        0.8075030075196005,
        0.4222057656613545,
        0.6824002144922542,
        0.8330019411124605,
        -0.07478419454773413,
        0.5550986340397605,
        0.3718464985417367,
        0.30265486570764605,
        0.42392937100167305,
        -0.1057731990656764,
        0.84331866452247,
        0.6729673388266147,
        0.4385835180975898,
        -0.7123452805859354,
        0.01836983049578211,
        -1.045771868044516,
        0.6046450417840257,
        0.3585039147525444,
        0.19593552477605966,
        -0.9041695169503221,
        -0.8553143955312961,
        -1.0180246879261876,
        0.740455174818093,
        -0.3102050020904906,
        0.15630604311540935,
        -0.6712951590573428,
        0.5007381610744707,
        0.08104912915108173,
        -0.0482215354497292,
        0.5007535474469224,
        -0.5881329034304662,
        -0.8013873176854992,
        0.509085449933048,
        -0.4477973121160197,
        0.7501655346766185,
        0.6885403410444657,
        -0.7773035737938638,
        0.951314459092398,
        0.18970673016870732,
        -0.938417696841439,
        0.08468491807088119,
        -0.5609023238155461,
        -0.5864567704346222,
        -0.8204055717446289,
        -1.0273618944154808,
        -0.9575254406324077,
        -0.785455311770548,
        -0.922292191153483,
        0.6210239121310587,
        0.22612589557360227,
        0.48309658599162353,
        -0.4982548802185104,
        -0.402780287159285,
        -0.10454651919146975,
        0.018457110545816724,
        1.0373440127984224,
        0.7420103919790634,
        -0.21685328069977738,
        0.534405363281905,
        0.22978565952038849,
        0.24107832444568295,
        -0.0622076372326725,
        0.43817719793282417,
        0.37896964300824526,
        0.5011024222901656,
        0.6028231670305401,
        0.22668466426027828,
        0.8391499468512882,
        -0.26900312616256755,
        0.41789827359299486,
        -0.6224634604571875,
        -0.6925710741609492,
        -0.5225455976706643,
        0.5888840008963738,
        -0.7287257343439714,
        0.14788660705715098,
        -0.788736205721541,
        -0.4197216278726762,
        0.422367958347334,
        0.553031725761565,
        0.3177310110317776,
        -0.9323876288747392,
        0.17771867459958657,
        0.16023249169630438,
        0.7021090447884075,
        0.8012143703673844,
        0.5918395226295801,
        -0.683570883921871,
        -0.14383074795090348,
        0.3272477941634358,
        0.4806371604420771,
        -0.9366214542082467,
        0.18864982335765904,
        0.6856316506031915,
        0.1341662835220822,
        -0.7194290956774242,
        -0.8225975860984699,
        -0.14030446845764374,
        -0.2527502590157433,
        -0.16956605544065662,
        -0.4196449078700776
    ]
}