{
    "idx": 705675,
    "fights": [
        {
            "enemy": 5,
            "fitness": 88.47288973525116,
            "player_life": 41.80000000000029,
            "enemy_life": 0,
            "time": 301
        },
        {
            "enemy": 6,
            "fitness": 57.42027017401378,
            "player_life": 0,
            "enemy_life": 30.0,
            "time": 265
        },
        {
            "enemy": 7,
            "fitness": 89.54389959779562,
            "player_life": 49.60000000000031,
            "enemy_life": 0,
            "time": 225
        },
        {
            "enemy": 8,
            "fitness": 86.33574420258549,
            "player_life": 22.600000000000243,
            "enemy_life": 0,
            "time": 374
        }
    ],
    "weights": [
        0.7184886169661739,
        0.5804489738923375,
        0.8191857353862133,
        -0.9501842250049439,
        -0.41490061525984434,
        0.0244131616136868,
        -1.6725645608528337,
        1.764706330270356,
        -0.9197347671995977,
        0.9794905157668469,
        -0.007914982350565918,
        -0.5518792369143249,
        -1.302127196920607,
        -0.5105968005955067,
        -0.7914717482467906,
        2.6111974487456617,
        1.495820929441961,
        1.4082589629370466,
        0.5057473151539947,
        2.865093840334518,
        -0.9811406346741226,
        0.28006037666540606,
        1.394258681030576,
        1.222527991559605,
        0.6832150791348441,
        1.4118698285607316,
        -1.5453296353117665,
        0.2058216497838238,
        0.04407839647237707,
        1.671917825438577,
        -0.04908042789205393,
        -0.5703868804187037,
        -1.5052344804055957,
        -1.0463004904072097,
        0.9811887520698028,
        -0.5879679830920287,
        0.20892591994323476,
        -1.0252670734580287,
        -0.1996369807440263,
        0.4989175065220995,
        -0.345718585143625,
        -0.3430642473267084,
        0.5109202380129685,
        0.6580819488214881,
        0.15066781265216606,
        -0.008618410746546096,
        1.7529837287725432,
        -0.0500319718760705,
        0.4025784034853374,
        1.031511667813029,
        -0.9807696216433601,
        1.428154939898067,
        -1.7061238693777212,
        -1.5653453322433901,
        -0.7738023782053931,
        2.0257319687288233,
        0.31573595576659536,
        -0.14844010020500029,
        -2.204911266675883,
        0.9779396452143355,
        0.913597500542749,
        -1.211766623424801,
        -1.024198117399695,
        0.7228163273403179,
        1.228911707639391,
        0.4766063745874863,
        -0.9419598453494626,
        1.5371363125419275,
        -0.6558025224808205,
        0.1704252594147427,
        0.701797595521297,
        -0.033116532101243594,
        -0.11737916582367813,
        0.7803409083479128,
        -0.601166697612787,
        -1.4705871233127632,
        -0.7517631914371545,
        -0.07168688057975306,
        1.3621927379316865,
        0.3667790116080449,
        -0.12021542133442807,
        0.06457704268003156,
        0.33055968481393894,
        2.1358742523799097,
        -0.045652103074822134,
        -0.7265784525285802,
        -0.24166388222753957,
        0.641914108056835,
        0.824300823874947,
        -0.28586176067046154,
        -0.4651141402926609,
        -0.5905121881517508,
        -0.19301510254564574,
        -1.8005558208258141,
        1.4178759989803467,
        -1.2330499169350837,
        -1.100726340908205,
        0.21333518952389308,
        2.0891860877095287,
        -0.7489444693378375,
        1.0880626568573482,
        -1.2862499903002116,
        0.49132754751569474,
        -0.32595997527705634,
        0.11539899305229918,
        0.7730208985470528,
        -0.1559221977665386,
        -1.5806006750183446,
        0.6125784924954621,
        -0.35866045743319797,
        0.22368756587520086,
        -0.8236907347420361,
        1.0913539035259943,
        -0.24627844038496693,
        -1.1622588484682281,
        -0.38048873443528597,
        0.3529934640588826,
        -0.4505385465852385,
        -0.2801551520258221,
        0.31272190815865697,
        0.1831837182581867,
        0.17684130249608976,
        0.6899519724195359,
        -0.5088913006973237,
        1.3457028359444938,
        1.3049336511143304,
        0.7053947333452998,
        -1.1171111099360862,
        -0.02915369480076995,
        0.21956404451744263,
        -0.10244104014692988,
        0.46145837314771665,
        -0.08190153973951597,
        0.7282674529525301,
        0.796841055086999,
        0.9757209424172735,
        0.26471625323245884,
        2.2829010909783114,
        0.2084699314888175,
        -0.7233860949950706,
        0.7918049520306388,
        1.542733535496156,
        -0.663979424513064,
        -0.2934111087249959,
        0.1655144142234463,
        -0.6213905721471591,
        1.0795349495246755,
        -2.0722413718273303,
        1.470398915380258,
        0.03475500871512188,
        -0.06045801569332974,
        1.5252918596840954,
        1.1604372588713447,
        0.17678771413803046,
        1.6112159826753574,
        1.2645254108624413,
        -0.10112313495081618,
        0.4698251764470203,
        1.0846136344682775,
        -0.7441411408255934,
        -0.43984211980390764,
        -0.25662500767679025,
        0.8157782822573157,
        -0.14911330853567628,
        0.34904300997825005,
        0.3107373077625535,
        0.3992791683924988,
        0.30406772730125015,
        0.3323222088681526,
        0.285313640337484,
        -1.4869028006325586,
        -0.0124868814280804,
        0.9624567698713479,
        -0.02158099705700195,
        0.15166392848404192,
        -0.7526999665389026,
        -1.079057796978174,
        -1.210329744986335,
        0.8159993322533287,
        -1.416501194148198,
        -0.6826086275353621,
        0.7244986981378291,
        -0.42599382689341736,
        0.5793792551938823,
        0.1353426998063016,
        0.6420693122557153,
        1.8435721134760255,
        -0.892598567165122,
        -0.40349903848952556,
        0.9661421931385059,
        -0.09954186576973437,
        0.3507984956155818,
        0.2267623759204026,
        -0.2519046169156228,
        -0.27061509241399084,
        0.4030423606867812,
        0.21125628424562143,
        -0.3058101940836311,
        -0.34605235827284353,
        -1.750807104954467,
        -0.8797823289492707,
        -0.16103223297982214,
        -0.7266932305513918,
        0.49354252921136504,
        -0.40600185481270784,
        -0.9679660224587125,
        -1.5469117507961803,
        -0.1435823420058576,
        0.5734470898858455,
        -1.856208120773437,
        -0.15072654563352908,
        0.693716862163704,
        0.6156788188650429,
        0.2758560904170813,
        1.1598252372715323,
        -0.8459789805238066,
        -1.4847731972174758,
        0.31411590278157064,
        1.1124443155100519,
        -0.4251473418945338,
        1.2507347549891878,
        -1.2381318261177545,
        1.259275595813985,
        0.6684369339404803,
        0.1648868754784082,
        -1.2581225597127121,
        0.8096060577779947,
        0.11036774211078157,
        0.1781025365802883,
        1.6841509574956,
        -0.6450880842477114,
        1.2170413967142497,
        1.5169087861530604,
        0.3819920662882338,
        0.5996038557047033,
        -0.32862464354710563,
        0.28491883895510484,
        2.101296623960617,
        0.5340832557177609,
        -0.7886012745345417,
        0.4185087498694481,
        -0.5165049148645856,
        -0.016069521379366528,
        0.6851599993567172,
        0.8918813080288168,
        0.10645556088127511,
        -0.8800640098186536,
        1.1468489314067944,
        1.4005375385226329,
        1.6965572408421419,
        0.4188949901132498,
        -0.5023053364705559,
        -0.2298601484748235,
        -0.2754255006155666,
        0.2774686789419548,
        -1.1713475667977489,
        0.1930472880783847,
        0.42184706625435986,
        -0.30293478249284794,
        -0.28477491280036704,
        0.16254128471108878,
        -1.1054682209567055,
        0.6013179570547372,
        0.7265218387439916,
        0.12193984293089241
    ]
}