{
    "idx": 702969,
    "fights": [
        {
            "enemy": 5,
            "fitness": 89.06901301948916,
            "player_life": 46.6000000000003,
            "enemy_life": 0,
            "time": 268
        },
        {
            "enemy": 6,
            "fitness": 66.70669517527551,
            "player_life": 0,
            "enemy_life": 20.0,
            "time": 199
        },
        {
            "enemy": 7,
            "fitness": 90.3917329693055,
            "player_life": 56.800000000000324,
            "enemy_life": 0,
            "time": 198
        },
        {
            "enemy": 8,
            "fitness": 89.78661051127251,
            "player_life": 53.200000000000315,
            "enemy_life": 0,
            "time": 253
        }
    ],
    "weights": [
        0.6939646308545177,
        1.0825396187971472,
        0.8751408483962799,
        -1.1537624586282875,
        -1.301097722746313,
        0.18254874491598527,
        -1.3700734822105676,
        1.3548552593022043,
        -1.0658539995368774,
        1.3258101618062172,
        -0.5733602362694457,
        -0.7710932944523187,
        -1.3812415935305018,
        0.04332700730445864,
        -0.9664743856250761,
        2.4911628683486957,
        1.2761775851721322,
        0.650642515833147,
        -0.15407469027505688,
        2.5283437191051954,
        -1.4928490145687312,
        0.3766647052603002,
        1.4175657829308697,
        1.4438142914623175,
        0.527411312365388,
        1.5189539682157318,
        -1.3897304040682181,
        0.06775406313166499,
        1.0156688688139823,
        0.8230266278691915,
        -0.6274241035537093,
        -0.5154372218951442,
        -0.7277405925811424,
        -0.6437386620670646,
        0.8027999708045686,
        -0.19580665475318793,
        0.4759266556511181,
        -0.007394348371264958,
        0.026137734477431878,
        0.7461123320880501,
        -0.3832184623434127,
        -1.0247980139061104,
        0.9010101254553532,
        0.8996338460190229,
        0.14465913083358767,
        -0.5942699350631169,
        1.6617371012924567,
        -0.4573003504344732,
        0.8846116273353049,
        0.987291306660526,
        -0.7008698169240206,
        1.8249440486592832,
        -1.5605237609597535,
        -1.3211706206146294,
        -0.7093301795282874,
        0.8008580939650212,
        0.5008087740549267,
        0.13323464832334878,
        -2.410675032299586,
        -0.007405127191055702,
        0.5266646183243784,
        -0.43888515919988813,
        -0.4148546878941477,
        0.41266704872031273,
        1.0384219667341965,
        0.5714454543635892,
        -0.8991081588930623,
        2.214262757443858,
        -0.20585399973384,
        -0.5184893149849394,
        0.8186338724758081,
        -0.727819682139501,
        0.17922476433547357,
        0.48475068348114647,
        -0.42565038931845395,
        -1.526716682070264,
        -0.5214453854132762,
        -0.020275207087764452,
        1.0277993954491014,
        -0.3241439098065523,
        0.26695229414684335,
        -0.45312042429629745,
        0.34204233482857027,
        2.409613374063911,
        -0.08615511503021898,
        -0.8201157180502259,
        -0.0961353043783339,
        1.1245941186238428,
        0.4028320137245985,
        -1.1234040319151999,
        -0.037071650941044615,
        -0.47280623736741384,
        0.4311621910961092,
        -0.09573912540181302,
        1.0324200018032201,
        -0.6165176253603002,
        -0.5794176965285857,
        0.20789618080576375,
        1.4228136053269578,
        -0.7392275856594515,
        1.414189911450025,
        -1.8584192566485784,
        0.5841728695016873,
        -0.7548752347005107,
        -0.04601776874250545,
        0.6868333566448037,
        -0.1901664079030028,
        -0.47875515841005867,
        0.6478793294211977,
        -0.6005351663748729,
        -0.8276721143588891,
        -0.33657730294584987,
        0.8555071052401355,
        0.49288090652261113,
        -0.9936388669335748,
        0.36810905201437,
        -0.06806388351603676,
        -0.5510004376636217,
        -0.08198195234587421,
        0.5143792416620218,
        0.23659218410158064,
        0.18839009810805968,
        0.5632422228165279,
        -1.2551104208704087,
        1.498749119511018,
        2.3821909655663496,
        0.7260882825421408,
        -1.0531654432667947,
        -0.008174572328678534,
        0.06815693252318192,
        1.3439191858036708,
        0.10227248231966685,
        -0.07277173852258775,
        0.8173879318107135,
        0.4024938276599887,
        0.720014833209073,
        -0.2122954714005641,
        1.732869567483386,
        0.18620404672950736,
        -0.9123251091392438,
        0.9692978531833409,
        1.499226613868379,
        -0.7882826477828556,
        -0.4314215313789225,
        0.3825006323801784,
        -0.7404883915611923,
        1.4870528369692755,
        -0.9957634888592723,
        1.3516860070018983,
        0.6810765593891392,
        0.01703331519869683,
        1.452485425432888,
        1.5877197804385148,
        0.13792488792691548,
        0.9728261375839056,
        1.3646420930987637,
        0.3155871224862078,
        1.2722973261794341,
        0.7717758844611399,
        -0.5396103453654421,
        -0.9300374149152675,
        -0.2278478838825504,
        0.010294797635759294,
        -0.31553871448231063,
        0.6655165793963047,
        -0.08731533480102198,
        -0.061915581946637016,
        0.5896825139925449,
        0.4709423149312271,
        0.8903071065806464,
        -0.7806006338251594,
        0.7236116574493026,
        0.43584400625113817,
        0.8360271538872327,
        0.6574527581632273,
        -0.5690501637430943,
        -0.22890287844315796,
        -0.9577672218881597,
        0.005801485752783747,
        -1.1682499652907916,
        0.1788547312458167,
        0.39468320933340945,
        -0.464207134714079,
        0.9431661265971716,
        -0.30278581234222035,
        0.8819801968215484,
        0.5500556138805173,
        -0.46062303142417355,
        0.18232728388897723,
        0.7411140052585289,
        0.20776727485397367,
        0.08399480805367704,
        -0.28227247300249747,
        -0.2879128392048581,
        0.09097130026642185,
        1.0140055973605504,
        0.08875577953370067,
        -0.011391536016384235,
        -0.3037113536661494,
        -1.8829213580114725,
        -0.964489930464884,
        0.9602186327893483,
        -0.07552350466599636,
        2.2324318064991364,
        -0.6462779143646102,
        -0.9208347889251448,
        -1.2171619713432469,
        0.5583052837734863,
        0.6464870485636571,
        -1.7141955832253744,
        -0.05808612660845183,
        0.6730237929093359,
        0.6532433876483837,
        -0.4968388263055672,
        1.0982356308678063,
        -0.8607329205424838,
        -0.7902135806995197,
        0.14108204915059785,
        0.9896193208781087,
        -0.2966150373098672,
        1.0532696280609652,
        -1.0936298522524146,
        1.1885602199346836,
        0.9888460644341602,
        0.3959914814869393,
        -1.187717140653703,
        0.6605013607828637,
        -1.1784702633929147,
        -0.23593273391843164,
        1.4843376274983955,
        -1.1542851108946568,
        1.1926264458959155,
        1.200954087784719,
        0.07227999844604671,
        0.32626313786858185,
        -0.3939118132158922,
        0.8552699833897642,
        1.409117257581359,
        0.6947168945031106,
        -0.6644257007842937,
        0.6226546865748486,
        0.036258385091717464,
        0.4967726317602531,
        0.8247949336155014,
        1.1454315688859233,
        0.7123239669853801,
        -1.0743863421887225,
        0.7588969966696425,
        1.34702927291881,
        1.5167863464002298,
        0.6872050466338284,
        -0.337462586894939,
        -0.361786873830905,
        -0.07162612930039976,
        1.4034690092984548,
        -1.3050037693134382,
        -0.08742899961841134,
        -0.10279939277397433,
        0.3387776886608711,
        -0.41468094913457487,
        0.05195759936850431,
        -0.8688781575620602,
        0.8660157584657028,
        0.6783893214426714,
        0.41774268260356207
    ]
}