{
    "idx": 705024,
    "fights": [
        {
            "enemy": 5,
            "fitness": 86.91196501081939,
            "player_life": 28.600000000000257,
            "enemy_life": 0,
            "time": 383
        },
        {
            "enemy": 6,
            "fitness": 21.194865031083513,
            "player_life": 0,
            "enemy_life": 70.0,
            "time": 332
        },
        {
            "enemy": 7,
            "fitness": 89.95669509194096,
            "player_life": 52.600000000000314,
            "enemy_life": 0,
            "time": 201
        },
        {
            "enemy": 8,
            "fitness": 88.86324619773175,
            "player_life": 45.4000000000003,
            "enemy_life": 0,
            "time": 292
        }
    ],
    "weights": [
        1.1959573871306817,
        0.7898209950744556,
        0.817678566114806,
        -0.6008619007335689,
        -1.350207442807373,
        0.39379458098291426,
        -1.6897993651951546,
        1.3081744507665118,
        -0.38762867941429807,
        1.4615714245384746,
        -0.23664915684674342,
        -0.41793990061477526,
        -1.574883932700472,
        -1.1112699155276484,
        -1.0029994136259452,
        3.3570033440039575,
        1.7509313126402124,
        0.5618000512247731,
        0.6348758301782567,
        2.486501765976908,
        -0.8879338971811441,
        0.09140739987641729,
        1.0894030540914896,
        1.9584207160871725,
        0.40596005181351735,
        1.8188653003739579,
        -1.7351352260780963,
        0.08526411610795087,
        1.7597755476503107,
        -0.02884281543599759,
        0.0021072830976724827,
        -0.8381072423881654,
        -1.2050160592877106,
        -1.2054810668782432,
        1.3379379549747612,
        0.6410134107085881,
        0.1286230365049117,
        -0.9007447150471888,
        -0.05801485291517772,
        0.3848915496444121,
        -0.7121420558039157,
        -0.6511841038807339,
        0.357321867799295,
        1.208210086170903,
        0.7010140413073822,
        -0.7338211408386465,
        1.5337108539062723,
        -0.27454512834159234,
        0.381940971538351,
        1.4230894442697737,
        -0.9700143076338106,
        1.8605218363079654,
        -1.5766355709341444,
        -1.319145165147157,
        -0.7370665559348515,
        1.6282516518929475,
        0.3167983591620156,
        -0.03509336251746808,
        -2.4141610456178517,
        0.22585734239399016,
        1.0551847312972285,
        -1.0713418139261137,
        -1.073452604316138,
        0.5203333987977061,
        0.7994030873000022,
        1.085947393045014,
        -1.2675337204778712,
        1.9129857415898048,
        0.022316204178755683,
        0.830311740903193,
        0.6935441523697021,
        -1.067846583393059,
        -0.6978958181797006,
        1.085630414417802,
        -0.7229608662249957,
        -1.4725040429461154,
        -0.8103769534313839,
        -0.2894307880458139,
        0.3976956927636843,
        0.31652022197461227,
        -0.21488152554345144,
        -0.00349159844158747,
        0.26377469947206145,
        2.32059783984425,
        -0.5377176546404288,
        -0.2819409556073928,
        -0.06604259138541335,
        0.8601438083183027,
        0.3971970060702404,
        -1.669042694718843,
        -1.22686704644892,
        -1.0153371486992302,
        -0.40544257042401954,
        -1.7281840760147793,
        1.3292663413222192,
        -0.2811793730934808,
        -1.2777186691505642,
        0.6773949365607372,
        2.5379062038350853,
        -0.97173437037414,
        1.3986440068252035,
        -2.1153187256692374,
        1.3527888626387337,
        -0.7173603030022808,
        0.387614387774261,
        0.910877328242111,
        -0.309219899211083,
        -1.4969970970173399,
        0.8290941289981388,
        -1.027474850588462,
        -0.28573318123836966,
        -1.0844005387238937,
        1.0884378302151823,
        0.44735685116869556,
        -0.7387667960006156,
        -0.6599029618224634,
        0.0005150733295498505,
        0.1987332362999459,
        0.16907770348245332,
        0.1342526162213583,
        0.7878649079666407,
        0.5932074581232036,
        0.3668360273078128,
        -1.1677702379199792,
        1.7214676526953197,
        2.9785291712201616,
        0.3309841017350311,
        -1.182912605473884,
        -0.606991967128057,
        0.16379501760106518,
        -0.7415802258835478,
        0.1125769173758564,
        0.28814651213659254,
        0.41116923990445914,
        0.16859798102301352,
        0.9126534989692551,
        0.31607770844636146,
        2.052548967745353,
        0.3760770582374647,
        -0.6653826502470014,
        1.5917841727868076,
        2.4105228890724155,
        -1.4636909683037673,
        0.13355248634933378,
        0.008704473298888375,
        -0.6123294516715495,
        1.9098788079737377,
        -1.0857348554648607,
        0.827248729770387,
        0.46340025135931684,
        -0.015426172506461753,
        1.488069006960594,
        1.0223392981867072,
        -0.040335696346522856,
        1.431616973878386,
        0.8378254158140074,
        -0.3785331148147433,
        1.5702479337532862,
        0.7614776037245352,
        -0.36661322467026247,
        -0.7021572511380596,
        1.1254398150182714,
        -0.061092425525736425,
        -0.2897238856072042,
        0.31187492315763526,
        0.49337950656936813,
        0.42085912666898645,
        1.197606991968361,
        -0.05609564954249563,
        0.5286667108481181,
        -1.5739106285875424,
        0.2610018999913991,
        0.9549863752926109,
        0.6865179647165819,
        0.1374027404313191,
        -0.38217013524109755,
        -0.25460143483380526,
        -0.490165973667799,
        0.05917406774668785,
        -1.6012283228535338,
        0.125681070786947,
        -0.7801974759133373,
        -0.9001816231401445,
        0.6804843011268464,
        0.23914171810261883,
        0.9495638363125494,
        0.8307910328804116,
        -0.5759602141409552,
        -0.004468266349297589,
        0.8554862655714268,
        -0.16149144336248628,
        0.3346190503125953,
        0.29460480012831913,
        -0.13626586517331188,
        -0.5471807830248329,
        0.9696591125512677,
        0.135462906102206,
        -0.6888301307129147,
        -0.8460441059454845,
        -1.94313381396349,
        -0.699629843493869,
        1.1003038093305038,
        -0.15435829697355044,
        2.867197072233542,
        -0.12565613773508208,
        -1.3850774753324497,
        -1.3552210476541005,
        0.42991753850399916,
        0.9100716372874479,
        -1.4248346326743015,
        -0.6089445942097371,
        1.028780885333452,
        0.755327514314112,
        0.3175052017912711,
        1.4545542285334414,
        -0.6714857094004173,
        -1.2925188469844697,
        -0.025828325384547844,
        1.1378048711783777,
        -0.5986944811444532,
        1.1913622745221306,
        -0.9947902451164565,
        1.4593128742107486,
        -0.08994221935716254,
        0.3647820449678485,
        -1.3151740232383327,
        0.38535788443101204,
        -0.833415676550388,
        0.26859715762020886,
        1.4549517946523303,
        -1.144003607011934,
        1.11454576139723,
        1.5233858305883048,
        -0.33557712943506796,
        0.48132298436356885,
        -0.754244795977315,
        0.6324686633722564,
        1.9779082134472268,
        0.622158139089581,
        0.1440792789950802,
        1.0192144376527357,
        0.5249158334229549,
        0.6347744933542105,
        0.41746130924718194,
        0.8547773414835854,
        0.19690830403489337,
        -0.5988344862083995,
        1.1429585292955424,
        0.9398108047510327,
        1.7328065544721794,
        0.7912949964271214,
        -0.5803247047268224,
        -0.10800033483053145,
        -0.2128322994916425,
        0.10772188190498892,
        -1.0723817223445902,
        0.30639189702862,
        0.22753726285519543,
        0.5459520296654176,
        0.45637341885269145,
        0.23370160962287817,
        -1.0808060533824686,
        0.6720556797756351,
        0.5885180716596559,
        0.6122777400888397
    ]
}