{
    "idx": 704527,
    "fights": [
        {
            "enemy": 5,
            "fitness": 91.42027017401381,
            "player_life": 70.00000000000028,
            "enemy_life": 0,
            "time": 265
        },
        {
            "enemy": 6,
            "fitness": 57.570654371045556,
            "player_life": 0,
            "enemy_life": 30.0,
            "time": 228
        },
        {
            "enemy": 7,
            "fitness": 91.05679627126204,
            "player_life": 63.40000000000034,
            "enemy_life": 0,
            "time": 197
        },
        {
            "enemy": 8,
            "fitness": 88.8796882233926,
            "player_life": 46.0000000000003,
            "enemy_life": 0,
            "time": 305
        }
    ],
    "weights": [
        0.5665215416332035,
        0.676087717510767,
        0.8611411255381097,
        0.29986307889116415,
        -1.2864333653493667,
        0.7105533713258996,
        -0.6295519489483178,
        0.628109849224436,
        -0.6330276327314335,
        0.8139789452314444,
        -0.9888258720472755,
        0.40475610455444405,
        -0.6111576713182403,
        -1.2825619389448364,
        0.19602324409811145,
        1.6616277416169545,
        -0.0948326559488098,
        1.5735859797557175,
        0.6632874053704907,
        0.8200378224001087,
        -0.7435138684963976,
        0.15945262988956585,
        1.7124197594707586,
        0.5300536541278964,
        0.48361644799096354,
        2.069072402048119,
        -0.778323282584483,
        -0.18730647095282646,
        0.12135968133930936,
        0.7022651573857606,
        -0.39285265514835294,
        -0.9217813862315825,
        -0.9297883695692901,
        1.0712249900748176,
        1.8045169942634565,
        -0.5108091372500472,
        0.7400021276440854,
        -0.7933048031398559,
        0.2981690247320283,
        0.12338577493653083,
        -0.5709425377151077,
        -0.6318301170367964,
        0.6860603148288151,
        0.5817730490836294,
        -0.06225407232530483,
        -1.131423874694947,
        0.717454551083959,
        -0.5576203670371264,
        0.44841937504511137,
        1.4891108873526413,
        -0.2964500677028614,
        1.69636747462064,
        -1.4020627240183026,
        -0.6169877506351602,
        -0.3021878681149961,
        1.2884059219527708,
        0.14270331414190418,
        0.6764376233232093,
        -1.246522808693203,
        0.38966777161175575,
        1.051449982143929,
        -1.1976599100914542,
        -1.2157129233842343,
        0.5210438795969515,
        0.5200687020472152,
        0.38337140100979394,
        -0.8195447237424789,
        1.9902519356294412,
        0.04966789844203286,
        0.3404412142063473,
        0.9133689633171517,
        -0.3039366832982251,
        -0.5794642368351414,
        -0.21136704773027318,
        -0.4844157442773583,
        -1.3289142109235215,
        0.3139774085638827,
        -0.20584927120640273,
        1.7796623247417387,
        0.6009655696209351,
        0.5414137860628357,
        0.2747217830505571,
        0.20448873907789822,
        0.4295885263266245,
        -0.25421361205182375,
        0.16297848309021928,
        -0.11946983095312046,
        0.9082957911811825,
        0.4622360424207047,
        -0.1625910221722999,
        -0.2885784505697199,
        -0.7763989168795479,
        -0.6588862492517742,
        -0.8254545308561244,
        1.0264364692070302,
        -0.6281194911081933,
        -0.32427210735612483,
        -0.8708155226055447,
        2.024163598397257,
        -0.8111312174824623,
        0.9488197473726723,
        -1.5405363684581157,
        -0.027728545680093808,
        -0.6043222287723132,
        0.4157275025278548,
        -0.19230923793136503,
        0.2672827605950929,
        -1.5886343895401829,
        0.7341454150577714,
        -0.8990968705810649,
        -0.9764349582875448,
        -0.10654231577640902,
        1.4732368376021665,
        0.18153544017667855,
        -0.9146563891676571,
        0.16812947729399674,
        0.5967886789549947,
        -1.612114223421715,
        0.0008898384255776326,
        0.5372862721455456,
        0.03313451278440358,
        1.2832290376551347,
        0.3327167888350486,
        -0.9910328517700596,
        1.9296405901981277,
        1.2434083518680332,
        -0.10155566562529854,
        -0.8554475055197345,
        -0.143877536913521,
        -0.26817087910230564,
        0.30504528505093836,
        -0.08214208389547802,
        0.11490948285346309,
        0.28792216769884516,
        -0.5584777633211114,
        0.6079732315823108,
        -0.16404706579314932,
        1.620699064013475,
        -0.5463009959104458,
        -0.0029049178517316816,
        1.154684724616281,
        1.233515758294127,
        -0.41504566719490665,
        0.7191393281727305,
        0.6393493365496795,
        -1.2170504341366792,
        1.3567294449328775,
        -0.4308558225922274,
        1.2680872366797107,
        -0.2085639278574004,
        -0.2403062391677264,
        1.255449884909804,
        0.9757947817052078,
        -0.5935636581904155,
        1.2864789096547677,
        0.36468905837208354,
        -0.09060190703530185,
        0.6250113708834949,
        0.8661800027449839,
        -0.5993974164864246,
        -1.4087005243184396,
        0.11380708077943996,
        -0.38254746343635004,
        -0.7866577388088053,
        -0.8170184745699159,
        0.02442229998429066,
        0.7395124979554021,
        0.1708408874038941,
        0.4987819786346312,
        -0.014404458155125699,
        0.06370419884560229,
        0.5157196861678789,
        0.6791819582962754,
        0.10534499726042351,
        0.36358079584519626,
        0.18994810556331213,
        -0.2985876851049096,
        0.07994908557009904,
        0.29768671809890546,
        0.09866659758800583,
        -0.5894897037332044,
        -0.720887764884217,
        0.060581533134328375,
        0.7903621634803685,
        0.1445367565438604,
        0.6862490659671112,
        0.3517788864626774,
        -0.753734378051738,
        0.1568531056618434,
        -0.03998175772413143,
        0.9014051834737429,
        0.25513570773077693,
        0.7300333268305249,
        0.034114253299449546,
        -0.30710594443288786,
        1.089384839324945,
        0.09513722196095348,
        -0.5950682112171082,
        -0.9496768964556099,
        -1.2026388917051585,
        -0.6566989551936878,
        -0.7399121162567214,
        -0.36887491875919703,
        1.2509127461442382,
        0.6136489284469876,
        -0.7097928266058169,
        -0.6342361982554091,
        0.4491722791282251,
        0.6011627039642916,
        -0.9092043113751149,
        -0.29553278226323215,
        0.3279261878007635,
        0.7255982283512775,
        -0.06598624752060406,
        1.4655414298768574,
        -0.8341331889626272,
        -0.8044355312385177,
        0.7724065977049716,
        0.6242067472166133,
        0.22891656597585744,
        1.0749606450706897,
        0.631924131582714,
        1.106658709277338,
        -0.43675885114358337,
        0.6564916349166812,
        -1.046952231579617,
        0.7635571239115541,
        -0.07040829295827256,
        -0.0019708039575328518,
        1.0945884203370917,
        -1.2836751651187737,
        0.5464018457094704,
        2.9173693122042925,
        0.07064769187401378,
        0.21692492867809804,
        -1.0244567044477715,
        1.0198619048986466,
        0.3755155716012938,
        -0.0752697906861499,
        0.10169339965795478,
        0.8550297863295167,
        -0.784604626586535,
        0.019197288818739028,
        0.7244692187685073,
        1.4531820362512704,
        0.5358400270634438,
        -0.6141130542331428,
        0.06827066175838606,
        -0.29624030551329195,
        2.641878597976107,
        0.7119860821731061,
        -0.2660177355077491,
        0.006443466057623401,
        0.1796372080305726,
        -0.48951803864224014,
        -1.1150128014103542,
        0.09751650412534611,
        -0.19031917848107693,
        -0.37800092668971896,
        -0.39137671832046883,
        0.34956725274278594,
        -1.2616725574749468,
        0.7062610139623456,
        0.7774981609043887,
        -0.25327283420198315
    ]
}