{
    "idx": 700454,
    "fights": [
        {
            "enemy": 5,
            "fitness": 85.7229065134946,
            "player_life": 14.200000000000228,
            "enemy_life": 0,
            "time": 298
        },
        {
            "enemy": 6,
            "fitness": 39.89405452609942,
            "player_life": 0,
            "enemy_life": 50.0,
            "time": 165
        },
        {
            "enemy": 7,
            "fitness": 90.63679627126204,
            "player_life": 59.20000000000033,
            "enemy_life": 0,
            "time": 197
        },
        {
            "enemy": 8,
            "fitness": 90.31936107665805,
            "player_life": 58.00000000000033,
            "enemy_life": 0,
            "time": 240
        }
    ],
    "weights": [
        0.6072699801350946,
        0.5658955952500695,
        1.5806829164360705,
        -0.6468454122386743,
        -1.7752772868335465,
        0.612683539413094,
        -0.9593095769427173,
        0.7169418568680708,
        -0.6257803247453897,
        0.7230663443412638,
        -1.427276318179161,
        0.5927534929917745,
        -2.3375787059496655,
        -0.8105463814682918,
        -0.9094837396873057,
        1.9101989008592903,
        -0.310701922185056,
        1.6481777663874895,
        1.571276917069624,
        0.9035183855073032,
        -0.1055251453356095,
        -0.18257952053316878,
        1.3281540206646794,
        1.704380889672875,
        1.0509473878228524,
        1.347992862199153,
        -0.8682445623698194,
        0.06668939933945368,
        1.0699585764128576,
        0.3892903404318327,
        0.12011253760987951,
        -0.6214428494981441,
        -0.9517029651194613,
        0.8944628594324662,
        0.5898533384916893,
        -0.3357680728161155,
        0.3076650940533988,
        -1.0233339778756947,
        0.18971440613763707,
        -0.10661799026350095,
        0.21619171187167746,
        -1.3666607646866036,
        0.8815060195012177,
        0.8636275605629882,
        -0.22284357336812693,
        -0.886821670701465,
        0.9682193064567166,
        0.780402454271995,
        0.13758915245882636,
        1.4622369316005117,
        -0.09368734875916547,
        1.3553674125516675,
        -1.0857307055326688,
        -0.3105693247622765,
        0.3595729552938004,
        1.8782254054927083,
        -0.4121510820454851,
        -0.20626174350430854,
        -1.2823898997241283,
        1.360935922335855,
        0.4905604351765468,
        -0.7188080199473426,
        -0.7350130958342924,
        0.2650733201117442,
        0.9711503871118619,
        2.228755327900566,
        -0.34275356998591266,
        0.3428805557673038,
        -0.7569015205387413,
        -0.7351745930170741,
        0.9072474120260915,
        -1.0188990037055805,
        -0.5162261184556364,
        -0.7005386259191627,
        -0.28206899245964534,
        -1.5440405962692034,
        0.5219047592961447,
        0.1569290849080335,
        0.8178389136213701,
        0.6344595717248361,
        -0.40104557960597653,
        -0.45117225860400656,
        1.2173147153066433,
        0.6543577695299122,
        -0.383864770031168,
        0.1559248280460778,
        -0.8100952258966966,
        1.275339706014078,
        0.07149901587391463,
        0.24546945330264744,
        0.016194647841542176,
        -0.5880413474841979,
        -0.6502043759628464,
        -0.7679221691558769,
        0.05791098639725775,
        0.04351071675606537,
        -0.724799506819724,
        -0.287927917233449,
        0.8208440536345758,
        -1.2778599864206674,
        1.0366892511669106,
        -1.1204342969679189,
        -0.7259168107647797,
        -0.030191009573410085,
        0.9742049235639865,
        0.8273462221760908,
        0.15059748300873999,
        -1.085329748090539,
        0.922862980918522,
        -0.617218409728841,
        -1.0982519877378778,
        0.004716458130913731,
        1.0901253340912502,
        -0.590458236380699,
        -1.4206482172140242,
        -1.1430825801978897,
        0.24882151518150392,
        -1.3642499065090228,
        -0.3891578958000878,
        0.3999775155757472,
        0.2024381024972064,
        0.20395360373127047,
        0.7175037789686921,
        0.7641997139338791,
        0.7549771151843578,
        0.7284098189890711,
        -0.6659504396408514,
        -1.475020221787043,
        -0.613384265347384,
        -0.3755807968159958,
        -0.07066539088322124,
        -1.1040821639873397,
        -0.7893304342095753,
        1.7366204823260118,
        -0.005018992985706239,
        1.292433641175645,
        -0.6921342461925764,
        1.325591523884453,
        0.07745870571839868,
        0.6178591498385243,
        0.7506468995209944,
        0.48713070061920744,
        0.5445123366577993,
        0.9896993593976531,
        0.5704052963218889,
        -0.9142169527158612,
        1.518422412995291,
        -0.8793399382708842,
        1.279545119376994,
        -0.5686872648307694,
        -0.5583280319170563,
        0.18299227867503398,
        1.1739901171218188,
        -0.4664236101612582,
        0.618573471982244,
        1.6696155791540692,
        1.162407733289916,
        0.43255029705701586,
        -0.11368652917982683,
        -0.07449516077653445,
        -1.9054502187942655,
        0.7520927361899901,
        -0.8329972252670942,
        -0.9122246723310111,
        -1.012002543921712,
        0.3670844466919963,
        0.6348362964167804,
        0.4170469884181067,
        0.4472841130674491,
        -0.3753298578155553,
        0.22074753405007314,
        0.09749841658005666,
        0.3535156371654613,
        -1.0360086448100707,
        1.5631520277739703,
        -0.6043801457645156,
        -0.018770390505896677,
        -0.7969825400091273,
        0.7010568534806283,
        0.5171754160489426,
        0.30256840484382885,
        -0.5034027246968338,
        -0.4882257171992745,
        0.15409343171245946,
        0.9874161744010487,
        1.1478567032350957,
        -0.1815242018401299,
        -0.7362833398313415,
        -0.36682406934734035,
        0.9813082685709859,
        0.39804382358396906,
        -0.7241314084426821,
        0.5417927903832536,
        0.2937060681601529,
        -0.5643376507517505,
        0.7104090709188706,
        0.4214960826007575,
        -0.5581374165014938,
        -1.6099739004162836,
        -0.5489703089610806,
        -0.32336000508998003,
        -0.6171866399038328,
        -0.28372668525600614,
        0.8054671607002535,
        -0.49606669823532173,
        -1.0835335771822938,
        0.6812394370679611,
        0.21845742558301579,
        0.7622282125457885,
        0.8765544704696898,
        -0.7084636081965915,
        0.1672500103396359,
        1.0125354853678823,
        -0.5754662444664064,
        0.2458398325759743,
        -0.9209277562671546,
        -0.5706101410037685,
        0.5115005102557224,
        0.7483454901181429,
        0.45707986305552867,
        1.7744186795159724,
        -1.4399722842830185,
        2.1594447318570476,
        -0.5593884623913463,
        -0.04483203911479668,
        -1.7071945655422671,
        0.8711892202555283,
        0.4365954777643254,
        0.322563415368763,
        0.44529488468061995,
        -0.9576018148068941,
        0.5423968114168698,
        3.538434721536626,
        -0.5104660028618879,
        0.23759474358506955,
        -1.1889558596803425,
        0.8423033067826518,
        0.8168714426610098,
        -0.4214578324609931,
        0.580782271740494,
        0.6898895973475032,
        0.24282897008831256,
        0.20407883892256548,
        1.1514104437847323,
        2.260560627991982,
        1.2134202888208445,
        -0.4305231678707736,
        -0.20037331921489082,
        1.5183218626018473,
        1.4605713879098916,
        1.3850390440789364,
        -0.4799587439209334,
        -0.23769949421549827,
        0.17918523573438733,
        -0.39085515143700644,
        -1.3989669985687592,
        0.1492781240591755,
        0.12050688453725533,
        0.4761292352909279,
        0.10646077017077546,
        1.4553197956805157,
        -1.0255542977856162,
        0.2671029401829541,
        0.18307667051453544,
        0.4337056325806761
    ]
}