{
    "idx": 706744,
    "fights": [
        {
            "enemy": 5,
            "fitness": 89.07288973525115,
            "player_life": 47.8000000000003,
            "enemy_life": 0,
            "time": 301
        },
        {
            "enemy": 6,
            "fitness": 21.519361076658008,
            "player_life": 0,
            "enemy_life": 70.0,
            "time": 240
        },
        {
            "enemy": 7,
            "fitness": 88.93946500072774,
            "player_life": 43.60000000000029,
            "enemy_life": 0,
            "time": 226
        },
        {
            "enemy": 8,
            "fitness": 87.01935834262663,
            "player_life": 28.600000000000257,
            "enemy_life": 0,
            "time": 344
        }
    ],
    "weights": [
        0.7506868821524924,
        0.4852949791368371,
        1.2518524621730767,
        -0.8556089962588599,
        -2.118145259078414,
        1.1907111410720392,
        -2.468845094825426,
        1.7939146228976608,
        -0.8626492609242901,
        0.9628219636106998,
        -0.3126550186774551,
        -0.9139590362725579,
        -1.5979140952148092,
        0.02086155971032766,
        -0.8179189050324871,
        2.2240580349725585,
        1.445779285860171,
        0.43545154484312987,
        0.4398046028007584,
        2.11561904356166,
        -1.045832559321948,
        -0.58493060708639,
        2.014342859714446,
        1.764094876546229,
        0.6356289316243613,
        1.9897978304980075,
        -1.4386903835229483,
        0.9104022960097953,
        0.2132683151637415,
        1.4889167558563512,
        1.23213215175088,
        -0.6522734480966437,
        -0.6117613970639758,
        -0.3865025510605577,
        1.5404097610220828,
        0.8154675249626937,
        0.37406456066708643,
        -0.8917240096804577,
        0.8186648511400346,
        0.25448852756720997,
        0.13564805248558848,
        -0.3369516854548429,
        -0.24682484453984688,
        0.8724553711150919,
        0.29529108176649854,
        -0.40375978277215696,
        1.4515145378913201,
        -0.2036224458972997,
        1.729184484373082,
        1.5990969361605283,
        -0.17210012029940963,
        1.2610360422464848,
        -2.3278725484812837,
        -1.193696518734368,
        0.8010821883396325,
        2.1753022487719633,
        0.8528349985512664,
        0.1265456878874774,
        -2.5662314841346237,
        0.3884629235347943,
        0.8868725373127251,
        -2.2313682010618696,
        0.4041379164661679,
        0.5840317867294406,
        1.3272701240656317,
        0.6622979019979629,
        -0.1352557326491341,
        3.6246345739635197,
        -0.9904764413604336,
        -0.37377710019357474,
        0.31628087771385927,
        0.01630362474455853,
        -0.749557215206211,
        1.1156983197912094,
        -0.5481540282464891,
        -1.085914253508612,
        -1.1383193495032573,
        -0.39170157941734884,
        0.559123559555795,
        0.3038569300594425,
        -0.13631518314363691,
        0.05387950987921682,
        0.6934633890833626,
        3.0105145633214923,
        -1.06177596530967,
        0.05598850389054904,
        1.2328455994224299,
        -0.4293891117532741,
        -0.7450447117537609,
        -1.3238947413564064,
        -1.3555645561072132,
        -0.07045780733023141,
        0.3829581598336155,
        -1.6716975838945358,
        -0.19420764559851955,
        -0.9664052331286463,
        -1.09827311743613,
        0.5174338965240866,
        2.299891540387072,
        -1.1839924761146852,
        1.2987706240791943,
        -1.0974492264887767,
        0.6820823038017972,
        0.08076370671724803,
        -0.34953122105555784,
        0.24172431277502496,
        -0.3751189143598134,
        -1.6905564894308256,
        1.5757683957876387,
        0.9957165331501542,
        0.035573137210218625,
        -1.0111106766503255,
        0.5580181090229774,
        1.138812335847513,
        -1.1105717314395331,
        -0.23066625970651333,
        0.5333571374641815,
        0.15571314645917544,
        -0.45482181364595076,
        0.46960829084460665,
        -0.37103329819081265,
        0.8141393758076515,
        1.0156667951335807,
        -1.6459788606017531,
        1.4147683578286636,
        3.2152674363524985,
        1.3949300429361855,
        -2.0889540299768217,
        -1.8730925752288208,
        0.10129157730967082,
        0.16861177855823647,
        0.3636627247106848,
        -0.7259866255538032,
        -0.16725573087651263,
        0.5377815230698421,
        1.4236063188766765,
        0.3134206098515089,
        1.8784025399415756,
        0.41448925117594554,
        -0.1531980690778149,
        0.9002236794141679,
        1.8876216915433999,
        -1.2214117463287595,
        -0.3047605658666914,
        0.19591232826868743,
        1.5656098967479946,
        1.1497921497655355,
        -1.2417999249568996,
        0.5263401395798066,
        0.3404958670643914,
        0.06881805636895341,
        1.177527578746449,
        2.2156013816443596,
        0.7030515155389053,
        2.2811594181980737,
        1.15954184197159,
        0.4878818855877018,
        2.1045791096095026,
        0.9087431561140655,
        -0.5973499267532462,
        -0.7286289375713962,
        0.9456367676854649,
        -0.38589021118520905,
        -1.4453190080201073,
        -0.3051628495959329,
        -0.25705851659730666,
        0.33780104702175684,
        -0.24427883246826465,
        0.3391194204612793,
        0.5612538756716139,
        -0.913564244425383,
        0.30562349017523793,
        1.30892982349168,
        0.5804393197363807,
        1.5204670606696618,
        -0.7871417644442562,
        -0.6612060939743195,
        0.6787482644573878,
        0.8525309068394514,
        -1.5971057754985405,
        -0.6328476462263674,
        0.2464595818042622,
        -0.4468593035789321,
        0.4991901025759672,
        0.07731310062783536,
        0.25670089325036305,
        1.0307263948639467,
        0.10099912863982331,
        1.121788007147387,
        1.8395491994054654,
        -0.4455716286780772,
        -1.0016516891782024,
        -0.03788538616293477,
        -0.17514678678655488,
        -0.34022374914245235,
        0.328666202631139,
        0.3663448196159552,
        -0.48305246189244383,
        -0.15671605331139693,
        -1.8003026799915067,
        -0.5750127601596107,
        -0.14516959544884703,
        -0.7047711408521832,
        1.4543207928467643,
        -0.47157643393132487,
        -1.5193350353445287,
        -2.9916674511302466,
        -0.0043513206253452865,
        0.8969060310611341,
        -1.8423717575051746,
        0.19243133081098468,
        0.10914251170510172,
        0.7761951899610351,
        -0.4534191391765794,
        1.3412704592191889,
        -0.5625314493350118,
        -1.6231631812094707,
        -0.1373395364982751,
        0.5702723526072377,
        -0.44320528109543367,
        1.75382614518246,
        -1.1369936830881917,
        1.4715080703306418,
        0.9870556888626638,
        0.6654126459659504,
        -1.0798846920677987,
        0.8701177109815865,
        -0.8159339471257362,
        0.671920502585466,
        2.0502848314046074,
        -1.217255888774202,
        1.1913171829884488,
        1.5050014155945572,
        1.0673076211471297,
        0.7933836243287322,
        -0.38316472861331163,
        1.2340024522811786,
        1.903724588107976,
        1.4086784017504386,
        -0.8881702034684879,
        0.2941508997613207,
        0.21296157735726942,
        0.17485251241718264,
        0.01646976436961295,
        1.4646472517790707,
        0.6602353003182195,
        0.13655947484068037,
        1.0784730808143783,
        1.2793055161698748,
        0.3992737059919163,
        -0.5346780630238359,
        -0.6967514533921891,
        0.37808745944114003,
        -0.995925217226,
        -0.18700535744553157,
        -1.2445851277757976,
        -0.03747271568224024,
        0.25432985772432914,
        -0.5177794707514376,
        -0.12989978214747075,
        0.2443911395292234,
        -1.7094923459859492,
        0.11369845213478807,
        0.7110027232290115,
        0.01775044790476178
    ]
}