{
    "idx": 701900,
    "fights": [
        {
            "enemy": 5,
            "fitness": 89.16283177470682,
            "player_life": 46.6000000000003,
            "enemy_life": 0,
            "time": 244
        },
        {
            "enemy": 6,
            "fitness": 57.37237888630936,
            "player_life": 0,
            "enemy_life": 30.0,
            "time": 278
        },
        {
            "enemy": 7,
            "fitness": 90.07504998251862,
            "player_life": 55.00000000000032,
            "enemy_life": 0,
            "time": 227
        },
        {
            "enemy": 8,
            "fitness": 86.33574420258549,
            "player_life": 22.600000000000243,
            "enemy_life": 0,
            "time": 374
        }
    ],
    "weights": [
        0.913005267465149,
        0.4526991432090247,
        0.6731530462148366,
        -1.233563041704602,
        -1.25064678375648,
        0.01704732314190833,
        -1.512118158083337,
        1.6869538042809997,
        -0.43768259436000884,
        2.143110850299705,
        -0.2744871346054194,
        -1.021552037116794,
        -1.4042714057118433,
        -0.5969888756977592,
        -1.0094968802915825,
        2.376468628984288,
        -0.8703883886493338,
        0.2937523553226099,
        0.1977125728747557,
        2.1211243755827978,
        -1.5491554226809054,
        1.0078013317053751,
        1.5999033097398463,
        0.7397900412490565,
        1.0279237299050905,
        1.6546388000281544,
        -1.4665747640084121,
        0.2825746078654054,
        0.236161562160143,
        0.2005605043184989,
        -0.6431286074128358,
        -0.6735839087098915,
        -0.5611378013266783,
        -0.7392219381497298,
        0.8055858457383698,
        -0.8678430979164674,
        0.3552542862717095,
        -0.9754024052237493,
        0.07957279827748974,
        0.6811606630534881,
        -0.11215794036071491,
        -1.7318239540764773,
        0.9272533522578635,
        0.8825001734814562,
        -0.22742850330443742,
        -0.9367338605194838,
        1.6578506010382208,
        -0.02833392786040352,
        0.4142477819856025,
        1.4890213473729645,
        -1.0171104278180438,
        1.24022779126954,
        -1.953141758400647,
        -0.6651290860643158,
        -0.6435587899123882,
        1.6356077369590107,
        0.15883132807393108,
        0.49789398539944646,
        -1.726220966187701,
        0.7150514367758329,
        0.5910434146365435,
        -1.0479126175963067,
        -1.2301781950091442,
        0.48909104861523695,
        0.8145433374461897,
        1.4215953938719654,
        -0.25284611303305204,
        1.1496233908148326,
        0.6257815107079814,
        -0.8109914900826233,
        0.4540138685816,
        -0.5976157780182633,
        -0.5854365741459477,
        -0.527927375109119,
        0.3550827608801592,
        -1.0962706655608812,
        -0.09008461243345622,
        -0.7679598936876058,
        1.0461159220116958,
        -0.23351389722969892,
        0.027476147912053613,
        0.2806515022784795,
        0.47111171883050496,
        2.761622313122827,
        0.11708973614677137,
        -1.0639570630584851,
        -0.501070352902393,
        1.2630420114144827,
        1.6924995079531278,
        -0.43340107831937896,
        0.03168135236993064,
        -0.7233463567856616,
        -0.3292849916478822,
        -0.4550280178039897,
        0.9793442054275585,
        -1.0024438280988497,
        -0.9894583689947771,
        0.003095484938668569,
        1.5475953897601495,
        -0.6463984981736866,
        1.3208500880685847,
        -1.7170131583092265,
        0.4132136192847708,
        -0.7786509539583573,
        0.689160378035065,
        0.7273121983243205,
        -0.23475853248356449,
        -1.2619848265572755,
        0.7741672284860892,
        -0.8483654819480498,
        -1.3812754135282868,
        0.06034128391901935,
        0.8466267699812607,
        0.24782727759994796,
        -1.1645777287775254,
        -0.410576907499645,
        -0.18690117712012466,
        -0.5559453915009565,
        0.3638746259514607,
        0.6093314268386496,
        -0.0008411197809703244,
        -0.1689148243763487,
        1.2279440755224602,
        -0.3694413738876624,
        1.1755512266916388,
        2.6349267744761753,
        0.2575381931833391,
        -0.5172639713828855,
        -0.4471186144177563,
        -0.12695694402645818,
        -0.31669521177408766,
        0.7787960086589125,
        0.006091589827552563,
        0.49683888645904906,
        0.42228514342225826,
        0.9252800105290425,
        0.5073042709660602,
        1.5748957303959592,
        0.005261411128174909,
        -0.3947701505698351,
        0.8510396734507849,
        0.8217186804568518,
        -0.6009434035150537,
        -0.4702631473200945,
        -0.2905620824238145,
        -1.1819671683747954,
        1.612665411748862,
        -0.8794501457713184,
        0.8079024375349945,
        -0.6374277175470245,
        -0.10788785413093505,
        0.9241429480535905,
        2.081278467316128,
        0.351204882744987,
        0.5149344614958729,
        0.8227919947818244,
        -0.313045489201997,
        0.5018166361769518,
        0.7018435787663774,
        -1.0551529952687444,
        -1.7247291275199501,
        -0.14560124432378058,
        -0.466904151710133,
        -1.436807056252948,
        0.471556839516254,
        0.016282951224930012,
        0.24003600784787962,
        0.9164262668797095,
        0.4347586786590033,
        0.6265776102991244,
        -0.07411556124539637,
        0.24436044965160683,
        0.3307650680675583,
        2.0242656840949182,
        0.6760593110938923,
        0.28291895644241905,
        -0.21415861690628302,
        -1.1002373318135297,
        0.46028322739207744,
        0.3968450534347873,
        -0.24466933709622798,
        -1.4005047024769306,
        -0.5988836085294991,
        0.4903977212304682,
        0.4200927966606238,
        0.5469776598421148,
        0.7860891489924707,
        -0.7403450981460212,
        0.1709956264490088,
        0.6982975563484662,
        0.9571658371223025,
        0.6367808951779429,
        0.3622474317187032,
        -0.006614295056021673,
        0.2940508462520447,
        0.9828767256339986,
        0.4479165771497198,
        -0.1593693007653303,
        -1.795965394742212,
        -1.3815533226459078,
        -0.9895531994783269,
        -0.6301132594387175,
        -1.0951505515847881,
        0.23024721696294465,
        -0.24093270766138553,
        -1.5456579658496785,
        -0.7503364806951118,
        1.26208557245948,
        0.2955053741551276,
        -1.8788078449667491,
        -0.12776190521344136,
        0.6007378790314356,
        0.5534365564947297,
        -0.392304820207207,
        1.4466043915866844,
        -1.2250183384554243,
        -2.6447407057924632,
        0.21403120115792754,
        0.7591444824010339,
        0.2851413751378426,
        1.2996327696442889,
        -0.9115286994876278,
        1.3227431377193806,
        0.485667991904018,
        -0.16972136775664498,
        -1.2756244134054429,
        0.9570293231603251,
        -0.9302745501704502,
        0.3968620370463042,
        2.635606906883234,
        -0.9196371551610637,
        1.193366238778705,
        1.779449127334472,
        -0.01955255071967448,
        0.43908512329463195,
        -0.692550217019296,
        0.8177624417156576,
        0.9142594319946316,
        0.46943031539131763,
        -0.9213123244232624,
        0.46911580401937036,
        -0.19003706701309808,
        0.7135881799880375,
        0.3304309099058044,
        0.618012906792903,
        1.117919100449696,
        -0.886388290795608,
        0.1094536153564728,
        1.0780855623400123,
        1.6461787129170449,
        0.6058363343053025,
        -0.48478518279750343,
        1.7598845359239796,
        -0.3237292852661776,
        0.2662135098420808,
        -1.324736394862476,
        0.2381988919913766,
        -0.10693307941597269,
        0.399750619673757,
        0.10478830779788971,
        -0.6853992979604983,
        -1.1137930521876398,
        0.7805296356419426,
        0.5891632389321773,
        -0.18766330063135359
    ]
}