{
    "idx": 702304,
    "fights": [
        {
            "enemy": 5,
            "fitness": 90.76027017401381,
            "player_life": 63.40000000000034,
            "enemy_life": 0,
            "time": 265
        },
        {
            "enemy": 6,
            "fitness": 66.5619206910768,
            "player_life": 0,
            "enemy_life": 20.0,
            "time": 230
        },
        {
            "enemy": 7,
            "fitness": 89.3038995977956,
            "player_life": 47.2000000000003,
            "enemy_life": 0,
            "time": 225
        },
        {
            "enemy": 8,
            "fitness": 86.33574420258549,
            "player_life": 22.600000000000243,
            "enemy_life": 0,
            "time": 374
        }
    ],
    "weights": [
        0.4953373753981855,
        0.4136279152340924,
        1.9488455236326658,
        -1.0251886734460167,
        -1.8067313469617576,
        0.013305910965048906,
        -1.8356004831167505,
        2.049498975612063,
        -0.5785467465875702,
        1.7490889545040216,
        -0.27707366691523483,
        -0.5309815308429179,
        -0.6042184719684334,
        0.0687965710701541,
        -0.6152926267576585,
        2.6524183202693843,
        -0.68094933909518,
        0.08162131922626446,
        -0.13384150778986176,
        2.593865076219648,
        -0.7037792716853801,
        0.573141681227977,
        1.5452424500138562,
        1.3484475079460525,
        0.5936100596916098,
        1.5404653256608234,
        -1.214775363356094,
        0.3479705089826334,
        0.7316210782975754,
        0.07044197156345894,
        -0.6290217692450701,
        -0.6044086502748205,
        -0.871204063529704,
        -0.5064809172554343,
        0.9977711446004941,
        -1.0348593806973874,
        0.05579711058633485,
        -1.0485772674986085,
        0.04330748942391266,
        0.7669931443598325,
        -0.40667011365103506,
        -1.9858950070377706,
        0.8538703952857086,
        0.608500075088104,
        -0.6335091002729296,
        -0.8277911315658315,
        1.818249445197474,
        -0.13786707981631255,
        0.26831117846159247,
        1.4539202187841587,
        -1.2589937502669306,
        1.8436283467428183,
        -1.980587436345122,
        -1.3402516716035406,
        0.12670468767641244,
        1.4198190747333275,
        0.20504348442177314,
        0.5220240736256597,
        -2.145103666521415,
        0.2632957300643732,
        -1.7653504793866581,
        -0.33375578801787875,
        -0.9298408413188504,
        0.35307454535530497,
        0.9147759726332062,
        -0.22207967391701036,
        -0.24841019168532524,
        1.4925569553293696,
        0.6427238849594223,
        0.09376130913469127,
        0.3018321060590371,
        -0.04163324039151377,
        -0.39467056153608454,
        -0.2155191449726276,
        0.011543487212141844,
        -2.3585701989605106,
        -0.3029098898153861,
        -1.1753222245264672,
        0.9915984873089608,
        -0.15192604318154057,
        -0.17530857316906906,
        -0.020536776092407658,
        0.30794733752576237,
        2.276033601669585,
        0.1589308832887162,
        -1.0651333692449123,
        -0.30851865736546524,
        1.0980153323614303,
        -0.23900677823374905,
        -0.12516235448122398,
        -0.0844681034351969,
        -0.14313596599629025,
        0.19393219459070954,
        0.31337513017666,
        1.0650885982478238,
        -0.9419731579332367,
        -1.127069949705477,
        0.6934173499070823,
        1.4660292466657936,
        -0.6965391364067793,
        1.3888021642054915,
        -2.1221402229002524,
        0.9785247076228611,
        -0.015520472110211347,
        0.016983523535018488,
        0.8187454398442512,
        0.37011025587385,
        -1.5510323529493548,
        1.6760030374463888,
        -1.1915882684342534,
        -0.8960198873624967,
        -0.1851436862347617,
        0.8438968091221375,
        -0.14311712648945904,
        -1.2816347182297656,
        -0.4897525705218739,
        -0.7305880738309547,
        -0.3616793775169339,
        -0.19926283230212083,
        0.37363663304794137,
        0.2575396403620978,
        0.24586192417661637,
        0.8001453791473127,
        -0.3476200947142017,
        1.1148211948433162,
        1.9222584057033132,
        0.49118577266373686,
        -1.4609987455465745,
        0.536019600871671,
        -0.20579162736940154,
        -0.4527022738183436,
        0.5506584206939075,
        -0.5508782063378964,
        0.0023114413480712324,
        0.8726379288249164,
        0.6156411943485935,
        -0.09577459859260015,
        1.6239307097199385,
        0.1504723369323171,
        -1.0253529058716264,
        1.3493132258927387,
        1.0591808681894204,
        -0.6087280620263528,
        -0.15384606280996435,
        0.01320690677392175,
        -0.4641246320245305,
        1.5060642043388326,
        -0.4188066369559948,
        0.6588484897967701,
        -0.7029633845594583,
        -0.019768052115872684,
        0.8748925632151674,
        1.155527869134067,
        0.23296244737950106,
        1.1815628955059838,
        0.6341487569833071,
        0.283282375473742,
        0.7740732456675573,
        1.501370546548898,
        0.09075754431582674,
        -1.3842353221426695,
        0.3586591458534842,
        -0.4056528462690843,
        -1.25629776985821,
        0.4813280380214317,
        0.26592591832368767,
        0.07555119387023572,
        0.6619115730182503,
        0.6969709343890191,
        0.6303797591822827,
        -0.7865618196295568,
        0.8971102603524237,
        0.6308465074435188,
        2.0335685888299824,
        1.108584577934347,
        0.716985062976241,
        -0.44300761162546826,
        -1.0159603608886698,
        0.2714018137144475,
        -0.6340126796436454,
        -0.2226087282522022,
        -1.2769028404659422,
        -0.08409488089668027,
        0.4349269646943513,
        0.6391129771997875,
        3.525699846682543,
        0.5066880652394607,
        -0.5086521880421152,
        0.14325935101706755,
        1.1294354807417353,
        0.7109765799345289,
        -0.23862290901513555,
        -0.30640851851015694,
        -0.13447775047894092,
        -0.4075049343689616,
        1.2941569655287095,
        0.20570084337552538,
        -0.03911723084197545,
        -0.6613757748479981,
        -1.637238743144246,
        -0.8314858213327373,
        -0.08941230612463244,
        -0.1808839526392476,
        -0.03864513767742582,
        -0.2338796996511447,
        -1.8930379913297228,
        -1.215097183847615,
        0.9819769024015566,
        0.20424685699554487,
        -2.1062845203621436,
        -0.09701581774165327,
        0.6330719922819352,
        0.5445195162719869,
        0.04389938341385602,
        1.1479741349926431,
        -0.6738174350508598,
        -2.075785004900271,
        0.42367509032163725,
        0.931549502228171,
        0.04439515421495911,
        1.1933727990950578,
        -1.25468299221566,
        1.3776455255223812,
        0.8197363406913126,
        -0.01644225703180651,
        -1.0888824597124984,
        0.6429194093825675,
        -1.2040807941591676,
        -0.5709593969256982,
        2.5256352440912835,
        -1.0973746928802983,
        0.41224041527115945,
        1.53453887342272,
        -0.04593523072322643,
        0.8631703847346412,
        -0.5842946676081916,
        0.5060672599258176,
        1.0439139970314588,
        0.40786956215415693,
        -0.9352918075035049,
        0.3132544023891097,
        -0.48020741094040087,
        0.3113629180129572,
        0.8598422257926902,
        2.086231579014029,
        1.1620181853745712,
        -0.595908459991781,
        0.1897731018582547,
        1.6144459827129902,
        1.6784241711840358,
        0.5990687862130006,
        -0.5948894020755773,
        -0.26244893809733405,
        0.3842886918484827,
        0.605894235569833,
        -1.3347896968160808,
        0.010282591285201032,
        -0.33513455843928985,
        0.18304569337362414,
        0.8457212902690465,
        -0.3272765135177999,
        -1.193244485490458,
        0.44121732244553946,
        0.4428695827253057,
        0.3367243835896867
    ]
}