{
    "idx": 701712,
    "fights": [
        {
            "enemy": 5,
            "fitness": 88.69936107665805,
            "player_life": 41.80000000000029,
            "enemy_life": 0,
            "time": 240
        },
        {
            "enemy": 6,
            "fitness": 75.3266767328285,
            "player_life": 0,
            "enemy_life": 10.0,
            "time": 291
        },
        {
            "enemy": 7,
            "fitness": 85.48425778641311,
            "player_life": 12.40000000000023,
            "enemy_life": 0,
            "time": 316
        },
        {
            "enemy": 8,
            "fitness": 88.81968822339262,
            "player_life": 45.4000000000003,
            "enemy_life": 0,
            "time": 305
        }
    ],
    "weights": [
        0.8940177599945774,
        0.7170763721332414,
        0.7595211145141988,
        -1.1148065622773744,
        -1.0587059510525225,
        1.9749377816224238,
        -1.5204344962851732,
        1.673616316137248,
        -0.23565881991592938,
        0.9330047483779217,
        -0.16770287992008548,
        -0.6836498398830134,
        -1.178174405870806,
        -0.41457481630565113,
        -0.6925466514146889,
        2.472877824492998,
        -0.953259380165928,
        0.5466014965335024,
        0.3697217334958928,
        2.284395872764679,
        -1.1757052010630102,
        0.514451140347764,
        1.5655733786329222,
        1.138986435730166,
        0.8466515865788344,
        1.916801213040418,
        -1.162062793497263,
        0.19545755204369758,
        0.48184011525120013,
        -0.0772999812858757,
        -0.3897774549859457,
        -0.5443358516050227,
        -0.5403271470238387,
        -0.6967473897864424,
        0.6379989894171652,
        -0.8491166027713888,
        0.3690746657257456,
        -0.8857713073688871,
        0.2918987078341246,
        0.8840298780073069,
        -0.5728439128963535,
        -1.6876315807685858,
        0.7103001443388308,
        1.2182310775938092,
        -0.3601167684005098,
        -0.8680355665493034,
        1.7089258239864797,
        -0.2393681610266617,
        0.3790836524565292,
        1.3178469548780638,
        -0.8348491575361032,
        1.544088164288916,
        -1.6520148951815479,
        -0.9850819206152278,
        -0.7812496727556302,
        1.6970965838214465,
        0.09108998723954873,
        0.49460257867132157,
        -1.707882732794312,
        0.31659893095959474,
        0.6013553385073083,
        -0.9231876265591026,
        -0.7709041566916671,
        0.736007627436431,
        1.206712121616023,
        0.6624698128241607,
        -0.24459221541513518,
        2.0315051685165706,
        -0.033643518639677295,
        -0.28393137579625677,
        0.74626267792275,
        0.24558547366991246,
        -0.5633004121050597,
        -0.1786683620582853,
        -0.24800471688946063,
        -1.628912681222057,
        -0.27055410150275094,
        -0.3705076868412066,
        1.1380356113975374,
        -0.1018635648463107,
        -0.09282846429793412,
        -0.2556254877217486,
        0.20414506859662915,
        2.4964447876210425,
        -0.49296926666257856,
        -0.8819122917330997,
        -0.6382478241384004,
        1.180002111751919,
        0.6800910034649676,
        -0.6002890822461759,
        -0.3534684616944564,
        -0.4177127796487381,
        -0.30238038618510954,
        0.11668592626692514,
        1.2094872857730516,
        -0.9176137911670953,
        -0.17029929867138321,
        -0.07479529008843508,
        1.5026279631555388,
        -0.6825735350030733,
        1.0600128104194886,
        -1.9013029171435976,
        0.3451575790805376,
        -0.6444711318337303,
        -0.015052083554304312,
        0.7648297229997719,
        -0.08025000515333523,
        -1.3945313703772457,
        0.7832180026185996,
        -0.6100182785656771,
        -1.1168542566757218,
        0.3035643767201503,
        0.7270008334590583,
        0.6529693691142784,
        -1.1744846454617703,
        -0.5025071758120044,
        0.6982984401914811,
        -0.40280118516412083,
        0.5346944213190447,
        0.7430000293968513,
        0.08531228627922136,
        -0.20716819091939692,
        0.8306019467653073,
        -0.9046560841174528,
        1.4242551115925746,
        2.110965115104415,
        0.5876101628401227,
        -0.3883059049589946,
        0.13583203371072067,
        -0.12054972853164087,
        -0.16440838472598251,
        0.22811141779637084,
        -0.24796503013362564,
        1.044618000045704,
        0.8971539807878959,
        1.0026367785926869,
        0.7608342062019016,
        1.5345015835033569,
        0.2757411349752275,
        -0.6253747027960531,
        0.9193523008707952,
        0.7889287783086391,
        -0.7353730761854537,
        -0.34049522327309356,
        0.17555165604243478,
        -0.44483155639428884,
        1.6091036496243898,
        -1.1367972301059341,
        0.6203864619700553,
        -0.47397856974877495,
        0.010967089221702524,
        1.227151613684785,
        1.4775396096438722,
        0.2469571859233929,
        0.861036656919532,
        0.7151663985487156,
        -0.17034388632711825,
        0.5916552333582344,
        0.940929150714058,
        -0.2052432541317794,
        -1.6849956353394147,
        0.09027033278706005,
        -0.005652305627361798,
        -0.6718450104445801,
        0.46967062522593533,
        0.3832416325192442,
        0.4588389852134136,
        0.6340754135364415,
        0.5049336364805646,
        0.5027905593247916,
        -0.2999546277141688,
        0.519216209061546,
        0.6707103802675728,
        0.8652790544016233,
        0.7803575323167194,
        0.35258525796320833,
        -0.27179867134168595,
        -0.8180403313937612,
        0.37663463538235786,
        -0.27153203557037325,
        -0.5307163009869734,
        -1.1098961062371298,
        -0.3226370335696116,
        0.2880115989039015,
        -0.23121845627254553,
        1.415239114141424,
        0.9109581284882402,
        -0.6922531222953647,
        0.18311436673042072,
        0.7694674274804224,
        0.6703908165266284,
        0.4461676291309883,
        0.14027300168806078,
        -0.19453490425318143,
        -0.001135122373409788,
        1.1366193874148032,
        0.0687662130934458,
        -0.08685817189283104,
        -0.8024532235243447,
        -1.2104824789997393,
        -0.9443351409092985,
        -0.8925223093680104,
        -1.1577513085038094,
        0.35615056238373183,
        -0.3563461750095682,
        -1.4410391755882395,
        -0.8030319612633632,
        0.4996392352788414,
        0.8004478962382972,
        -2.059371212887567,
        0.06529589459877555,
        0.7021902177636228,
        0.4761242295735916,
        0.43260769083795525,
        1.4458057157824735,
        -0.4977599549640572,
        -1.7708776052697985,
        0.24985635817140314,
        0.5845797453522401,
        -0.28732144300523366,
        0.9689787679732744,
        -0.818925254025045,
        1.2602986757489234,
        0.5202251894862864,
        -0.04022862474600535,
        -1.32636603678297,
        1.0127833370442079,
        -1.0369450152853792,
        -0.24584334874414218,
        2.485056086530845,
        -1.2624266463858491,
        1.0707521266068927,
        1.6934675196269402,
        0.012859377211905852,
        0.375792141854455,
        -0.5159981555250535,
        1.095704687757727,
        1.2044106997736959,
        0.2671632266813866,
        -0.8508309456756199,
        0.7119340269684638,
        0.13831834269255638,
        0.3443223316393718,
        1.0563606355634587,
        0.770283141371237,
        1.5466716999304204,
        -0.6343630159452008,
        0.46286891050491585,
        0.7879643136791522,
        1.7778518376646204,
        0.8097141090752752,
        -0.7278935753127511,
        0.10990056768339271,
        -0.3118067613887066,
        0.35815795133492484,
        -0.9780238700461392,
        0.1291145503335852,
        -0.23128180484045255,
        -0.31110724487556807,
        -0.5588422234175063,
        -0.4371255700687131,
        -1.1921904200144993,
        0.4292779991638242,
        0.5941306399409765,
        0.04222642767447571
    ]
}