{
    "idx": 2161,
    "fights": [
        {
            "enemy": 1,
            "fitness": 13.163718093048523,
            "player_life": 0,
            "enemy_life": 80.0,
            "time": 126
        },
        {
            "enemy": 2,
            "fitness": 48.241098226122716,
            "player_life": 0,
            "enemy_life": 40.0,
            "time": 317
        },
        {
            "enemy": 3,
            "fitness": 48.19185751001956,
            "player_life": 0,
            "enemy_life": 40.0,
            "time": 333
        },
        {
            "enemy": 4,
            "fitness": 30.368788218178636,
            "player_life": 0,
            "enemy_life": 60.0,
            "time": 279
        },
        {
            "enemy": 5,
            "fitness": 89.31102576183883,
            "player_life": 49.60000000000031,
            "enemy_life": 0,
            "time": 284
        },
        {
            "enemy": 6,
            "fitness": 3.6966950919409243,
            "player_life": 0,
            "enemy_life": 90.0,
            "time": 201
        },
        {
            "enemy": 7,
            "fitness": 66.33011907701948,
            "player_life": 0,
            "enemy_life": 20.0,
            "time": 290
        },
        {
            "enemy": 8,
            "fitness": 56.9862848439572,
            "player_life": 0,
            "enemy_life": 30.0,
            "time": 409
        }
    ],
    "weights": [
        -0.16735358167492043,
        -0.9562312308923934,
        1.1840760051415753,
        -0.21603135312472574,
        -0.9995864449813061,
        0.30222479497839927,
        -0.7746970220717572,
        0.3379752252282722,
        -0.5351405967900283,
        0.9634536267108178,
        -0.6284245323240879,
        1.1525871326378758,
        -0.5920912081784683,
        0.014299943399539577,
        0.39501172755862146,
        0.48042247750355865,
        -0.4963939525444159,
        1.2252403632543145,
        0.26574012417090137,
        0.565157373659876,
        -0.6586386936390372,
        0.22173269639651425,
        0.9960514767985817,
        0.5279342129766131,
        -0.06995565923527731,
        0.757125898606888,
        0.7030855602803836,
        -0.8975619662781583,
        -0.3574097451504573,
        -0.6951126491213467,
        -0.44481668502541605,
        -0.2787434748082804,
        -0.5959331830694334,
        0.25039066049998154,
        0.7849650624626002,
        1.1066668640811559,
        -0.7522763203581283,
        -0.28593896572718897,
        1.0525687770606995,
        -0.4835946909627773,
        -0.4640908032641323,
        0.20346475871406886,
        0.7798324678487157,
        0.4915954694036491,
        -0.18885091266796397,
        -0.1338233397853021,
        0.802408205496335,
        -0.023812803809939345,
        0.3121676760485077,
        0.7828026040501128,
        0.14697013322853125,
        -1.1419823458692504,
        1.2473280413560361,
        -0.5062315647061142,
        -1.1701603031415768,
        1.07510176541801,
        -0.2871977560050137,
        0.8885022928909594,
        -1.099594713232385,
        -0.17727695213415173,
        0.38645549661703144,
        0.42582452563673634,
        -0.8736986337045164,
        -0.5725989909459379,
        0.17827871171141413,
        0.2047275570887551,
        -0.8240471175069997,
        0.35208509235343965,
        -0.05855433537826062,
        -0.22847415508747512,
        0.8080887300613429,
        0.03454882628075235,
        -1.2509603659525383,
        0.23446011731279226,
        -0.7616222024981062,
        -1.2144389941994609,
        -0.37659805489210285,
        -0.9310694668476258,
        0.5339720035356513,
        -0.6103743112292995,
        0.5395047593397144,
        0.46227721144220824,
        0.6162125799117742,
        0.7258978528455392,
        0.20992502683342315,
        -1.1940785458505838,
        -0.7414931294458187,
        -0.5556054135231097,
        -0.9915835863647422,
        -0.6130780347908782,
        -0.1955661288573141,
        -0.10314521519070077,
        -0.8469293977161529,
        -0.3430142927857921,
        0.6226969973832718,
        -0.05588224607727414,
        0.13506019646961176,
        -0.6498260569262007,
        0.8578357771593992,
        0.8983063697396434,
        0.5442799536690713,
        -0.895928100807615,
        0.41861988890478663,
        0.031023560043025408,
        0.5928029930545904,
        -0.5663947784975473,
        -0.07779602029797927,
        -0.8233327162830673,
        -0.16228124813705325,
        0.7620596051360813,
        -0.7574992621285205,
        -0.15444751811566051,
        0.7524116252104778,
        -0.6109584429544959,
        -0.24048342327903366,
        -0.4680976006840256,
        -0.7057018969567578,
        -0.5744228672946793,
        -0.059526254929296085,
        -0.31787090803157103,
        0.02069137343967241,
        0.7789832410227372,
        0.1994923236137952,
        -0.5280317714499015,
        1.108141896947405,
        0.9325167830694969,
        -0.4902940472944721,
        -0.2669109305766888,
        -0.8902468084207891,
        0.22296440936774103,
        1.4560505918092206,
        -0.48365836591571476,
        0.11691618223995984,
        0.5905790612499814,
        -0.26480178386656594,
        0.034661642820718035,
        -0.14652527259331144,
        0.7232592687004458,
        0.012426064092804855,
        -0.31281757745665606,
        0.7245636988659911,
        0.44011064506540354,
        -0.7702322402219305,
        0.5651047096589504,
        -1.7369849606084928,
        -0.7047563592804503,
        0.7810607578238107,
        -0.5628520780692566,
        -0.743461907723316,
        0.7815036195321332,
        0.4332357801804025,
        1.142677347474278,
        1.2830384917922188,
        0.0863597148629301,
        0.0898576098557685,
        0.2839737458312852,
        -0.7374861076181988,
        0.18165479102606444,
        0.6793305221761471,
        0.0324123443910732,
        0.2077472611726688,
        0.5938277817762626,
        -0.9968937089575014,
        -0.564389679822008,
        -0.11841609744977176,
        -0.6110726136991034,
        0.053629369230421775,
        -0.6008192530451787,
        0.2519552993617661,
        0.19911269940295123,
        -0.20657220517368746,
        -0.042367180367363304,
        0.2109422375659375,
        0.04289319594706692,
        0.4972665913262744,
        -0.10219911631426426,
        0.4954286374119668,
        0.04628138567461184,
        0.14856647164000122,
        -0.07985505763205375,
        -0.6593207980409626,
        -0.09749320490827577,
        -0.08413149224320682,
        -0.05304305614449402,
        0.09016010839565608,
        -0.6883168883908442,
        -0.6605170176744217,
        -0.9478235389175801,
        0.40949476732311674,
        -0.9276266212380202,
        0.5018764844192158,
        0.04958768218883908,
        0.9132229558912663,
        0.3065345111350827,
        0.21667704789612457,
        0.7086138396894966,
        -0.39524838142973345,
        -0.39708528057854814,
        -0.677550611717939,
        -0.5945242934685798,
        -0.7655348590629694,
        -0.07332019092382089,
        0.47406526494297085,
        0.9555014332230247,
        0.2922546558477337,
        -0.4460930063389876,
        0.16314338316497012,
        0.974573833930567,
        0.6717082301634044,
        -0.47754219667780645,
        -1.039226385007781,
        1.2693886270643862,
        -0.11240251265436225,
        -0.5934561736347492,
        1.2204259055607107,
        -0.4452328024962325,
        -1.016576473139093,
        0.04296749851562108,
        0.9831215901730512,
        0.340680021224634,
        -0.36357984427441675,
        -0.8576187141742799,
        0.6353005929168283,
        -1.0252853165720683,
        -0.7025289583958546,
        0.44135190155026266,
        -0.1645381273479969,
        -0.41191357207816687,
        -0.08660407319682685,
        0.08755601796868964,
        -0.6935548860460382,
        0.5167901416720861,
        0.6645794020443054,
        0.041699324023572716,
        0.7265725791732338,
        0.8028998598313919,
        0.7403909237059046,
        -0.021626880085601874,
        0.18081103120673003,
        -0.7064619994912972,
        0.6699517139757241,
        -0.4253448897040918,
        0.3683750567874638,
        0.9141024328752211,
        1.4036503373137652,
        -0.5812832960692829,
        -0.6136755372273657,
        0.051642790513248465,
        -0.19194093341592627,
        0.7886789350635367,
        -0.4325002439977234,
        0.6342829839674944,
        -0.38880058480649726,
        0.37340119748688916,
        0.2628318171122257,
        -0.7189426698178548,
        -0.06527469326463546,
        0.9196959405268977,
        0.10667507810292505,
        0.3124983396216057,
        -0.4848733491293873,
        -1.2271608015990203,
        0.2700471487517372,
        0.48319637573878677,
        -0.3279567921268276
    ]
}