{
    "idx": 700783,
    "fights": [
        {
            "enemy": 5,
            "fitness": 89.41520306650938,
            "player_life": 49.000000000000306,
            "enemy_life": 0,
            "time": 241
        },
        {
            "enemy": 6,
            "fitness": 40.00956741322126,
            "player_life": 0,
            "enemy_life": 50.0,
            "time": 147
        },
        {
            "enemy": 7,
            "fitness": 84.46109822612274,
            "player_life": 2.200000000000234,
            "enemy_life": 0,
            "time": 317
        },
        {
            "enemy": 8,
            "fitness": 87.13935834262664,
            "player_life": 29.80000000000026,
            "enemy_life": 0,
            "time": 344
        }
    ],
    "weights": [
        0.15018113677423617,
        0.49264673616462656,
        0.2539529073232055,
        0.15259226738478432,
        -1.2932100586049817,
        0.08652364235912638,
        -0.6862731280242043,
        0.899900083421175,
        -0.8329986104903259,
        1.1690710887789608,
        -0.8282194258342911,
        -0.4888536996933196,
        -0.29369368778094523,
        -0.23195990760169274,
        -0.5056255261034815,
        1.8582670670827737,
        -0.3822329185899148,
        0.8973855001392307,
        -0.18672931451809402,
        1.2400908710781824,
        -0.7966870630733822,
        -0.8493008848681303,
        0.9959984715010827,
        0.7955079679728991,
        0.6605262406656889,
        1.6548586644370407,
        -0.18213843849042255,
        -0.395071881225762,
        0.5179196182523722,
        0.379867338174126,
        -0.733722579663844,
        -0.4631725682499181,
        -1.460040635549566,
        -0.20454073909478288,
        1.411820088701521,
        -0.11666693643556629,
        0.060231274617887076,
        -0.5531796621649875,
        0.20663801898227183,
        0.6457232242333125,
        -0.8476121903175462,
        -0.45418628331098176,
        0.9056393472971003,
        1.866103871533352,
        -0.1707320632108108,
        1.2058869620749184,
        1.5737899823296548,
        -0.09415883094586947,
        0.8114790785779157,
        0.6009372773071997,
        -0.5119832118970474,
        1.5034127369435442,
        -1.9781843316704633,
        -0.7629760417565533,
        -0.34764184562793876,
        1.985744367137586,
        -0.18944069168094868,
        -0.18678995595214984,
        -1.8588678662562357,
        0.5742111458184291,
        0.8665218012172715,
        -1.0297861255181957,
        -1.5976914735693692,
        0.4011566157701275,
        0.3386928718950214,
        0.02929624942196856,
        -1.313551283639964,
        0.4248883253466392,
        0.5410538823445573,
        -0.12552141260319483,
        0.8468517404807971,
        0.20500411811320754,
        -0.13309604604322114,
        -0.12176862490209338,
        -0.4845049866270998,
        -2.473369123528655,
        0.5889452524745146,
        -0.9426905087867931,
        0.46987178941200125,
        0.5617719024469612,
        -0.4562495058782163,
        -0.2858914953354161,
        0.2388853619367099,
        -0.8886814749940861,
        1.3378052176951571,
        -1.117189083271713,
        -0.7236112224271027,
        0.5921821006142531,
        1.249488208487592,
        -0.4005678324856771,
        -0.2347626712388604,
        -0.49400395391819146,
        -0.2966932390606941,
        -0.32849045015019074,
        1.4555401019312018,
        -0.35397910869964616,
        0.27849630429082506,
        0.23322434354358143,
        1.6662642378974526,
        -0.7180394083595608,
        0.8990191542524806,
        -1.344353330566551,
        0.1608043880328183,
        -0.6401660777056304,
        -0.016921495576961224,
        -0.08297919726827314,
        0.8909252147156742,
        -2.192529225211467,
        1.1732003832801916,
        -0.4117841455929873,
        -0.8298533028542172,
        -0.10701766036539943,
        0.8152656541222818,
        0.07337052304521495,
        -1.744232173600018,
        -0.168031603726168,
        0.4072740569590504,
        0.34226799344966585,
        -0.17961668220676547,
        0.6963107916248149,
        0.22336689695806244,
        0.9434024643105069,
        0.7983045805744008,
        -1.0592266895803055,
        1.2605619795738132,
        1.578076930744687,
        0.14708218016830726,
        0.10482558192535564,
        -0.22406891438943427,
        -0.8024088697814853,
        -1.0846604073637667,
        -0.0337479379204525,
        -0.48976805707325516,
        0.8804105588232863,
        -0.30007071423808485,
        0.5589743701831589,
        0.025197590018139204,
        2.3011384650412756,
        -0.16222261287732656,
        -0.5280190567381801,
        1.3754341172386026,
        2.8107178412740432,
        -0.32516841585840806,
        0.5437465833196927,
        0.041825868065525545,
        -0.32140916460850655,
        0.7955723163765009,
        -1.2670896162544774,
        1.1000609902289467,
        0.025836233219988014,
        -0.049354172464139645,
        0.8729700777125176,
        1.5395416463117253,
        -0.683370933431874,
        1.0509077162101277,
        1.292453312936236,
        0.07700161040459125,
        0.15495292812222627,
        0.6806742569821274,
        -0.5577747985027397,
        -1.2638016140470902,
        -0.21360707915614086,
        -0.014880103599844579,
        -0.6273350151421618,
        -0.835577704094995,
        0.7896650745929421,
        0.5318773659736586,
        0.5593174983848532,
        0.14623547292535907,
        0.5729648684198378,
        -0.23833317296322656,
        0.041809586121819245,
        0.9424477699732721,
        0.9556563633342374,
        0.40964127557682684,
        -0.15320331997039058,
        0.2193145937942553,
        -0.6270851806678027,
        0.32889238270546955,
        -0.329946672457156,
        -1.139784698079972,
        0.2359634575003663,
        0.2216590800856726,
        0.39607983591121587,
        -0.8278469326262694,
        1.2959038340451112,
        0.19213373088168406,
        -0.5008104055390951,
        0.40891871200140456,
        -0.530655874619895,
        0.3610167559135383,
        0.17950242511879744,
        0.9158763496712108,
        -0.17450393728792377,
        -0.5021082308683747,
        1.5432802073066383,
        0.7769332072555938,
        1.5290105709881816,
        -0.7233334944408142,
        -1.8063774762413876,
        -0.5457097342349576,
        -1.2737278693654632,
        -0.2509742809079776,
        0.5700973225851884,
        0.067711140272656,
        -0.19089431757348738,
        -1.0794709654520065,
        0.014638178652476352,
        0.8018156251963555,
        -2.163754468839889,
        0.03742190758525321,
        -0.008318653220751622,
        1.2167650792596645,
        0.09663963707807773,
        1.2702015495603671,
        -0.542125681875212,
        -1.1416522999648235,
        0.9083784183716173,
        0.8909436745387984,
        -0.007917314456819341,
        1.1202401419904917,
        -1.173000990900581,
        1.373629748603261,
        -0.4480115113035489,
        0.18765232806856422,
        -1.5081180066590716,
        1.3394151423353686,
        -1.4214382856009378,
        -0.29819386381493707,
        0.6098259138692234,
        -0.8275067438497176,
        1.2345346104639026,
        1.5507293283999957,
        -0.8617177233518779,
        0.43976177281282386,
        -1.0719621078054917,
        1.580163133144528,
        0.5294696314155076,
        0.058225068727065274,
        -0.12373555520987631,
        0.13776412932734905,
        -1.00080333982708,
        0.7524692344210593,
        1.029064503004337,
        0.3647205827368402,
        0.21143450250701026,
        -0.4896136000597823,
        0.5237180549395812,
        0.917085576119818,
        0.6407289776684666,
        0.9943257862578969,
        -0.7854467614243582,
        -0.6860934141992239,
        -0.1001738648916079,
        0.07560961910709275,
        -0.419623591651917,
        0.259115434330369,
        -0.4304324197296954,
        0.09009324581512582,
        -0.07806541996220852,
        -0.14118221394943886,
        -1.0232953989528135,
        -0.060864745615531124,
        1.2421849465896926,
        0.5828369642536925
    ]
}