{
    "idx": 50294,
    "fights": [
        {
            "enemy": 1,
            "fitness": 21.752975927839515,
            "player_life": 0,
            "enemy_life": 70.0,
            "time": 190
        },
        {
            "enemy": 2,
            "fitness": 91.84317193830047,
            "player_life": 74,
            "enemy_life": 0,
            "time": 259
        },
        {
            "enemy": 3,
            "fitness": 66.4316554962389,
            "player_life": 0,
            "enemy_life": 20.0,
            "time": 262
        },
        {
            "enemy": 4,
            "fitness": 30.435479592677307,
            "player_life": 0,
            "enemy_life": 60.0,
            "time": 261
        },
        {
            "enemy": 5,
            "fitness": 90.3252886203982,
            "player_life": 59.20000000000033,
            "enemy_life": 0,
            "time": 269
        },
        {
            "enemy": 6,
            "fitness": -4.897839799950911,
            "player_life": 0,
            "enemy_life": 100,
            "time": 134
        },
        {
            "enemy": 7,
            "fitness": 66.28297229859378,
            "player_life": 0,
            "enemy_life": 20.0,
            "time": 304
        },
        {
            "enemy": 8,
            "fitness": 3.7425046279722185,
            "player_life": 0,
            "enemy_life": 90.0,
            "time": 192
        }
    ],
    "weights": [
        0.34983037883911616,
        0.019582166637781062,
        0.195482058411869,
        -0.017818485913255966,
        0.6179698175121187,
        -0.07650991164882903,
        0.3195780345694801,
        -0.968985957753054,
        -0.43888916749030016,
        -0.8919843903971877,
        -0.1391920975660994,
        -0.7899260630992795,
        0.47228029343849554,
        -1.0242754186634069,
        -0.3630139569573633,
        -0.4453711298222789,
        -0.8436877476040984,
        -0.684718755852473,
        0.27743553828464296,
        -0.47963018291446535,
        0.6706130577957087,
        0.8413032726270748,
        0.5096963588166998,
        -0.4171551002956854,
        0.1562232840898501,
        0.8338982412188187,
        -0.5249894359960876,
        -0.5114802301985619,
        -0.37584579811794394,
        -0.7795736969276683,
        -0.4873858085470031,
        0.9821549753817633,
        -0.8233785017443722,
        -0.62725074361094,
        -0.3637137994445644,
        -0.4302475018842977,
        0.567888072985558,
        0.1573494428917656,
        0.1272306568022601,
        -0.11578602366519952,
        0.3870882239069145,
        -1.0257390134050952,
        -0.34548803746481666,
        -0.6865147995749814,
        -0.35889159749867683,
        0.6623708460950661,
        -0.15988352491581637,
        0.9232243781692153,
        0.43354875496046286,
        -0.5503396576557078,
        -0.7667720713596076,
        0.584759365946659,
        -0.6888603031494362,
        -0.9279439074526796,
        -0.46883386055994003,
        0.12629600601992153,
        0.20195674302107158,
        -0.09691238023023238,
        -0.7418521368184976,
        0.1294032911465099,
        -0.8974413666849232,
        -0.4914670816665412,
        -0.8294132107008148,
        0.053771769924013446,
        -0.8148747912765602,
        0.9660279529880912,
        -0.345216566686179,
        -0.8042288121238339,
        0.31401441579079825,
        -0.013336940828846594,
        -0.43684218434257005,
        0.1488370759057511,
        0.5629002434557597,
        -0.4486445632863849,
        -0.6477482454900179,
        -0.614564283586134,
        -0.47899366728298015,
        0.4215118730982419,
        0.38045969360637555,
        0.39584889129298184,
        0.5517463333833096,
        -0.7857494452607191,
        -0.47274664733363525,
        0.8753837267475704,
        0.8910215272230868,
        0.9905771684960949,
        -0.38825971181291413,
        0.3226926896488256,
        0.13309725813882234,
        0.9114975012229556,
        0.48240813162784035,
        0.06658261818223851,
        -0.20011459671903187,
        -0.406493617983966,
        -0.32276484985729326,
        0.4873089668347602,
        -0.511646228712785,
        0.477802340558116,
        0.7102780595771554,
        0.6665984062418857,
        -0.44203578299031665,
        0.34501084300606744,
        -0.6203538574218999,
        0.06442496035137774,
        -0.5642898969545482,
        -0.04538891119944209,
        1.0545469927508777,
        0.2760663988419156,
        0.7014310668951476,
        0.6428091842638389,
        -0.7338717582428633,
        1.1964007711503728,
        -0.5433326542165466,
        -0.04137335846385368,
        0.796756811515968,
        -0.06854866643544662,
        -0.4882539121317093,
        0.4260904061174353,
        -0.6932851663699734,
        -0.3639375584176888,
        -0.5190266612231103,
        -0.3120548854297005,
        -0.7781831186408631,
        -0.36333504001314965,
        -0.8014690973220973,
        -0.39678712384852965,
        0.3189529401160074,
        -0.5836839159254282,
        -0.9929043399510828,
        -0.1161554459988905,
        0.43303275217524306,
        -0.9750507710451497,
        0.7163697019121348,
        0.032996686257591994,
        0.08516831736518844,
        0.656699675219819,
        0.2705761854664295,
        -0.7604315262570724,
        -0.7319060640545031,
        -0.573772304935437,
        -0.16606405128986915,
        0.18572937115649824,
        -0.7082709577325974,
        0.7105729113570101,
        0.827142132687964,
        -0.4922873027592427,
        0.09016088144066911,
        -0.424619883126512,
        -0.6817284879918248,
        0.13736925623024837,
        0.1665296389720019,
        -0.15092141632018735,
        0.9021866146347552,
        0.056249907711952346,
        -0.633977458775586,
        -0.1720165092415129,
        0.06656212521153856,
        0.9764786519285711,
        0.8710549146448225,
        -0.31538279667741614,
        -0.592932590992234,
        0.5508956936366904,
        0.024086630513966104,
        0.7783362793579263,
        0.11100792875658438,
        -0.19128826263610643,
        -0.4839171852416433,
        -0.12355264393674227,
        0.5366499831095188,
        0.5820626277400833,
        -0.3371852315163548,
        0.9261769461440938,
        -0.29412821254723687,
        0.7500764575486072,
        0.1518258480118353,
        -0.4843681606118925,
        0.1757161957961735,
        0.012582666800028175,
        0.8238946021841045,
        -0.4431471924083924,
        -0.03872734820555368,
        -0.9345166572296963,
        0.475111386100207,
        -0.24871351425953359,
        -0.030454861519025878,
        0.9757257617632797,
        0.5562979363431269,
        -1.1312693826720404,
        0.9053370488633876,
        -0.18496929520712757,
        -0.2242169186372669,
        0.7338134688291991,
        -0.7069378729502677,
        0.6948783081249174,
        -0.8640635452520492,
        -0.840671509678474,
        0.8091420810099359,
        0.8160222185560182,
        0.9119100230297494,
        -0.648476497519926,
        0.911237686331952,
        0.9163497911515355,
        0.24978698196237636,
        0.2734794528347406,
        0.22941363510598412,
        -0.1460722148261174,
        -0.18857905136123865,
        0.9396438433255287,
        0.4130118437456707,
        1.031650356925664,
        -0.8982666346785515,
        -0.41118257597236735,
        0.6278989926524516,
        -0.010882701782663817,
        0.8369273907943499,
        0.44851226482131423,
        -0.6773714156065276,
        -0.3952348823907672,
        0.6904584931979,
        -0.17536573255900234,
        -0.2057848321551381,
        -0.01473451770014722,
        0.6765494887993564,
        0.48397917715725036,
        0.26147753556422404,
        -0.6942391657559488,
        -0.026635894486843892,
        0.6288352814103891,
        0.23514595261600094,
        0.36319784278262557,
        -0.7804293409415048,
        0.14806853652133523,
        -0.8040859227770676,
        -0.20142841711936407,
        -0.8715262165886162,
        -0.02558700780824208,
        -0.2632038997480019,
        -0.7103769307408672,
        0.5595102126341827,
        -0.2491699967122693,
        0.061103503245028,
        -0.9612101535505166,
        -1.0644575162537313,
        0.33107821155561634,
        0.5555601212840637,
        -0.8884961957892057,
        0.2502810562634591,
        0.28162006318280275,
        0.2976272311331758,
        0.400091600067914,
        -0.10897939651368183,
        -0.15102789617461476,
        -0.2549494302009415,
        -0.8387344182080148,
        -0.9031520929297481,
        -0.35178314414880507,
        -0.1964969568616426,
        0.8996379011083884,
        0.03644174572662641,
        0.2776137411908781,
        -0.6886309065439902,
        -0.04139870290006442,
        0.22451220133785066,
        0.6439388235994353,
        -0.1655782636366967
    ]
}