{
    "idx": 705102,
    "fights": [
        {
            "enemy": 5,
            "fitness": 91.22772932632856,
            "player_life": 67.00000000000031,
            "enemy_life": 0,
            "time": 238
        },
        {
            "enemy": 6,
            "fitness": 66.66246192029868,
            "player_life": 0,
            "enemy_life": 20.0,
            "time": 208
        },
        {
            "enemy": 7,
            "fitness": 89.78814186652396,
            "player_life": 51.40000000000031,
            "enemy_life": 0,
            "time": 211
        },
        {
            "enemy": 8,
            "fitness": 88.81968822339262,
            "player_life": 45.4000000000003,
            "enemy_life": 0,
            "time": 305
        }
    ],
    "weights": [
        1.0200616744045268,
        1.0983758306103384,
        0.8005875764834348,
        -0.7471247059549853,
        -1.2600736850558176,
        0.06175622989223399,
        -1.6289766810348665,
        1.6210030466461776,
        -0.7145442987592617,
        1.0248713669866878,
        -0.14961321158271562,
        -0.8502752598580834,
        -1.3977265751723895,
        -0.9694252944770435,
        -0.6078991982512261,
        2.8551154724132313,
        1.9937150620479338,
        0.4946097072437289,
        0.7015202942665435,
        2.268914788776854,
        -0.872068080420322,
        0.14295489603033418,
        0.8517087528942884,
        2.1484838843971295,
        0.7960834072861086,
        2.2268027687745597,
        -1.7814890651011885,
        -0.040080036569811475,
        1.5534048618138292,
        0.01955233101675076,
        -0.033127976931702954,
        -0.7470427857993098,
        -1.2830333209997014,
        -0.8406563240051432,
        1.2446424385636763,
        0.6879360497958232,
        0.2060278266676413,
        1.343041191337496,
        -0.0617139413743151,
        0.7664154595001451,
        -0.48358939321837613,
        -0.3606614007471691,
        0.3654677519129732,
        1.251090198140284,
        0.7977422245179367,
        -0.6014143303361973,
        1.5868344176952014,
        -0.21018076328550173,
        0.476084770617161,
        0.7931193833467403,
        -0.9678719069185027,
        1.7007225717587728,
        -1.5697217979053149,
        -1.506979715784906,
        -0.8079657119926967,
        1.8450836907696162,
        0.21640327614263463,
        0.03192753613412199,
        -2.600262915694884,
        0.3416827836284285,
        1.4373421267633495,
        -0.5392928235436644,
        -1.0680747479460488,
        0.7221048432828712,
        0.35562339078307426,
        0.035032974657730684,
        -1.3069833350357276,
        0.9795539345452766,
        -0.4535600731053524,
        0.5505203917443249,
        0.37508585605070616,
        -0.9660689962618954,
        0.19384638861850328,
        1.0540507487492323,
        -0.6520735464271327,
        -1.2561806419938808,
        -0.6149716194856208,
        -0.1912696337068526,
        1.3652639124628747,
        -0.1496053213009989,
        -0.25897485723529484,
        -0.11608747726841448,
        0.3817822907972447,
        1.9850992452109388,
        -0.8144545151944715,
        -0.9933628929487126,
        0.08560289838290057,
        1.3337613530548218,
        0.8994686086467759,
        -1.7620282887782615,
        -0.4346807937595901,
        -0.7824556222804766,
        -0.24779973422989965,
        -1.8465960049101897,
        1.3328388465918168,
        -0.5070203447477448,
        -0.8707327374465431,
        0.5237943585534598,
        2.439850626840628,
        -0.7123659523208492,
        0.8224698969198467,
        -1.326723093887396,
        1.2532049169716304,
        0.28233994821010155,
        0.3511074513021276,
        0.7227308612501796,
        -0.045640406578295475,
        -1.4101751053214608,
        0.44669881983743787,
        -0.9582038456209274,
        -0.22792434126052397,
        -1.0688983335148248,
        1.2184030648876916,
        0.13389883733985078,
        -0.8402014449009654,
        -0.09953167665014248,
        -0.1582978959470565,
        -0.9598536489044356,
        -0.07460647534348337,
        0.40262823758505606,
        0.6649953613466988,
        0.13448595922038,
        0.5693821918045023,
        -1.2806156794865575,
        1.358302651270082,
        2.477544230662948,
        0.5647381534063771,
        -1.2866667026498524,
        -0.6485456776200823,
        0.011349763936928985,
        -0.8992026840326706,
        0.14629718662484176,
        -0.11550858231391642,
        0.3416097101174547,
        0.06019035775267298,
        1.0779171000607253,
        0.2521318332724152,
        2.3224459014051124,
        0.24977541822329014,
        -0.8302505906525173,
        1.3777148752749384,
        2.699374443657012,
        -1.315151201414549,
        0.019825024466995463,
        -0.2821938293528392,
        -0.9318589608871077,
        1.77654620266361,
        -0.9253222773213755,
        1.0035772088802506,
        0.7782583796459673,
        0.3202597546750575,
        1.4253771144191414,
        1.7864390321491372,
        -0.03548343391369274,
        1.3649823860954968,
        0.8959003446362435,
        -0.8661190817577588,
        1.427195002146792,
        0.9816581682901423,
        -0.5353501945114865,
        -0.9150782640585751,
        0.880927785689159,
        -0.16130517122835314,
        -0.3049518810886991,
        0.6069550372635208,
        0.49531074892713844,
        0.2603808157198804,
        0.503552033670337,
        0.4403375224442484,
        0.17709498441409904,
        -1.6984730864762283,
        0.44042690579874166,
        0.9992062883470761,
        0.7204859550578436,
        0.29919269773927515,
        -0.7227248732876851,
        0.6274092942355054,
        -0.6030880898474873,
        0.6604000067264929,
        -1.6190698650699726,
        -0.25492297558636196,
        -0.6073299262046639,
        -0.22754562752277727,
        0.6237449484681967,
        0.9491754951246245,
        0.7045038475269014,
        0.6876253531346866,
        -0.9973107783872802,
        -0.058629788996066245,
        0.8634773076476648,
        -0.03759173222487957,
        -0.3367245789204183,
        0.21692608329248012,
        0.1956015869299615,
        -0.5286906829267474,
        1.3047467326849485,
        0.7459370376130778,
        -0.7658064140507101,
        0.027098308938657417,
        -1.5568864661470747,
        -0.6531574429227958,
        0.9145983409930161,
        -0.11184816200198222,
        1.9747214659747012,
        -0.3997296126597081,
        -1.1969202034688515,
        -1.2426978350463258,
        0.40077896130193646,
        1.0012399008262334,
        -1.486017703641206,
        -0.6186847781311972,
        0.7209817408157867,
        0.9971495234202123,
        0.2467719858019729,
        1.4960867931165645,
        -0.8960852547012795,
        -1.2755468053594374,
        -0.11615438266730065,
        1.1954733794053174,
        -0.5014600317137473,
        1.3231103407562466,
        -1.0888191208200468,
        1.5245253380847237,
        -0.12392540842019764,
        0.1983453964684434,
        -0.5224970445599799,
        0.59008676509574,
        -1.2565459839533495,
        0.20094787915520199,
        1.440808262024298,
        -1.0827172821081508,
        1.1301607575374968,
        1.6407378440659668,
        -0.030105672143857738,
        0.35087366938489095,
        -0.7949569274432317,
        0.3985959251707627,
        2.0259241155753966,
        0.5492299828995981,
        0.005627597008986768,
        1.08786419881283,
        0.38121207716350286,
        0.18054741010544195,
        0.5195025137576946,
        1.119704342242431,
        -0.07805983568667173,
        -0.8660681454611232,
        0.1401386378203381,
        1.1604502526324985,
        1.663379499918703,
        0.7084466175246084,
        -0.7987335862527064,
        -0.1282801433361091,
        -0.1431544582722479,
        0.13253628987908675,
        -1.351051038968346,
        0.10352833046061295,
        0.8310280252710476,
        0.8685321056805324,
        -0.6686277668469464,
        0.10211576241164008,
        -1.1488260325151503,
        0.3664226482540765,
        0.9020338106146425,
        0.456402720748088
    ]
}