{
    "idx": 707647,
    "fights": [
        {
            "enemy": 5,
            "fitness": 91.9602701740138,
            "player_life": 75.40000000000023,
            "enemy_life": 0,
            "time": 265
        },
        {
            "enemy": 6,
            "fitness": 84.38322890233343,
            "player_life": 0,
            "enemy_life": 0,
            "time": 275
        },
        {
            "enemy": 7,
            "fitness": 66.62936197187234,
            "player_life": 0,
            "enemy_life": 20.0,
            "time": 215
        },
        {
            "enemy": 8,
            "fitness": 87.37067522005317,
            "player_life": 32.200000000000266,
            "enemy_life": 0,
            "time": 347
        }
    ],
    "weights": [
        0.7847020302114044,
        0.36971969042507363,
        0.4113169634551876,
        -1.056008240097486,
        -1.6258957759223418,
        1.1115588894175557,
        -1.5910634846888916,
        2.0205158266709513,
        -0.5372543433258039,
        0.4942027946794519,
        -0.1059021314873722,
        -0.575181081125818,
        -0.40296745130502143,
        -0.7727536263453232,
        -0.4854386517419838,
        2.738639319606294,
        1.1928123088418523,
        0.8180415871223694,
        -0.49769883785675006,
        2.1277748876077567,
        -0.6141923081600511,
        0.10253729788187053,
        1.2632868285934433,
        1.485023129970151,
        0.8727635147472526,
        2.1757774263095806,
        -1.4419292837011077,
        -0.5346135965011631,
        -0.15051394807937604,
        -0.16676449963597012,
        -0.5641005225727332,
        -0.09892361670424255,
        -0.13607767496675688,
        -0.8448072330550304,
        0.5189025765034799,
        0.24545591933352914,
        0.33725859676176684,
        -0.7926232500046743,
        0.29422380621382394,
        0.5805866646481413,
        -0.33601406961797864,
        0.5270439338098386,
        0.5875294550910604,
        2.36065957748063,
        0.4258704842006541,
        -1.3713327880474464,
        1.3909137839364945,
        -0.41800018540103134,
        1.0839527225691585,
        0.9478807202656978,
        -0.7729992828956724,
        2.120437535873942,
        -2.3054441220556976,
        -1.7260469722766372,
        -1.0798936460542568,
        1.7472663580451222,
        0.7220182965495472,
        -0.43557283587624596,
        -1.829239772902962,
        0.3425490093015127,
        0.17025665141531732,
        -1.0242328022967206,
        -0.7973496647305672,
        0.2524314554641599,
        0.7695568054291941,
        0.2532368396949255,
        -0.9420098310817554,
        1.7470395831955854,
        -0.23948215510679466,
        0.4621355753052063,
        0.6979801351129757,
        -0.640766730996359,
        -0.7354016015779183,
        -0.10184475600232655,
        -0.6808028649262801,
        -1.6103861144911038,
        -0.8092111026852143,
        0.06119631252004257,
        0.4795448002536447,
        0.18326147990699665,
        -0.3621810914737645,
        -0.0006363551290299446,
        -0.2818277675716005,
        2.7162890203427996,
        0.10307114385711819,
        -0.6940796372585243,
        -1.0782482593223688,
        1.5111035812335323,
        -0.3967960186987353,
        -0.697101729053061,
        -0.28945178257252896,
        -0.5717393805468912,
        -0.08178119969144566,
        -0.9129709710455575,
        1.6011817300803335,
        -1.0867370445528246,
        0.18047883474075002,
        -0.10921845244902552,
        1.4304366403909785,
        -1.157136684309236,
        0.7303780612198241,
        -1.7370701206843198,
        0.435027692072003,
        -1.1759587532517919,
        0.5412045682083437,
        0.49618695214274566,
        0.3458764318301438,
        -1.4301701514072518,
        0.9665641858742925,
        -0.05206167473238779,
        -0.9394652601728744,
        1.0488457589270237,
        1.048790822977533,
        0.31026756294400804,
        -1.050748917024109,
        -1.0000015195905487,
        0.339400935490909,
        -0.43288771124602526,
        -0.16765619383818745,
        0.7888798168609223,
        0.06592574538112092,
        -0.2889656823079464,
        0.37086236636553505,
        -0.7015006104028758,
        1.1466933911534667,
        1.8367599318989107,
        1.1901055898224917,
        -0.3423865053760773,
        0.40848836685998624,
        1.5791388231274253,
        0.20824199754351821,
        -0.44753005755295405,
        0.008339261773234838,
        0.8079625212907974,
        0.763461241957323,
        1.216811582192245,
        -0.07951148295884992,
        1.8388294284045885,
        0.088800030211027,
        0.12257865976795773,
        0.7272295810225973,
        1.497111426657374,
        0.13868962766826376,
        -0.013704652788682103,
        0.08260272102853447,
        -0.771539222680723,
        1.1216514510076465,
        -0.6950625439384731,
        1.3630100385007402,
        -0.24276367287383954,
        0.2763293948368268,
        1.0884700828052896,
        1.5798694319458755,
        0.6857900329810933,
        1.1206840972913807,
        0.5474822698659871,
        0.003455795528591897,
        1.7902917603566897,
        1.1526269252019,
        -0.6125382127185867,
        -1.1845470038012405,
        -0.5059861533057304,
        0.6065599795428078,
        -0.5439306920042721,
        -0.06414324491424525,
        0.026698073029520167,
        -0.8989188007678867,
        0.8859994989194091,
        0.8061205580415084,
        0.4535574432494211,
        -0.22841245873292912,
        0.6808820481978635,
        0.8419960232476383,
        0.26428224035935527,
        0.6803412744310204,
        0.020042812647882643,
        -0.6923369598554782,
        -0.8510957994916165,
        0.5572880129222479,
        0.14154573090885508,
        -1.2460572158428218,
        0.11440991535017282,
        -0.3825657648205778,
        -0.19256697351020655,
        -0.749061893494614,
        1.0265834892980508,
        0.8712765129279393,
        -0.5839267833783772,
        -1.454334425261973,
        1.1155998919479757,
        0.24086126981695033,
        0.3328913908742431,
        0.2042297772915861,
        -0.010332524268704207,
        0.31193149224655137,
        0.2764624344750339,
        0.4812307396395331,
        -0.3227385305899556,
        -0.3713074111430931,
        -1.893452818796304,
        -0.875450191476093,
        -0.09474420505274868,
        -0.5959754719797625,
        0.041329549259149334,
        -0.03018276462610791,
        -1.8526556979072655,
        -1.4985075452860213,
        1.333267833565142,
        0.3019606214460821,
        -1.696670767836882,
        -0.8865741774528347,
        1.0197285451287021,
        0.45302957771150787,
        -0.7989406852663052,
        1.4103345170913215,
        -1.1158439091277523,
        -1.1994600013205285,
        0.8268359955935564,
        2.109192364189649,
        0.49463482180573143,
        1.5907706421497354,
        -1.5791907712906075,
        1.0797042998492132,
        0.6736412286060812,
        -0.14585232396473924,
        -1.2586596258555314,
        0.3437891421422572,
        -0.2341343687067173,
        0.37399012943329923,
        1.0926466466781295,
        -1.106476343096877,
        1.6024318736757046,
        1.8779937237668725,
        0.07610395760111431,
        0.5009410490377593,
        -0.6601681799267188,
        1.307965125000955,
        0.8855900626743308,
        0.9185201665409478,
        0.15001755798523356,
        0.6818751894086356,
        -0.009612206668213163,
        -0.13241750942506797,
        0.04087542592170401,
        1.4164923468812949,
        0.8012749012905853,
        -0.7209344053320108,
        1.092490857369535,
        1.4528072586021015,
        0.9327615444097308,
        0.526269268613833,
        -1.0211870237784235,
        0.26317815900600855,
        0.2534633522653442,
        0.3001963418222693,
        -1.0513056765759201,
        -0.5935860730863866,
        -0.6152630338594705,
        0.416191086266708,
        -0.034466653353525,
        0.48129304046354177,
        -0.5197302488171336,
        0.977563641554302,
        0.5562451844136489,
        0.3565149698724422
    ]
}