{
    "idx": 701537,
    "fights": [
        {
            "enemy": 5,
            "fitness": 85.82873282559585,
            "player_life": 18.400000000000233,
            "enemy_life": 0,
            "time": 408
        },
        {
            "enemy": 6,
            "fitness": 57.482547103535296,
            "player_life": 0,
            "enemy_life": 30.0,
            "time": 249
        },
        {
            "enemy": 7,
            "fitness": 90.57679627126204,
            "player_life": 58.60000000000033,
            "enemy_life": 0,
            "time": 197
        },
        {
            "enemy": 8,
            "fitness": 90.07936107665805,
            "player_life": 55.60000000000032,
            "enemy_life": 0,
            "time": 240
        }
    ],
    "weights": [
        0.5955734716570562,
        -4.2407564282705146e-05,
        1.012996320250495,
        -1.1881553799169164,
        -0.7821248098924237,
        0.4934181618200314,
        -1.1098541509124862,
        0.5344755523444558,
        -1.0188982582852302,
        0.985085729725861,
        -0.5090305523668858,
        0.5679371998842653,
        -0.7366416735487751,
        -0.5193468337218899,
        -1.183200498249466,
        1.5332880577784094,
        -0.4012705958262898,
        0.5123029342956205,
        -0.03602370909058757,
        0.26888334788061896,
        -1.8427353010018004,
        -0.6527920849442663,
        1.1016979767471142,
        0.7104965463082282,
        1.0864547065265504,
        1.0723216642843687,
        -0.7408324838798451,
        -0.5139995643006886,
        0.031809883630204885,
        0.37326359099927814,
        -0.3497568326969328,
        -0.03994078953291557,
        -0.7015981594224467,
        1.123023795795048,
        0.8116210538594401,
        -0.17314332634873567,
        1.4399968350172627,
        -0.15825000229961664,
        0.34823139731234365,
        0.49254777666506333,
        -0.23163007514088074,
        -1.0388990517768872,
        1.4546208062337542,
        0.20958367755448634,
        -0.3033528998705546,
        -0.6102611853770196,
        0.5202775539011181,
        -0.24139887353704337,
        0.7638581163471858,
        1.2602772534313673,
        -0.3399011775451478,
        0.9901051002858373,
        -1.6541270927681848,
        -0.5650268184586107,
        0.08111108059532134,
        2.1824013384218524,
        0.5048949282423556,
        0.7569392259865767,
        -1.9184826650845788,
        0.8672199520080154,
        0.5068980734843387,
        -1.4904091420948111,
        -1.185312808448982,
        0.797903441124646,
        -0.2949014398938787,
        0.16661475167264334,
        -1.459746042679802,
        0.9281084900599615,
        -0.0034320749536287942,
        -0.1235848827284764,
        0.7965076795946753,
        -0.44298973219498294,
        -0.7303039929141713,
        1.2467682072856758,
        -0.015526296084517388,
        -0.8706420259801577,
        0.5470249205532679,
        -0.33104762249147834,
        2.0147255930232917,
        1.1960621735583497,
        0.6204452783229839,
        -0.08832244300569286,
        0.3089442940620316,
        0.04120987836891185,
        0.12213135511958162,
        -0.23825033592978995,
        -0.25280488147142055,
        0.8070100866872472,
        0.04872443907305174,
        -0.355569528706558,
        -0.07706994733212931,
        -0.7158821248935697,
        -0.6047563759694916,
        -0.5399379884304285,
        0.613333593651753,
        -0.14319978631305358,
        0.07372646997030785,
        -0.9284182548754083,
        1.4103750161553914,
        -1.0038243321554114,
        1.229654140985733,
        -1.5922783526132827,
        -0.13889938825049325,
        -0.8845949189815262,
        0.8587720083149677,
        0.6554505390072196,
        0.5646537517776214,
        -1.8083855998961695,
        1.0588030599715337,
        -0.7560138691270147,
        -1.2033847293925268,
        0.031086507928449185,
        1.125500667617739,
        -0.11715255642921646,
        -1.531477983027581,
        0.034001326474039396,
        -0.12784821622643872,
        -1.3825663819470395,
        0.42497054555729885,
        0.7219851334110229,
        -0.4088511869263198,
        1.2794968768395822,
        0.10260362514178145,
        -1.2365964552229112,
        2.4668414338739897,
        1.2670348722003273,
        -0.6332313698243753,
        -0.9362367846430992,
        -0.12099454635206602,
        0.32655997808993353,
        0.19062661662166108,
        0.095142554456873,
        -0.4344744137770115,
        1.4859725952365617,
        0.10806547733313406,
        1.4776765040048334,
        0.8254330535552956,
        1.0713865733546,
        0.33307648319135835,
        0.20343644130161195,
        0.5378933681178558,
        1.4990014452196128,
        -0.4050983254394824,
        0.11555557145543338,
        0.9703901311545801,
        -0.2723776952849018,
        1.1290208025021238,
        -0.7576150601812558,
        0.35698759046112694,
        -0.09022630417387908,
        -0.22649249961306156,
        0.9199625837174801,
        1.1989318744042035,
        -0.20457581328863217,
        0.4369925398666244,
        -0.15395989006691846,
        -0.24507748416049285,
        0.41066930820288516,
        0.6693643061781516,
        -0.37193431588725845,
        -1.344671886268551,
        0.5102081561228189,
        1.2433190967211587,
        -0.6223145840716987,
        -0.13663362093298786,
        1.4837664329102125,
        1.0684922555342575,
        0.5704491697465394,
        0.3806432120532846,
        -0.17480264485939945,
        -0.2805053119615689,
        -0.06843981708805866,
        0.9563524559044411,
        -0.3119988229606286,
        0.011415705883948551,
        0.9955595837530491,
        -0.47453238097991224,
        -0.8116232133617092,
        1.8507189172058236,
        -0.7391230537000134,
        -0.6146447715841569,
        0.10454734885600829,
        0.11812399768154874,
        0.2755488899759933,
        -0.6108746367962051,
        -0.17422506077869931,
        0.1266542463563921,
        -0.4963577279942444,
        0.6826937572827975,
        1.1155430645713265,
        0.29357948709848014,
        -0.3124972265806461,
        0.3847937812373796,
        -0.3423387627432446,
        1.1549573624139837,
        0.22268787687083497,
        0.8195965107581302,
        -0.09365022622580826,
        -1.1339232689244942,
        -1.5625096353701062,
        -1.4329960542049278,
        0.0815493947146161,
        -0.4278085035436856,
        0.4771307950896259,
        -0.4415077518007604,
        -0.35615513114617936,
        -1.1458242759109334,
        1.9892967582811554,
        1.0612676885888095,
        -1.522442124310605,
        -0.14184354681123865,
        0.8761047682520428,
        0.885822291929843,
        -0.5321335021082376,
        1.5379763683648455,
        0.41024363065641245,
        -1.1320283321154343,
        1.102429284712362,
        1.9485742759249487,
        0.42688566805273004,
        1.4540873596129893,
        -0.7869979923812859,
        0.6709914435327314,
        0.572988612599822,
        -0.3422793039334294,
        -0.9059529858458755,
        1.0243863169516536,
        -0.005857171617297187,
        -0.457507849938809,
        0.9743535066496885,
        -1.8529635891191514,
        1.1118263568483675,
        1.606275238031804,
        0.5939325886969102,
        1.5471494956630867,
        -0.9498816066673047,
        1.3368903535389236,
        1.1205967521240527,
        0.31874938563569677,
        -0.06373751722914905,
        0.5768278496148205,
        -0.4400691572883117,
        1.1128770579712002,
        1.6991609282590867,
        0.6688786796461293,
        1.1537269536881718,
        -0.3346722241205255,
        -0.3399632809345904,
        0.3703345595528324,
        1.2644168637050814,
        0.6283683932735081,
        -0.5089610094230456,
        -0.2302223610782903,
        0.11350995981038768,
        -0.9948230078023801,
        -0.8928525348828805,
        -1.214956157630847,
        -0.29513432031877074,
        -0.8267494421978936,
        2.2678131030175197,
        -0.4366166282063171,
        -1.208308875335564,
        0.07610682324046548,
        1.286392984412435,
        0.6753626670530087
    ]
}