{
    "idx": 703111,
    "fights": [
        {
            "enemy": 5,
            "fitness": 87.69946701359933,
            "player_life": 35.800000000000274,
            "enemy_life": 0,
            "time": 358
        },
        {
            "enemy": 6,
            "fitness": 66.64814186652393,
            "player_life": 0,
            "enemy_life": 20.0,
            "time": 211
        },
        {
            "enemy": 7,
            "fitness": 85.69703951986408,
            "player_life": 13.600000000000229,
            "enemy_life": 0,
            "time": 288
        },
        {
            "enemy": 8,
            "fitness": 89.1266105112725,
            "player_life": 46.6000000000003,
            "enemy_life": 0,
            "time": 253
        }
    ],
    "weights": [
        0.857406130448625,
        0.9498316746907102,
        1.214883950641939,
        -1.166196233811194,
        -1.3762086799749227,
        0.16558915096021284,
        -1.3699699914371586,
        1.2756591280128773,
        -1.5774152531400774,
        1.3530057945343665,
        -0.3258352136720111,
        -0.4213796312406529,
        -1.2380074461178736,
        -0.1073541670254555,
        -1.1572625625326307,
        2.2700561632334426,
        1.2346091424910313,
        0.5448064009510938,
        -0.01862040096014421,
        2.025623560044735,
        -1.4907162616620109,
        0.5750979358831353,
        1.5746787264007585,
        1.5018194121995474,
        0.5362274843242832,
        2.1135545944397385,
        -1.3358029686845259,
        0.3717476093810222,
        1.1416331391947976,
        0.8716505386030765,
        -0.3016635975752925,
        -0.39666894511446904,
        -0.28902159160135776,
        -0.8729127445046246,
        0.8417449627089475,
        -0.20519481452842786,
        0.4105238931431694,
        -0.29241211603232453,
        -0.20646261750851244,
        0.8382125991819867,
        0.03811603063467013,
        -1.1241980109953635,
        0.8073811113780349,
        0.8571551761879656,
        0.4073284239763206,
        -0.05868983413959422,
        1.31608374097523,
        -0.38427789556348907,
        0.5416953160066069,
        1.0783534497031357,
        -0.4158330954740734,
        1.7853325257773638,
        -1.2707614279690436,
        -1.2208561836772878,
        -0.2440549386820264,
        0.8563573538789968,
        0.4023082623918468,
        -0.49028100666551144,
        -2.0718445651360287,
        0.37634320979945735,
        0.9949084519196504,
        -0.5912787585300436,
        -0.4502311592195633,
        0.30789244970398094,
        0.5562183943430371,
        0.7076839222663851,
        -1.0761669706282133,
        1.2881633532714674,
        -0.3275583399837168,
        -0.5356313439584671,
        0.9953074831495008,
        -0.5378496579318044,
        0.23762687280803607,
        -0.33736787856404943,
        -0.10152957545522359,
        -1.4520600528360177,
        -0.4417827723546428,
        -0.10165820592679425,
        0.9101480932855697,
        0.4105722611916449,
        0.37385639236648743,
        0.11933969726235005,
        0.6450591025016379,
        2.328608269162102,
        0.23157460257463897,
        -0.8515508451360556,
        -0.2564399271181827,
        1.3679032458953533,
        0.27048643587171367,
        -1.1757556412992423,
        -0.6390009412460164,
        -0.5104152300717095,
        -0.3174135401732243,
        -0.9151019381776365,
        0.966458662657562,
        -0.8979221249710676,
        -0.9491906081082395,
        -0.16928835491637395,
        1.62899989451521,
        -0.6003280784734283,
        0.742751103498182,
        -1.9810708228216174,
        0.5686537313783386,
        0.1807350891154003,
        -0.00013144468023723642,
        0.7125730048630698,
        0.12975602311637302,
        -1.2307351284003716,
        0.8369405628746684,
        -0.6091274609225473,
        -0.5868971074770524,
        -0.6762387390925741,
        0.4998907677841998,
        -0.12083486930564742,
        -1.7774970196362907,
        -0.19310191399798843,
        -0.23613150744023687,
        -0.232907259836933,
        -0.20122628395291295,
        0.4297658073501082,
        0.17553110926224536,
        0.2469671310881259,
        0.4340407857002912,
        -0.8216618522169543,
        1.3782658771448841,
        1.8298426057287571,
        0.40639732240053295,
        -1.56967871065153,
        -0.42793841364474045,
        -0.06449608243383301,
        -0.025836287816007747,
        0.17154524247511718,
        0.23491483151775183,
        0.8763155726600775,
        0.4641530125759128,
        1.3384581830702897,
        0.3393309992585161,
        1.5817726484711443,
        0.7061964983611518,
        -0.3674258616993525,
        1.3091332536129299,
        0.8459986155118256,
        -0.8668546370922057,
        -0.09080680891005238,
        0.38135882236197177,
        -0.5739585425525328,
        1.6276069347544115,
        -0.8632277319275883,
        1.481931951178063,
        0.5145366222082558,
        0.11181092672295587,
        1.4001209446730079,
        1.5661772771056344,
        0.23956426881777604,
        1.2909775966387433,
        1.285731004917304,
        0.0837223251410632,
        1.4719949290347987,
        0.7927318176172923,
        -0.2100534025624275,
        -0.5251435174153367,
        -0.5086146090123135,
        0.2339792645555988,
        -0.13842006803666482,
        0.7608130516408232,
        0.35199472862396014,
        0.483755034692833,
        0.709943153776995,
        0.7117394964736335,
        0.6269093751726902,
        0.017682182885207152,
        0.4001768438505235,
        0.4158962416149171,
        0.6479614443004613,
        0.5184592489142986,
        -0.4557479128335339,
        -0.38422344737156633,
        -1.150985578706364,
        0.14311067543499595,
        -1.0164734435752933,
        -0.10234178532363909,
        -0.2279096740566399,
        -0.39824462908191977,
        0.8128663762639073,
        0.27844409562314965,
        0.7846461876911788,
        0.7645200356630557,
        -0.17267885007822192,
        0.21391681313906338,
        0.6879900921464436,
        0.1446409985221464,
        -0.04776665268900146,
        -0.29344708017358967,
        -0.04518539165834276,
        -0.1430204021346414,
        0.6897896701028492,
        0.28134673302120744,
        0.13592136191555182,
        -0.363109608863184,
        -1.7887471053404962,
        -0.19083172295702774,
        0.14548905572284776,
        -0.30061988632027675,
        1.9642597050167747,
        -0.1831059860531915,
        -1.300756082633143,
        -1.2041621222324481,
        0.6885233792719561,
        0.708713223209361,
        -1.779243609756033,
        -0.4046809151048196,
        0.9316920205872248,
        0.5548741728807945,
        -0.41810552032262166,
        1.0378483120799469,
        -0.9326820068290327,
        -1.2337502814285488,
        0.42777196102619564,
        1.1905353937433447,
        -0.4450842819024676,
        1.305596178350143,
        -0.8856134408083584,
        1.1192485645992143,
        1.0768574838067948,
        0.3456958075377685,
        -1.2897647154643173,
        0.874054858852075,
        -1.421143047288418,
        0.035087351330753996,
        1.401315915466948,
        -1.062647200663796,
        1.0873721479703577,
        1.117421655347922,
        -0.003607517861411773,
        0.3373634930560413,
        -0.33344064380264393,
        0.7035005003835808,
        2.070204840239307,
        0.4963079137993924,
        -0.48927961623131067,
        0.6049134243874176,
        0.44230035287665087,
        0.9764550616595444,
        0.929897205519094,
        1.1795721185012056,
        0.44709114866697053,
        -0.9403692501329254,
        0.5802744197182427,
        1.0648467553601817,
        0.10269376143155046,
        0.926593701867593,
        -0.37693175595177464,
        -0.2393886106314384,
        0.030922475352540793,
        0.9844294189608812,
        -1.4303600886612664,
        0.19176960089930745,
        -0.09570244801465971,
        -0.1338270444953205,
        -0.18195773542816415,
        0.20663266298307686,
        -1.0929758151490145,
        0.8085295031936831,
        0.6128144404242898,
        0.5150918900007947
    ]
}