{
    "idx": 703118,
    "fights": [
        {
            "enemy": 5,
            "fitness": 89.40283177470683,
            "player_life": 49.000000000000306,
            "enemy_life": 0,
            "time": 244
        },
        {
            "enemy": 6,
            "fitness": 66.1828888400368,
            "player_life": 0,
            "enemy_life": 20.0,
            "time": 336
        },
        {
            "enemy": 7,
            "fitness": 90.80341372532803,
            "player_life": 61.600000000000335,
            "enemy_life": 0,
            "time": 212
        },
        {
            "enemy": 8,
            "fitness": 88.81968822339262,
            "player_life": 45.4000000000003,
            "enemy_life": 0,
            "time": 305
        }
    ],
    "weights": [
        0.28084863841752294,
        1.1714208264420485,
        0.7891331393607424,
        -0.7728718836290738,
        -1.131602356128427,
        -0.14045590938939262,
        -1.4831057752856796,
        1.2042684330661655,
        -0.1264135544703504,
        1.528227256852798,
        -0.517863233815166,
        -0.5582889408025009,
        -1.6474605190039127,
        0.47357506298580787,
        -1.051512112306851,
        2.440348576321241,
        0.7423070609974106,
        0.7521480029335669,
        0.2475042759518578,
        2.4046604012918444,
        -2.058435406781633,
        0.627387609687344,
        1.3986125181850046,
        1.258852638578521,
        0.3906086786453746,
        1.814274042718832,
        -1.9106327705391897,
        0.46471437156772066,
        0.9175662254630151,
        1.4332024876913105,
        -0.42689244549267563,
        -0.8570554126430685,
        -0.8293685077953762,
        -0.9235412264917442,
        1.0665331719071864,
        -0.256035581948065,
        0.4903542949012809,
        -0.16246880152885332,
        -0.25256302679559317,
        0.6878087817284312,
        -0.21852965997133084,
        -0.8205851938944928,
        1.4610146181998764,
        0.9778382790725546,
        0.3095674659322949,
        -0.6367414809217126,
        1.4579079888604025,
        -0.19986394433013133,
        0.45956285399920016,
        1.1637843336186338,
        -0.8197194891496267,
        1.6066470482340867,
        -1.638988230420883,
        -1.044030762358072,
        -0.6463582667081835,
        1.1324647119803675,
        0.5489295569805558,
        -0.37605340081953387,
        -1.806722685050225,
        0.9228666019623135,
        0.9961339757603568,
        -0.5874146362656993,
        -0.6000478293262799,
        0.7424077202953259,
        1.0795386835530123,
        0.5164896779971658,
        -0.8632280224096028,
        2.4108589157591886,
        0.9786268922759014,
        -0.3241243391962646,
        0.7301011519651011,
        -0.4339367158699395,
        -0.20621811718974872,
        -0.1788874879948966,
        -0.3920655595925375,
        -1.6404419849525806,
        -0.29834409948286006,
        -0.32308290893673014,
        0.879865624504033,
        -0.4276447586639617,
        0.1780192284859152,
        -0.09054267832475313,
        0.5774249967910058,
        2.2900487959647315,
        -0.03631108265281965,
        -0.7119478276724476,
        -0.36527884100315156,
        1.3162802635631463,
        0.2196865273410614,
        -1.4945971121756967,
        -0.6566884412670113,
        -0.3536569507428925,
        0.574629629613257,
        -1.2803112269327026,
        1.0923353884307132,
        -0.6573972514487303,
        -1.1115772299992914,
        0.3827184225893782,
        1.6926084615923676,
        -0.578708306405923,
        1.2176293974371075,
        -1.870049457661463,
        0.5503229829512069,
        -0.8086740506501815,
        -0.038731201546477904,
        1.1339176386439402,
        -0.15266216879455008,
        -0.6958803290114669,
        1.258849831499266,
        -0.6016716572542067,
        -0.77945180134551,
        -1.241555316558997,
        1.0042718815452845,
        -0.015592366995205387,
        -1.2768988632901417,
        -0.17890129975426527,
        -0.060260464773066416,
        -0.3449707445948429,
        -0.2704659509470246,
        0.5833725649789159,
        0.45604833171952813,
        0.0053934988228840075,
        0.7492788697249078,
        -0.8666631863430054,
        1.237179059333723,
        2.2752462950297327,
        0.7718154281833525,
        -1.2280091172548184,
        -0.37497138563708937,
        -0.07528578611479714,
        -0.8617962137647062,
        0.6235420383553423,
        -0.4750049341414763,
        0.5389967709509481,
        0.18826285839838258,
        0.5435262331869105,
        -0.013159685287530316,
        0.8589134850844233,
        0.24278050750337973,
        -0.698139983138029,
        1.7643876978962687,
        1.2510625910021784,
        -1.0909186974184455,
        -0.0902044215636219,
        0.7020188890134306,
        -0.6389277114405588,
        2.0396505868946684,
        -1.0969755111471713,
        1.2740417960377592,
        1.1473473171570447,
        -0.1739338367876833,
        2.2462161615956715,
        1.4422142915823364,
        0.35054768866428976,
        1.3428403525197852,
        1.3710664520153517,
        0.33004899700050777,
        1.7020197177175622,
        0.7142167731238872,
        -0.14411137690053738,
        -0.6231294825499272,
        0.4377389952886621,
        0.24343252424316542,
        0.013644549461909863,
        0.2813195517801825,
        2.0070023335407012,
        -0.5067905616545384,
        1.1791818961137817,
        0.746191338172255,
        0.6495700330227148,
        0.07124092897454132,
        -0.028079973086423196,
        0.3361970759589419,
        0.7552315186332964,
        0.22175113448817407,
        -0.7351213732085196,
        -0.4998598122330436,
        -0.5225440310760443,
        0.10896207329594566,
        -1.0816004676192665,
        -0.2068564307897529,
        0.5650090773121564,
        -0.48340269817329695,
        0.9577279401696354,
        0.17534156279616217,
        0.9415076072982441,
        0.14570600244642626,
        -0.0913953720830861,
        0.014310511611562722,
        0.8085075222101306,
        0.014294635712413599,
        -0.4310941808380189,
        -0.26413935137098743,
        -0.2998171337218891,
        0.011377888115369189,
        0.7074433362074666,
        0.41059864983438776,
        -0.02460636568759102,
        -0.5006980717823983,
        -1.8629822099363946,
        -0.7224676712529715,
        0.8022416488214399,
        -0.05702301802639568,
        2.2256879442509825,
        -0.4891444772460196,
        -0.8422748344371549,
        -1.264383522474778,
        0.33767553206401996,
        0.8322249857514215,
        -1.6252340539234416,
        -0.3317670943813066,
        0.806179200820576,
        0.4951158812649663,
        0.08909487685026204,
        0.9860757009959543,
        -0.7193460626708748,
        -1.4582706839845132,
        0.15640929823607577,
        0.6308059732205876,
        0.31541668512520443,
        1.133007329149391,
        -1.0322168052711007,
        0.9762870787069634,
        0.7536837207626776,
        0.2693429879170865,
        -1.282655475874588,
        0.5800973157756019,
        -0.9572689340285191,
        -0.21336867118178598,
        1.6128121646598657,
        -1.4213428726801742,
        1.2067066412425311,
        1.4219039837091771,
        0.18034682927624837,
        0.5277843619837099,
        -0.3555563595944061,
        0.9940939219439613,
        1.6210570292307942,
        0.6935764203715664,
        -0.72514109415753,
        0.5990638155376823,
        -0.1540142091889437,
        0.5928778776844857,
        1.0520693544565933,
        1.1276738796662755,
        1.1910559252517652,
        -0.6803603373276063,
        0.6286012526196032,
        0.7553604761985993,
        0.17688981443129304,
        0.9045771875060035,
        -0.8164300794381684,
        0.19553995057558282,
        0.06786443389952942,
        0.7976458748584763,
        -1.4102711698813546,
        0.24446106771607307,
        0.08720382771437366,
        0.18180726422017546,
        -0.366699476227074,
        0.1234018942784334,
        -1.1179131201546917,
        0.641813081712404,
        0.48507188265105233,
        0.2886288395797227
    ]
}