{
    "idx": 702962,
    "fights": [
        {
            "enemy": 5,
            "fitness": 90.33650369121833,
            "player_life": 59.20000000000033,
            "enemy_life": 0,
            "time": 266
        },
        {
            "enemy": 6,
            "fitness": 48.55326262833369,
            "player_life": 0,
            "enemy_life": 40.0,
            "time": 232
        },
        {
            "enemy": 7,
            "fitness": 90.93679627126204,
            "player_life": 62.20000000000034,
            "enemy_life": 0,
            "time": 197
        },
        {
            "enemy": 8,
            "fitness": 88.98324619773175,
            "player_life": 46.6000000000003,
            "enemy_life": 0,
            "time": 292
        }
    ],
    "weights": [
        0.48357468721729613,
        0.17594592922836452,
        0.4847098015843496,
        -1.0317798959825726,
        -0.31814880751261204,
        1.4571610213912645,
        -0.9026699442187422,
        1.1691077292521865,
        -0.9214988222021226,
        0.949717562021599,
        -0.3951762592690982,
        0.5750453163616004,
        -0.8674116541153052,
        0.1544203818346671,
        -0.8722589161516675,
        1.8449063417821405,
        -0.4482119936082603,
        0.9433796042171034,
        0.3389944735683648,
        0.8594084965479328,
        -1.1258315035744393,
        -0.28798055173127673,
        1.432499535811788,
        0.5203852205997053,
        0.47363509171350143,
        2.1754172288100073,
        -1.331076117849284,
        0.018958171559540434,
        0.9220416190899057,
        0.4924024274798581,
        -0.7900164741012159,
        -0.3554753469013322,
        -0.9668325572650036,
        0.6560155859772572,
        0.2679203639862523,
        -0.5032519414687314,
        0.42757955050445834,
        -0.5410403304665927,
        0.45750686556117226,
        -0.7513585575587152,
        -0.07174211341717082,
        -0.9952920936740246,
        0.5921564996273533,
        0.11214453570508416,
        -0.3413339336161521,
        -0.0832194837656168,
        1.0487238990399697,
        -0.5979855962749495,
        0.09790112092723999,
        0.5793112133132835,
        -0.6349943419819906,
        1.1109576006447999,
        -0.9477981533158923,
        -0.5347472639213654,
        -0.020436581566496862,
        1.8346732227302704,
        0.7480487064063603,
        -0.22781546639915706,
        -1.6747041118710175,
        0.1938164488235608,
        0.8005424324203553,
        -1.1203310316416064,
        -0.626239440272823,
        0.3827830061457547,
        0.5785574237980281,
        0.6376530598373692,
        -0.40036947067804196,
        0.5741638483844265,
        0.0982142978503765,
        -0.35212639097444187,
        1.233397575265452,
        0.37041106869264656,
        -0.24816143126784979,
        0.6369417065439273,
        -0.5436697512539714,
        -1.2322029574639275,
        0.0008626902661490743,
        -0.8034770931417643,
        2.7792322267184946,
        0.40983717711021656,
        0.6993915688925549,
        -0.14900140494544742,
        1.102853978504672,
        -0.006995353892447459,
        0.2522830949415291,
        -0.45081229082441054,
        -0.656152973289562,
        0.9541188059575052,
        0.14004660429605378,
        0.5464271465766396,
        -0.43919360301827975,
        -0.7692381644768269,
        0.022488061420763924,
        -0.6701093413114175,
        0.7340045014070385,
        -0.1668299337709989,
        -0.20082109055853004,
        0.18930015937938402,
        2.462016197340297,
        -0.9518412122209905,
        1.3084293567471237,
        -1.5428000076269917,
        -0.3103500365675802,
        -0.6748380087758682,
        0.0037362143324524977,
        0.514432552859367,
        0.6875958442929976,
        -1.4185174147195991,
        1.353899234976352,
        -0.9760568465598688,
        -0.912015702793878,
        0.01255862583027587,
        1.1425399478057308,
        -0.1160977386029337,
        -1.7317536423117472,
        -0.13894190487345137,
        -0.32260000249603155,
        -1.299097740707514,
        -0.05730432151095151,
        0.9426905267427411,
        0.34668070487571767,
        1.416536076136222,
        0.4668031192489191,
        -0.9246674992259063,
        1.2649536981385687,
        1.2865038660246475,
        -0.0199204780798361,
        -0.7556565664221823,
        -0.3147689517719797,
        -1.4980005513612487,
        0.0975922042157395,
        0.827026829011591,
        0.41543511512665043,
        -0.1829038232652024,
        -0.20754812288122118,
        -0.12461448946545423,
        -0.7291424366148069,
        1.0730958696795896,
        0.47243675530740986,
        0.11355558361532934,
        1.3055945044686306,
        0.8003696546371005,
        -0.8438621537210113,
        0.6541923311378064,
        0.9260658914030383,
        -0.4254019918176347,
        0.8558796862923683,
        -0.40512972285359816,
        0.4643277297254801,
        0.10580318922172893,
        -0.7004168366714236,
        1.1610487709432784,
        1.8321751864085731,
        -0.2215536972269088,
        1.3094136092578166,
        0.06225846541721475,
        -0.1709764863203823,
        0.8391435227438775,
        0.2713104817465093,
        -0.2408261030174108,
        -1.8813944484882703,
        0.22878878748933784,
        -0.23029657173122564,
        -0.39181285335090144,
        -0.6451037106238677,
        0.8406955931431844,
        0.15242573866032466,
        -0.16438845784201894,
        0.5528281699888159,
        0.7863487181717356,
        0.6316459024461187,
        -0.006172236234018465,
        0.12858846660887047,
        0.13715683589650857,
        1.155555320428794,
        0.2786307398270776,
        -0.2098629871289799,
        0.038172705490108316,
        0.19514348202609794,
        0.1184161369473044,
        -1.1086552225133302,
        -0.866226411619514,
        0.14378954907695524,
        0.7100098146855636,
        0.0007808949815161503,
        0.9066481281375611,
        -0.04458779866752707,
        -0.26673912592749655,
        0.2948722182096084,
        0.786710370228278,
        -0.16480563407607837,
        -0.2760942172405284,
        0.563834853673671,
        0.07809482324893521,
        -0.08451230962382032,
        0.6158506333277772,
        0.1822533001948185,
        -0.8402989386979782,
        -0.9122179428370943,
        -0.898070530297597,
        -1.219961276084036,
        -0.6164339925354403,
        -0.48317712538164637,
        0.9720079101885374,
        -0.3192508271793606,
        -0.8678120926071562,
        -1.2208144180075533,
        0.7657053112908607,
        1.4616380288713304,
        -1.0608333983103655,
        -0.10862874595880842,
        0.5420624717215572,
        1.0218098659310832,
        -0.06192050983128318,
        0.5896616620202563,
        -0.6174814447762993,
        -1.0403216167491787,
        1.1425938078589397,
        0.5542243039652465,
        -0.21451337639575002,
        1.642446623060038,
        -0.8257641731712793,
        0.7345870755795966,
        -0.18229032789247965,
        0.09449933627846235,
        -1.2198066315357967,
        0.7029460570880086,
        0.485293829848652,
        0.15703068373782147,
        0.35996703306943495,
        -1.0929846130435996,
        0.8502640131479807,
        2.529657678830418,
        -0.24642421803963163,
        0.8833579060023659,
        -0.6218218537613119,
        1.074881931496675,
        0.5956414342577118,
        0.15467738042165594,
        0.0670112512148639,
        0.7504204792494441,
        -0.2796740364857616,
        0.2971821233986489,
        1.331933011132776,
        1.0726001749112626,
        -0.08150259910410476,
        -1.3415357055133126,
        0.274062142008506,
        -0.426723089809385,
        2.752962526315021,
        0.8574286293964092,
        -0.6753262611911924,
        -0.007400230689783793,
        0.2359343137403355,
        0.6592345203256992,
        -1.3913594379466885,
        0.02024515807197847,
        -0.29106282000913986,
        -0.006948341327953335,
        -0.10022427589085407,
        0.1265480175333666,
        -1.1548907280912206,
        0.25073738905978016,
        0.447319858304837,
        0.794278478953544
    ]
}