{
    "idx": 707244,
    "fights": [
        {
            "enemy": 5,
            "fitness": 91.16772932632855,
            "player_life": 66.40000000000032,
            "enemy_life": 0,
            "time": 238
        },
        {
            "enemy": 6,
            "fitness": 48.648141866523936,
            "player_life": 0,
            "enemy_life": 40.0,
            "time": 211
        },
        {
            "enemy": 7,
            "fitness": 89.23946500072773,
            "player_life": 46.6000000000003,
            "enemy_life": 0,
            "time": 226
        },
        {
            "enemy": 8,
            "fitness": 86.33574420258549,
            "player_life": 22.600000000000243,
            "enemy_life": 0,
            "time": 374
        }
    ],
    "weights": [
        0.8448657507109759,
        0.20481248535286944,
        1.1699094917290915,
        -0.9437433134176093,
        -1.6364524160137934,
        1.114112159982136,
        -1.407578723623531,
        1.2975428783084209,
        -0.08319744016373501,
        0.8597603776325544,
        -0.1214403431664838,
        -0.420035750916336,
        -1.0145622592378458,
        -0.7276244516195645,
        -0.6721032593331931,
        2.3790273402604525,
        -0.8303291508912167,
        1.3109880143381227,
        0.5198424025957068,
        2.1232399713755656,
        -1.4059009884282043,
        0.3178086786752799,
        1.6662809002562797,
        1.579746468532367,
        0.5493215608206197,
        2.1500485300082817,
        -1.5594160154543393,
        0.0733594301400792,
        0.9838838177497403,
        0.2616486234008254,
        -0.26608359183335445,
        -0.6629710171664132,
        -0.17452021423835964,
        -0.8237067751373218,
        0.9211601576553186,
        0.3686938286727872,
        -0.004219027798520569,
        -0.9869526166362234,
        -0.44258184538871526,
        0.07146200361794786,
        -0.6784531313993251,
        -1.0859840796435103,
        0.7428603931674568,
        1.9229910516856719,
        0.12882707280583333,
        0.46509068218777616,
        2.9101801964449536,
        0.02601836013578082,
        0.4055974745947333,
        0.7711574747944484,
        -0.2642664591784762,
        1.8115312246082593,
        -1.865206769784563,
        -0.9175581332902638,
        -0.7163630921243681,
        2.301949605383027,
        -0.0745532260875392,
        -0.33862329321759743,
        -1.7080377179187005,
        0.8873705416433753,
        0.45581401763574364,
        -0.6847747129325789,
        -1.024428561337889,
        0.4514535041001192,
        0.7746982806502879,
        0.04282461593567377,
        -0.6603931304671478,
        1.8398513831088945,
        0.8693390171584447,
        0.1258641144533722,
        0.7695876085578445,
        -0.7051950671409621,
        -0.19028848118339345,
        -0.2142819302386929,
        -0.41397414597448745,
        -1.3954769318050582,
        -0.5150133400849675,
        -0.218293232176319,
        0.41394243260837676,
        -0.17245846463911296,
        -0.18411769089304494,
        -0.029128523941662696,
        0.07666174558936044,
        2.2947202085357037,
        -0.23828605570553485,
        -0.5234152948632039,
        -0.9818082026123129,
        1.4195345992671085,
        -0.2720162603432589,
        -0.2742092480446769,
        -0.5400916628094405,
        -1.0201148261637676,
        0.3647113888305371,
        -0.7104337751636352,
        1.0655077114897107,
        -1.0200552291810892,
        -0.37270754989747595,
        0.5783871476860125,
        1.0733794701405242,
        -0.30984902706939865,
        0.8797611484945626,
        -1.9023794288861435,
        0.44250509236668245,
        -0.5348969509512802,
        0.5889509837973419,
        0.18629086136466935,
        -0.21633065870159116,
        -1.4727727428625148,
        0.9077097844451434,
        -0.13031124447810793,
        0.5055027869442899,
        -0.5267219917155992,
        0.9741788848170355,
        -0.44899351341492344,
        -0.744380616111204,
        -0.691440524063738,
        0.33410664675776663,
        -0.3614369834970489,
        -0.010942163538473354,
        0.906152481318317,
        0.05470704834411036,
        0.07637006880852673,
        0.7041681916505173,
        -0.6856122292658033,
        1.5441308302270722,
        1.6402114699858856,
        0.6070972967918741,
        -1.4875349202372856,
        -0.23780141360261944,
        0.45946185121782823,
        -0.0051085387014472294,
        -0.2245701965182313,
        -0.04205670789753342,
        0.3625718130339286,
        0.3119767523975864,
        0.6472695556100619,
        0.23336368682841369,
        1.8140023128923242,
        -0.34847970419694263,
        -0.51999311478508,
        1.188443656164759,
        2.0478780983278266,
        -1.25458463821245,
        0.22567485537729998,
        0.0598798054872047,
        -0.6500840693838892,
        1.4919418716805872,
        -0.8593578854908841,
        0.5465063121043866,
        -0.4617221777410778,
        -0.19171849458737888,
        1.3180861306884435,
        1.3440606789956608,
        0.6196472368481611,
        1.4861167461187987,
        0.41973980325190846,
        0.004594479654849007,
        0.22214569961281427,
        1.0632255585643144,
        -0.7915627622819139,
        -0.8302537670066853,
        -0.3251256271151881,
        0.5839381427529353,
        0.09797487456116938,
        -0.1705480732026297,
        0.15759195909460916,
        0.342138589613685,
        0.49053299196137157,
        -0.020038083515521256,
        0.3265325856073735,
        -0.12093140248334058,
        0.15644464739077904,
        0.4747265508277832,
        0.18970735952518775,
        0.11819370184271227,
        -0.417929143264844,
        -1.025114538674299,
        -0.6261991369505793,
        0.14708652255984317,
        -0.5534186626565674,
        -0.3444269860083641,
        0.14154622069310369,
        -0.3993171469136587,
        0.2699157094930787,
        -0.2080367011668422,
        1.022517484459502,
        0.6764464806882118,
        -0.34711139509660693,
        -0.37812745766894373,
        1.02084057741415,
        0.39412471565828155,
        -0.3229487406819122,
        0.3955140377715196,
        -0.05073012266872715,
        0.4695119474976124,
        0.49076029436616464,
        0.29983178743024647,
        -0.2546100206900232,
        -0.7364853763919951,
        -2.1240404670455773,
        -0.7919421578527021,
        0.13395185479445293,
        -1.034053376150534,
        0.08482943467206613,
        -0.2995655106823061,
        -1.1787803651353908,
        -1.0502581272080072,
        1.1870544452438243,
        0.9058823221005925,
        -2.0979134998626607,
        -0.7158155817059197,
        0.39896687662057334,
        0.4060575915313699,
        -0.8429364434817272,
        2.266997608009048,
        -0.6928256370935929,
        -1.671901427808351,
        0.25718474577648276,
        1.9060065779204831,
        -0.7935552771294887,
        0.7690041126235946,
        -1.185280469675156,
        1.203738953717596,
        0.9759708022717926,
        0.18624894489946453,
        -1.6860700468269414,
        1.1431711036654957,
        -0.9179570871626052,
        0.11028108870117258,
        1.5205886718281225,
        -0.46678811340790677,
        1.4431751579810366,
        1.9154661659816763,
        0.0027696256732284083,
        0.704153374045732,
        -0.49799423839897794,
        1.0042291265363312,
        2.280555045405407,
        0.6974387915732505,
        0.38382982644334274,
        0.9060751132629722,
        -0.411332924399868,
        -0.028809761429073526,
        0.7873246350401366,
        0.8912606448024183,
        1.0622557404112614,
        -0.8503401240355674,
        0.8740929321378921,
        1.323731565853342,
        0.9633652567722111,
        0.6205964882214532,
        -0.8128632664647882,
        0.5331598807998272,
        -0.0417155428229731,
        0.265228665720147,
        -1.1343269652388572,
        -0.25759194623587695,
        0.611943869871468,
        0.46688596544445643,
        -0.26351501883517553,
        0.23222581317423835,
        -0.6450746064230354,
        0.7387211195762604,
        0.3463974559923162,
        0.2512870528591834
    ]
}