{
    "idx": 706652,
    "fights": [
        {
            "enemy": 5,
            "fitness": 89.13282822853992,
            "player_life": 45.4000000000003,
            "enemy_life": 0,
            "time": 223
        },
        {
            "enemy": 6,
            "fitness": 39.37959913428285,
            "player_life": 0,
            "enemy_life": 50.0,
            "time": 276
        },
        {
            "enemy": 7,
            "fitness": 85.42425778641311,
            "player_life": 11.80000000000023,
            "enemy_life": 0,
            "time": 316
        },
        {
            "enemy": 8,
            "fitness": 84.8232159867714,
            "player_life": 8.800000000000232,
            "enemy_life": 0,
            "time": 427
        }
    ],
    "weights": [
        0.6094348994526294,
        -0.09690218017863045,
        1.3807184142440176,
        -1.2258322353217004,
        -2.31675566196298,
        0.4218780320768736,
        -1.6139706017222528,
        1.3021618184408497,
        -0.7219145206311465,
        1.2919495562952907,
        -0.3961454790277976,
        -1.323996812319186,
        -0.8465293886829401,
        -0.05028889943094584,
        -0.5356131351098481,
        2.5386938567168116,
        1.6083697719615697,
        0.7544865688036654,
        0.45284143359927853,
        2.263735819077712,
        -0.9082817039701192,
        0.17545817216694717,
        1.5968228641583653,
        1.461119573589866,
        1.168551492698881,
        1.9922941118338198,
        -1.2926580727379995,
        0.5629098879966863,
        0.43110030420456896,
        1.335409428834271,
        0.1598571942327356,
        -0.6732818093159343,
        -0.42804491573976367,
        -0.6324545421523051,
        0.8536734700506396,
        1.4472564734835827,
        0.38721409920650285,
        -1.0349075489365152,
        0.3724411147934405,
        -0.18954463826860302,
        -0.16009966540494644,
        -0.5947175557413306,
        0.42005988225187874,
        1.5280085473871752,
        1.168833317132765,
        -0.07989253226611505,
        0.7844633108211244,
        -0.447270524094984,
        1.4879042482960347,
        0.26465631240471615,
        -0.4747349153140368,
        1.721933916658439,
        -1.7132023597988542,
        -1.2163141921506229,
        -0.2824486473273853,
        2.310903229345019,
        1.4269644664977361,
        0.3232596298350925,
        -2.6073992656092293,
        0.45441470301703357,
        0.23783985228870935,
        -1.3153103011301055,
        0.3761149343309063,
        0.7169188244512735,
        0.02891950045443533,
        1.1184181953143004,
        -0.9330324581009801,
        2.644636096207129,
        -1.007799886345653,
        -0.8562183940911798,
        0.34665208962826055,
        -0.024278185256090965,
        -0.6997259710596169,
        0.9001759244713315,
        -0.77308174196804,
        -1.0928361324386315,
        -1.8121775983929052,
        -0.2740226020267771,
        0.688246739997942,
        0.697591378707472,
        -0.15041969246867398,
        -0.1495240435363987,
        0.562749837695213,
        2.9541353642006105,
        -0.6958364694741577,
        -0.8360250920737955,
        -0.4678527311034811,
        -0.46382606812148186,
        -1.212143426234049,
        -2.6198152555813183,
        -0.46616648721159737,
        0.441535768265659,
        0.2879615534280881,
        -1.6629074215935262,
        1.9490114736868758,
        -0.8802960486073557,
        -1.3440770645001927,
        0.2798923393905644,
        2.2955397126598323,
        -1.1025589244074883,
        2.013629268747242,
        -0.9494109147612901,
        1.0708651951595392,
        0.07860518738382088,
        -0.11581563828553673,
        0.22430337271239065,
        -1.5781172520336437,
        -1.4338784301042975,
        0.9771855632422829,
        0.9572825902903689,
        0.03776803640120137,
        -0.4669932294332847,
        0.9073478011924794,
        0.7784266036753698,
        -1.2306040884098757,
        -0.27557283977253433,
        0.3700873236044165,
        -0.10920824482007196,
        -0.5590919125516554,
        0.13511263787375904,
        -0.6290292739495236,
        0.4634493701195105,
        0.7224999811850964,
        -2.0294819607894268,
        0.9643917066892006,
        3.9066268918879494,
        1.172687801460677,
        -1.3358329056776321,
        -1.3890444478864108,
        0.3533312749660887,
        0.0631996043086253,
        0.19749364472557931,
        0.42758301853402214,
        0.11194364480860147,
        0.370753335390617,
        1.2167926689114723,
        0.7313721550365095,
        1.7909564441853039,
        0.3316720572688648,
        0.029304817301239454,
        1.5218473708441231,
        2.082416270675959,
        -0.8493055217394322,
        0.1086800659450845,
        0.6455608625667917,
        -0.9097374073022041,
        1.0053031567878206,
        -1.0972914806955205,
        0.6350791773470181,
        -0.021112105152552914,
        0.310701047458088,
        1.7234416404533048,
        1.8731467551371566,
        0.4032450317399835,
        2.213537590086598,
        1.4626051862894638,
        -0.23921100764107786,
        0.8185551581782909,
        0.8015870150491319,
        -0.589917377424939,
        -1.637208661901263,
        0.6415316275107711,
        -0.42428213496723943,
        -1.623789830820983,
        -0.1895239669420977,
        -0.10297366732472739,
        0.35445416631061927,
        0.07682942149395881,
        -0.20613877487483703,
        0.7785006691525067,
        -1.3552164428710873,
        0.4372652206881849,
        0.5111897511171482,
        -0.13208355326756263,
        0.8094771708773147,
        -0.4794091895735153,
        -1.080308951935446,
        -0.5770361583228386,
        0.7630911459632737,
        -1.7524508847918365,
        -0.2132867299805763,
        0.25491144445161207,
        -0.274433347100137,
        0.6612963779500943,
        0.10571483993639352,
        0.11924417398212851,
        0.5579308927024811,
        -0.08396756971111202,
        0.899424339530021,
        1.5167334643523007,
        1.8523656850221468,
        -1.1059865632286485,
        -0.05389830851740138,
        -0.45381464363304985,
        -0.23074658131545822,
        1.1903813931831524,
        0.2408781296057943,
        -0.12005117196702128,
        0.012125773604906229,
        -1.8186286292160314,
        -0.9330956104255826,
        -0.4117303448280736,
        0.09596659377909483,
        1.9054261344445838,
        0.4274797806058645,
        -1.6212787668506219,
        -3.4529021040390413,
        0.20098414412912619,
        0.19077944094374638,
        -1.6456130678995124,
        0.4650472832073557,
        -0.005292164396036969,
        1.0178954709618488,
        -0.010667734861682196,
        1.1601230496621024,
        -0.21455840432840223,
        -1.4576200202701057,
        0.04935374831040092,
        0.7493066627618206,
        -0.5911764444285379,
        1.6466909774908602,
        -1.7158803294074556,
        1.660663716102633,
        1.2177829077144149,
        0.4019679741306058,
        -1.3911848739078987,
        2.037570574399795,
        -0.26574961829599086,
        0.49533699752775334,
        1.7651939271164185,
        -1.3542968860334117,
        1.174949832842246,
        1.2302686423402314,
        0.9985566477645076,
        1.1008937660723692,
        -0.26528177844126716,
        1.4274048271917175,
        1.7984892184494141,
        0.9532989071032787,
        -0.9998022159430112,
        0.7415292643232412,
        0.3288157437151966,
        0.5311497700110448,
        -0.20824847169562533,
        1.2243930208761575,
        0.01404314326529834,
        -0.8202754608313341,
        0.9816849592622429,
        1.0188227458812507,
        0.45625145763789177,
        0.12675466756937226,
        -0.37890725017578825,
        0.2762787191486241,
        0.8093029730667523,
        -0.36269369819281505,
        -1.2585069396994106,
        -0.5894841358617141,
        -0.1620042726790094,
        -0.43640357242000116,
        -0.025668431299704017,
        0.11593713201640528,
        -1.4912122326148969,
        -0.07559940418678951,
        0.8479548832906758,
        0.015682273214802395
    ]
}