{
    "idx": 709532,
    "fights": [
        {
            "enemy": 5,
            "fitness": 89.31454706086825,
            "player_life": 48.400000000000304,
            "enemy_life": 0,
            "time": 251
        },
        {
            "enemy": 6,
            "fitness": 30.696695091940924,
            "player_life": 0,
            "enemy_life": 60.0,
            "time": 201
        },
        {
            "enemy": 7,
            "fitness": 89.5306543710456,
            "player_life": 49.60000000000031,
            "enemy_life": 0,
            "time": 228
        },
        {
            "enemy": 8,
            "fitness": 87.13935834262664,
            "player_life": 29.80000000000026,
            "enemy_life": 0,
            "time": 344
        }
    ],
    "weights": [
        0.462317117944043,
        0.8492096263793242,
        0.7983492683492095,
        -1.191042351129109,
        -0.6462788890782195,
        1.268991402619159,
        -1.0674881836992425,
        1.1976818346527216,
        -1.1771802983665278,
        1.068404929817842,
        -0.12215813235092324,
        -0.5535818101297862,
        -1.1911461665085579,
        -0.7039171570315734,
        0.1037541706044199,
        2.3612083535491126,
        1.898137794289768,
        0.8969117608275136,
        0.81773115882417,
        1.9406343097158056,
        -0.7906773224966682,
        -0.25208345613017735,
        1.6423558935998386,
        1.750007533425039,
        0.6505346108596539,
        1.5286719846484207,
        -1.2610617481073731,
        -0.10792127208020605,
        0.9845992589752591,
        0.4809132404831122,
        -0.6064574369855436,
        -0.9666496656058625,
        -1.6907523599201892,
        -1.5410259100846528,
        0.6659317082554885,
        0.3889322695412389,
        0.14118476896794974,
        -1.2681049231739225,
        -0.4008631001751395,
        0.03169088985022986,
        -0.37101236680588323,
        -0.46797258335410996,
        0.43724114994277613,
        0.20846588739994676,
        0.1441527024799359,
        -0.66708366364613,
        2.0386371474011367,
        -0.33725095261530436,
        1.3762331734020612,
        0.46609796470708176,
        -0.125935435894387,
        1.7329447937334757,
        -1.0741432764000396,
        -0.19373174074138333,
        -1.1901546043919529,
        1.8452648495248414,
        0.8663753380022295,
        -0.9508735091373318,
        -1.8909045691820536,
        0.6846784227376562,
        1.0583014467154888,
        -1.3662550485338174,
        -0.6911240019615444,
        0.16443460316588146,
        -0.04234941802378142,
        0.6701478588976224,
        -0.024260652205279672,
        2.119915019998901,
        0.41608086127306965,
        -0.6496262704675355,
        0.8755775475063579,
        -0.83614126132137,
        -0.3404293713539261,
        -0.4221924587267253,
        -0.2629926338234745,
        -2.236593853451161,
        -0.32897234137899506,
        0.639224647240735,
        1.8164610414803921,
        0.4067181416096014,
        -0.32698212314590963,
        1.7229876941976818,
        0.30293308903437327,
        2.615534610566824,
        -0.5225654889306555,
        -0.4356504408558123,
        -0.8776344332426632,
        0.761371357705004,
        0.09325932635337777,
        0.38378382276840983,
        -0.25612827042448266,
        -0.29541851323829954,
        0.17511473465476765,
        -0.47826631904181705,
        1.0227425190995174,
        -0.5488548378447332,
        -0.46723244078198045,
        -0.01667539241855487,
        2.5554595322206635,
        -0.4065659700783185,
        1.0838297263694343,
        -2.178664473813095,
        0.06407628644128492,
        0.44398061970191754,
        0.03524237068458379,
        0.29943519779390176,
        -0.8792419163634583,
        -1.2800495783095884,
        0.44352071886239114,
        -0.5322055026521931,
        -1.7294375988639565,
        -0.6591353653698905,
        1.2205097718770774,
        -0.4607699236743571,
        -1.508827283000979,
        0.5835597984956419,
        0.1789527345067407,
        -0.9296257636991521,
        -0.04019047255934577,
        0.335939218658889,
        0.21713893313019292,
        0.33091206825107183,
        0.02941919562590809,
        -0.7964569444230394,
        0.9170110618054906,
        1.1722054908073314,
        0.7183989633946334,
        -1.6036516107151648,
        -0.5420462716409821,
        -0.440628591723711,
        -0.5850612575898,
        -1.1029100690523654,
        -0.45308012277735754,
        0.9483805728992205,
        0.4040730523578273,
        1.6781355804847347,
        0.5901797843914476,
        1.4377287778777832,
        -0.48222902180265925,
        -0.034662485335543586,
        1.383718602739359,
        1.788477089749402,
        0.07535745805633373,
        -0.17855143314482028,
        -0.1715230256698452,
        -1.1264614394963235,
        2.1090692058838036,
        -0.6427342026136575,
        2.644715507463057,
        -0.762813051490389,
        0.6490125812335686,
        0.72695555338103,
        1.24010442350975,
        0.34937248025635625,
        1.99215444850764,
        0.7476580939573391,
        -0.9160059401610668,
        1.4735910740790237,
        1.818092096286339,
        -0.6557990480580996,
        -0.8069944124802321,
        -0.1554190165789122,
        0.19335081987936542,
        -0.46718222593334385,
        0.41926375826886153,
        0.21118743241323507,
        0.16740587129140125,
        0.5733553304827612,
        0.1538749705004005,
        0.06793835193263245,
        -0.02786622278112697,
        -0.28417249834893726,
        0.548114650724715,
        0.6482647706872765,
        1.0392787145478013,
        -0.9229344586386303,
        -1.0969502807699503,
        -1.13651693841059,
        0.17392412556599726,
        -0.9625120651416317,
        -0.4625059061901534,
        0.8334806160128357,
        -0.7367352238840923,
        -0.005334889646152419,
        -0.19565572365991246,
        0.8341048611757895,
        0.8524866015150663,
        -0.5793963925461108,
        -0.32785414870131535,
        0.3735898660154171,
        0.16835074158327656,
        -0.5786554913189283,
        0.2317290695943422,
        -0.818894819657449,
        0.26451306463147256,
        1.5559126253631168,
        0.2082220643271643,
        -0.3538286225577235,
        -0.020885482791249965,
        -1.5437550159860738,
        -0.053553890872247656,
        0.5077028059621962,
        -0.4751300378369313,
        1.6901226586764866,
        0.14160736560529572,
        -1.7862941372525512,
        -1.1870768650750638,
        0.7784110591728048,
        0.5586753042238987,
        -0.8637152253647851,
        -0.5006889822670708,
        0.4363512375394799,
        0.960386353242386,
        -0.02221645643201528,
        1.3759698705025554,
        -1.20560261956913,
        -0.8438258833871478,
        0.36084654633050267,
        0.6265181857761749,
        0.5246402452780159,
        1.6175388099222796,
        -0.7075799824094207,
        1.6673527342151426,
        0.1549913435870332,
        -0.10598735649613096,
        -1.0586926013329232,
        0.6924905727651083,
        0.8438235145930582,
        -0.05080323302342802,
        0.6430928994020053,
        -1.289380427702687,
        1.387416296971638,
        1.482019602800367,
        0.3326724898078088,
        -0.17708563268467328,
        -0.4767485157468483,
        1.050109859951939,
        0.14999968864101104,
        0.15632702274553315,
        0.7337630935742075,
        1.398748574119824,
        -0.02082849664810248,
        0.21249331699442872,
        0.878793359845349,
        0.12975440787122583,
        0.16738288583190908,
        -1.8807223146417154,
        1.741330750891251,
        1.0679281105326333,
        1.5146463193789936,
        0.1826721024739771,
        -0.3639432584355431,
        -0.9135235243768458,
        0.14849351841034292,
        0.48323273922745597,
        -1.682944350204913,
        -0.1635389606177812,
        -0.18328491125418228,
        -0.5156318500553764,
        0.3053374639861124,
        -0.3229309290539252,
        -1.3256940820987446,
        1.8761937467675074,
        0.40381678793972886,
        0.5873060458174426
    ]
}