{
    "idx": 709513,
    "fights": [
        {
            "enemy": 5,
            "fitness": 89.48157804100165,
            "player_life": 50.80000000000031,
            "enemy_life": 0,
            "time": 270
        },
        {
            "enemy": 6,
            "fitness": 57.409013019489144,
            "player_life": 0,
            "enemy_life": 30.0,
            "time": 268
        },
        {
            "enemy": 7,
            "fitness": 88.9438995977956,
            "player_life": 43.60000000000029,
            "enemy_life": 0,
            "time": 225
        },
        {
            "enemy": 8,
            "fitness": 86.33574420258549,
            "player_life": 22.600000000000243,
            "enemy_life": 0,
            "time": 374
        }
    ],
    "weights": [
        0.553841529164387,
        0.8725438159950832,
        1.004842018602759,
        -1.122101056022917,
        -1.3225489656286753,
        0.9386913967118728,
        -0.7209398063610587,
        1.8265678776973464,
        -1.0256697400643489,
        1.4751725348112492,
        -0.11237466934037929,
        -1.158667158811855,
        -0.4108559229964956,
        -0.27983004308883114,
        0.07885662581904265,
        2.425338502334886,
        2.0964767310836305,
        0.9879314312120597,
        0.7102132043389795,
        1.5941766169477207,
        -1.8334052358191317,
        0.2908190293290332,
        1.4680003189858437,
        1.5261237383839226,
        0.47294064221332155,
        0.4046050562781963,
        -1.357397445319776,
        -0.2689855459139281,
        0.8032439108392454,
        1.5472281096516771,
        -0.2212589215440877,
        -0.9300021930749633,
        -0.7940094157540507,
        -1.3079512268462492,
        0.9640125740786786,
        1.0255413323791938,
        0.38770862898061864,
        -1.1318552464945593,
        -0.2747623494803151,
        0.970564160286692,
        -0.29908193161969143,
        -0.5462420839710291,
        0.3563432674107596,
        0.11430983960201807,
        0.1748980145035467,
        -0.5529743148910623,
        1.8340917574082731,
        -0.08859575748006149,
        1.168858214776796,
        0.40573573749228137,
        -0.42845897419427564,
        1.6843127890251863,
        -1.2903289058410385,
        -0.498250119163935,
        -0.8316785822742585,
        2.054979861673247,
        1.2312833029665364,
        -1.1142422420120177,
        -2.0143476736937798,
        0.5277901250568574,
        0.9641300567335542,
        -1.4190326389115968,
        -0.969078159341578,
        0.22983024605683688,
        0.6545379315183965,
        0.6964827108124506,
        -0.6999348658733595,
        1.3628962316675182,
        0.11056104983227802,
        -0.7853212140504994,
        0.459260900101717,
        0.21026430510007865,
        0.05835560289628486,
        0.4695856799754248,
        -0.7249046509234419,
        -2.29927625040358,
        -0.4127382532256914,
        -0.5317918198623521,
        1.1769024893478999,
        0.5886979725100577,
        -0.20169912295285392,
        -0.047594611861225745,
        0.16641866350407894,
        2.509365249748843,
        -0.059503528804155506,
        -0.03618919004650506,
        -0.06704697824432154,
        0.7468061056871527,
        0.6226465360717668,
        0.18493265064573966,
        -0.33795637122775135,
        -0.8385586375564119,
        -0.09413369881777477,
        -0.20256475422299136,
        1.115319559371362,
        -0.6876012636121743,
        0.04099000943673281,
        -0.3109015702607152,
        2.513493901220477,
        -0.3078694443930568,
        0.6936604553843004,
        -1.394133709700251,
        -0.08722261200123216,
        0.5304957497164934,
        0.315242887309603,
        1.0248953456092278,
        -0.03607487769717522,
        -1.1584488749241635,
        0.849885554860228,
        -0.269430920550754,
        -2.2599320875650144,
        -0.7251470850079399,
        1.3010697694860907,
        -0.20230208622948867,
        -1.1482912188012797,
        0.3233382860197925,
        0.9266062696184979,
        -0.5667581209050196,
        0.3096135684614345,
        0.4352533403394689,
        0.1672816013002681,
        0.3962247779655711,
        0.3515733987598444,
        -1.055167171880287,
        1.0233690435476182,
        1.3539803260471555,
        0.11696036134636215,
        -1.9238251211658945,
        1.0181892949823443,
        -0.08405920797346061,
        -0.7375098684849704,
        -1.0736088384937472,
        -0.1683067152733125,
        0.4932889977526473,
        0.8380663692592158,
        1.0404294816808957,
        0.6168074807735281,
        1.5162478171620462,
        -0.32516453510894805,
        -0.13984941971505835,
        1.555854792336106,
        1.8385668981357337,
        -0.5465902833300982,
        -0.2060304784342029,
        0.7415452960082634,
        -1.1991244390909896,
        2.206678195128301,
        -0.6283591290848646,
        2.698201029302653,
        -1.0758856122364724,
        0.24006656115977762,
        1.7136038859838507,
        1.3568848633294286,
        0.7465336927051442,
        1.07186031786615,
        0.584549404025453,
        -0.5599606711508246,
        1.4920016165265877,
        0.40750093993331116,
        -0.08691333210510732,
        -0.5088394406195257,
        -0.24723009353652947,
        0.18314576900273372,
        -0.4452276645426104,
        0.41617975061864654,
        0.15502775820892756,
        0.12840182591695115,
        1.0895994011549628,
        0.29846950510699377,
        -0.08801435395491368,
        0.168843833442752,
        -0.002055189480563196,
        -0.6596341918529561,
        0.21602049243572413,
        0.8077559671587915,
        -0.9803052040448325,
        -0.3564383539097625,
        -1.2858546243816802,
        0.8071698595418096,
        -0.3513537532751223,
        -0.9028474637583553,
        0.5952385042738702,
        -0.4826377295438351,
        0.7882714142416768,
        -0.19052450112381125,
        1.1220101514718834,
        1.0296176604510077,
        -0.8443932120628825,
        0.09309961299246258,
        0.37607200488667847,
        0.26049982944144573,
        -0.3121243180125864,
        0.6336471462073435,
        -0.749965107762285,
        -0.41912724710182087,
        1.5716711811551927,
        0.236340044045817,
        -0.11488858434969283,
        0.026429224737874107,
        -1.6807117043206126,
        0.1083750312520643,
        0.1746251730610484,
        0.07982738922918739,
        1.7143175867735807,
        -0.07958884405052988,
        -0.7613092403082574,
        -1.408605027351724,
        0.5098486986214257,
        0.7947497578115019,
        -1.1099510897289255,
        -0.3542176525017886,
        0.15823319910606837,
        2.504761352710874,
        -0.012431765249028712,
        1.1053627118283016,
        -0.8783148319198942,
        -0.5279923569960115,
        -0.5944757593580243,
        1.3433533704817213,
        0.6892969137996989,
        1.9609409396787083,
        -0.8416473409534815,
        1.9834961625930125,
        0.09646513294510256,
        -0.08459359289190146,
        -1.1842763223480892,
        0.1948461280476781,
        0.3031165449593536,
        0.1670686237220447,
        0.858626203114941,
        -1.3942805347314913,
        1.4161727645131448,
        1.8645499826953522,
        0.08398093568478737,
        0.09121721615373499,
        -0.6850019086442837,
        0.7652060185897935,
        0.3075285670920311,
        0.18426473243935068,
        0.28896333613301745,
        1.3730148801519304,
        0.1269570197398564,
        0.5679862110767946,
        1.4076189307435891,
        -0.0570955717163685,
        0.45847783089854577,
        -0.7651409774492263,
        1.6593002761351714,
        0.8656490274911256,
        1.3598492696466409,
        0.2307551699146421,
        -0.8551903168568692,
        -1.0981467484530916,
        -0.09107558076886993,
        0.9183254288147392,
        -1.9558905504394182,
        -0.22933702111370727,
        -0.5821790091948768,
        -0.4618009438759323,
        0.028950592707872452,
        0.09040742233466634,
        -1.2242316567260363,
        1.7501839505894303,
        0.37988063259929733,
        0.4307363576951169
    ]
}