{
    "idx": 714419,
    "fights": [
        {
            "enemy": 5,
            "fitness": 88.37237888630939,
            "player_life": 40.000000000000284,
            "enemy_life": 0,
            "time": 278
        },
        {
            "enemy": 6,
            "fitness": 85.6528282285399,
            "player_life": 10.60000000000023,
            "enemy_life": 0,
            "time": 223
        },
        {
            "enemy": 7,
            "fitness": 89.19289246928257,
            "player_life": 45.4000000000003,
            "enemy_life": 0,
            "time": 210
        },
        {
            "enemy": 8,
            "fitness": 88.81968822339262,
            "player_life": 45.4000000000003,
            "enemy_life": 0,
            "time": 305
        }
    ],
    "weights": [
        0.8331896677315789,
        0.861477021981378,
        1.3077108455115969,
        -0.9938175008661668,
        -1.63298821087407,
        0.2873710153616816,
        -1.0867341669291786,
        1.1768836885889886,
        -0.8470148395393561,
        1.7319122967780918,
        -0.01530330517569501,
        -0.5261080506696427,
        -0.011290663692191935,
        -0.513959059357912,
        -0.4692916458761941,
        2.679913860582149,
        2.4109426188704317,
        2.3509103488407197,
        0.21902801240118147,
        2.29543073927128,
        -1.1073763471885978,
        0.636899558151776,
        1.0339159101455795,
        2.4612928184277165,
        0.6839678025258588,
        2.2616981387209143,
        -1.8501844976590527,
        0.07175696111867291,
        2.3241736094329855,
        0.2862991305638361,
        -0.6860307554193809,
        -0.40298209396348544,
        0.22240825289468305,
        -0.5866199037344059,
        0.5659583681931356,
        -0.26144916046125527,
        0.2174661277914121,
        -0.937715151742854,
        0.009854911748950396,
        0.3777980207927664,
        -0.4709201636614657,
        -0.5517043781639204,
        -0.07657880390314387,
        1.400015012645401,
        0.334668659561424,
        -0.7594726583855661,
        0.9077322902848949,
        -0.06222915175143683,
        0.2430612333000702,
        0.5911105749807974,
        -0.5468961658393,
        1.9238698025776029,
        -1.0367556755286333,
        -0.8968222058243714,
        -0.6181378000005306,
        1.8848552266886451,
        0.5010294485599734,
        -0.035540668707833054,
        -1.9814953720777522,
        0.8430297403772353,
        0.9733832697841432,
        -0.8269156420673786,
        -1.198610800331958,
        0.5658280573097618,
        0.22940262011995569,
        0.4237178205925392,
        -1.7371986939237227,
        0.8825840347065435,
        0.5521928437184992,
        -0.5407939138471409,
        0.22146096268508764,
        -1.3555904426833212,
        -0.28686914565092453,
        0.06647748624605103,
        -0.20574935381022186,
        -1.4510345822541784,
        -0.3357738554832974,
        0.43677667343836557,
        1.2329415980520704,
        2.840847678924719,
        0.477495996287024,
        -0.08801112810753853,
        -0.05607150428579428,
        3.0284114312722474,
        0.22131486941167244,
        -0.31367213549016965,
        0.03319027656991411,
        0.07026115553625012,
        0.5826769207872639,
        -1.501421500890477,
        -0.7552991284561107,
        -0.8434623806105009,
        0.30213945371114803,
        -1.000682345269416,
        0.7327053473852706,
        -0.6276161232403591,
        -0.9416496692849738,
        0.7978222050976395,
        2.087426300633901,
        -0.3264177837039266,
        1.0630131665201927,
        -2.285197013782019,
        -0.28907229625880604,
        -0.5737191080485969,
        0.43502211486792103,
        1.051960140044953,
        0.8598871704751353,
        -0.9860784128905409,
        1.0160426947568741,
        -0.6333989995558046,
        -0.6369890203452233,
        0.23101567298348147,
        1.4916340326043933,
        -0.16645232174055807,
        -1.0391922491242163,
        -1.124213331005335,
        -0.35794421580967345,
        -0.24407954965753526,
        0.29825673864483315,
        -0.09531809890643056,
        0.23379615872208573,
        0.8116647417573102,
        0.9010443409867855,
        0.1270367192649341,
        1.0333967922778489,
        3.5168815755290352,
        0.6343796644076098,
        -0.7131832124890422,
        -0.36026461289756057,
        -0.338374113245335,
        -0.9116911527396707,
        0.7673059378918662,
        -0.32035567769060513,
        -0.23134181605593795,
        0.23437893704304136,
        0.7430787226157701,
        0.31160419969936104,
        3.1702657170931277,
        0.6018373540040278,
        -1.1928979171387937,
        1.0551417590494085,
        2.346703949747669,
        -0.8507573028522732,
        0.643959783147344,
        -0.051482370435201125,
        -1.1275259166538887,
        1.2171649964784652,
        -1.5072021407761864,
        1.0758474388760173,
        0.6172158955174707,
        0.15861996478561582,
        1.8658164915734219,
        1.3578195491504894,
        0.2000233741839414,
        1.4471118364112476,
        0.6384479196558723,
        -0.06930040221563147,
        1.4438165237560334,
        1.7450029042991626,
        -0.3035021498037728,
        -0.9404810263934085,
        1.4497761367641129,
        1.0444874753870308,
        0.04766209828271087,
        -0.13884692418335293,
        -1.410839865234563,
        0.604824967360354,
        0.4241374328191279,
        -0.005380357068236488,
        1.020499088656133,
        -0.3163949747562619,
        0.45213266543749236,
        0.6799978427350942,
        -0.24463260996551492,
        -0.08058740549420707,
        -0.9805480609799886,
        -1.224741182581451,
        -0.8988516625151878,
        0.011400184268077707,
        -1.2811419562701436,
        0.32903124147294605,
        0.6465158872821832,
        0.5562983320291655,
        0.7786893021759603,
        0.8097154232921616,
        0.8032701110419294,
        0.6950564020291505,
        -0.385369849615029,
        -0.06532012771063159,
        1.03669204048022,
        -0.5481299974762199,
        0.005110102790773591,
        -0.790996306653334,
        -0.7838642293395239,
        -0.39249021498043357,
        1.0207473595108354,
        0.45056606178555386,
        -0.2667104566617353,
        -0.7627413289906427,
        -1.7633660414493357,
        -0.5518000306370782,
        0.022418394250386844,
        -0.17390001862872728,
        1.1666867636460758,
        -0.760839066566763,
        -0.8604334844116287,
        -1.2504431934247764,
        -0.8635449760514513,
        0.7702670281934766,
        -1.5776436736568038,
        -0.260300169633521,
        0.9318331833793807,
        0.6491715507633243,
        0.7239888395565431,
        0.9120028926513071,
        -0.9350133637353654,
        -1.542021760009963,
        -0.4418852261000034,
        0.6991083421848842,
        -0.9706108894574864,
        1.1172729197816411,
        -1.417022228969142,
        1.4932891112990678,
        1.814234619222861,
        0.5701626168177741,
        -2.0427948757301535,
        0.7059148160681883,
        -1.170054974018503,
        -0.3880790562069068,
        1.1115900514523371,
        -1.2448620644986623,
        1.7467449709835623,
        1.0315681621640864,
        -0.1466038299289151,
        0.4882547153584696,
        -0.17806971615783618,
        0.4655632611247764,
        1.1680199902034134,
        0.34112732894066183,
        -0.6496022230989315,
        0.8849448227783447,
        -0.1148928441738493,
        0.7350961295860218,
        0.6051770766127501,
        0.8206146259410678,
        1.5276571501831393,
        -1.2667194848246233,
        0.4316321078682666,
        1.658648368806287,
        1.9707452893895023,
        0.8458904467277325,
        -0.5535735950799582,
        -0.9850650508788876,
        -0.690899609423789,
        -0.3085574479233976,
        -1.2513858966768487,
        -0.00807580091115881,
        -0.4534107233137154,
        -0.7604668835615865,
        0.2122577158778963,
        -0.0034875991755449224,
        -0.903671759757748,
        0.767161220238767,
        0.5392688014213998,
        0.5324330147265807
    ]
}