{
    "idx": 703950,
    "fights": [
        {
            "enemy": 5,
            "fitness": 87.73067522005317,
            "player_life": 35.800000000000274,
            "enemy_life": 0,
            "time": 347
        },
        {
            "enemy": 6,
            "fitness": 39.56192069107681,
            "player_life": 0,
            "enemy_life": 50.0,
            "time": 230
        },
        {
            "enemy": 7,
            "fitness": 89.48389959779561,
            "player_life": 49.000000000000306,
            "enemy_life": 0,
            "time": 225
        },
        {
            "enemy": 8,
            "fitness": 86.33574420258549,
            "player_life": 22.600000000000243,
            "enemy_life": 0,
            "time": 374
        }
    ],
    "weights": [
        0.47753797106651985,
        0.4515302652839851,
        1.4298931321429498,
        -0.8779846642212883,
        -0.9158006215942222,
        0.18940107980440593,
        -1.0976380387184306,
        1.1873950082914744,
        -0.7706576044402249,
        1.294858385352704,
        0.4197510694688633,
        -0.6054359860909434,
        -1.3471411451858881,
        0.46620855805678196,
        -0.7017439467427963,
        2.799497945233913,
        1.7857666658622187,
        0.6825073933635788,
        0.709385899356958,
        2.4779256022759046,
        -1.9367514117681177,
        0.06417138167764497,
        1.5326654811302967,
        1.8575737199850557,
        0.27198000487465057,
        1.6910414329772212,
        -1.710231653107761,
        0.11192907419629208,
        1.0890370093666215,
        1.2414377881156264,
        -0.5999569010533683,
        -0.24553251596621897,
        -1.938091303763171,
        -1.0370380766252167,
        0.6557811839160251,
        -0.03367987180564709,
        0.7925502537980768,
        -1.1100602188729811,
        -0.007010640270692647,
        0.5327416494047339,
        -0.20755076436415398,
        -0.585555727879092,
        0.7145749563779233,
        0.7799037452455966,
        0.23133801173430418,
        -0.7345811863961778,
        1.1186057233218363,
        -0.08513390463192125,
        1.2234104379113298,
        1.284816362109726,
        -1.1835402704855649,
        1.4093354132260536,
        -1.6619210581290513,
        -0.9988772175215334,
        -0.6849049429347114,
        2.4424479559556866,
        0.2788188916733657,
        -0.13591718908947226,
        -2.1694602411830815,
        -0.08441134779292796,
        1.163644829259308,
        -0.6531510072493035,
        -0.08337049935243616,
        0.6293177569200422,
        1.2930993248250453,
        -0.10780068699504142,
        -0.8803994421459633,
        1.5263618927758336,
        -0.5783274391433326,
        0.189952815009947,
        1.1406671883298622,
        -0.8931676014903338,
        -0.04890768084959158,
        -0.15366788657752112,
        -0.31232848301450405,
        -1.5458037593577592,
        -0.24727849415349346,
        -0.45684035917222915,
        0.880991978712833,
        0.4198372032205606,
        0.47605164805460515,
        0.011940533884875162,
        0.6673720939568318,
        3.029274489154826,
        -0.2743158694230382,
        -0.9142267016476443,
        0.4274887084980717,
        1.0415668288021123,
        0.39220628630872556,
        -1.57716728666245,
        -0.5901129363556409,
        -0.21725496128209146,
        -0.12448666009641894,
        -0.7471619795498269,
        0.6634460534422029,
        -0.5921490684594147,
        -1.0964494740107298,
        0.3542091900338752,
        2.1266720710358626,
        -0.8328634802728501,
        0.7847897734161235,
        -1.497767876567998,
        0.3452145218782794,
        -0.6947907700873126,
        0.13763851341491384,
        0.7678422810859926,
        0.022392180124826258,
        -1.035004834974718,
        1.2167308090137259,
        -0.9428465324387713,
        0.4322779778385804,
        -0.9359535767704037,
        0.8499256683837223,
        0.6820109583788013,
        -0.9591130846829867,
        -0.5106827528917721,
        0.017733094573374852,
        -0.9175245910876124,
        -0.23731723303087915,
        0.7167471793924357,
        0.3114017253768423,
        0.5841691344900827,
        0.3435014754718342,
        -1.814867833835607,
        1.063485908191172,
        2.313335817063648,
        0.7898214330728819,
        -0.9293918383031762,
        -0.28059001063085726,
        0.3945699492756065,
        -0.6753202130813184,
        0.09779671030364145,
        0.48388927611031696,
        0.4757075804431712,
        0.5007013979844241,
        1.42298436947739,
        0.38358346309400393,
        2.124850614515969,
        0.48555353670973234,
        -0.8082878968905133,
        1.3422931884484286,
        1.6815182148176238,
        -1.028262861127782,
        0.14986436730089325,
        1.2584629635583984,
        -0.7194243969678926,
        0.7667733125127164,
        -0.3062967782899354,
        1.4387536610224967,
        0.597201200991731,
        -0.3604570530668724,
        1.6144241098100662,
        1.5272734287075338,
        0.24235217068331405,
        1.4114987366911342,
        0.9523924274169007,
        -0.03970135827861069,
        1.8591999779628408,
        0.6737297933697131,
        -0.7926490745447723,
        -1.0738069638932657,
        1.4152052224901215,
        -0.06848665917878574,
        -0.3568530994108988,
        1.2582605168237904,
        0.06725479438162359,
        0.39151925749553473,
        0.8528730495210262,
        0.6710302621992983,
        0.8290174404162448,
        -1.6529487805252476,
        0.5913051159078963,
        0.5517285038235487,
        0.7443696913566954,
        0.5803603404194743,
        -0.6233252483223832,
        -0.6142378615334881,
        -0.6386426816286229,
        -0.8098992327163361,
        -1.3934110783713753,
        -0.42835325240915895,
        0.21822799921358874,
        -0.35442682789630175,
        0.19337255824140365,
        0.4672308105477303,
        1.002206613619038,
        1.1574499006042527,
        -0.46563539692149297,
        -0.15886028272772462,
        1.126672605209237,
        0.2048755548514896,
        0.21230107502043605,
        -0.5400125303700237,
        -0.361176593511292,
        -0.4650990473321037,
        1.3550788402024605,
        0.11754766413207804,
        -0.48595800460115884,
        -0.2533718603452867,
        -2.0956708526728463,
        -0.6953110520774706,
        -0.20340496774809186,
        -0.666549636903647,
        2.0787221723350924,
        -0.5709492800178612,
        -1.4924676861689954,
        -0.730229918203564,
        0.240501442204198,
        0.703635774555811,
        -1.7753174536157372,
        -0.2953079279501218,
        0.45096535062507026,
        1.1384096908395074,
        0.08468370668290494,
        1.2377494249446466,
        -0.8699819148612887,
        -1.6438968432521872,
        0.1263991072029409,
        0.7465604745345268,
        -0.6120013314677951,
        1.346250499291084,
        -1.330525710658548,
        1.361338841615344,
        1.0286004427866675,
        0.6307992255840796,
        -1.3470388030205687,
        0.6174938356801264,
        -1.3485675748146313,
        0.039489623860803236,
        1.5604775564138498,
        -1.777775285829685,
        1.3249792046419133,
        1.4403690038835057,
        0.06346382566582136,
        0.8274168573489864,
        -0.4918879454930732,
        0.8505766383150191,
        1.4730961392962354,
        0.0077318404814702285,
        -0.8747275629202391,
        0.7178384782369706,
        -0.1501452226403853,
        -0.45369580639365287,
        1.0773258258953597,
        0.8811740729880888,
        0.9505957521834284,
        -0.962472878202302,
        0.9733215541785994,
        0.865733694831913,
        0.6954054874228511,
        0.7117125125739204,
        -0.8294504794906168,
        -0.27538806239517005,
        0.13528563393560036,
        0.5600436095007639,
        -1.3379362149218454,
        0.14473658637253506,
        0.32232858780064444,
        0.21725917500435538,
        -0.46895771854487733,
        -0.06557838594546934,
        -1.260997254172054,
        0.7052079958368473,
        0.6679373353779898,
        0.43900105353041724
    ]
}